{"sizes": [784, 100, 10], "biases": [[[0.8970944567619104], [0.3801236197257382], [1.5016290779181], [-0.2337782310218865], [-0.8627135845473036], [-0.19576278728314145], [-1.284547831353125], [-0.7494458042325461], [-0.07215177142150282], [-0.440774145038534], [0.4228512450380169], [-0.9100462856289898], [0.7716624974314507], [-0.8098110237325792], [-0.00809686939761574], [0.052184613171986124], [1.966738007761558], [-0.19342596677022236], [-0.35593647527350114], [0.3324380214933439], [1.1846881476350033], [0.16423872414171126], [2.8341051228982233], [0.14372532964224174], [1.0628347604904482], [-0.31893770476251954], [2.134320642417068], [0.7603729573916437], [-0.06790809763580354], [0.18363183017910237], [-0.6716941964550194], [-1.0911676266466577], [-0.6355249549364989], [0.2555086135736316], [0.12141631697515988], [-0.8596945133931563], [-0.7598495113084365], [-0.0105354151396462], [-0.7218651582240818], [0.3702828914712429], [-0.7631710460078183], [0.5458212687989077], [0.8810802151440036], [0.5785629569104075], [0.7322930233041955], [2.060555906275236], [1.0686556840223522], [0.5077728819852113], [0.5481323364587678], [1.380181118451589], [-0.4304683414235778], [-0.0008507212001823048], [0.35014273969941834], [-0.19021083135705447], [-0.9653740839204913], [-1.0384130700869525], [1.665193771260747], [-0.4917503243783494], [-0.1792400863570216], [-1.6682837093070946], [-0.15809930300026662], [-1.6259238092375672], [0.8844197791652244], [1.2589227543707753], [-2.4144908415337247], [-0.38508126019746197], [-1.8996602947694872], [1.5104179884321027], [0.2411701475167591], [1.5280149318015936], [-0.15182392927515923], [-0.9450348013445402], [0.5198414611772363], [2.2231799088453905], [0.05539893687015869], [1.7268145558665862], [-1.1405654495898436], [-1.3136645057294551], [-1.9009006614147401], [0.47422356771049634], [-1.449413561548165], [0.9160140769616699], [-0.7129534536026293], [-0.22212265702472456], [1.2712749521722655], [0.28610995954619395], [-0.9328703512202134], [0.1886988099765371], [-0.5584122463705604], [1.1848862841451882], [0.2953866031949504], [-0.05927722589782592], [0.9120625024441491], [0.5585293964871813], [1.9020340378548257], [0.7810283699333513], [-0.9581614530600966], [-1.1517172376328242], [0.09461146000837539], [0.4239558453814621]], [[-1.3601326535077352], [0.5241820850557957], [1.8592840675974234], [1.1328679509161286], [0.04245658753645866], [0.4292674280673043], [0.2464501682916801], [-1.8626737184192643], [-0.5175411730482936], [-0.02197646196441679]]], "weights": [[[-0.014602791383386948, -0.009020542927791782, 0.03087798940665028, -0.0431006275264917, -0.009484711970244414, -0.037028098988603354, -0.05724247261231763, 0.03616483206283745, -0.001995470009852085, -0.07190673032576785, 0.04117413032588817, -0.013779531108284171, -0.028283753761688762, 0.0035295868720743267, 0.03545095267805266, -0.01633109434212892, -0.04124710087554752, 0.004092506902365155, -0.02655383038090506, 0.01741595054924388, 0.013671613829137756, -0.008294108929908173, -0.031398689796493094, 0.025756492915390006, 0.04004562710936959, 0.02231109078010448, 0.041701902554462676, -0.023193602212612352, 0.009258611537045785, 0.008471899139632626, -0.01829170525096047, -0.015442406809923327, -0.05633803243278129, -0.05792455131037052, 0.0007644684144194542, 0.0010253685864304008, 0.06562048440420419, -0.02066052976694732, 0.047269321444547055, 0.028323281456804135, 0.014755376604991854, 0.007113629352920335, -0.02822596015383495, -0.02798450305912847, -0.023713784351726247, 0.06324607882867407, -0.01986615761667715, 0.020370003021621556, -0.057122637660595894, -0.007882311124829447, 0.014871086472142843, 0.019021993131053565, -0.021338221771547348, 0.03415750422741124, -0.07758080409765604, 0.0007391695726764179, 0.03342995247905479, -0.0035425061476175323, -0.04686726610114716, 0.022285168650525097, -0.01190109027152835, 0.01776663048945776, -0.020707045361467287, 0.04337672802534631, -0.07534211885321003, -0.021715690520111464, 0.013039353242035765, 0.050418702516923805, -0.009878308522164909, -0.04585034301002367, -0.052500130307746015, -0.01599800610927926, -0.02915227105590584, -0.013318538647324763, 0.05977952218765202, -0.00034984729904449, 0.04807917511651626, -0.04937386994604649, -0.013937923536622463, -0.032479148971873574, 0.08941404139180922, 0.029331714604257576, -0.0890824688203021, 0.08298293094811927, -0.03139070105940848, 0.0013741920905765144, -0.03353911101243292, -0.014330474785830312, -0.012742796750656359, -0.02650481467570032, 0.03807792253853183, -0.010162599192195193, 0.01567134695384922, -0.08709459990298266, 0.02062178979920683, -0.04561266272469374, 0.004016305033529059, 0.06195045503339255, 0.03515121889571966, 0.00564051300082972, -0.06536545140978843, -0.003127652898420802, 0.0007679296471345037, -0.026190250140163296, -0.04518429869129813, 0.015480868428319782, 0.010700604587482192, 0.04162586705690246, -0.012948933166045494, 0.020924941845362345, 0.04668387495218296, 0.038483884932390425, -0.025158912155308927, -0.0009423142707809314, -0.04081001145073867, 0.005587622482302763, 0.010178624501557515, 0.08606398592772278, 0.02923176914309888, 0.016463528872747567, 0.08656179018537799, 0.013733051887956255, 0.039040027723394814, -0.04237799000037667, 0.005033381740619433, -0.020190197818532266, 0.054751741638850396, -0.013315923999212439, -0.018652359063503376, -0.05177077894880431, -0.005480443206283672, -0.035575814246943775, -0.044746889585934424, -0.04262603953159892, 0.007166527025749553, 0.0572257367342694, -0.018437727088476446, 0.006827200938135983, 0.002457181951550777, 0.012015900185094974, -0.00780798951235496, -0.0771491428496495, -0.032033524045058666, 0.011377130568803268, 0.07093872972397139, -0.012815998876643331, 0.017966543660739187, -0.04275971513352248, -0.015285184090604947, -0.049633065040445186, -0.02467521883584314, 0.01030630371640606, 0.015805703609091514, 0.01469708454199339, 0.04762693162545737, -0.026336171645233074, -0.05165157097447974, -0.021125402272578926, 0.0019659305123230835, -0.026401830809015474, 0.03356395311381496, 0.01463115083244966, 0.07512802154651592, -0.049295876352815717, 0.041055742592881174, -0.00934671165170649, -0.027232894436065747, -0.01359714951870961, -0.015182824557794544, -0.020226325553080616, 0.05021064132385971, -0.021454059430653556, 0.002696297540540471, -0.11213093134910261, 0.020087145594054463, 0.028030450359550374, 0.03672112686555895, -0.010517355122128319, -0.0025746284428550064, -0.03611823678495851, 0.033656955392424824, -0.002824203888504969, -0.048461008277077736, -0.016872062646950833, 0.032681741436654116, 0.02754142706770878, 0.03892408030427015, 3.9490235735854885e-05, -0.07756283599706477, 0.026724795800729784, -0.01449740039298314, -0.04366383731005712, 0.019498281616193016, -0.008338604379292786, 0.06803337110647388, 0.04920866790857682, -0.026029962508959614, 0.024301023475704432, -0.10156015331036752, -0.016197338412183675, 0.014999443078270626, -0.0018508818258534101, -0.01748088364833981, -0.018855401508402453, 0.016499435909195625, -0.031511131857063515, 0.027451571908849174, -0.0073830862692248434, 0.011562551197319137, -0.01582440910887192, -0.045173787159619894, 0.04370635921537557, 0.020024558731592014, 0.022549451531709005, 0.032161697592793075, 0.0028484694792005262, 0.023774613509469727, -0.008638875736619844, 0.010381702384355344, 0.004279080249911899, -0.009334727769768509, -0.03282292388057455, -0.021938115309817208, 0.03302756726307398, 0.062159818964285726, -0.015107727287938041, 0.004481126226352032, -0.0035255893602892207, -0.04706830271540084, 0.05034091053819104, -0.043681426896134246, 0.005374555312583344, -0.004059152688779614, 0.04341240335565633, 0.06585779709552168, 0.0019582485566508956, 0.009254379570855826, 0.07020517922468841, 0.019353578907028206, -0.012972011966987192, -0.036909423495932014, -0.027793401430186323, 0.01400936938457852, 0.022092149886214784, 0.023860064043211216, 0.02709670541794362, 0.025162288008933022, -0.0006343496361905654, 0.025624126588853408, -0.027463834415995113, -0.004286125128612363, -0.051831645459515754, 0.06643061867762508, 0.045646966703162276, 0.009198436472474153, -0.016579398978716405, 0.011678262944601355, 0.016525022765312584, 0.02635579381387589, -0.028299104488201273, 0.005797156877309417, 0.027767747383187335, -0.02815131618686883, 0.0034661235422655907, 0.01772302739706708, 0.0723464808775932, 0.010959073055112139, 0.017879949812154097, -0.0489531528366916, -0.009046476322286655, -0.038911330794729235, -0.08493757535834202, -0.04422310583222636, -0.03744888741320249, 0.05725971438754418, -0.017257862818923983, 0.03894818552130982, 0.0010212623239688808, 0.006099733240375089, -0.015038309764218851, -0.02567839741976686, -0.009378306956629289, 0.0480044351383753, 0.031971447132585595, -0.07566838314149253, 0.08830942527015155, -0.0944644014964898, -0.049794316915443615, -0.04198435458697607, -0.03614196338962077, -0.02540886324167898, -0.05926109170525714, -0.04041924274686116, -0.014363952484526484, -0.025066259511521326, -0.038730425302663164, 0.013206913315419372, -2.252888196529499e-05, -0.02183188027921513, 0.017114011304463436, 0.010403354786011301, -0.017120552002464227, -0.032982950832596225, -0.019630381731707256, -0.05152913044315295, 0.04949877096308485, 0.02327128911420447, 0.01824812986489212, 0.07739388402416943, 0.008879648075684409, 0.006720970487439083, 0.049289670070559774, 0.020793512393166878, 0.009941945304878191, -0.02213407821872565, 0.037612319673509385, 0.07805730813703168, 0.008498284968443195, 0.020562769520080175, 0.012088103239860435, 0.0026893321927850995, -0.0012534993369240374, -0.02231640924342889, -0.04369506014476402, 0.009349442798375521, -0.0031916629695235912, -0.009739283189013265, -0.04016531361558925, -0.003390132967701361, 0.018328970368225374, -0.0010242323168360597, -0.004159018140318144, -0.00161035910683219, 0.063345275341579, 0.051114740896934234, -0.016419606952698777, -0.028110265132518044, 0.029281240972785613, -0.0652107434856991, 0.03862045725775685, 0.014678241607713503, 0.010371422839042974, 0.03308387199626546, -0.020812286846183897, -0.05213369238657609, 0.0763005685423958, 0.001916045843872994, -0.014876395400752154, 0.036634365505475955, -0.022290414768493166, -0.061610869473039225, -0.013660166906274715, -0.019530724137850005, 0.023424192032208958, -0.005524842850503993, -0.03160517237670534, -0.040768478098263346, -0.006262976161429242, 0.03513469872753018, 0.01016587271926543, 0.0659854546200178, 0.061521794671007594, -0.015537563244903466, -0.05278010274553809, 0.01490053775687995, -0.04577693843871124, 0.05160331138963841, -0.0757131371694603, -0.010360460231256757, 0.03549433658443391, 0.002168672800503949, 0.03393287368441277, -0.021828573487503285, 0.027941835890384906, -0.017591843709455803, -0.03416662729727865, 0.05078274495407508, 0.005024581325404383, 0.05743803983385142, 0.01743061730263019, 0.020042310622401027, 0.01628260461478107, 0.010065752878298273, 0.05049986431260577, -0.024050376874475653, -0.04092111786813375, 0.029632609059549175, 0.005739506302628606, 0.008996033722479218, 0.053173697920008936, 0.05167015918459789, 0.050432072545344195, 0.005611713453806282, 0.005896509104587693, 0.0003177832152564945, -0.016536528499883622, -0.030261717691153555, -0.007435181246540393, -0.006622443253213149, 0.06098956360447454, -0.03720252130952856, -0.06260594252306993, -0.034942994676425414, 0.048697186808021445, 0.013458579668008896, -0.004717937084767818, 0.036427579923226094, -0.0428398269040706, -0.03405833378649405, -0.03663810210038946, 0.034176178621870223, -0.02936876889592666, -0.0045617473804299355, -0.054458791451579336, -0.024218584851590782, -0.004563235611246201, -0.03925679010066659, 0.02874381450928554, 0.011270841724945269, -0.04943452100543255, -0.03196368801183682, -0.03750606304616661, 0.029208370256905262, 0.031285194570140236, 0.035364750003835446, -0.020450270093044037, 0.014734710287717908, -0.0370207689085481, 0.06390092715992614, -0.06486943079759884, 0.006469239281392698, 0.03593247257302693, 0.01063527017477747, 0.02545344613781688, -0.03170115626439166, -0.0004697179184707838, 0.015063472929473912, 0.013498358083298656, -0.008356923378878799, -0.02753980535194796, -0.03523518918887357, 0.05278770472911487, 0.017657266502840954, -0.008519138874082663, 0.04317519734795361, -0.03882051705290763, 0.03612533484190754, -0.0587482537156449, 0.009979841421094855, 0.014634225742773562, 0.00692378419391146, -0.015386903681351326, -0.007593697563782897, 0.025744335957051803, 0.06785065701868762, -0.02551129829708835, -0.016676077950514855, 0.04914264606249167, 0.0014161535907192071, 0.0184907930652168, -0.026839741524243843, 0.004258149367175045, -0.031329585599489056, -0.04479660577415613, 0.020900388040551842, 0.11884116120976426, 0.020839362014560665, -0.030825352204328367, -0.033141602287803905, 0.025276850506888167, -0.04890086415385312, 0.04516107126648068, 0.06351441635377512, -0.0022512435263382347, 0.02600016728418109, -0.0790670277213311, 0.007101914872486729, 0.058865434123716864, 0.07777564330790997, -0.03653440391436181, 0.052219523240512815, 0.03212569752657121, 0.031525712505406714, -0.022718360674751505, -0.008554146114319407, -0.02207066578030556, 0.03880135434468452, -0.04537184588199434, -0.0607874978530457, 0.029998155882566043, -0.013128121544304566, 0.026361898854715227, -0.026805187807655072, -0.002393726929570357, -0.022271213368363935, -0.004677682761383619, -0.0036631200819510932, -0.007813341232990966, -0.011931786622854537, -0.014811703532418665, -0.012595906746761034, 0.02095174772227002, -0.01579885300296549, -0.022985824103143808, -0.03162382296718999, -0.02709114862209982, 0.05169736167989519, 0.010796077313293378, 0.05430362585281983, 0.0159868153693102, -0.06811047973358883, -0.047845054801948984, 0.05279804969701779, -0.03451662138223326, 0.008606322216573817, -0.021164727439707185, 0.06645540472195838, -0.05692516431254233, 0.014840876824740603, -0.023435431569640824, 0.05436709142958572, -0.05049665702638151, -0.02690520333046748, -0.09041391982667976, 0.009178049098834892, -0.023401094500358436, -0.035465539023810534, 0.01519272812331936, 0.0035134777069946383, 0.06508923658045593, 0.03648729558916355, -0.08278692172390223, -0.023321788703053986, -0.05298147535569173, 0.08381183552457858, 0.07223657895112205, -0.037673371472065065, -0.047437321177005956, 0.012599018807475004, -0.043808306678883156, -0.023668099582873116, -0.009360754090891992, 0.022250607495573484, 0.0270238677557342, -0.09180614941651795, 0.003328666739884886, 0.08273574957470842, -0.030168363004904365, 0.06311341599994716, -0.034758496327138, -0.04981682408403402, -0.018192925427039517, 0.041169735366134365, -0.027789138818973613, -0.010245036216542458, 0.04153828164386181, 0.014177917772985585, 0.02644531378654675, -0.016773828798878548, -0.03738419786431635, 0.0059381807160042545, -0.021124599734741338, -0.04330434519681189, -0.0064814648671028844, -0.011285078835104509, -0.04177263956227341, -0.04484568556131766, 0.030442959621099244, 0.020410683444398618, -0.004422303919459797, -0.01267677446904646, 0.014984202964478317, -0.03733873290647475, -0.01584804911490414, -0.0014238636830716262, -0.040431711078088135, 0.02195960019827358, 0.0024118592189791713, -0.041252989365895, 0.01759436446913035, 0.0017913323874086341, -0.03412244150721287, 0.025959625999359803, -0.002778264873255555, -0.017893495478442347, 0.08108526752960878, 0.02823335118976155, -0.04580285287588243, -0.021578905848537104, 0.006217064134853309, -0.030258023590744847, 0.01618040565907964, 0.00740383239766197, -0.019908985805169258, -0.029422526882619388, 0.0031387932251760215, 0.020211700580598863, 0.048647206247674726, -0.004660314799937932, -0.030913168639358633, 0.03153175869585491, -0.005688714535213245, 2.233402191494725e-06, 0.036239965256762145, 0.03485545643758327, 0.009573963829872818, -0.03928754295525055, 0.0018455430028915011, -0.07631653716399035, 0.020072644663443027, -0.03743334349817903, 0.027951085780697153, 0.029945283193251102, 0.029918345107021602, 0.06325297063743991, 0.0026515169011211877, 0.016771707592974115, -0.005621862850041915, 0.06447875393586024, -0.038193325278228836, -0.013078139985122594, -0.046712069496747076, 0.029529955641035464, -0.07921320388486161, -0.018364272125348104, -0.05030629696157749, 0.09160790518370822, -0.02974698894328114, 0.062033608371628676, 0.02666102686055193, 0.024910960775122372, 0.08594811887150308, -0.0406087902097107, -0.01049334970300593, 0.0329217021709938, -0.059338351371983525, 0.007066142677150889, -0.015385201346175001, 0.017201899852886914, 0.03299204795871067, 0.0369664040742305, -0.05664053034313776, -0.0035860165549881085, 0.016421417379030932, 0.029170740050847167, 0.019233305485790473, 0.024166309362782443, -0.009559329091930666, 0.046378621582635025, 0.009022558219812729, 0.03866789813983921, -0.02984253031979672, -0.0421007447580556, 0.04996554011461983, 0.01490221057986571, -0.0267514755726745, 0.01417241963170575, -0.00461526061128376, -0.03304532588157867, 0.015067281749043263, -0.03829460245881018, 0.04795991133275952, 0.04177859433332414, 0.01670963789132222, -0.053316209302528166, -0.010555860454027951, -0.08630224078880828, 0.024570646361851616, -0.010047529099957328, -0.01819606164989471, -0.017911466191085752, 0.041394487112525524, 0.03553574109759207, 0.06651157719157683, -0.008445091104666659, 0.04785044409398539, -0.0929466875385347, 0.009738230117109942, -0.078415416878819, -0.04134922304278218, -0.054390243289871756, 0.06235858651168169, 0.008694338116080839, 0.050787475988134045, -0.01688706483286899, 0.04550023365925494, -0.011192859387051416, -0.013973948900038422, -0.012093426931358854, 0.007590401883142005, 0.014213123327974735, 0.04325315907233836, 0.05676711061247524, -0.04274897010943917, 0.04967998418707657, -0.03158345064723066, 0.0070364388903728535, -0.017774578333647716, 0.04732199676177271, -0.007688202042692972, -0.025696040799751747, -0.0023906411646862804, 0.021466017117497734, 0.09179043658267096, -0.051261884926847086, -0.05410730664307035, 0.015568231839960946, 0.001926325852350145, -0.02272563601120647, 0.08185601469550319, 0.02384586623736962, -0.07758742169128931, -0.029838594168551058, -0.020349233673588485, 0.009031961638370528, -0.006163843291769884, -0.027239153678807877, 0.023764758343164525, 0.00868943406553711, 0.03657139740253749, 0.03168322987683963, -0.006673014627742309, -0.024983748518073758, 0.05699099135955082, 0.0005649226520772878, -0.0315842636679253, -0.016109963970068752, 0.0028597976855044634, 0.003564014052341198, 0.05134214832623391, 0.06857227337624858, 0.011253027018098235, 0.004060925452468926, -0.0245493846766807, -0.0062818675335918695, -0.00826520463751198, 0.0018661939695300404, 0.05379033484898503, -0.02171450789542076, -0.03667983558172443, -0.05781942158419928, -0.025972132000055548, -0.025462730573089978, -0.10111358304765902, 0.032081340825579674, 0.003287650928423404, -0.03925856060595501, -0.030758691027634448, 0.05549428959999643, -0.012321935813834211, 0.024559839575864578, -0.04183895871238138, -0.010537368770801084, -0.046487183215011885, 0.04308350035220642, 0.005631409963884539, -0.05266446838494214, 0.004815457779126757, -0.035276754139028206, 0.019055551669140674, -0.023873134587764893, -0.03772078314902516, -0.03127422331364406, -0.04266297716491561, 0.0026131843727000147, 0.027333127618680692, -0.04236605504030449, -0.062297248173171116, 0.03377999444888719, 0.016774619925563544, 0.018500281693681567, 0.022306819910286442, 0.02900765057558032, -0.006330523600313008, 0.027057473272184884, 0.0022112900899568474, 0.027651591968368184, 0.0161567105643822, 0.035188596024982685, 0.019218902419201173, -0.034904272244022747, 0.03651296211655978, -0.008053502770078888, 0.01201641304888775], [0.036786371262357745, -0.030898161305861278, 0.030068543563658737, -0.03960811977469577, 0.08206043399889905, 0.03609904066180256, 0.02952916545507458, -0.03374425334647434, 0.025737737130206245, 0.0670036869659186, -0.0023128329714837683, -0.03386166406020537, 0.05045690259196377, 0.03650638930729091, -0.01025426568857423, -0.024530731992524507, 0.014643266181057834, -0.015276336076793276, -0.015648482283773146, -0.06491032393435354, -0.01586017636994903, -0.03431740667385363, -0.017724468305988304, 0.007940228177840769, 0.005996754114643707, 0.03041019868007471, 0.00493474380539176, 0.05768537434010258, -0.016909992513940045, -0.05008979238725101, -0.02338705463954641, 0.04268612137520931, 0.046469605337754585, 0.0790251113852899, -0.055717747976098166, 0.030734295488839054, -0.011794617500097287, -0.009171657350388402, 0.05661345056259196, -0.04027948012289488, 0.05682982137446335, 0.051901224213053834, 0.0076372235884942736, 0.005634560245523626, -0.0021762758789148906, 0.007547244574590161, 0.02823128181780992, -0.039965375318653386, 0.0615561801716471, 0.052681425154530566, 0.047906854261930594, -0.06104273058471371, 0.05774736866616264, -0.037730822511363636, -0.008956998101741479, -0.027662297512872715, 0.013350698100733322, 0.032284751238241614, -0.014112055380197937, -0.014398489896022463, 0.0015993720717250523, 0.019769796227066753, 0.030080565353955042, -0.034544623532563164, 0.03745986972710236, -0.02404865202306253, 0.0020409194662593688, -0.004669292995819878, -0.005345431794775509, -0.03250482091584112, -0.044723510554561904, 0.04092085962830512, -0.01636215658869989, -0.02631768469711463, -0.008267207676714019, 0.02662341126563478, -0.06402063881604156, 0.03981305825907267, -0.04468319592679488, -0.037833978675097024, 0.028558497848011094, -0.011303195093822393, 0.009413846290031771, -0.07516386526663969, -0.04036105776715707, 0.00905102694292077, -0.016838748537432426, 0.024861079212084237, 0.03652434403002964, -0.01529749155391023, -0.00041534558932816235, -0.008836623129991299, 0.14231850468756685, -0.03835593396041729, -0.014675390871328598, -0.02147612438585061, 0.009096757823723722, 0.02785437437730548, 0.011478239160356679, 0.0049623508891037315, 0.0005872581252265018, 0.05856858052153122, 0.007979807455304218, 0.0017361743150876021, -0.01994832154398517, 0.026803141183275238, 0.021304989560306683, -0.059121117473271846, -0.019596871229525626, 0.026543474690703343, -0.026251662979925778, 0.07123064703225057, 0.02165674107285691, -0.024449076203621252, 0.06332938213883811, 0.026415402344177667, 0.016909985710028642, 0.00621593343932772, -0.027063794748972532, 0.03575042606792371, -0.06967293260578912, -0.009439735491186593, 0.03506937214471232, -0.028207930855222878, 0.030699347512207986, 0.003423596664075638, -0.038481476425202374, 0.04980986023287154, -0.02926163424995237, 0.0005440227212727809, 0.055804530289442746, 0.008917156017214328, -0.004117724650446259, -0.022135916065841085, 0.0012196115188568511, -0.046804538243847886, 0.04719533043936545, -0.0049554584035165685, -0.010873525815410632, -0.05161752243370992, -0.03999547880341308, 0.004433743323925877, -0.023776401747755697, -0.019783847012131983, -0.0035109698078719547, -0.00040759485429991754, 0.01685901518645217, -0.043225568296637616, -0.012228561618850086, 0.046713043236929416, 0.020931669711553143, -0.0021352419368896674, -0.03791215048516405, 0.060316326485157, 0.07590880612381057, 0.08239397643482108, -0.013207861113053377, 0.0062894878098514765, -0.04244504307336391, 0.01044242536964787, 0.014146856944822959, -0.024186430874773124, 0.06298108961983669, -0.027025301464455177, -0.007965310963876544, -0.05893799215981182, 0.01849011494031594, -0.03812029971604825, -0.016183931340550014, 0.011934782993841994, -0.014098310630872121, 0.021763375468932724, 0.027318278524665535, 0.002758593195448259, -0.03180869972840095, 0.005958040493735349, -0.11212114254551626, -0.037646649255591434, 0.04837003261930882, -0.06135104101760384, 0.05196127851177991, -0.019414716937171624, -0.012319362739259597, -0.018586420622781364, -0.07004027796272981, 0.05019027941870197, 0.00841584477354603, 0.014007519639585502, -0.01671728206423218, 0.039889297479124515, 0.02188429789932173, 0.009604234499263533, 0.009445929343250281, 0.03517393535457328, -0.044724005786878004, 0.0370391115623395, 0.07094097524877538, 0.03252902116974945, -0.04930273354303922, -0.0691052944570107, -0.024995774230693112, 0.024330050133567222, 0.003489661475409869, 0.06398782066064058, 0.022599454807302834, 0.026348359272699327, -0.028222115139962967, -0.00021088507090910458, 0.02556793662275988, 0.010821449682535109, -0.04105932000165746, -0.0985980291021025, 0.07426143150601676, 0.03786651588647118, 0.0060531550781131455, 0.03244198922108335, -0.01099379955929646, -0.005239392949717527, -0.06369691134643767, 0.04460759543255745, -0.029771942266176726, -0.03918805420104833, -0.021703600031665597, 0.0963445137125957, -0.04309295178708779, -0.04380331823157579, -0.02825665085683244, -0.0077551114171559455, 0.03742449263209104, -0.00165009654928933, -0.006438480430275743, 0.023958830925230736, -0.004495017428345241, -0.02779672811108413, -0.025380660625440917, -0.05061269779588249, -0.0295858586576421, 0.06647236022568984, 0.007941879083172764, -0.0029064684368550675, -0.009740018322371086, -0.008482079093649005, 0.018812591587304528, 0.08964562623755816, 0.050471970996069385, -0.010156509109387911, 0.006728859580290863, -0.031039427857434708, 0.0017671290966813598, -0.014959242889527899, -0.06744838313509378, -0.05064873822327398, -0.01868770069485953, 0.02613623478495125, 0.017941935274178863, -0.03478162229760841, -0.010688309510853174, -0.01048715498720175, 0.051892563163444275, -0.002694300270396885, 0.03331067729127712, -0.0039829586117440105, 0.018269284134357838, 0.050750483922472577, 0.0028663526426002087, -0.025870254631975544, -0.05301344184423445, -0.019842735086505327, 0.016827083307776425, -0.022519684370916858, -0.0018601906316613587, 0.0526770776199599, 0.014138644411224815, -0.058586826815331575, 0.01923621339293177, -0.048715897777885146, 0.05162068649159637, 0.011192693619675082, 0.03483610463879103, 0.04939658342993836, 0.03667832573509871, 0.040760352389495304, -0.013368398488092428, -0.04487682587202645, -0.008259828969321354, -0.04561984348999242, -0.04236470775531749, -0.032895180719744455, 0.023550733566370642, 0.031111314948460762, 0.013573598457000293, -0.014788598929877219, 0.0034097343798805474, 0.018417657873484834, -0.055785082387299526, -0.008315142691087707, -0.03559644704176606, -0.05910438856657389, -0.020727264629041942, 0.02744291757239379, 0.021226849820866606, -0.03675459439224397, -0.010209476560857503, 0.04797529753399032, 0.06300865064204973, 0.014244100334782822, 0.04802461434081863, -0.05368245853436247, 0.008949410346201836, 0.053910755545825625, 0.044253691973986826, -0.02436447219007794, 0.019145312263772713, -0.044145221263667746, 0.004057506377514933, 0.008916641288383717, 0.026722626668419434, 0.06167907241628667, -0.005336625782722727, -0.048568621223320396, -0.025681468938355923, -0.03289521168647933, -0.01709022761698158, 0.059093120747063375, 0.016724205961484617, -0.035532344766431294, 0.07382738912911936, 0.0029382009823033287, -0.009712336138184204, 0.01800029142348756, 0.026082336153748113, 0.011123620878541251, 0.013444911227124493, -0.05186180926707662, -0.013432420043098943, -0.07339254293970958, 0.05808816593948467, -0.04576817521734938, -0.017455782951116192, 0.0174732943118978, 0.020915040058375252, 0.010627875036325911, -0.0031349046120403945, -0.02465662040459544, -0.07346099693072443, -0.03387945814285654, -0.0058238107440468645, -0.002045583046889934, -0.0065969508911616894, 0.05160765025817583, -0.01610882229610122, -0.01680544033173416, -0.03556798448351481, -0.08076574632866937, 0.017129386444118388, -0.04647268613202913, -0.03329488357011544, 0.036322338362024933, 0.009374474529119372, -0.043018763478802034, -0.03090221744101267, 0.008701765158444915, -0.010461424017895543, 0.07299260525502102, 0.0050895470047619224, -0.017250415459390937, 0.06556218631835595, -0.025342184119714718, 0.026799348315150934, 0.03462697263424513, 0.031133495527665818, -0.015565197985735333, -0.0018903606147281018, 0.06866704344645139, -0.054905822533750384, -0.017037237264261592, -0.04929495018885754, -0.03587122469792166, -0.015478325324360822, 0.02803169983176564, -0.04450312511670572, -0.03899161098697475, -0.0031665968783407008, -0.008589751471043976, 0.03534301186835679, -0.01735583056238958, 0.03882356659301546, -0.041006849384402196, 0.02116803102560751, -0.030002539481993475, 0.0003243324216672412, 0.012047699838040578, -0.0378382369994348, 0.05650560374055782, -0.0015009138045332993, -0.021513256814727676, 0.030266530742226832, -0.008017525593626838, 0.010864446426640409, -0.04222878935279473, -0.04829416254145343, 0.05351052446548039, 0.006513984679304389, -0.022645611802490972, 0.024774870354874558, 0.026538540882035704, -0.018557532261530084, 0.006527999306689006, -0.06351397553202001, -0.025326239069412372, 0.0349768619165579, -0.011412894078472893, 0.019403732887541398, -0.036158308800474735, 0.034342295589789705, 0.013440260460368125, -0.02717079817998158, -0.010565654281629101, -0.003294956923997615, 0.012271969438936945, -0.04444000916775496, -0.05651481306362196, -0.057944705657912, 0.029057541892928578, -0.09109180690057331, 0.010794291772812954, -0.037166512714762116, 0.028321292210863703, 0.05352671454953972, -0.007749940085968849, 0.07563386421230127, -0.018118793139595357, -0.04454325273434705, 0.05692624558085798, 0.026914419735757478, 0.018972611908343633, 0.039312983619777815, -0.018189535103008598, -0.00427755659132044, -0.10562014379006888, 0.0378878259407144, -0.008157236731727748, 0.010556071089466847, 0.033733458729863317, -0.020141732768610848, 0.022305503203140332, -0.00023742415085876054, -0.027928009456534543, -0.0024171217539422324, 0.03872916178371682, -0.0015443783667316423, -0.04590695548929464, -0.032269804293111035, 0.015355098003969139, -0.00022988267357960764, 0.01635104845674914, 0.034652650989989334, -0.03587706868309232, -0.010083920144947313, 0.011130957509491404, 0.026310895822303025, -0.043590117839775115, -0.02799735530701053, 0.007344371216669942, -0.03581769548836943, -0.08064501276162886, 0.005378441542982036, -0.0050849750830557925, -0.022520831604884, 0.023469814897235163, -0.03152071563814893, 0.006062072118970224, 0.004830243164315428, -0.04365287987744278, -0.0025075380016723143, 0.0001089968505904662, 0.028291846790252925, 0.00493557748110361, 0.004265535173849203, -0.03201090177650393, 0.015178406635616704, 0.04708918219133982, -0.05034699514211597, -0.003518780093938339, -0.011343311640334012, -0.07349647228616034, -0.04223815438574962, 0.008615624283374331, -0.0787763937411022, 0.01692188163465861, 0.033335989283814586, -0.030320425238270016, 0.02584382868116416, 0.009418083379883254, 0.011660787655345756, 0.0029707645901529286, -0.01767477759915256, 0.06759976928966145, 0.038206807376172484, 0.04598965357586824, 0.036185066587380535, -0.01774451966261419, 0.014775464774675779, 0.05976844284212452, -0.00799796052047185, -0.009892382156296226, -0.01902859088162262, 0.03799371101758376, 0.0610389692772525, -0.03272855741037254, -0.048131002113732044, 0.0013784704154507345, 0.021690619368702976, 0.06416696098674797, -0.02860578506131151, 0.04531636705056625, 0.001840560430986361, 0.05921171341491509, -0.0607577170219062, -0.017235405882287887, 0.008308793044168485, -0.015199801084160745, 0.014221692561725835, 0.02289530459947395, -0.04602565080735751, -0.026847590041795856, 0.0037185476757303428, 0.045539689324327934, 0.007970549903282867, -0.0676843893774681, -0.048277144754578005, 0.04415961292741065, 0.03918461320751328, -0.012295642186022871, 0.020379711274519433, 0.02767219223700716, -0.03166978002487259, 0.03585257077448302, 0.03334774562628025, -0.03206041251607899, -0.0366893831458167, -0.05160156595455352, -0.0141089335276847, -0.03530771266677655, 0.017833043997161162, 0.015596628476935754, 0.08000144336270955, -0.1448226512178781, -0.01781471857325503, -0.03273547150395239, -0.02902033955068922, -0.04528826109844845, -0.040169473814366904, -0.04083270095789542, -0.046288999101917375, 0.007216525349275284, 0.027485986453346756, -0.004805118204935524, 0.038708566830024306, -0.016154749903963712, 0.050284343021076025, 0.030217757961588907, 0.001018841036502659, 0.02916464762276565, -0.0012843386250537495, 0.021283895785034066, -0.028843261566537198, -0.02519000879147235, -0.015663899200788433, 0.03593613231593036, 0.004600403740011317, -0.016270467435081797, 0.025264917865455202, -0.017341940057750884, 0.03007612304200383, -0.021527760538974927, 0.020112086623070746, 0.09066324995279008, -0.04010876032011607, 0.023225152843668266, 0.026272234612727353, -0.02549051361936888, -0.013107997804185959, 0.04827146667056043, 0.03181341488363341, -0.005046037586596218, -0.03596414875581647, -0.005926419379990888, -0.0025159567510820826, -0.00122184303779043, 0.0017583449771229292, 0.005801549687006516, 0.05052279872433524, 0.03638294590518724, -0.018183613252818427, -0.015242001698203474, -0.008577741541061376, 0.007859616447608473, 0.027817937286171927, -0.051306382990754344, -0.04972784954558628, -0.038285689344383984, -0.08203798516338069, 0.037727165869268, 0.03987506164285837, -0.008489660658072658, -0.0024801413804714013, -0.010782617825164485, 0.040266464110443066, 0.04971588258894188, 0.03804379081460783, 0.020352979281045548, -0.0368880519547284, 0.061364899074756, 0.008587294666676971, -0.007016446612900025, -0.008231422635558896, -0.04235903935872617, 0.03323753057455873, -0.0466430768756105, 0.018568058569934577, -0.02996460771880513, 0.0259295143846025, 0.0334200165310742, 0.05369779853540635, 0.07256249404664429, -0.029937686830204573, -0.0038461952827944347, -0.011517568621232254, 0.015550143896760632, -0.043164171400083474, 0.03766803324330792, 0.023202450201975207, 0.04056906949890928, 0.015102249705597924, 0.0377174002077891, -0.013050707625881532, 0.03106898060132237, -0.028431763284786575, 0.03752683878498829, 0.018516705899033366, 0.0008393567399287503, -0.020812411018848103, -0.07160540180780736, -0.07789467936433785, 0.01402162641464196, -0.04769221918418952, -0.007195559989862597, 0.025402582823133207, -0.01895490046388501, -0.029807138225176107, 0.038888840551073334, 0.04142503719544088, 0.0076265619695141005, 0.005361980175842028, 0.054505897965751955, 0.03149830604090017, -0.07813199470763839, -0.018852460516617653, 0.0009822652083669218, 0.034227270481611165, 0.007830899243380044, 0.024862211286932615, 0.006447617958126187, 0.057007066988646625, -0.019098125835460143, -0.03950479981206756, -0.06163938573879106, -0.03604571248748539, 0.08369269802914651, -0.027065606371776293, 0.06974026123172875, 0.053000143007856874, 0.006016541588041254, -0.027248391726843058, -0.0010806568152648232, -0.03952990390634704, -0.03731250409140492, 0.025336938836895282, 0.042468484402582204, -0.00932943077473111, 0.017140136086077815, 0.08052871429090827, 0.047702855225023655, 0.0024978392441303474, 0.015885845813956138, -0.025873605613429627, -0.0460515706625516, -0.01605498202176024, -0.01682412920727109, 0.02337499411868157, 0.0062910306095378616, -0.017937561012397386, 0.013610938927246033, 0.013732056186735769, 0.015240300479326351, -0.002614069440549024, -0.035452994228723125, 0.0049156409916480326, 0.028978379599707754, 0.038879107397964414, -0.0058919271066193, 0.06831799584646558, 0.06037429837187449, -0.0016349533642188612, -0.015551104593115555, -0.0038194796014434018, -0.004283086575117902, -0.017850404510562305, -0.018207513565216764, 0.038793800421349015, 0.04096288614552262, 0.021859751216443995, -0.03796081858279671, -0.008953272591345141, -0.0248810461639311, 0.0341791662912909, 0.05318711384254574, -0.0259946232696394, 0.09429412647128092, 0.005740497233695475, 0.0013347523967789344, -0.04144870063189038, 0.02618732847899477, 0.033231727131861025, 0.07542600736230963, -0.004903906750064095, 0.025010410192452294, 0.018221444063123333, 0.018103052802653997, -0.03298414827036392, 0.01652711286572497, -0.09831836574405085, 0.015769151520192475, 0.012364290530197759, -0.05377367915406565, -0.04031380701642745, -0.07773001644640022, 0.0009382857481421656, -0.00542323793280734, 0.0010321007892005948, -0.03823582176483083, -0.012766148257220512, -0.052734324395650393, 0.057335274769820775, 0.005490836485888039, -0.0016535016342958575, -0.05894444228292534, 0.004990238687804058, 0.04901227314962359, -0.002043980970410349, -0.003059939813413078, 0.03413375462079546, 0.01186192943162145, 0.00958530665420076, 0.022966565414850423, 0.015679739252900806, 0.0014616285396680116, -0.0010661333240420511, -0.01724884166602893, 0.07100670989450063, -0.029370897214133652, -0.06945019267595834, 0.008149061508121176, 0.0032561414103214415, -0.0455517953345277, -0.011733003012615992, 0.009527102706655978, 0.024288523702863357, 0.026994478564868255, -0.05044525310840107, 0.008889486908365834, 0.05247499669011787, -0.01835662949955136, 0.012396361107528163, -0.018084662658571504, -0.00761152806090965, 0.0376294931106013, -0.035206849978156755, -0.0017196773259322811, -0.0036800746321842006, 0.031954888455593904, 0.013043894800831004, -0.021350131688508193], [-0.00233695719437355, -0.048985831502165504, 0.028479022155753285, -0.03663274144783658, -0.013510506996190112, -0.024019853932644247, -0.008837046035533713, 0.041347735613881054, 0.025694149691898007, 0.013050506432266355, 0.01865607620794036, 0.011585573867845733, 0.0016715972535833803, 0.06499239529726139, 0.0023435724212447786, 0.06305533270663638, -0.0011464848016396385, 0.005837484188116521, 0.03393691554808873, 0.002359872290297401, -0.024908237891663524, -0.02878300180204851, 0.024667696644572964, -0.008346015543906843, 0.0541620523174602, -0.00628569161327614, 0.016644614005399665, -0.025895081804946846, 0.033407583770831355, 0.028514282665629526, 0.0010410935956697907, -0.018049321822865252, 0.03265331115925682, 0.031144656716237135, -0.05919231243482013, -0.06693372685437264, 0.02730558485665018, -0.04976670182839677, -0.05917077601018267, -0.06596420224337328, 0.0009488011565803561, 0.04421037233357979, -0.02908911157934817, 0.028795322193416694, -0.00717208936011423, 0.008197814271909454, -0.01139045493578673, -0.03167629123383158, -0.05616439704834976, 0.0031124700398619224, -0.055602387142819655, 0.0039237153536475795, 0.07418347043965644, 0.027319317156844634, 0.03331782974949559, 0.017378180413843956, -0.0030008348295748597, 0.03523886287046239, 0.013768919047849774, -0.02594005891702225, 0.03520919976857202, -0.01552500219692248, 0.0213216073063907, -0.06484320805571962, 0.045619844810238716, 0.03184339373557446, 0.021487743398355873, 0.021507760896724105, -0.008609224236119654, -0.029494019075644334, 0.11598610441878325, -0.03748179987522598, 0.06909967709859764, 0.04216914241491938, -0.044929952107449614, 0.0836293727410254, -0.06428652993614635, 0.023211222866653152, 0.058329362758195905, 0.02063720383263361, 0.03802216432798803, 0.04222740146962545, 0.034704282508264024, -0.00882297065813043, 0.02716762186296431, -0.014591252933575685, 0.0029857693455466574, -0.023045933818157765, 0.025632680112345707, 0.017243652175650517, -0.06255031125262514, 0.0020862900735811795, -0.058914822999469416, -0.04692940271097196, -0.023298110097921036, 0.034413579986520705, 0.0018551552054012436, -0.004442883883448697, 0.02506802962931342, -0.05426739150447358, 0.004200832537822761, 0.0758223084075318, 0.03709951056620438, 0.000409276409591299, 0.022605361846878252, 0.002618523598408856, 0.0018769732434116007, -0.06203113445104992, -0.024212272084831225, -0.03497305729654773, 0.023531821310544185, -0.01181776239379391, 0.02617122765540933, -0.0019367408269664447, 0.028734837209254294, -0.006979948070297394, -0.08150145902648663, 0.022845149350370925, -0.023082306812368884, -0.027064094919418302, 0.05093365527292753, -0.04238915162457778, -0.007910320892908771, 0.043295209502034644, -0.006937999455320538, 0.07261347777291054, 0.032968029059259905, -0.007179402293624413, 0.0012721085881967765, -0.006565205340767106, -0.053308547677830144, 0.012228830597907378, -0.04447245767896453, -0.034783897055550364, -0.028838779261957433, 0.05296857256566941, -0.020631654140708527, -0.002481550766035881, 0.055866482774438675, 0.02207406351629504, -0.0070882409105051105, -0.0564437156461189, -0.013519386415314335, 0.03197468002796614, 0.009625761052239232, 0.04081286817213968, -0.01112087207054982, -0.0034016956977759344, -0.025639536126877655, 0.05353106355981498, 0.05264803183085441, 0.016540959553099328, 0.00917041295370315, -0.023507407717597815, -0.019020646537923003, -0.018873151263445884, -0.03284574013892865, -0.01176227238353609, -0.01696447403914791, -0.04592173978730889, 0.018040622718032997, 0.05084340592987206, -0.009835284978271247, 0.0344449239863864, -0.0017333356902548953, 0.011666051652802458, 0.0026541301072534307, 0.025556746973071993, -0.032943433696063874, 0.014886527506002879, 0.007704151877626871, -0.030542785096994682, 0.08690149984168787, -0.03153006094717319, -0.022484415286060228, -0.07508390546384665, 0.017417819918638472, -0.01863814770031367, 0.0454189184758104, 0.05352519034446066, -0.05303188818611367, -0.01886817854316594, -0.02666786380615867, -0.0063117356459145525, 0.011869471530148293, 0.01140929704011866, 0.03594303285378343, -0.04755990322882368, 0.057407220400330854, -0.04476522923262439, 0.0031055288563341488, 0.009744350870397352, 0.015386749276254514, 0.0031387701609900637, -0.007876918782269694, 0.037550330226718796, 0.004966270373617318, 0.003702326135021046, 0.051792706602492536, -0.023342732198637032, 0.028806535553778215, -0.0466473006106068, -0.0214898670717242, -0.02104116910563225, 0.031651770724870514, -0.020805835915999046, -0.08632427092559915, -0.009779829119137148, -0.015800095249875693, 0.0336599757967445, 0.01714684150725413, 0.04421276645101058, -0.004495053616892979, -0.09485285763051719, -0.03628870431338721, 0.07320638835279611, 0.08235164052686404, -0.004168893231570114, 0.02355397540072824, -0.04336535192596517, -0.00918123521317848, 0.030980387741965515, -0.008014755577101525, -0.0333936053768911, -0.00713501519621898, 0.010148821082508714, 0.018378102317090445, 0.0690746694283229, 0.003579700782671176, -0.01950816152058908, 0.04315448888669269, 0.028126691670206778, -0.044636367144770685, 0.050522485041765645, 0.01072017112811178, -0.03254226724509467, -0.10336945634529582, 0.018134728842682985, 0.03780509330137583, -0.016759647021799527, -0.021251691698812587, 0.01186586960492257, -0.015194309433870649, 0.005238573432301336, 0.0492350050460434, -0.019728956981020555, 0.0024829842432846218, -0.03547699623208414, 0.01307763495386763, 0.060039571759453, -0.028807872346569778, -0.0011931015831712875, 0.0008274258152778242, 0.03738520123952086, 0.09673067287306988, -0.014764035149711387, 0.008027483037514221, -0.10977740132071186, 0.004849710716377131, 0.06374876166209925, -0.024225590341462266, -0.03916469351089983, -0.01054865170797659, -0.01701868244414923, -0.03453025047314672, 0.0022271982117860667, 0.019320506416716548, -0.00946065626168516, 0.00400810123044966, -0.03332055130723968, 0.019966942770400734, 0.0011106205096254225, 0.0034156515844416977, -0.03464921022345297, 0.05394090955623374, -0.0014174539489885077, 0.019863987186358546, 0.06411716674144163, -0.007782934515647001, -0.017317328258575466, 0.014012153868267641, -0.016816783143074842, -0.03471697916980993, -0.037855515908882746, -0.0414448029999042, -0.03819230550695708, -0.013800115199528814, -0.017441597090982107, 0.041922057967400346, -0.04592876787218044, -0.025006364058441356, 0.0006067940631658868, 0.005870304892610832, 0.04979494484294714, 0.01990992254616163, -0.06115866696878206, -0.0647543724374753, 0.005638899719167535, 0.0036824138549824783, -0.005434913897437587, -0.01758486086577032, 0.005254797675163874, 0.03895383563969551, 0.06233402501538877, -0.003545210262133256, 0.015945656438106973, -0.04993727377923973, -0.027008941619788552, -0.014182946928747914, 0.03924340697025504, -0.02460274337573251, 0.0026549391758106675, -0.019671101730043997, 0.029325332973571185, 0.01747244719530358, -0.05943160893426456, -0.05692012931897068, 0.011307962028042655, 0.03919513565527118, 0.03433818239337153, -0.07161139525554552, 0.0060274221379633605, -0.03815889655612502, 0.003795240744514862, 0.014836928965432953, 0.006124539245145464, -0.04663635235219431, 0.046257331513516596, -0.01568270591669817, -0.01892138561191724, 0.017316067853015423, 0.005312536013349312, -0.09487677436819497, -0.005335816174541772, 0.019286110974455352, 0.0713392431219941, -0.012555490813088006, -0.002277676246162147, 0.038929924325144805, -0.022060312222825517, -0.026576291193463997, 0.03748871292402019, -0.07734205014637027, -0.02385349020186495, 0.01728846532006239, 0.0019621904624478005, -0.024469535243100835, -0.05387209152162543, 0.02667339780528637, -0.0028352465486586385, 0.0037163571120550623, 0.022544377160587128, 0.05295550494439314, -0.02534373965518143, 0.007896365095595792, 0.005294624065098115, 0.0436040153954366, 0.07293603284402259, 0.06689303600001432, 0.024954092867006828, 0.02789310820302087, -0.02347274545043159, 0.017310391691373963, 0.03042687378880021, 0.003651475296689368, 0.02286755614409786, -0.015414159796018708, 0.05638519234730806, 0.014518748575892068, -0.02661495527141345, -0.06513938795701443, 0.06393360086771126, 0.05492683082222566, 0.023376440574028875, -0.03820454148657672, 0.010255125417839671, -0.03629167911163, 0.01826480477142772, -0.08798573436308199, -0.06707358669156087, 0.02555622272812331, -0.03793794865511184, -0.0035037647318552473, 0.06865797783832218, 0.09387322844492096, 0.013084983418343186, 0.0034049296616577678, -0.027497466997578608, 0.04209593859490265, -0.02874499750313042, -0.08922287764950983, 0.017890746374636352, 0.02513157596333736, -0.014605898789500202, 0.05113433550277061, -0.02018410968383311, -0.022957195670473985, 0.016289943561837345, 0.019376893929313087, 0.032797242643082744, 0.04962822105855995, -0.05275397160629604, -0.06357381949491088, -0.004900439907682872, -0.008784160795737989, 0.0016847377428636935, -0.0006051494313260704, -0.015462413856668997, 0.07683970399284935, -0.07349066980690763, -0.02767989966557029, 0.02825365151055379, 0.0012441486941447667, -0.01872393017451344, -0.0263043031588098, -0.035060505444907346, 0.03568718038199833, 0.030642363732960375, 0.005070571274223667, 0.06789231961988683, -0.019133372613793553, 0.04553463273702648, 0.017529777638466224, -0.08344444390823004, 0.024313769657252734, -0.0394854425310045, 0.03525949989601079, 0.01618292802059164, 0.01217333376382797, -0.004511126207147906, -0.005736552072432443, -0.009875094892253989, -0.01306562584308163, 0.008492269801270042, -0.011081996989594705, -0.018804750944147585, 0.0403189320634178, 0.03409961391820777, 0.03348290973243458, 0.026918839148645176, -0.010355953237770013, -0.024121650108819972, -0.016000609442807425, 0.004338803128293875, -0.012938347892319948, 0.012461130167835597, 0.020410151436094526, -0.032552544958489985, -0.0016029032482767775, 0.003826517625880187, 0.00844545030722709, -0.02965904576488115, 0.011147502302738036, 0.01064377374901557, -0.015865100895394342, 0.00047835768880504886, -0.023531846921721448, -0.040487604746005094, 0.04071863489267109, -0.046996371498622666, 0.08145953350217343, 0.009161007432459211, 0.041279228532053694, -0.02334559327376082, -0.007676518249578252, 0.09735295220814598, -0.005121012025091716, 0.012944089128010556, -0.045192690481833366, 0.06048880621156165, -0.03159301909920314, -0.024184040049389222, -0.0051815963294549044, 0.05379161962713521, 0.027073192368729734, 0.05935807007286216, -0.013198238169767746, -0.020767739948204005, -0.048949873959101185, 0.04933956742422985, 0.004174056787410427, -0.021543486657581705, 0.016628265829085713, -0.004513321798377588, 0.013208928030856633, 0.011041366979113608, 0.004201819885886889, -0.0033854588413090568, 0.015238414716997065, -0.061491620587232156, -0.07502526444549755, 0.03931834552757358, 0.004752679183150086, 0.04027031668985849, 0.007486606053122391, 0.042093235779916596, 0.002154778540939363, -0.020751215455388845, -0.020048485329244293, 0.04860381579410402, 0.0275644417221924, -0.023576158034986076, 0.03435334221507811, 0.01015469109139604, 0.04837542066874783, -0.010454899836631778, 0.05176797084100524, 0.012622614483408953, 0.0004351174769150356, -0.02846029047222975, -0.014556443604148758, -0.03555574956664331, -0.078808141226847, -0.005694674046716445, 0.007147938165874841, 0.05403359844407418, 0.0523327465357729, -0.041582000793193394, -0.018946995579422785, 0.010725117804922687, -0.022469869401532474, -0.027615080821377553, 0.042256366553437306, -0.055807575754607285, -0.006350264547341624, 0.04333933074245425, -0.04621126882501324, 0.05934736530571795, -0.028326960459832306, 0.04125645778263913, -0.03923804805960624, -0.04082125275092394, -0.03381312608356193, -0.018966178747307525, 0.02311610622263007, -0.016406628836892336, -0.01369559554546283, 0.04299611283650664, -0.03509085042205858, -0.0007199305822037694, -0.0400101089690364, 0.018572709679445566, -0.017982420291089533, -0.023433626293891906, 0.02384047633108691, -0.02910752253045206, -0.02589190271567569, 0.04424084863839185, -0.007048946646798033, 0.058612426387408094, -0.038950120284053244, 0.028661161834599113, -0.029059272517030943, -0.004010129135070299, 0.05451225673260594, 0.00947819369807236, -0.0008121314424090483, 0.023357273012329, 0.021533178401121116, -0.048078642837649024, 0.014376235001616012, 0.022918294387555195, -0.016888274235106904, 0.015051011458809408, -0.006422215515923814, -0.01221276080294835, -0.013139724707961025, 0.005524777259189898, -0.03237776835074478, 0.010163376426052539, 0.04907279486732969, 0.02273279273989941, 0.008545595505392961, -0.04079031678807756, -0.0035001728528252216, -0.00047342360781283755, -0.0343440517432435, 0.08840147354165959, 0.029051376423597747, -0.05580918598948666, 0.036667251011482736, -0.02178374863344467, -0.01889205540454758, 0.057869758879026144, 0.014951725419458325, 0.04789462587190813, 0.030874518095649624, -0.026582641675488492, -0.004193826238502272, -0.021390171417391603, 0.029721892657634502, -0.063819237916707, 0.0030080067203162512, -0.04469750096511742, 0.004320794941288898, -0.015399519217559133, 0.054768309257009415, 0.06020573219789578, -0.025984355011722977, -0.057511331273298986, -0.018795375596939223, -0.011741816051325862, 0.02096586362159538, 0.0007826001545001706, 0.02707878549244008, 0.06427639539079968, 0.07428779613319045, -0.015771858301663878, 0.06703540092335275, 0.020218706337813065, -0.0072803918218066884, -0.01499647302562775, 0.06724601368359655, 0.00030787985720735273, -0.04566383047859647, -0.03527533809185238, -0.06291500013806614, 0.03477654152953622, -0.06562265041202321, 0.009272982053686278, -0.0046463954222988445, -0.011880449886519097, 0.01199720730561969, -0.01505115563595076, -0.014390609497304543, -0.027644853840241488, -0.0024403760660892857, 0.0232830844788731, -0.03851767503696885, -0.059517341303340354, -0.01286193261207774, -0.029503181118803325, 0.013957328938032145, -0.0006131335636265133, -0.03521966264215916, 0.0485042026433156, -0.03150823906794716, 0.033789793913743156, -0.002622300761058374, -0.0273580506117778, -0.03056465491317182, 0.030028086504685175, -0.0243844402020586, -0.011269131007026355, -0.05436076612890295, 0.05637747122804672, 0.03946172593709879, -0.008719691850254622, -0.02097097350593677, 0.010718881190520429, 0.02164807987461063, -0.026170042259215272, -0.023675216782340153, -0.021080153082240233, -0.01549675687879334, 0.03771562819767639, -0.0002677329311467582, -0.03744966121804699, 0.054831544165560006, 0.0064256207815557975, 0.009719560078026884, -0.0037793137261709522, -0.022288208928456062, -0.01884419227221248, -0.00013513921143943407, -0.01927538225520425, 0.023104080432811123, -0.02795253830190097, 0.0450152532840589, 0.014331720788392404, -0.06745505614285668, 0.020132736192546272, 0.040586306838442256, 0.017045346748596445, -0.018044311562958583, -0.013100723413851155, -0.018696121381090013, 0.00989986647143624, -0.013514541439809463, 0.006904962303568832, -0.023654445768456444, 0.03214520952701251, 0.008472753642807569, 0.0845730531933362, 0.030296867620960285, 0.015055359310013639, 0.008833305695125698, 0.04194776068858291, 0.0478450915651536, -0.02606799413601765, -0.025609316060018563, -0.003942214343199308, 0.022369441634812075, -0.011192742266468342, -0.03125635020303082, 0.02318100926330624, -0.029006662846349927, -0.013113335197073242, 0.0694857128259794, -0.05458147190215585, -0.04588575545512356, -0.04293859312121329, 0.02439967229145514, -0.011284564693190472, 0.04669939358024187, -0.043544933777643756, 0.04427762821057625, -0.011538434682111076, 0.05122841628294121, -0.04873652748263785, -0.1276185361921906, -0.035574729716529974, -0.003701706819401186, 0.03203250437350256, -0.02216897061382119, 0.04080315926966933, 0.07079589688607485, 0.020469205941567058, 0.013390829259474742, 0.009625533688886384, -0.03682412145814983, -0.020923677263827874, -0.03355388255808089, -0.09076122512404869, -0.031933638704249576, 0.0596042130807765, -0.021293021472221677, 0.02219988534317192, 0.01956340485478325, 0.030014939711934863, -0.049054261601807134, -0.03216384662641332, 0.00679512314401576, -0.01641500700712126, -0.04029495274565731, -0.027511674253571945, -0.03767221367341793, -0.04945872414671372, 0.02887231488627181, -0.025167367341909393, -0.038600376176743965, 0.010090199516204003, -0.0033200925690327517, 0.011776460779610686, -0.0758024870349493, -0.038232676390021494, 0.0030212768452857917, 0.026534175981741768, -0.00246484394545511, -0.01461418458096471, -0.020059117478475292, -0.008764786851729477, -0.006161225785115265, 0.022100059521120787, 0.03047122350590883, -0.019766592584461697, 0.08808272395174864, -0.0007395601270967696, -0.00808313124226235, 0.010345140419639662, 0.01516443390275364, 0.04849643946454795, 0.015427326949723727, -0.020654696990845538, -0.03662707770629826, -0.020386280724611548, -0.019937311111831925, 0.017420025864021194, 0.06287991911833815, 0.020292747290636296, -0.04818702714060875, 0.04283592057489789, 0.034456448999258864, -0.04521549560803135, 0.030562915712222492, -0.0013074980334078033, -0.02134576958438814, -0.02212852560250399, 0.028721195306689564, 0.04197903480469155, -0.0381811243004766, 0.035766115843100174, -0.03821266382583708, -0.0183601863482469], [0.012872984885323317, 0.009994861738807625, -0.024566011516049455, -0.02165233030246977, 0.019742378508026032, -0.011205208879844645, 0.05420828242730217, -0.09407401167587759, -0.05003685495078623, 0.0025362874673477294, -0.0092793556495722, -0.002769945077265254, -0.014535652587468731, 0.005247818707629452, 0.0008438606745108941, 0.04471238536527172, -0.021765295509254688, 0.043250568714776345, -0.017880288701436157, -0.08557085415638166, 0.04039542185809813, 0.026444621515702812, -0.01754972088298594, -0.014520398111715838, -0.006591638615501475, -0.00429365929869283, 0.04062231209786637, 0.03481805299445499, -0.06719823823180142, 0.03257807008944359, 0.03952329870656335, 0.04827438305980316, 0.05307527857983741, -0.02110258144406812, -0.03513454509262855, 0.04673336153082314, 0.07585838542949784, 0.06772391498397498, 0.0026670769490915193, -0.07394424626679172, 0.03432840089404652, -0.04281261101723828, -0.017885632675305407, -0.001618330414825298, -0.03567450184245719, 0.06298962533194294, 0.03252975395729111, -0.03056144301505458, -0.010521703315352947, -0.06720764251276679, 0.07979123805272399, 0.05550944134979211, 0.018379356650353867, 0.0003304606050100165, -0.060883326530557426, -0.03432579435257671, 0.055692843392050696, 0.0028958007286316056, -0.0039755045900828805, -0.037052659908286455, -0.002072168544126572, -0.02730469690140442, -0.018295636555535986, -0.04089566226997959, 0.014569113379801232, 0.010532754342222976, 0.13313363549635654, -0.008936504057711866, -0.009546507257868892, -0.04560329994165442, -0.014128554802893002, 0.028405587905866277, 0.04298394979504966, 0.04413480980956747, 0.01699278771251375, -0.006301560861079725, -0.024195727319225015, -0.07421783907205917, -0.019904158004301238, -0.015500463277828974, -0.04065637615790426, -0.017935215713409038, 0.026111377609786324, -0.007453941237229119, 0.03217949013108666, 0.053211092800596084, 0.10413956763362586, 6.743878656258992e-05, 0.04292766603309006, 0.01267092839323229, 0.008697194187385758, 0.019660751054236973, 0.042032569375356765, 0.024250536923859808, -0.007230232078753738, 0.008905782273563902, -0.04263028337133918, -0.042934292756761104, -0.07696296530300485, -0.005525969143202413, 0.04549182065664425, -0.05948101703015669, 0.05802657685819195, -0.04379015400180499, -0.025603074641131044, 0.054994004135013305, -0.03703312369592344, 0.02420826761107316, 0.02801712840213057, -0.05764169583837331, -0.01614185775105485, 0.019062308740696376, 0.04191008230782147, 0.03009354423619276, -0.02530452537961106, 0.015883765343302617, -0.030206397652621914, 0.06798224376817401, -0.04299320665049004, -0.026477545985654945, -0.008678931922820508, -0.017360088203324776, 0.05616765329207783, 0.015387482046956844, -0.09045866789185801, 0.023462474138720834, -0.0160821719511852, 0.03478044165913184, -0.0006381820595741775, -0.03150761442810334, 0.05284227843560949, -0.026175127780135306, 0.04154250650553108, 0.0032087292695169222, 0.05456653154987794, 0.024410474426347164, -0.04027821547020616, 0.036070007905030115, -0.04675755947327027, 0.004906013123207689, 0.08055417675422737, 0.01760815198152653, -0.009253265057100954, -0.06390536645752196, -0.03483572043327573, -0.09083587762193375, -0.0027843657337205964, -0.001663883089144264, -0.011711187220871623, -0.01803343398063693, 0.00330430902547621, 0.0560663150961732, 0.021158228364720193, -0.03401577579234436, -0.032283068044049255, -0.04519767038252993, -0.0026780399105577365, 0.016262216560965843, 0.07262168442618445, -0.030821498904454483, 0.04325457576510353, 0.019510788190050143, -0.020989863695034812, -0.0705634392978617, -0.03384392075930804, -0.07789481157756428, -0.025884486231302097, 0.009245163310721755, -0.05288295537045073, 0.009783928775978458, 0.03478785967680816, 0.01886910745927834, -0.02902738793949956, -9.116451344007843e-05, -0.03247422900806506, -0.00015640323396022663, -0.016229038726076804, -0.02757489032836315, -0.03892473766804808, -0.055219138921625166, 0.017499564103853997, -0.024672297547614058, -0.006548191799565714, -0.0468282728369473, -0.03281084959318138, -0.06802889034214181, -0.026981960233899184, -0.02485040159349426, -0.00263798486929244, -0.01615988198564063, -0.0007667106630764838, -0.050527880976869374, -0.032462870589518925, -0.04015019199609511, 0.031280503027710196, 0.008348512604315354, 0.015477807044744692, -0.010688138094229195, 0.05434182505870496, -0.02500506736713028, -0.014555096666169403, 0.037326221580178856, -0.03336230723634449, -0.02951305821530489, 0.01826926185915036, 0.004917331467536256, -0.04637560504886552, -0.011396954661958352, -0.08050736220189501, 0.07489588505441613, 0.012272853028845196, -0.0256179936071188, 0.020630573710036623, -0.055690040216629204, 0.007425155475081609, 0.022386973661064822, -0.01343979109382619, -0.036400939548154446, -0.024065582389695726, -0.0022270349218889737, 0.0362900017682724, -0.04697855107154718, -0.007855527682698002, 0.04305902748047753, -0.08072423516800631, -0.013464199767574334, -0.03095838804683782, -0.015482190471370722, -0.06792274705545129, -0.013610808986206242, -0.013480360715620204, -0.024988698693361806, 0.02128229062320943, 0.03460082469227714, -0.006382757749181109, 0.0006165179339392442, 0.021631672823844716, -0.03409398487176522, -0.017322515593894788, 0.037956634887975994, 0.005806099895787121, 0.029094918919717695, 0.026690566349863092, 0.01564904845322802, -0.03645440044102107, -0.016541535249440287, -0.0020696740031305306, -0.057177168154323964, -0.015926518340605943, -0.015477520615944202, -0.025517875897815397, 0.00765066308518228, -0.005607056484370323, 0.04057369384731463, -0.023678323288058432, 0.060041037739196536, -0.023233518422632375, 0.003848119921896018, -0.028552575449519786, -0.031353490121095055, -0.020700093778731662, 0.009026511163363091, -0.025717404868511127, -0.06241316947831422, -0.01923378816971094, 0.015219282470390252, 0.0043984050472635336, 0.007767484530868083, -0.028163370161648514, 0.036199721616641346, -0.07263618894486448, -0.0025274513969971496, -0.04869689989049626, 0.044522605659066565, 0.02274539678889887, 0.01953732516334783, 0.046820784827383215, 0.032709310017657936, -0.00024206587560852568, 0.02403733189526439, -0.05163805092104452, -0.008773935844766908, -0.08565525169120072, -0.06049469531470474, -0.00223286588647615, -0.009909646038038802, -0.038867816506422126, 0.034778345831870804, -0.008880604176466087, -0.013860170057736985, 0.058007447206757115, -0.0001695408648472021, 0.010062825422443048, 0.0012901617093393834, 0.048967556790516995, -0.056271197006184624, 0.007796881105852377, -0.004801771442561594, 0.03828778295333304, 0.04930929884937029, -0.052709311810612315, 0.03547563950316743, -0.005873245213470934, 0.007779303874259786, 0.033432978500556494, -0.00724886978577866, -0.0013982265456956983, 0.013387012282225013, -0.07191783225933959, -0.0377663662413864, -0.09312549625092305, -0.031780296998630234, -0.023234495782174076, 0.06347966585353589, 0.01944353590994389, -0.044606638835975765, -0.041411430308406036, -0.038916277031286375, 0.007359329199959417, -0.019723757510078595, 0.027408692495851483, -0.01437479162012302, 0.028891216301145013, -0.011440964839554634, -0.037471528083600755, -0.016308204018802275, -0.04746186804642853, 0.02520694465731384, 0.016459894860646675, -0.04755527584619501, 0.02123528557255309, -0.016889188862195568, 0.027982267828159945, -0.04674006108543718, -0.0507257753066026, -0.05205739493878301, 0.020161471618135834, -0.045153562702332985, 0.021439258929284388, 0.021952922794706977, -0.04857092254278882, 0.04326125567849998, -0.06417917617631286, 0.023459848441671757, -0.028671396978908536, -0.0017312650395478273, -0.057066010404319904, -0.03817919171990392, 0.03702164899703031, -0.04769093031710942, 0.02075174343009061, -0.017988168938488706, 0.016780892904588403, -0.012720366657237173, -0.005001705776975686, -0.030490566078172975, -0.027581598120258777, -0.011813496609399902, -0.04520098229787719, -0.030284070641410952, 0.050158742105171364, -0.03590974371834339, -0.009869668831095421, 0.016774052220132497, 0.03136052737171092, -0.01804749167315453, 0.004245551258615028, -0.0016885245765533758, -0.002857880924527451, -0.08137330430190755, 0.016504984069285637, -0.06569675611968522, 0.0006229355225717773, 0.0012805851959410304, -0.009558825102097431, -0.03472916366240541, -0.004210518795677875, 0.03242839737350527, -0.05162717786033417, -0.07443549292057776, -0.014293516964784295, -0.015200667670294637, 0.011550139872703846, -0.00872475263211461, 0.02523941127878269, -0.02097309079378781, -0.006784775600673275, -0.044714923238780915, 0.02329899129134953, 0.013988383667046647, -0.037508782632039384, 0.016686182912781726, -0.013027745519397418, 0.03178584567555972, 0.05830107585759947, 0.0062162249877250305, -0.02032610343974146, -0.033091917589166416, 0.0019646060805274313, -0.05682980518897867, -0.007860760810907261, 0.0007498993431592519, -0.0610004896583478, -0.016471627246305437, 0.04519783941767776, -0.04621096235925194, -0.025703550356416464, -0.015492396307664627, 0.0150715860720606, -0.010588579707790527, -0.014075362032794072, 0.05989411751487621, 0.023894186209945732, -3.657663603431743e-05, 0.009945754126671355, 0.04516081445665735, 0.0020933877506761783, 0.0010714230377325, 0.0808126567101471, 0.019932111126792412, 0.009718562607306084, -0.053072058714148516, -0.06552846734220748, -0.03442015743882896, -0.010544667897155842, 0.0024478997929023687, -0.013268673204192899, -0.046906805938196745, -0.005052142082603722, -0.04251147690286, -0.020473338048692762, -0.00321844061867665, 0.02053982450462127, -0.04829393772825288, -0.031140183108584702, -0.006038220059661893, 0.03676551895145067, -0.07129034661549005, 0.026166124971558104, 0.030692757065708093, -0.06148111734074845, 0.029039797805815056, 0.020417867031746733, 0.04683503322310807, -0.02535149017947848, 0.003964705079087536, 0.020794050926975043, -0.008941025379697822, 0.003756873573786887, -0.019053240490271583, 0.014853822714288232, 0.0528437388184272, -0.07632943313200106, 0.022796800604231372, -0.014790370852186348, -0.02772349544186903, 0.001151291509502779, -0.009375394999986299, 0.05576935155617011, -0.01128389604243474, -0.06264896250733215, -0.025046016964965084, -0.043487399763680885, 0.007968098629336512, 0.05332612354947446, -0.00562487174030959, -0.008850038542405845, -0.03633513039259887, -0.0008351280044902843, 0.008217514304859876, 0.04770664845018729, 0.024744501624807718, 0.0712548569862465, 0.07498052651033006, -0.05590153022360184, -0.02089978605594509, 0.013849135931416307, -0.024775090993011607, -0.02825884477771751, 0.009009731598869513, -0.0032255161388237336, -0.0023565456898420336, -0.015511169959029583, -0.013586302285985149, -0.0265229426013311, -0.004310839640245877, 0.04329826472167333, 0.011546758181974247, 0.005252545422588241, 0.010663817313007997, -0.008744171257791759, -0.04184292901185634, 0.017593307321211456, -0.012162689204185142, 0.049827642047759704, 0.004901355075383977, -0.008189129127570532, -0.03437338590475254, -0.018508332081562863, -0.0024385483301937842, -0.005534509402309103, 0.006104389175186746, -0.047682192846107085, 0.08947018802647475, -0.01836623176307593, -0.0881115266748074, -0.004341148460985177, -0.029617342055978244, -0.025024277236137826, 0.09494115125659776, -0.017150570066938355, 0.01629377097560759, -0.053849498728803555, -0.021320901766806583, 0.052050577521988814, -0.011515083468940047, -0.010360540186500622, -0.007600102030745736, 0.019941213214273217, -0.004444273384738058, -0.013455852415352744, -0.03442012966308193, 0.0006399793148233331, 0.031500820441516426, 0.007781815460832091, -0.0007360675489015215, -0.03244896394533787, 0.021945300545476464, 0.035442127787629236, 0.005941084494383323, -0.04165088329852681, 0.007134531746681557, 0.015102428368765896, -0.0711339995779559, -0.00562669088535645, 0.024222630568191867, -0.04017220337621718, 0.017410551020707262, -0.024615410656853416, 0.017620802532552632, 0.026363357311013424, 0.03888063936394154, 0.07377042266851717, 0.021312874917845483, 0.01897120451122653, 0.02378387831910762, -0.02752731172259921, -0.0033439684109116403, -0.026202166707231876, -0.011629336168059017, -0.013764413591903047, -0.008684098237891614, 0.026531790872595325, -0.06567855459705474, 0.05302896302945142, -0.0007153506320940187, 0.03504110640397821, 0.041308966159333604, -0.0430945887850419, 0.04413504182778944, -0.018412009967337818, 0.06789128662596852, 0.04668482450852056, 0.048988185436492894, -0.026118249043954524, 0.0090318431012382, 0.007263142595306097, 0.0287854821495132, -0.017232989749284174, -0.0019225224047321311, 0.02286916318012647, 0.028643777626857332, 0.006236163645333971, -0.003253818171990623, 0.04371925741166694, -0.009614469571330438, -0.03698839531805393, -0.05178716553649436, -0.021546755910706792, -0.04667925937103211, -0.003573515864796531, 0.008917878055041805, -0.015650584435057742, -0.04637657040374471, -0.01341896625432262, 0.01080318890849656, 0.002169583735078003, 0.027652378729058565, 0.016210757809787694, -0.03699653864544744, -0.006819922057775795, 0.021161300073951207, -0.0005452924275180436, -0.05366295822292768, 0.02018205985743343, -0.05747827220470551, 0.04716160499380957, -0.0065222761345505335, -0.01679557295453443, -0.011775184321424232, 0.05102299973805794, 0.06147608491859423, 0.020232813976220433, 0.003941969148359276, -0.04437393796577125, 0.005441614371655657, 0.05222952778641212, 0.037698630978399414, -0.0034758240597279146, -0.05109229168959988, -0.016735976150067413, -0.013932114223613004, 0.0024925391056020334, 0.024102914695653257, 0.031805164713215275, 0.03825249071795961, -0.03187282287156571, 0.019992477141091942, 0.0629840817388377, -0.015240494077708439, -0.022492548342601032, 0.023840713919924816, -0.009721174649955342, -0.028623918174312413, 0.023530102337699293, 0.005854535486698475, 0.042222025460073524, 0.04373591579504362, -0.020815362623815104, -0.051544767906810174, 0.007823679754309585, 0.022544098436128084, -0.04006018725402845, -0.02167118634720896, 0.03338010346743587, -0.07467957760843102, -0.02661919253744784, -0.002121100854790674, -0.030330384159043666, -0.005836023805271555, -0.002726989207492749, -0.026757512191489814, -0.04147314647178695, 0.03503865219229914, 0.025218086732447086, -0.03925735965189209, 0.03801161941853422, 0.0073030142702595535, -0.0052633695385071655, -0.03300953619219237, -0.035150392521970684, -0.02621957790007586, -0.07136845063031512, -0.0056862687412762725, -0.022804420104064065, 0.028712176150903223, 0.002836170559213535, -0.0184360930804112, 0.013504398867030618, 0.06095502082567357, -0.014720330085908855, -0.02731426783041978, 0.03584858510461871, 0.016092093171026996, -0.021416457221911694, -0.009501196931416125, 0.039373947305047154, 0.035626006837267035, -0.038146882964842026, 0.08267068532171626, -0.09152243434479683, 0.005655426473598693, 0.00012429552636947659, 0.007447764185042146, -0.04729505827121576, -0.03146972410543344, 0.022312730875625072, -0.05246415428124061, 0.002685082655620813, 0.01536922216080574, 0.026998580732790434, 0.0173139441819554, 0.003171994837962056, -0.016565068241018686, -0.02677675978381131, 0.005621536830401732, 0.03493975187582598, -0.02373595681003427, 0.021157527104648848, 0.018806631959447657, -0.013196408123655383, 0.008899557787258903, 0.015874916033832325, -0.0036505041497525118, -0.003141142199089176, 0.03371361296136716, -0.043385108947618954, -0.0247679283694826, 0.021495184869520727, 0.013017977439887297, -0.04415070096891179, 0.03141442045717002, 0.006248814475971131, 0.0016035328755905894, 0.03478655884464665, 0.06253047087816611, 0.03228044677674348, 0.0700526897783342, 0.06376637832555727, -0.012345539457864055, 0.015402405703603033, 0.004296151506318004, 0.05497014525255859, -0.018834890571912448, -0.027540076567977464, -0.07098005393620938, -0.004543705635951253, -0.05468974844761688, 0.007658257806086943, 0.10929154213687416, 0.06260265040426313, -0.00013219929700002903, 0.035321413957392155, -0.020983848733912912, -0.018985301982172666, -0.01735642736045805, -0.005441009696244055, 0.014331778122313036, 0.025037512901643594, 0.02225860489099259, 0.011702072530035463, -0.01846803906898582, 0.00805770261268163, 0.04183513507733969, 0.06403667857636212, 0.005176971287170545, -0.06453807661800101, -0.02559107442056732, -0.016335358567653564, -0.007807817884191067, -0.018908735369361336, 0.013192235128819433, 0.09574472124630039, 0.013862374853224401, 0.03768993851872909, -0.0035107014333294055, -0.008343582731098649, -0.0021288096778565623, 0.024172431556774277, 0.010527073272487966, -0.04471353878470389, 0.07808011672298613, 0.012957934335626073, -0.06337210113082327, -0.014347267788848603, 0.03736252473232466, -0.0329923819236419, 0.015552077176450614, -0.023739582223494374, 0.02136918461296074, -0.03971818950408703, 0.04238732459299821, -0.06275690891868818, 0.039000026797533956, -0.03572301951618484, 0.04196284171793032, 0.04239707078323396, -0.03463550191046001, 0.05148135172446947, 0.00012864881721555912, -0.017816624641038135, -0.017948486029615556, -0.01121087115222993, 0.046824697669989736, 0.013577859105818891, 0.08194404034319432, 0.049552405017781985, 0.04436474585422082, 0.0016854734723121165, -0.04005508171418361, 0.013773827559212326, 0.028025413217395056, 0.03167280584969142, 0.019109826967776772], [-0.06253708225927314, -0.04538244945973576, -0.06547152310274942, 0.024319083357257153, 0.0472506625027163, 0.059493532657767585, 0.010466383911040869, 0.02947150021172242, 0.00298061999125349, -0.018682329689161902, 0.08712542218834975, 0.048734229471192644, -0.02144658274902613, -0.08304361847703944, 0.016373399956992114, 0.033812232442099896, 0.017562392750415826, -0.013937866539514811, -0.0074840178371274125, -0.013249579910943486, -0.011153361803379266, -0.007706137317071651, 0.015872097199445993, -0.07136161830368418, -0.017760273464532288, -0.017149403498032158, 0.046053316797496004, 0.005361220152999095, -0.07565812823613823, 0.04882335297861958, -0.00905131976374013, -0.06469789518390244, -0.009405843409721615, -0.030538171775289606, 0.020092239583608194, 0.012251952928535393, -0.03596034399206314, -0.01942941745573289, 0.09148003292562247, 0.00629217075688972, 0.024277864334091636, 0.016972153506370605, 0.01681865899862214, -0.021893118767922996, -0.01125828533748927, 0.03538334228101641, 0.03451581969870206, 0.006036046065994072, 0.0002507657645540238, -0.039073746313159796, 0.09200039146803227, -0.005286958371703687, 0.03295411321172806, 0.0017199045291379402, 0.07068271038567187, 0.011891560797841176, 0.008560688719585433, -0.03453218469363758, 0.0029064927280646404, 0.02336633027708631, -0.055507062513487346, -0.0014655978040914606, 0.025016186980603226, -0.018299436589021906, 0.026045571602091484, -0.03711208635462734, 0.004754026144417846, -0.044803669234138636, 0.046105708696130336, 0.0056507085162336, -0.012982544425404138, 0.07342861179496045, -0.01173237103175077, -0.017640239332054334, 0.031274903688321816, 0.06860753604303767, -0.07031554088235567, -0.010106981853875053, 0.05280421224720795, 0.04351267889239595, 0.02934475790894254, -0.02075389724077006, -0.0227756472481502, -0.005102617405479839, -0.008454875275740228, 0.07675298687675647, -0.024102285869224256, -0.031469877152423116, 0.022660300441755134, -0.005341400450439666, 0.053808281765121584, 0.0678918603767763, -0.03230120239850293, -0.01686382642006303, 0.05111278591643848, -0.00994516248540798, 0.023300054445546763, -0.010509049600701089, -0.012691466029440287, 0.005623781302636002, -0.0009852772380260358, 0.01642347830721456, 0.02847390501447662, 0.06763049521940634, 0.01871152486416238, 0.049458521047738103, 0.038067883599465176, 0.014731169028152998, 0.015387541334277027, 0.03538711215231352, 0.017534798174159427, 0.02082325875160798, 0.01303238154916497, 0.07633676492605031, -0.060896657399066856, 0.002889603998923913, 0.01605827597064834, 0.027789004191798316, -0.04113003150979495, 0.00704586401189702, -0.004362345532851593, -0.04199191987782374, 0.07006782001674575, -0.030619683474847816, 0.05079550363883254, 0.002182697434929509, 0.027056010813132112, 0.052536602629270304, -0.014522785125370957, -0.04199934550673724, -0.017125244271326202, -0.01833693691874989, -0.03828138635328964, -0.032385019554803725, 0.03659320428111995, -0.04418080727069155, 0.019255145234317022, -0.004349810314242577, -0.039275605657431836, -0.034655229171936544, -0.0472971584267365, 0.002552555103224976, -0.024811002469264234, 0.05232151045995049, 0.04443545773172818, 0.024115409529374205, -0.0022969508928965864, -0.06463613947917116, -0.017048841454206858, 0.07540398383120502, -0.02512532321833833, 0.0024086577519823052, -0.011966849157053084, -0.019221200936147487, 0.008578311707117548, 0.07383133593527451, -0.04347678443620414, -0.030294123732779833, -0.018699493381849387, 0.003185694213573968, -0.053361819276242735, -0.04569445710723435, -0.06038069701208546, -0.07923731040304692, -0.030352421463744356, -0.00926883486614368, -0.02813372453085844, 0.0004444087078009638, -0.03732018051045706, 0.06605737715722242, 0.08404394538362013, 0.0026500279760930364, 0.037228238408034506, 0.04709755233300023, 0.008158452348104875, -0.015486410610437165, -0.020720138360632297, 0.08490752114553901, 0.024314974931445705, -0.003996216416450863, 0.032126050345504246, -0.023475927279273157, 0.05223655377640373, -0.03879445944681208, 0.03695510907819993, 0.009310357407021205, -0.019641183136284764, 0.029245842465710582, 0.0019153369145841867, 0.04765490419187067, -0.0778063380276033, 0.016808965972395125, -0.024230928113413094, -0.01640356679986022, -0.03491337889674189, 0.024164053384316025, 0.004452019996954712, 0.06982583506518511, 0.07886193095018688, 0.06023085001174352, -0.04061575555041063, 0.011293556538161867, -0.0337518012033261, -0.06473397441894321, 0.040461297417056, -0.0013815656189408727, 0.08602578388742728, -0.0064041886112259725, 0.013582200429038073, -0.028507510155180125, -0.02070239328717558, -0.009370203787451565, -0.029710990923115573, 0.03924101434801969, 0.02422378944564804, -0.052111118419591054, -0.010694048408699664, -0.04896750462477927, -0.10372832964843315, 0.018934615566654548, 0.014220505700478494, 0.017235963881862253, 0.018660677144625656, -0.016658359855207486, 0.003938241440509728, 0.016428093990258682, 0.012816083846315784, -0.008019083005848361, 0.023304075759023695, -0.03170788274261348, 0.030916413573903467, 0.030317334035947486, 0.0636083689258585, -0.0036994246932341083, -0.010513426289375582, 0.03721840110611929, -0.04735331086591232, -0.03385031407829487, -0.007941095798215057, 0.013321177477536495, -0.029935309156156893, 0.008701301943800182, 0.02960198072637724, -0.03374608834079965, 0.04852887795952867, -0.018903238945294065, 0.06613056231959727, 0.05041945636680129, 0.03413822553319269, 0.025902735844429953, -0.02810417969309737, 0.0333137662917389, 0.06256171314541438, -0.0016761432518377904, -0.0464791683042694, -0.005394052295170237, 0.0009707908210940067, 0.0044610743548283765, 0.04468625867716941, 0.040420364137338606, -0.008112379368516961, -0.012660649868555193, -0.015136723380898285, 0.025111490387866833, 0.03440018063748099, 0.007430794520226233, -0.032525574285289585, 0.02645217691796043, 0.05364184785991223, 0.050937549183918636, 0.026198795253041758, -0.011619510213207049, -0.009205240187664183, -0.005796780491887722, 0.02502337527023658, -0.005391896594643006, -0.027674290669326137, 0.05667884631384274, -0.05444096558607527, 0.0478788400115547, 0.06411898958236603, 0.0406222245624364, 0.009178046533323728, 0.02062217665568871, 0.0018733954374471832, -0.059157787287599094, -0.011999579754028317, 0.01185986514259085, -0.03629290649128674, -0.046758244069208754, 0.058833897286647056, -0.05257673335603524, -0.02229157064356482, 0.0009325477344606662, 0.017898596674222538, -0.0031032922562642807, 0.07630267798860087, -0.006740723813130463, 0.08959250090252255, -0.04831808145481524, 0.004669629878575928, 0.011193531499950256, -0.0011865359789048804, -0.021256310411740937, 0.003803424595897337, 0.07426044783738062, -0.05456289072616194, 0.009844536849962048, 0.05312853958940256, -0.00028183709315005506, 0.0193004881884691, -0.0621023045074051, -0.009914973415363505, 0.012498558671236252, 0.019615024958683024, -0.01473325053060043, -0.012656752476683238, -0.024587682759577737, 0.07357624015468257, -0.04492776374832349, -0.016427342530403264, 0.05897153781328783, 0.021024197118267723, -0.035832970515689455, -0.011249813106571733, -0.012692541856183044, 0.03224881190217917, -0.06957645752129168, -0.02903653594585546, -0.03735621769121573, 0.034369355137491814, 0.02568896938998727, 0.04915977443442859, 0.008554298668237462, -0.025722642935586685, -0.033659441978560266, -0.020111608292663848, -0.037223795538800966, -0.03407133782446436, 0.002793374571681682, -0.07627487818577475, 0.03498522692591183, 0.03435352657812978, 0.01076243536934743, -0.025353516442122793, 0.04040673801116519, 0.046302621925571164, 0.0037071598739009215, -0.056379479857255985, -0.025764422660980526, -0.08292722139296056, -0.0329030818153635, -0.022433058712494593, 0.011821210777108574, 0.000902272921493826, -0.028449305892768645, -0.015030887326665854, -0.0006310970603491335, 0.019581925794698023, -0.04087835860755763, -0.029118534882492882, -0.013468016050868791, 0.008652980499953663, 0.025001928348519147, -0.031133699892250503, -0.03417015058813313, -0.018119438500294117, -0.05401551679129714, -0.015800921115048324, 0.011161733528517724, 0.06127679307690935, -0.007911528999202987, 0.07745265181817193, -0.022362038802096185, -0.027038828200252097, 0.04277607387004656, -0.0026492065740486744, 0.00614503524953692, -0.02670519373680843, 0.04986875522558707, -0.033606320674335964, 0.02872230776568131, -0.053966997891606916, -0.02556252359413293, -0.04085991073660829, -0.022593481982722336, 0.03081475917175581, -0.0011321698050415511, -0.020509803973998705, -0.007804223111647061, -0.0717240226022998, -0.034726506905016566, 0.018647914128895143, 0.06933110210309436, 0.013240097862683204, 0.016840223842870032, -0.0022592902263631988, 0.03030428635772895, -0.027003521933597112, -0.05302428743026487, 0.05577732056750099, 0.025405108129915744, 0.03456449616867442, 0.01759147450554296, -0.030213457893493532, 0.09186339180665491, -0.016624735777954414, -0.00674893113260869, -0.04741076893514946, 0.028862177799479857, -0.04209818616978477, 0.03403237938987309, 0.013059395958050873, -0.017323949440174145, -0.04006369778808561, -0.03541940117901281, -0.04739048002071211, -0.038312922637498255, -0.020360321922592288, -0.01478924214786437, -0.009527742193883606, 0.04962277875884521, -0.059180851028856354, 0.005393164275763496, 0.008098243159662602, 0.02368410218192771, -0.02196931286474932, -0.05252101106700574, 0.009087401405754633, -0.0020526226541909857, 0.020773136374826535, -0.07438496070255417, -0.05631650151693858, -0.0428014144874606, -0.008991738747787281, -0.0691669715331072, -0.027634682770959255, -0.001179773782895088, 0.01196298285843753, -0.02550226543837042, -0.02032365668503266, 0.03794422225528944, 0.034026498807024595, -0.01468061276653934, 0.02153326294569161, 0.09834749016461561, -0.004799896322239579, 0.04251638688808752, 0.03491359450726089, 0.015222107948800261, -0.043668174540790174, -0.04679440618065497, 0.021054731603505687, -0.029158676940144977, 0.03690056867486401, 0.0475678313251076, -0.010107784271943083, 0.03655996335632328, -0.04518977618015265, 0.00966417321820189, -0.03739819828711436, 0.007147371201423676, -0.037464683343788364, -0.0021009899597280927, 0.044439568858124834, 0.027652074165055864, -0.01519697586006075, 0.00034396404642799853, -0.02840221008908043, -0.02826345302842608, -0.03258957468073833, -0.04213949020579718, 0.04952703066090652, 0.005817450182527254, -0.0022078944605443923, 0.0014668153148099654, -0.02839682042568179, -0.029094669811371664, -0.013101995272182214, -0.012542908140276891, 0.0037477877041024407, 0.031877581620142474, 0.012014459272550914, 0.005520838801593537, -0.027409034711905613, -0.02089539435883495, 0.007287791976102587, 0.014848396937728908, -0.05270329758593366, -0.02747406161608155, 0.04734058862286332, 0.047355923958923234, -0.008068847265337667, -0.0029452461590849166, -0.03536328291674716, -0.023121638542665267, 0.007602542428077535, 0.02518849051987419, 0.05567953296973579, 0.011094256961511863, 0.010314887698880098, -0.01820700417528553, 0.02187379692324435, -0.0512359815466765, 0.00646759519669827, 0.01164796685090692, 0.039299695304108255, 0.04640223951929347, -0.012193121049967542, 0.05716088655293702, 0.08225394352226015, -0.04465740374658443, 0.020165165077710625, 0.05301877058185073, -0.038742768391022545, -0.028881465103488983, -0.05287603067031356, 0.031552827361536806, -0.06951931795202514, -0.004293593010989414, 0.034002804685078686, -0.018966766926165928, -0.021538458608861468, -0.07069913698463519, 0.014904118924154325, 0.030736865362930212, 0.024151507142025443, -0.06136448334072546, -0.022018367119728956, 0.002532113492453627, -0.05699721589158554, -0.06692851709900234, -0.05463146524086646, -0.006172705113368038, -0.037225577813104045, -0.03394836466773079, -0.013201240587513178, -0.09980566531272164, 0.021785321793258355, -0.03413784991621592, 0.07194373381096267, -0.03519646637303039, -0.04032130214390701, -0.03650461802072369, -0.02713475300195234, -0.0112433612258962, -0.017656149808911135, 0.02045018528314522, -0.029985823374011514, 0.033428072538621706, -0.026153618616888804, 0.018792523015774498, -0.050071946655880585, 0.0024326795205533483, -0.010473866889045553, -0.006507072150350213, -0.024811008074147597, 0.02842689487851604, 0.005160182298863648, 0.011758175472105625, -0.0015983555856901343, -0.04194524138990086, -0.012349213607984284, -0.014921299198525603, -0.010566536650191643, 0.01964644595594025, -0.01387523920480098, 0.019742805918383646, 0.01651344720038814, -0.007100063761551395, -0.06460931482439258, -0.012725746928295714, 0.023677171127262513, -0.01740800914432208, 0.022803808432739072, 0.03644773731072899, 0.036238604759421436, -0.0026398251600244916, 0.011259842150933721, 0.017103700730482008, -0.009145853117479053, 0.04341540431580281, 0.06664964372867152, -0.002467469513932071, 0.017779671498404846, -0.02737616995296852, -0.003074398773215509, 0.052898743377847626, 0.02373658308523231, -0.021756469975995375, -0.028133389772276012, 0.012562038543598667, 0.022328352458990085, 0.019174832425176497, -0.0984642860451758, 0.01954240764093596, -0.007074494879289864, 0.05218800931269317, -0.031479992998651125, -0.0047849005932757895, -0.02336822535767847, 0.05237511520149757, 0.025545780860388802, 0.015951145385723342, -0.022961847152401366, -0.01254140978398588, 0.07502103312180661, 0.019913632046421527, -0.02852537266076984, 0.025204973953592218, 0.020246098109766564, 0.032673881327752355, 0.03508753826523366, 0.03369065487088182, -0.03893911992761938, 0.0044264290406580255, -0.012043030796430973, -0.029040284435512872, -0.014135442039526045, 0.046563782144404355, 0.023440786716005656, 0.012085683489272164, -0.051338523957416386, 0.0024093382313629488, -0.00141829091647148, -0.011090921959788136, -0.0061819756331874375, -0.062107534367168815, -0.05141568700460653, -0.00015044562764670566, -0.003605632451321929, 0.043595933869492495, -0.03079361593600386, 0.0031227528652929236, -0.029523674633910518, -0.016665220414658708, 0.005803747890481874, 0.00475404219606112, 0.03691274925196157, -0.030857854169333378, 0.020207394399600207, -0.02794688127282427, 0.03809924538035438, 0.03505072736666092, -0.012337202081719402, -0.005577621969558385, 0.03283143443213537, -0.021745435553687287, 0.00229750842967234, -0.05179122352901534, -0.015880757569767347, 0.012892349122191374, -0.04362041309460598, -0.021978159133679984, -0.02554197694476829, -0.05607786205820814, -0.036394216501491265, -0.03329052823409144, 0.026106583205695706, 2.0450908123740847e-05, -0.029218879295856964, -0.0013050326548737184, 0.04859010035302378, 0.00459122607355912, -0.01744030117989718, 0.0544042835699858, -0.040036766811188194, 0.021878129204659418, 0.08013255941895207, -0.06281411544892293, -0.028887439775806645, 0.013019881407869457, 0.0293831298948058, 0.026140168325104164, 0.054069619728035666, -0.011622306359809277, -0.0309876567245271, -0.007017079521101814, 0.06312097315976513, -0.03549020991170034, -0.03576465910698493, 0.00386780676203721, -0.08009369212451496, 0.0012790801870668168, 0.02024364619646643, -0.023813222489848275, -0.012084214174225106, 0.01052696694764131, 0.0351531867464527, -0.009781899528292974, 0.002433088537080482, -0.060936576377195906, -0.02294981877275304, 0.02054176659452659, -0.054078433280346415, -0.0188632494590723, 0.05210059289403756, -0.005594144469482906, 0.020339440139675015, -0.032884362030515576, 0.01894076223485097, -0.07151565670092494, 0.012788193018178892, 0.04387603073357605, 0.0038720944621978043, -0.02213439088979206, 0.039389170191079306, 0.05620339156204148, 0.014705021799105962, 0.021316042720058086, 0.004770176757232778, 0.02112013281220278, -0.009481610992040587, -0.014844503737559283, -0.014274407023557202, -0.009845537131380663, 0.003055891141600803, -0.030813640991770138, 0.010953075425211196, -0.021277367780159994, -0.021665421973343837, 0.02981896810356782, 0.022698396320813524, 0.005509883373865698, -0.054402738248051204, -0.017424866607881034, 0.0008591789236163269, -0.029215368104452067, 0.00618441690093196, 0.05062873068561274, -0.05885462728829317, 0.004382509590110855, 0.009221957180998813, 0.0517702877125607, 0.05048284916821873, 0.06446396514035775, -0.08651601578340064, -0.014229863525194005, 0.01032436776385803, -0.038256325969312936, 0.03515958901635502, 0.005316317750500539, 0.07048502066991326, 0.05001812012329322, 0.057910298831815185, -0.02524234097101178, -0.0044700152329921325, -0.048761030548908055, -0.045555318396045874, -0.008881735484012273, -0.0065486879730396194, -0.0019480253374573441, -0.020706946116251127, 0.014050403212553728, -0.01600859456497223, 0.021796077123836882, 0.0030102585678046683, 0.06572720260343522, -0.08694476589566769, 0.0018686470368253951, -0.03475701026642599, -0.06903965172568148, 0.07057170429881944, 0.03463614062203821, 0.04254194269168642, -0.041099064450663685, -0.01747397746912821, -0.010679453483033579, -0.014973387477212703, -0.04002354010147895, 0.030070048219930468, 0.014324484321886979, 0.016507069996134906, -0.04315113011974362, -0.036571224313566235, -0.010130689638750337, -0.002265834855888241, -0.04860652100085368, 0.006581015043825677, -0.0305099601473322, 0.008347467308183042, 0.03213807074306927, 0.04208512567538912, -0.06111223417245383], [-0.0036385606264256196, 0.006517701227506093, -0.011917736097105391, 0.01932819793346272, 0.07880048698792828, -0.017980144551221953, 0.019424721096310334, -0.046134872139979084, -0.01778086816877344, -0.012929045006917604, 0.020715995147604586, 0.06989170237023774, -0.05336388606646952, 0.01654759507468396, -0.015170275941370421, 0.023920447927281818, 0.04043592273841238, -0.023537211036107144, -0.028566388751383266, -0.012186833673749438, -0.009349685994888658, -0.020369891167253993, 0.03679297948674478, -0.027896010559374677, -0.01654994063141258, -0.05007174242276587, 0.07304902669064488, -0.056235392011317296, 0.009570942144656957, 0.003719861553453747, -0.05090996112859323, -0.007397198029585613, -0.0006357282989910507, 0.05185544377563632, 0.01445338707912947, -0.06792718655536648, 0.04226243176226781, 0.01834949672582954, -0.12104388716016214, 0.006033248481426395, -0.01222640662100745, 0.027477104590909074, -0.03580629333681362, -0.020229815845914174, -0.05641350099472348, 0.0015090939893032315, 0.011089144958091518, 0.01887173293407771, 0.014693256154960328, 0.05870323543271372, -0.06632208461407021, -0.022446421531314497, 0.01841934217915364, 0.0025938235432130022, 0.01134869314785641, 0.0036183186556433137, -0.0066407814139461795, -0.029753602795055147, -0.03618054310464357, 0.04517840031054581, -0.029206378046831925, 0.0073566094412978135, -5.654788609749547e-05, 0.03971218116840981, -0.001674324087812642, -0.01952916797936532, 0.0185901952276644, -0.021997408081502516, -0.013004308817846507, -0.026729246133125183, 0.0077444359048107975, -0.02547285396997015, 0.0682821550267533, -0.01271378294895333, 0.023926038452830128, 0.01293884751572003, -0.0033038301347531663, -0.028987020495208127, -0.009222195961223192, -0.00854416603546015, 0.02566113727205336, -0.02913442403074807, 0.022569340915411736, 0.01449554784844004, 0.018069321871515113, -0.05615978871868404, 0.012742471633290012, -0.013742387821417418, 0.022981066167148182, 0.05320560279721994, 4.9964113868376145e-05, 0.05180918446088324, 0.0573770865477385, 0.018476713062448417, 0.005919406556253419, 0.019979896898882955, -0.002945162142418908, 0.025633071176421728, 0.014971983862334, 0.024044881882841904, 0.004266957390840614, 0.016790438171516826, 0.013557440820422373, -0.013727237170809172, 0.035288832681529964, 0.045956228147434185, 0.023501595505579672, 0.02221785369463856, 0.011707253813448903, 0.030011387703668686, 0.03662030909155944, -0.0459810381179213, -0.020970907137952542, 0.011613605301384337, -0.00688509646630269, 0.04596165665412215, 0.04305627683882558, -0.046507765689160874, 0.055745142843403574, -0.03680329024692857, 0.02993579733359328, 0.031248234862841624, -0.021331059171981515, -0.020052438023609866, 0.02099834195271794, 0.060367822343648354, 0.0008763500168271391, 0.088298324020755, 0.011344084671593502, -0.04935382343160176, -0.0008832452051090407, -0.046161214358827134, 0.017390673610312945, -0.05015957608351483, 0.04457948422956042, -0.02313783318490021, -0.04478683310577107, -0.09732582883404164, 0.023971377637416306, -0.043684504548646926, -0.08185399454009538, -0.08643337245423159, -0.023703165917876943, -0.0242520646347075, 0.013665420488002468, 0.00486220687741623, 0.03108026397980018, 0.008889745427547025, -0.006595976295769921, 0.009918486507756053, -0.012852130693491249, 0.03239703317482465, 0.018667330442705705, 0.002946999940291065, 0.03539773706156182, 0.024245904135735175, -0.026094487098557172, 0.015756828419796885, -0.009387625165811332, -0.010624480284446652, 0.009185828719412597, -0.08835350346959359, 0.042298792294113964, -0.045091995138574315, 0.011443292352638957, 0.03782870795919467, -0.01679178913414776, -0.004222972135082372, -0.06531672240969205, 0.0225675771343008, -0.03314598789505593, -0.019267088991288466, -0.005815329113350912, -0.01476674692373607, -0.04783780796304408, 0.012814527682233354, -0.06114616185866467, -0.010598893585910863, -0.0026131512252200685, -0.03509764811046895, 0.009499574117575115, 0.06517324958013185, 0.006847073314786884, 0.01807487595200111, 0.010532943417086531, 0.05677417843930991, 0.046622743967944545, -0.030950509059203914, -0.03438475036040676, 0.045508214741865484, 0.0037870189033938017, 0.016220570874456806, -0.028130537024942424, -0.02372579281278789, -0.05109746214606041, 0.061005185239533036, -0.01505986783000536, -0.010387831909048498, -0.021113696549214713, -0.005054549338200897, -0.055179212586037085, -0.007428626908570596, 0.024499221266862218, -0.051743173946573955, -0.09772844708170461, 0.014187000548166573, -0.013675634785042124, 0.019676784039886267, -0.07578085189541083, -0.030826434044019378, 0.023351238808622166, -0.04209946199545174, -0.01737560359751507, -0.028515520245631334, 0.0055249952579319115, -0.04484307988830894, -0.01575242947207462, 0.020898795356855928, 0.015208956527895117, 0.013619035175354689, 0.00957425935739105, 0.005052478847081202, 0.028782987183909002, -0.004971380508878999, -0.0076917024193096165, -0.03369747003902897, -0.013072352588324052, 0.0257149535285008, -0.022116877920140447, -0.0009108041042618078, 0.022102608855603372, 0.022382836107025576, 0.0715205508826922, 0.0007743478715196244, 0.005056323976470134, -0.03961509697738829, -0.04366861009151586, 0.040384115415624255, 0.010686784669764601, -0.05437202007468661, 0.03382894012368181, 0.0210326038748093, 0.02021498975410565, 0.04611092449357857, 0.03771833270047941, 0.02829335500745333, 0.040815372486180904, -0.035297367949850014, -0.02367086952848296, 0.06973452817105731, 0.023939950830450554, 0.03272641140261627, -0.02797516157802603, 0.08298243213002375, -0.007349947071048987, -0.022369222553589585, 0.03553331480104521, -0.01636173811815497, 0.015458422832806365, -0.05892589503297242, 0.03739857363390238, 0.040708086606692506, -0.04237735202502026, 0.010728867020287672, 0.007137666029330958, 0.06336631854019058, -0.00044875717952783036, 0.06939300029157819, -0.0035912306728280293, -0.037615369369652485, -0.025698715003986104, -0.03575222271508727, -0.035914458087991506, -0.031339160082182786, -0.019767354952118833, 0.05548407762220436, 0.04034522053672195, 0.02670426689206356, 0.006285346657421163, -0.027877945711231665, 0.03401095185573149, -0.020581368453362163, -0.01924718363771178, -0.033487494427347324, 0.035904487442578445, -0.021985370956214667, 0.013595281227911126, 0.07742922550427034, -0.0006148330053882824, 0.00035905250738921447, -0.010267241295427002, -0.08436098648318822, -0.009931171280811292, -0.008505451460316409, -0.012519965593579712, 0.06701775697592931, -0.008676090742860099, 0.0015636889228978165, 0.01019646894274893, -0.001304501905269125, -0.026943699112883045, -0.02038408504826253, -0.04948490297334128, 0.011256166257835447, -0.03421303900350488, 0.02048021150743917, -0.04548212488467324, 0.036966346532003584, 0.033235552610465055, -0.0046845369214264755, 0.04177888376141598, -0.034984069080799624, 0.01531334076700988, -0.011509656044787547, 0.02139797872702348, -0.01550906482380782, 0.07262551950478568, 0.05607851077744038, 0.01656707060887565, -0.01602595526528269, -0.025990963125979122, 0.014285945972195327, -0.06423723314333239, -0.010340161382019727, 0.03970347631971483, 0.009272627526700352, -0.0005844033253320314, -0.03700470778613891, 0.009455031022568677, -0.010470241257974558, 0.08032653235577204, -0.046262192127926496, -0.013354529474725459, -0.009294905777840473, -0.01862234781195238, 0.004021472789009635, 0.044638423616161285, -0.019725535720179255, 0.025796463930673065, -0.04348905405844844, -0.02044925961106001, 0.03353898904384051, -0.004267406840641934, 0.012429672839891947, -0.002062666755184974, -0.007978994526631675, -0.014507687170560144, -0.025297102044056, -0.011692324610907284, 0.04787626307109115, -0.037390444259564, -0.005249004805147112, -0.021671928421685083, -0.044571557717757546, -0.011803934195076205, 0.00896280621502509, 0.0066411279404062955, -0.012368476174092953, -0.04081793545617588, 0.045815386273800184, -0.0408552188828862, 0.08477173861300598, 0.04451656901372253, -0.019817951424389635, 0.0060840044120125695, -0.03749934341870438, 0.03840185315676976, 0.007404714310024779, -0.0350876340922283, 0.015274695979753955, -0.015555093380141603, 0.022297539301789775, -0.01277951411694385, 0.03251485203124299, -0.06442650654067948, -0.030039821409494093, 0.054798539587867456, -0.033812623426794024, 0.0023548061397118784, -0.04258743525982273, -0.08476403623259564, 0.011940481759034501, -0.033067018070412825, -0.07314669356190438, -0.012049424705367285, 0.0011155429449880678, 0.030700746197048323, -0.07448466168429448, -0.01824514688686782, 0.040019644015047005, 0.059798137481469074, -0.01740295370281741, -0.02615684942153617, -0.005730549638685135, -0.08015665822131936, 0.0826947456810595, -0.06828395595696317, 0.027580134125279956, 0.0388945920564453, -0.02599607527437951, -0.03883133038450927, 0.012043980415696185, -0.03904585951341537, 0.01647391093419914, 0.03971801519204365, -0.004976136798994084, 0.01489340658011769, 0.0003703645230133027, -0.0031879983493569744, -0.023481191854271364, 0.00039929041493354716, 0.0001573201444487309, -0.019839770323572956, 0.08502506558220053, 0.020178833438114736, 0.013396670416571988, 0.032181019971845096, -0.06456662412815771, 0.025907955530680257, -0.03139622250999561, -0.017641316993378606, -0.02578631827003658, -0.04200628233898825, -0.03343497027742421, 0.02741011996870833, -0.01874864304033055, 0.014875046767226785, -0.001199957170036073, 0.015944473614617923, -0.02334514307675267, -0.02887236247351293, 0.04554318310684648, -0.02266120155795249, -0.059028230162936235, -0.047280819328289876, -0.019704474470223804, 0.03727207472361181, 0.03645707102113771, -0.03240003846630054, 0.06252962094896744, 0.01940309325992064, 0.026052816501172842, 0.015476483845663002, 0.0008975916509001253, -0.05022404497458335, -0.07078426964252538, -0.04587570568876277, -0.018789662489934363, 0.04370850143391508, -0.005850447046322829, -0.009068325474724043, 0.05331052141036271, 0.058833730765798634, -0.012575456383222067, 0.009962200621226255, 0.007711202635261888, 0.008527982213092476, -0.006844027577041355, -0.02612482967303132, -0.06365668407338154, 0.0018746840969368257, -0.010348059654420297, -0.021086859133541924, -0.03312915272807721, 0.02838493158789982, -0.016626654815210393, 0.03985409877892749, 0.02692077457271436, 0.008680107989613373, 0.06712243345803184, 0.011794777398327618, -0.03761250957398693, -0.016760950994158037, 0.010530620553196089, -0.039142659639898617, -0.02223042028096447, -0.007963226925450807, 0.011996868013341596, -0.019329192527752958, 0.01453652146611131, -0.04152836864999906, -0.013347868878545525, 0.04087171245444316, -0.024376811527739205, -0.009008578162366531, -0.010932930331937601, -0.03061534505460764, 