{"biases": [[[0.5728986104014744], [0.3665044759274206], [-2.1071565715939187], [-1.0631291933627887], [-0.13497245640793112], [-0.013352042323250676], [0.023174816082953548], [1.402339113744843], [1.0380906481106842], [-0.5587519079954169], [-0.10453160634250921], [0.8311808327298256], [0.18100968059428657], [1.0022756265033657], [1.1542694997270224], [-0.27685756046623383], [-1.671126017746063], [1.5903938165353975], [0.14679336925504075], [1.5376272949963885], [-2.438526073098389], [-0.8669553536325002], [-0.58871504494078], [-0.005319527588333239], [0.793848338366984], [0.9210894218786468], [0.1839038036244144], [1.9315565137414497], [0.37778305153756425], [-1.0487064822470695], [-1.181619659257442], [-0.059475476306171254], [0.6215968886357476], [-0.25934957757982113], [-0.08507816318123829], [-0.6604103947428676], [1.0188582464022862], [-0.06102357568518751], [1.4243361798432292], [0.7597998395390211], [-0.5061224024578233], [0.30830466239189247], [-1.0290551409242599], [1.5749566436520162], [-0.28782925238242346], [0.5774215522154399], [-1.2068612804522263], [1.3098195761683333], [0.7250800332770911], [-0.9885484750361241], [-0.5547653659867481], [-0.40313821521155774], [-0.17495719178753286], [-0.7514041912616397], [-0.2904004392996291], [0.3889910629667756], [-0.08954957432767205], [0.05600062307502937], [-0.3992962920495558], [-1.014571192567781], [0.6424995192747449], [-0.6577223342015325], [0.5808305680966055], [1.4147172565857864], [-0.2643801220223311], [0.4990028767419454], [-0.7067939314482877], [-1.0722092940331243], [-0.922002880773758], [1.3013567436257745], [-0.7590909477417], [-1.9075602788422863], [-1.9178250867022197], [-1.384163300277229], [-1.4131344604139122], [2.0022139312922467], [-0.012792501556095737], [-1.5377351762459426], [0.34536094998711825], [-2.018849427685664], [1.2742162285098535], [0.06899408486038133], [0.6382758561558771], [-0.24652202056667083], [0.46966748061795904], [-1.1895052975965437], [0.4716198493732684], [-0.9683374897151431], [1.3275064489566732], [-0.23458431804183522], [1.205522376185128], [1.2175660779267699], [0.9411298852519996], [-0.5696292584432884], [-0.3093013623062739], [-0.00982942470232773], [0.2884948706145988], [0.408243349519999], [0.39360680529108394], [0.01601411063649963]], [[1.3077826876145713], [-1.5068182527692116], [-0.17946552281464329], [-0.2316571417680957], [-0.540046813659825], [2.181213568153734], [0.5648171904593856], [-1.4269985710582191], [-0.7390767819596968], [-0.8368072746485462]]], "sizes": [784, 100, 10], "cost": "QuadraticCost", "weights": [[[0.06329655766206081, 0.06496425238874534, -0.036299495949081016, -0.03246680872453898, -0.0008465342713993727, -0.01083206283382417, 0.010751399268323346, -0.04064028271194357, 0.016132958597283812, 0.049466423257244534, -0.002874151516877181, 0.023214013780372557, 0.012530900679681784, 0.07005116600813871, 0.04315978433348695, -0.05164849682883551, -0.016025629206344656, -0.0028430408066277384, 0.013152765106185241, 0.01649219335435357, 0.01541620546339541, 0.0021976302218754172, -0.027198320790347695, 0.11189264801161206, -0.05157175821246417, -0.0461720546732954, 0.03230364255131854, -0.02380952745916739, 0.0025525955076441016, -0.019709633827434736, 0.00040582478564957567, -0.029816884199239408, -0.012540015586753748, 0.004825964971958667, 0.05583507133858851, 0.058208150159821344, -0.05817464936923845, -0.04164426742055612, 0.013670771677844917, -0.012208933369435834, 0.043843985114211295, -0.006295147779683326, 0.07018324221895644, -0.02861025929308646, 0.07023208433654249, -0.016230012313294965, -0.010624539027434739, -0.01754587956173106, -0.010596271254437559, 0.03413424801091112, 0.01797937814419843, -0.020842162564022798, 0.00781333831282075, -0.07167086942735816, 0.01298460755568008, 0.036572833224341746, -0.014928542383465696, 0.010918356537790953, 0.028751146191164166, -0.025514290093578456, -0.001111207839717098, 0.023918930003644277, -0.013996765489701352, -0.0018202691140759182, 0.05270238700880546, -0.006152578478955994, -0.05694890031998893, -0.005047509865198013, -0.011647279227731778, 0.014981460608695684, -0.038566198613897026, 0.03680623738448761, 0.023562043439852492, 0.041968614775398705, 0.0368135711521887, -0.01947977537148444, 0.002417463431411236, 0.01642505239532881, 0.008228299837118197, 0.0219035085958296, -0.025991422598010922, -0.022245722252765488, 0.05768872240646975, 0.045571275338520956, -0.00340700418643429, 0.025502755782447206, 0.014939616586888528, 0.05551460894208584, -0.029959166378755408, -0.032866792819877685, 0.05633621633279091, 0.050345559913241876, -0.0006327897124254337, -0.03493185512313612, -0.02253126536349903, 0.006140530967901012, 0.03768373612998279, -0.008916128547002997, -0.021106061454284803, -0.018427118996846015, -0.0005378075411044813, 0.03187866617103087, -0.005572783181229331, 0.0013915307952797466, -0.02923568939661183, 0.014598806807420345, -0.04968231929028648, 0.026518280499129493, 0.025049583555115013, -0.019310167999423953, -0.016308422127742955, -0.030872545669652442, 0.0004963694621755424, 0.00650387921888395, 0.06682097422814505, 0.00931639554398023, -0.05318301735013366, -0.003663085660939283, -0.014559319225300857, -0.035936934333064545, -0.03546343750476615, 0.004522403757730323, 0.02577469971981037, 0.03784778752885427, 0.0503443478102143, 0.024804241690741143, 0.021351831636189977, -0.013441402479652495, -0.07951410317898953, 0.07112689554405062, -0.021737286986680225, -0.018323210560923776, -0.003945092618233683, 0.06846431194428163, -0.022091091303980282, 0.03302757307792916, -0.019378007618684603, 0.041449888819172234, 0.00845943505569777, 0.007446022430967841, -0.001744469005470899, 0.032145562244167314, 0.00258494450154062, -0.03598564345004366, -0.02019221853679709, 0.03325109195468074, 0.0517208378538665, 0.049153322001619974, 0.021549156151903153, 0.0023187229778097412, -0.04823578768459314, -0.06900753043699985, 0.014079600822577537, -0.000815501063184951, 0.007156637328964039, -0.055541729499744064, 0.008324579501834531, -0.003323563892246876, 0.0015861627670966385, 0.05758063537182808, 0.0009798763015799353, -0.04751578601732997, 0.006776946381447794, 0.019129948636977263, 0.02050844688243682, -0.05084841708441199, -0.03844858230795804, -0.04816958579517401, 0.0009732202050724115, 0.032897590316104605, -0.02612828933677701, -0.035531197857266654, -0.07968005375982475, 0.006756604527886586, 0.06581409189522457, 0.003494122040970937, 0.05345639223775294, 0.06834383478311555, 0.015038571211302379, -0.02366068358970155, 0.0009270622978351206, 0.03123160864017067, -0.0029228654185494527, 0.00829280782122281, 0.008659507876145193, -0.013632347048840115, -0.023413346024299213, -0.008915036339657505, 0.05653688646689479, -0.020184799889119736, 0.030877053572569316, -0.017589806867665224, 0.07009281868726677, -0.030095730477715566, -0.017369543931836554, 0.061678575510895214, -0.05075617042544593, -0.03413094639896041, -0.04452783547034795, 0.008637386857853122, 0.043863015335402274, -0.007951065716763276, -0.046788465588538906, -0.03106859710244919, -0.056345920666652095, 0.04273964591021533, -0.006316075626776154, -0.05392777460240143, 0.0033959649150269882, -0.02354448701684313, 0.006053461712244337, -0.0016893403049050054, 0.001829073199502962, 0.04771519716695518, 0.007078599573660196, 0.04862979569555436, 0.009536257747362335, 0.01889091421740539, 0.012840335810996974, -0.027434494931705748, 0.0638688725908836, 0.026457472806794984, -0.10182671808741862, 0.0245129361048815, 0.018406469918839097, 0.008281494845982415, -0.012459861807363635, 0.011132952702350653, -0.07885585778207875, 0.05646471208758997, -0.009349851108164605, -0.03160364475700945, -0.02265846217252423, 0.0016414767678370687, -0.02534942387924529, 0.02452897410176062, -0.03599249894327699, -0.038719193920377946, -0.0013732707659687474, -0.03964880327308928, 0.016736254938076584, -0.04349226200670729, -0.0011242152787755563, 0.03593647382111102, 0.032642340406409134, -0.020773771810171867, 0.04375113569901384, 0.03159872330006758, 0.030736657204899275, 0.027922814882078296, -0.006546085511694019, 0.03682075374065232, -0.03625840543844707, 0.033705160928584665, -0.02073781953559087, -0.046908540892057704, 0.018670110912696793, 0.061793624256331114, -0.040540764226993306, 0.002423116724069365, -0.02440771838180006, -0.036772949597818634, -0.03578453590917076, 0.028690581471350913, 0.007834461819353135, -0.0029909443406044016, -0.03499928117857852, -0.01720174673276483, -0.05700850261589653, 0.0553858874443483, -0.09568206782310343, 0.019562511050213276, 0.021609103245774135, 0.009505418742059858, -0.023262333491812903, 0.04410939719672298, -0.030534804291904964, 0.08127559563749866, 0.041454785719784434, -0.010487601324274119, -0.0821891650464951, 0.0021030872520344033, -0.02476592354881712, -0.03142442340437203, 0.07304389089702766, 0.026814428435096897, 0.04056512080369685, 0.01804937971786089, -0.022968784526909803, -0.04432686543501362, 0.0263533852118212, -0.0024477979603154646, 0.01300689229363235, -0.04052173275701759, -0.01932021614426781, -0.03726649278085605, -0.04432790192275412, -0.006372741855935417, 0.01866612988246476, 0.026031465284653704, 0.043586552815089864, 0.01205281700919741, 0.018840037141514058, 0.04962520310520329, 0.018792441904664704, -0.006212952888549031, 0.020999033869409534, -0.010291558328546748, -0.015172186659484495, 0.018653813541540724, 0.1250101581609483, -0.014519980015099207, 0.01345298280511761, 0.0035722918895294215, 0.01844240561441225, 0.04036019358737795, -0.04822760594688489, 0.0028185101969223332, -0.026757125510858893, -0.01691958050893753, -0.009157725628967247, 0.006770568306483185, 0.008677819870197273, 0.025888079216560538, -0.0016917126115166214, 0.011263819055077628, -0.027930782639153533, 0.009939455437554536, 0.0275417423599528, -0.057365082141641696, -0.03198563886745422, -0.00042419172620034756, -0.06390992674721774, -0.036896430914401056, -0.040325651342047464, -0.04702041599465089, 0.031628725407673496, -0.01846469690345936, 0.001209617130669982, 0.07036434524528025, -0.013854008842847931, 0.0008373986523443407, -0.03226009764597619, 0.02106029684542284, 0.03533141216061055, 0.017595950242899675, -0.005303419547837409, -0.007355554183834774, 0.0006945975529839089, 0.038725852600071546, 0.04404970598551966, 0.0038331869446328573, -0.04094233468024572, -0.03184547684847279, -0.011255341978510872, -0.042287889997328555, 0.06149056520959952, -0.07470128071629271, 0.02250819380527618, 0.024853316394723556, 0.022843064249787576, 0.0008745583537121188, 0.056085780701805255, -0.009425234115333967, -0.022087959937064278, -0.0031616946313919136, -0.04148031165074983, 0.00275364053487639, -0.030095176912185193, -0.04763387283573572, 0.022557821176201174, 0.011538784977091059, -0.03901932044864934, 0.08302098842020557, 0.009602259851705193, 0.010229184425703705, 0.08104056934258574, 0.03129407293203648, 0.043629234390756375, 0.016264618516177172, -0.018265345575953402, 0.039575731633009884, -0.06958238280295259, -0.030910885922925378, 0.06613572543215132, -0.04020124574857121, -0.010979530708670174, -0.009063697302010404, -0.03737634791999035, 0.045922269672933155, -0.017822005721420394, 0.11795408531822764, 0.0661234582135194, 0.03132421434507066, -0.03317094370812662, -0.04503223571190632, -0.058089614041427144, -0.0709913852958028, 0.05877607592052869, -0.028127892535556063, -0.0645512827706907, 0.016436313968701884, 0.00843807758671644, -0.03395788760935476, 0.0308777952852387, -0.11029194690149355, -0.029672207637703542, 0.02340701051072661, -0.02139514780752083, 0.004861568686667148, 0.02991617067940038, 0.011718412417063286, 0.03290007933993745, -0.05602811534828787, -0.028203813749509504, -0.010863368620049734, 0.0029783787919256915, -0.016026328324825333, 0.05205067538333345, 0.008154376332490183, -0.007205313955609812, -0.02199784034658842, 0.018981869095103746, -0.03200358931232273, 0.036320643206219076, 0.017994737608597596, -0.0013126927141927207, 0.0319088579045289, 0.05057100803407052, -0.05535638961927613, -0.004497195689613306, 0.04281275653295395, 0.06241525861552173, -0.0038377823107258323, 0.02088030367510228, -0.0007666643073624754, 0.007362330861240578, -0.0008236632348273923, 0.02925445588339143, -0.07570001170004538, 0.04495872893237436, 0.025265854484460764, -0.05206669218977699, -0.04172527599007222, 0.0030793451786362983, -0.0515541660517677, 0.023402936933849507, -0.025255866045568367, -0.002546781678202497, 0.040541163347209926, 0.044529086531295385, -0.008772205971616044, 0.019821722435323604, 0.02203658585130266, -0.013373047770602775, 0.008731178413055898, 0.05357906235231754, 0.030024861502172196, 0.010144668683854084, 0.0047190582254272645, -0.05865010417912956, 0.02564691262180724, -0.00251554105504839, 0.023518849226835954, -0.04516531858012498, -0.014886624414498057, 0.04854499429474388, 0.014246912091077356, 0.003121874329545237, 0.016747338614592485, 0.020419694700178456, 0.07148204891390783, 0.001177997527094717, 0.03156180466141701, 0.03897147503432997, 0.003893437779644611, 0.009959390057330394, 0.018659142053602733, 0.007939285058419742, 0.015960580601609715, 0.0380711686124121, -0.04524296131146671, -0.03467298721787103, -0.017599670328744, -0.015309988155677927, 0.009890547567227664, 0.012979013572518272, -0.004947897419916384, -0.02697018143514973, 0.005235983420273481, -0.027570556922133043, -0.03770354601869382, 0.02692374284793719, -0.016940049858974206, -0.008793988211406652, 0.00415509545644528, -0.043521642516915635, -0.015825020397985026, 0.0009641657947902477, 0.05369777980971017, 0.003148927973455931, 0.026083962633697444, 0.05087365396843597, -0.054429829468424076, -0.0795596955515864, 0.047869151720624205, -0.13240178986241236, 0.05114026956306749, -0.04796991304190242, 0.10577262799898368, 0.015666842446417004, 0.04789462152064451, 0.009368800100875613, -0.012355496060993666, 0.01214790896388877, -0.0035503792033719853, -0.05767694351628067, 0.03232060796248089, -0.02076798894663965, -0.03575663680509169, -0.017824500663411062, -0.012508240395429263, -0.027169561797644265, -0.0012013987320330947, -0.006929981973666545, -0.014153411696058745, -0.0034712952057607957, 0.016648220478842256, -0.00459530227824603, -0.03540079063501645, 0.005430437204987643, 0.022313790032797914, 0.014527181538832654, 0.037818332030137305, -0.056059211604188884, -0.062055420023895295, -0.014586876776615949, -0.022940057773120602, 0.0045037276328541926, 0.049350815410064516, -0.016155913205423863, -0.051274263789693006, -0.03524725784999359, 0.05662609631252534, -0.0518096833356382, -0.03600390613667365, -0.0002672575946014144, -0.003994382275761996, 0.011845895531904621, -0.02530276890804326, 0.03625903265203283, 0.022109662561996844, -0.029407068259497886, 0.05961030739899341, -0.009685469843323332, 0.025806829851447187, 0.015459571181386486, 0.037056762079911786, -0.0016244118688853713, 0.03161820581153531, 0.0008933666159920948, -0.034172112430183234, -0.03281130688480606, 0.010275116806703677, -0.04842818617193619, 0.04982412777822487, -0.013201930115931479, 0.032049488101159554, 0.00011431457963944364, -0.03603894080697578, -0.014218183537087519, -0.0444818462316165, -0.03659321549421813, -0.036971188996019276, -0.020652231060627572, 0.03407853058811681, -0.006711654356400454, 0.039815156179272594, -0.05951897244003768, 0.052168009890491064, 0.0009713409147112858, -0.006623814173462667, 0.01061087159304574, 0.035302147304645363, -0.016666801154156773, 0.021574962265673146, -0.03786252784857189, -0.0071842480250309875, -0.06885536496882225, 0.026704723980209174, 0.0027518082991645266, 0.07797040113912902, 0.008184765225211603, 0.007975655017142445, 0.03956848454156529, -0.026801757170795363, -0.009500944424687522, -0.01324310769514911, 0.017356845694650774, -0.03920258971559624, -0.0008713850553495576, -0.0554612939227463, -0.036901217929532014, -0.016471963107966787, -0.06024789667331266, 0.004802032574044883, -0.0014873270727633096, -0.055331132414989305, 0.036897762892156336, -0.050074127387400705, -0.020580696238004285, 0.006091243945549189, 0.04772659030630202, -0.015588845048329126, 0.03694733698944889, 0.008305145639743034, -0.04228902608507664, 0.01322451772631878, -0.030180884417500938, 0.026906099982617105, -0.0030039862536954893, -0.03706814044428466, 0.0463111184505662, -0.015219204379337154, -0.022661612416030905, -0.01756262265587485, -0.01537926092428951, 0.0016350977128194567, -0.054217864623540724, 0.0724513288623447, -0.005336602927386798, 0.01679810837427066, -0.03472648906215175, 0.019969726232744726, -0.04671151603472296, -0.0031344196005202414, -0.016014699716222023, 0.060391998078512074, -0.023039292364892022, -0.045390888294895695, -0.012537607699096969, 0.017866249146661677, -0.03462037644756873, 0.048488442589927724, -0.004180449932543787, -0.031699206309721374, -0.05222925655258888, -0.04800505375076127, -0.0008844035470057563, 0.004410708721271558, -0.009088643196097587, -0.02843889672501276, 0.023466174741564233, 0.05641322484427159, 0.041227304424359276, -0.01758733384064842, -0.027954110948364898, 0.03888539100557882, -0.005019192051362766, 0.08621223759259501, -0.03845259157865517, 0.009344412484865769, 0.01921167073081605, -0.06386482777196871, 0.06584488488874515, 0.006493535845657283, 0.05845860156811369, -0.01925392130629267, -0.037734115865026806, 0.09022823371284029, 0.07101277591154102, 0.02741720740116767, -0.03897084152738207, 0.0033895338879322973, 0.03370599421778443, -0.0038171823525844505, 0.016910701504493718, -0.023937671380325466, 0.014098292944224456, -0.0068160291282890135, -0.006369125128765847, -0.05327851038410812, 0.04048665781385978, -0.07622870557954609, -0.06454324006230315, -0.0021591384414464893, 0.026875642180194528, 0.033592661703604906, 0.05863775917010399, -0.05441544743125882, 0.014721348627631007, -0.008270486438402508, 0.012269081229228299, -0.049315701110919416, -0.0076077130321850345, 0.03350384024123208, -0.026609351892860844, 0.010258946840840966, -0.05525831636734125, 0.016614859727086116, 0.012756559743704102, -0.03329513239797393, -0.028649915513486002, 0.015289793773144636, -0.015284960148618926, -0.00611433899815597, 0.05879136306916804, -0.009361782781248723, 0.017609469425244984, 0.04023985541581465, -0.060084653368531596, 0.047089991590721594, 0.004387871569704441, 0.02989785207358566, 0.015325857755823064, -0.006921223740780016, -0.0013322386663972808, 0.013231435315507935, 0.016850656123879926, 0.04337171668367274, 0.06183645819217019, 0.06007596781245901, 0.0024797872124146724, 0.044190973037985574, 0.023008012356095568, -0.027610419487488453, 0.03991035273611826, 0.004704880928387633, -0.015413231858662124, -0.008903663348233514, 0.04580201511445992, -0.025269662505273786, 0.034552277065817184, -0.05836954875176742, -0.02033104837788648, -0.030313348955130163, -0.02106067930043217, -0.013464514665980084, 0.04323309298643563, -0.029235592884456953, 0.06003093598665473, -0.020278776311981262, 0.03671579207911042, 0.02913113382160162, -0.013020625749790201, -0.02605019868021897, -0.03983378364204674, 0.021638314789185244, 0.043600699897609056, -0.015448424506973058, -0.015054896869657606, 0.028758011737065686, 0.07551395336059497, 0.0258783002723437, 0.05996236663208989, 0.040264092477397664, -0.02057877134091054, -0.06877481201959458, -0.08185637559117484, -0.009440434230365887, 0.03717484845146864, -0.031968320553930035, -0.04219346058687056, 0.013451891398173743, 0.05344778802108162, 0.06728313522766313, 0.018313763196562343, 0.01884800885607344, 0.06248314815836683, -0.033969893677411885, 0.08273100235109991, -0.040299781074667196, -0.0123931186941349, 0.037887326800474165, 0.053281364237487874, -0.006129761235259031, -0.007714327504586412, 0.06313598065477904, -0.006509558753049832, -0.01146786820521291, 0.01860762748281076, 0.01629261610915848, 0.012277254380756, 0.03001486451359015], [0.04886293812550595, -0.011152485204065445, -0.03681904572290417, -0.05185380459018207, -0.04501436575887834, 0.008075033973449988, -0.03785225781553325, 0.020070089214956444, -0.026793094140874767, 0.002544734035361187, -0.0015717349004925642, -0.044947261707073784, 0.003039669880705425, 0.05780155603021241, -0.0029398862176013376, 0.020150087421642152, -0.011493241996291528, -0.013051253353820754, -0.0001711876865022129, 0.016422488606926126, -0.039707121452538255, 0.007989598821550562, 0.00599918786364616, 0.009203923160962527, -0.01513643319310164, 0.030358072494587652, -0.009265245140191058, -0.06135814492710312, -0.0010275111584525751, -0.04416090422797939, 0.03584362135216441, 0.03493135270962167, -0.04323088736248903, -0.021661396661288464, 0.01899781134484652, 0.03955826403352593, 0.027832523794283776, 0.04408837271512768, 0.09584005276599984, -0.047125930124435327, 0.023324452142818086, 0.032834241466221534, 0.04001123413463491, 0.012771871037863768, 0.005680189736555332, -0.007293412847561986, -0.007852588297833921, -0.010463333696191504, 0.07848315855281186, 0.004003943601948999, -0.023295185078872283, -0.027695824127631996, 0.03400389711893879, 0.03854261062525017, 0.07382108723925473, 0.0326778971211608, -0.10508727935467348, -0.021625635314942233, -0.03534007018706088, 0.0323815175806493, -0.019824915165699317, -0.0021782920624629325, -0.01252731422098358, 0.028080209439693186, -0.028593603109107493, -0.014392127322032345, 0.0011537814993294755, 0.04819672322198857, -0.09489419068562444, -0.05816640887559356, 0.017253943932070682, 0.028315763480026315, -0.02078997787690515, -0.0024701752545594796, 0.0034831050081715388, -0.003640175970168418, 0.0032363171976293875, 0.0036988630707513077, -0.04157603825729457, 0.027973048443355016, 0.010468961122846055, 0.006809731544704059, -0.003216054211921717, -0.03738611588597296, 0.0014826828895410332, 0.016319717462943247, -0.08051534788081285, 0.035405805388095395, -0.005687496900969954, 0.047506492788337566, 0.03448421819780884, 0.0010900853740567376, -0.027974221937696248, -0.0216457840988743, -0.044891416542393654, -0.05802486431456276, 0.03711919320326899, -0.0477013510783947, -0.011096657067218898, -0.013025141415743222, 0.03030941679068676, -0.04070506945977435, -0.008493895646570567, 0.016386560251060295, -0.04038253094788123, 0.0012507196311704663, 0.00970448397175388, 0.009173224990055623, 0.05786459971994736, 0.04898619988157101, -0.0436511897577578, -0.07824748559483001, -0.04182170976840298, 0.02201326908930711, -0.05547969677268368, -1.451523761968231e-05, 0.0015359686202414576, 0.020588140692936314, 0.008681385745130053, -0.05176831422134911, 0.02836692132255422, 0.0240465969192335, 0.01633790662173967, 0.02726398538349867, -0.04733879574355677, -0.012195969291796295, 0.04623952715838555, 0.007709925404495101, 0.016249368562060315, 0.011251165763087555, 0.019241449391454286, -0.041734414592917865, -0.05805819381248194, 0.010579874431836559, -0.00968669321299516, 0.036552506109581835, -0.02358354429123797, 0.03426893929659695, 0.0025903590098572205, 0.04523329798136776, 0.005362022157628858, -0.02888171511696495, -0.014855631669925543, -0.032897219940896526, 0.049655087432642984, -0.018149418165346064, 0.08284814068795181, -0.042993536854306076, -0.0015515022187972177, -0.060562044718529995, 0.042037043539723366, -0.0023830909588536697, -0.007180620677127158, -0.0023758312321306365, -0.0392928986354143, 0.10514641990058478, 0.04892758645962466, 0.03503116743365216, -0.018268817876509812, -0.0353571652372832, 0.003386388704062739, -0.018271163584127063, -0.015688703974597897, -0.06317214236836326, 0.05060643888496459, -0.05490855481073255, -0.04111726622856036, 0.008178259431660088, -0.025862311068158558, -0.031164671316661525, 0.018594791183704187, 0.024080281664711215, 0.0008446261388932304, 0.0502454811868529, 0.02822059100486158, -0.034391628445972856, 0.060037550295080136, -0.032603463063442646, -0.007945763929621758, -0.027798766189529932, -0.009062724797192593, 0.04969865080863765, -0.02736765381033211, 0.004453170883354342, -0.045005751183254956, 0.05227932319358759, -0.019894717832689052, 0.028395161173990904, 0.07446886162258204, 0.010909099347676674, 0.0580273573140442, -0.012584818721405771, -0.026550825435525244, -0.01150664137071282, 0.020374029026742284, -0.017215448186482293, 0.09239940107039837, 0.09922986088711508, 0.021418222148945395, -0.012523330326158011, 0.006148030727653604, -0.009337325134344645, 0.0011593837647490587, 0.05270185176245084, -0.004716208027382035, 0.028010403879250693, 0.003000005482398802, 0.0012261195183395216, 0.0325951555635607, -0.005466918964164659, -0.0193943881682474, 0.03392695031541013, -0.010238543612667553, -0.010620612423208152, 0.037541307668605306, -0.029903253706367573, 0.0003868518270210853, -0.028190150431468046, 0.017603613343608666, -0.03101618423671883, 0.04842533972695813, 0.02666750859248841, 0.04184905685229528, 0.01530183674772137, 0.05203825804267587, 0.02960349297636573, 0.011681911764305452, 0.05870414243471656, 0.010891122096259203, 0.009875919465126476, 0.03491789293042034, -0.06024758574804422, 0.020120602907901356, 0.01588904853167138, -5.013137712440616e-05, -0.05755374351484693, 0.00616174778874706, 0.03235022169736918, -0.049662679119616374, 0.06086426637659007, 0.010480871900113622, 0.038530893440547324, 0.008694069690584862, 0.012587740147737891, -0.0627337796074277, -0.07962548274670689, 0.01067406823721774, 0.009172527460996336, -0.020061953084203193, 0.03814772740687689, -0.008804488524798931, 0.07970935667863426, -0.044531222068770096, 0.019890206538435217, -0.041201738108552974, -0.09829250996533422, 0.017216221789636468, 0.02653577709636512, 0.03339604811391496, -0.012091467912844869, 0.010147157518987317, 0.008923091029829662, 0.032733545902129194, 0.04023633630078378, 0.007992100266056332, 0.014857921691241654, -0.022329620209613908, 0.027001584303606063, -0.03824896860711476, 0.03008590325987358, 0.006460404935938578, 0.012279495491902676, -0.018182084489513136, -0.0508588798380548, -0.028998399816752164, 0.01987184014409887, 0.07282392628853358, -0.016729614932567912, 0.024186855369359595, -0.01930643760574057, -0.01714478891442582, -0.014567370359311408, -0.036890471990888525, -0.017752194076004552, 0.009324272902158438, -0.01958567022913726, 0.04154425952641709, 0.007429308065696901, 0.005059146008437259, -0.013301101713446247, -0.0593158782600284, 0.0009417689361963648, 0.010870544548789286, -0.027886935469610873, 0.038143184503872773, -0.0466873503105538, 0.006867263561082775, -0.032425569276064596, 0.0018156238419993686, -0.10129262677393067, 0.014899298100560206, 0.05024627358346812, -0.06325802722435211, 0.0047523390376276314, -0.0055853509920877975, -0.03651603736956864, 0.0018607177895320355, -0.0054455543446374575, -0.010137366465398517, -0.03440347361571874, 0.04642793964849234, -0.018907201417889707, -0.04343418273883986, -0.010102233506294625, 0.028198375511421576, 0.002259343111057187, -0.020248885931303584, -0.04078649758194217, 0.013306474173392802, -0.018743372050000786, 0.000213125516138, -0.0007306171812840421, -0.010617862106626904, -0.05070326854578887, -0.04386174544431664, -0.017968247248703238, -0.030928351625897653, 0.05707685721636424, 0.0003423580639874999, 0.0004397370527492248, -0.01890433847438139, 0.04189706168264397, 0.046683258305915284, -0.04380406068114005, -0.0008056741425798561, 0.017930459108020456, 0.011011287371183964, 0.008698433143421, 0.011631474576902582, -0.028122545760474467, -0.039881923242238194, 0.08926524660559812, -0.03410338969483109, -0.008170468767563941, -0.051421681022573364, -0.039149855388605145, -0.006101682645525189, -0.034070803127030876, -0.02701973765882082, 0.029000403679653113, -0.02021997487473364, 0.027687369280995997, -0.05331429892535685, 0.046171312298302514, -0.029342365236020795, 0.02045368294489692, -0.018165246531010402, 0.002072645116079561, -0.02748722266553273, 0.02675512681528951, -0.025285620076741726, -0.05189972629373738, -0.054536736511694675, 0.021403373057127, -0.03768049518230577, 0.05543135498514324, -0.012497673551573019, -0.010360498291330636, -0.04459563806302186, 0.013861715752291384, -0.051917114039632895, 0.04388519598348157, 0.06496328896394352, -0.021663805978442502, -0.014017519468093528, 0.024962209456445787, 0.04907708395361056, -0.023311765136902685, 0.060000437647806694, 0.06310859107049117, 0.006294074490992211, 0.005553915326857314, 0.03349902075377827, -0.042694267211995485, 0.016100547932754318, 0.004068484701956707, 0.024669650152052598, -0.008042543674322366, 0.049155504147403446, -0.06139089792050824, 0.02159077869646885, -0.014668169116224108, 0.008148634363741978, -0.005844256766086228, -0.0028753125496038096, -0.01407183814407976, 0.046255239247875106, -0.0339299557003214, -0.017488551633986892, 0.0529688923233848, 0.0028692116346622607, -0.004807885456135271, 0.05763925438038716, -0.08527205477342614, -0.007104140439562342, 0.034499687461790836, 0.006261740660149679, 0.03910779398357557, 0.009904455153562933, 0.00793690763234901, 0.006303862266317857, -0.0004869443548011306, 0.02872398806597303, -0.003507077650345394, -0.03377130810953106, -0.01405091256494671, -0.032199453251548237, 0.03304321992081798, 0.06097107406906478, 0.054325939094334176, 0.05797975645299157, 0.009014199610228637, 0.010879454746049387, 0.06584669458600886, -0.009810361882446451, 0.015979497085068878, 0.02810589321936605, 0.005531549960760522, 0.02765014811417244, -0.01361776339220781, -0.0289685812224016, -0.03125166598432007, -0.030015760091999872, -0.0033151256084622076, -0.0695153370562445, -0.06581703202422265, -0.008424008572744668, -0.04427169394612558, -0.06891818619352429, 0.014822337492048707, -0.007215632964530246, 0.0426446256670453, 0.004274706254936577, 0.017887193943598483, 0.04140847806445247, 0.005010633477147505, -0.051747985216206445, 0.05002389582393692, -0.05491550514452905, 0.003426839203217336, 0.030690955392158454, -0.011194258437128578, 0.05243334605120734, 0.055085826188111316, -0.014861933764395097, -0.037564886379014076, 0.023362851670226777, -0.012989420056719506, -0.06518712818804609, -0.03522160893585922, -0.02432887179283334, 0.003506619372532583, 0.04515298095390928, 0.00829949244559462, -0.019260273395162814, -0.02456718850834854, -0.04354211665322742, 0.04121405388945603, -0.009991354664082791, -0.00879003522890411, 0.015421674068019966, -0.007294960458383861, 0.042763214476361534, -0.021762405847140853, 0.022213383907231356, -0.006399798592422715, 0.02463797012957684, 0.02431990630426786, -0.0633160413056033, -0.07611170357167427, -0.0649255591733048, -0.017746427468653146, 0.012279405119469542, 0.023664283305071254, -0.005611968971104697, 0.021724296259389993, 0.03862086532783866, 0.004262416110630098, 0.041896412444304386, -0.05452772350869938, -0.040904172810001235, 0.03446858456808321, -0.02938239792234759, -0.02091407359453071, 0.0015303143649688107, -0.02004539544497824, 0.04955093475861363, -0.007665270713556506, -0.030872767570743132, 0.0029742648612643076, -0.011167770157980126, -0.04185152334533206, -0.007799076846782505, -0.02000473657080005, 0.09768877281461939, -0.0194730669079722, 0.06892296087656212, -0.02456094924376368, -0.02438188059383813, -0.039985180000676364, -0.00913984400379996, -0.03804800296212863, -0.004200811408324907, 0.036698144071624396, -0.017678567382204, -0.018650988163348387, -0.01818423334655272, -0.05194630067327206, -0.015674950430099956, 0.05519635978913089, 0.022814639405905453, 0.04046266767284541, 0.015446097671030126, 0.028898693452059115, -0.08420294962487793, -0.03940141244881643, 0.009088869410083033, 0.04302330129357531, 0.04298429538442112, 0.019445886680981943, 0.048464232745284955, -0.05190142876873223, 0.023215525313266493, 0.085504024405036, -0.008728657629616754, -0.017119085246286688, -0.03608413806806648, -0.01910960130501185, -0.035142840923108605, -0.002848978636341089, 0.013061053653157738, -0.0010037800823998245, -0.0153075193083035, -0.022299462769706957, -0.019669514657391484, 0.01578955487062714, -0.0255686057796285, 0.07942878790962285, 0.023575739701236564, 0.006433322451461149, -0.006602127547233413, 0.033114824434038015, 0.04854877571972981, -0.03357335679810628, 0.022096818665789414, -0.01848314762714205, 0.015236157326167742, -0.02176218341857957, -0.010664819264134016, -0.020810794844585173, -0.03724830143360612, 0.048053782525680565, -0.007994398367596401, -0.008901917514384744, 0.027803306807063284, -0.02248345950973929, 0.053089752733689176, -0.020239917401148284, 0.037677370441736704, -0.03151112057032659, -0.008711733649553948, 0.024586011786066814, -0.015546764832552388, 0.0043999987966125715, 0.0405448963587955, 0.019309923339111853, 0.011114775631114387, 0.04450387565864779, -0.006026964308549233, 0.021754648662373817, 0.007005526830997026, 0.03098396363254356, 0.0021801824249507496, -0.025177478553395437, 0.04339766581929307, 0.08027074444781489, -0.04497517058443199, -0.00978489938631045, -0.004769599728410716, -0.009169081544882742, 0.05136034873315204, 0.013286746558171428, 0.018461467141385385, -0.021889182838203975, -0.007824271005881667, 0.014424104505578265, -0.03739917990318119, -0.016765127596334105, -0.031621304412485014, -0.03959874014974601, -0.0638739231705671, -0.014213833436601753, 0.04531680440227138, 0.031560004529325884, -0.008424027158149572, -0.0015542138429002546, 0.0046966349090606565, -0.01736895884005109, -0.017302171906259083, 0.07232816386675366, -0.0010266625896678714, 0.0009181191879354806, 0.03627560862982536, 0.004068069945199103, 0.024071448211272824, 0.02928434773939359, -0.0021271724552615638, -0.005137618072282958, -0.01578010875444957, 0.048054342436664545, -0.037685826540454, 0.019661995301145974, -0.014295409856057857, -0.05673369896304785, -0.0158008645758537, 0.0026024849931866162, 0.051576384966757385, 0.015382611825489553, 0.017412089126906106, 0.005315785962063009, -0.028441610366563706, 0.04492277325687123, 0.027405696847155547, -0.00035960257445584356, 0.01950620820926441, 0.07745474254567104, -0.011346531613711266, -0.04735640460294791, -0.006080295874084914, 0.00748774414836765, -0.05285737935969572, -0.042642556282960466, -0.0420562478932092, -0.06341125466463603, -0.005427519353467866, 0.014604403708770409, 0.037458655341388716, 0.04602140999930749, -0.05485818366310977, 0.06612338449210489, 0.0439436095680943, 0.094581135590439, 0.014327476410770267, -0.0033478506415343706, 0.01663434454826991, 0.0014654639907351545, -0.011486647569518506, -0.04182432084092412, 0.01867394328333343, -0.03447534353237769, -0.02072326849003068, 0.04215709732474005, -0.020392277846746833, -0.008971699374620322, -0.07002540304873374, -0.004339106317698569, 0.022277348067453344, -0.008598189666141311, 0.016976344564248957, -0.012411883746244592, 0.056608289212392846, -0.003264940390215475, -0.027120882103525496, -0.04530414847708607, -0.006603509639458072, -0.03200643814624393, -0.013030382072608152, -0.027516687074827736, 0.0213661059805564, 0.027669138087921683, 0.0038810844290338223, 0.02011044641769766, 0.0006551348281003628, 0.008886252317616262, -0.06026006079481517, -0.0037543690548979976, 0.02574027485217098, 0.050914514264149044, 0.0398381135100909, -0.01482390539124171, 0.01969429590671898, 0.030539716011218937, -0.025792910181054472, -0.008784200758195545, 0.006654310383835478, -0.021820885768142024, -0.022094682382560717, -0.015704686715979004, -0.007195716574551453, 0.028390557557911877, 0.04498202967422115, -0.07276424986966341, -0.03786047792458259, 0.020609038955470706, -0.03470189908925443, 0.0013490095667289003, 0.04438310290787715, -0.02273740809359056, 0.004287412587020273, 0.04938179168109754, -0.06885411929972864, -0.022503025299979107, 0.019899914957266573, 0.07229528292178615, 0.014053541849668767, 0.03795868905455919, -0.009547864980984476, -0.00810983719181241, -0.045734567948672686, 0.0056418274345214235, -0.02711831897460764, -0.0018463459910942732, 0.006263606785231512, -0.016986044129049256, -0.017182966980766105, -0.05572409607763299, -0.008748263208906887, 0.02683495171772089, -0.04681002857499272, -0.05911178642610755, -0.011946742210492708, 0.00868353424343737, 0.0013301041448440056, 0.019958478978197646, 0.02411456635620634, 0.0004033813522329252, -0.05593386148104811, 0.03577479206752674, 0.011622360082341644, 0.092749834718553, -0.025461500793923945, -0.09159887959711153, 0.05540177346306981, 0.0371334608230947, -0.08429620781695764, 0.015073413144204741, -0.02178479015470897, -0.032150852196923964, 0.0016580262250743608, -0.022671655671195147, -0.004166200876456544, -0.018029881309603545, -0.017182238856123844, -0.003750343746985427, 0.053577499439322156, -0.051440306202464474, 0.040716763227692895, -0.0012412854121037905, 0.01312190435847689, -0.0954943264823731, -0.050007148810870504, -0.016151927141271758, -0.014449939480238318, 0.00933718320102163, -0.00837884799073726, 0.05463881103884836, -0.0266291501248451, -0.02148876482073307, -0.0405922440667532, -0.019201496823837084, -0.028302783354288798, -0.04052896160108466, 0.027002344182242177, 0.01116812189530529, 0.04212174739256668, -0.04392145708732521, 0.005411678838613119, 0.010321426172921302, -0.007209151712058911, 0.0007676655835806547, -0.026857296080500474, 0.05189312756785349, -0.022524116502149867, 0.01356231203348231], [0.007214267642547794, -0.07813076906583005, 0.025141782104011735, 0.02021546465859983, 0.03598320546799544, -0.047765586899672516, -0.04886334954526361, -0.07413812020111499, -0.015241099677819623, -0.028354709546363648, -0.009503738352585884, -0.05341874181314018, -0.03945552690880307, 0.014195878271771647, -0.010185921633130104, 0.04323580425163482, 0.0007312120219753296, 0.042650752459165046, -0.011041245762425751, 0.02698403369147106, -0.045961220498917946, 0.02215397229396163, 0.03492815353915092, -0.001878773378154199, 0.0012293689155485315, 0.04459590172597731, 0.0035650738624624116, -0.061938736915671186, -0.000620244938226948, -0.027824981441434252, -0.02756054363803303, -0.016481887562489073, -0.044541327877052846, -0.007665906863590209, 0.005581231046261291, 0.009683912282370904, 0.03735030951804531, -0.057509750416587395, 0.001625967337499016, 0.02255760119350206, -0.033815669725876255, 0.046595157226958214, -0.005248917780771483, -0.06285802798584479, 0.06691866377632576, 0.056436911660768786, 0.07240633301581875, -0.07240421803846674, 0.07284140527491344, -0.00441734408280716, -0.04245815295796628, 0.027308463240390688, -0.018688130110888185, 0.004425317653566028, -0.041587699410866756, -0.005587334189866879, -0.024269355440050645, 0.010342132978236778, 0.015896658277124408, 0.017422791503376257, -0.06173457498771861, 0.034884501629026336, -0.027477109667435974, -0.07750999104538021, -0.05827882119416044, -0.02245903136816043, 0.016401847983356067, -0.0058614504117065125, 0.01171667963206074, 0.008270717380201924, -0.0334899287268487, 0.0370731773105788, 0.022509792662451986, -0.03678423220196483, -0.0015774744688906279, 0.00736966816264426, 0.02881036255445567, 0.07143047119568448, -0.010882319923192676, -0.04248081337275159, -0.010604238874622135, -0.006501388355696197, 0.008651043642818091, 0.016915779538423804, 0.049902147462292774, 0.032733711886754835, -0.020003251127227138, 0.027357163462857603, 0.030005852133507514, -0.021399610115126148, -0.007366626880470699, -0.0067463592554096105, -0.008386703229038063, 0.05422463703679662, -0.0434876536263761, -0.05809745405768162, -0.008808481231778954, -0.008187872962857166, 0.07169808958800036, -0.0024026138156134145, -0.024556795701577518, 0.04577941661750228, 0.001643357767591418, 0.01432476326553754, -0.04040212555380952, -0.039253377547991505, 0.018936877357357457, 0.009298223582259445, 0.02944659968957824, 0.010447141449257112, 0.029114558105528116, -0.02776002563756036, 0.05187256450594214, -0.05358965369429008, 0.07983462729589892, -0.00021673213612239008, -0.01798376742438021, -0.05501138416239417, -0.08075283371862539, -0.06896050925906964, 0.06808504222336202, -0.03893363815392049, -0.03258119368006179, -0.06881843380752099, 0.05325177198718036, -0.008904453151769649, -0.01879925714856669, 0.03623825038868541, 0.06071956171735322, -0.04746338561633572, -0.008918149386419874, -0.020957341325213895, -0.09587035373473007, -0.034340962622877086, 0.003347340074784281, -0.04204393185122514, 0.05027371014605283, -0.06348738266044017, 0.02613081327809589, -0.020317699045463728, 0.004703903812756595, 0.0031142002584148057, 0.02759886019549851, 0.07286490116459302, 0.03659698842257789, -0.015826482179447352, -0.020347896294225353, -0.03982966640987721, -0.029606608184568367, -0.039693106617283216, -0.02090770054436153, 0.018148694492077854, 0.01874640940241759, -0.013602855861309335, 0.013295673606645698, -0.04472076851499931, -0.05671030444686264, -0.04559368609015157, 0.058143271607658024, -0.03723299532319179, -0.04570502512211837, -0.01469422448393978, 0.011150672925559577, 0.02323169713074612, 0.014364819375524458, 0.031976178957176464, -0.04198912951411928, -0.04237011632549757, -0.026849178705421636, 0.03327469414414468, -0.0438517015755854, -0.004518946938135583, -0.03316549744532977, 0.059580417599394496, -0.03392067581107255, 0.04452278237692843, -0.01502179849457669, 0.006865213503941008, 0.015718160460624842, 0.03899143591147048, -0.025091767852988785, -0.029454004634368054, -0.04654101674836708, 0.02512453520701666, -0.06998650678565896, 0.053229957379651686, -0.058391761051550826, 0.004896926992890633, -0.05419583418356696, -0.06836986856441876, 0.07169749510471214, 0.05552358177402959, 0.014778248287271954, 0.11876945590710557, 0.023361932148367043, 0.026396585867628046, 0.01233179259115487, -0.044476726055328056, 0.040938905856015124, -0.02432650221531698, -0.02867299212090388, -0.0755979159635705, -0.005514081947915929, 0.05394666726310731, 0.02292720084696346, 0.08959601962382417, -0.03583556644447443, -0.015951208332373498, -0.007739725129451814, -0.05125248068820209, -0.017863640196636887, 0.03197101307596364, -0.006520102137399339, 0.012994678319332875, 0.022991182938283974, -0.07298408168399463, -0.03448543588654183, -0.0060789236598119195, -0.018192111693061758, -0.007433782412667423, -0.020456701826933193, 0.008599837481910799, 0.04799106955925769, -0.009852924117719765, -0.07509256996367744, 0.07355225499244357, -0.04339287992759663, 0.021597619186382682, 0.009815338583873635, -0.016543677888945948, 0.0051043367033371785, -0.016184813856228348, 0.00761428059845756, 0.01777972667071656, -0.02877802109289548, 0.025679459172810427, -0.01632080505765072, -0.03714244575190005, 0.033206443278700655, -0.019074827974190023, -0.019492782909577556, 0.02670708449444297, -0.01465265024617275, -0.023453487217872316, -0.04892820871500313, -0.0025175340392250742, -0.0077753139831615095, -0.028493847419730538, 0.013695282724074869, 0.006238403116226753, 0.0533445933330221, 0.02384422342705166, 0.011748018694012829, 0.013478693027608818, 0.008011761727594078, -0.014707736718432802, -0.0007416161099983688, 0.026932587724361422, 0.010008376310503503, 0.024948071480690136, 0.02372256016117443, -0.023303917839897482, 0.004689664844877934, 0.03330748661284746, 0.0478959475890627, 0.015890446421846022, 0.048368003142189635, -0.06213483261809429, 0.04852361365943932, 0.06946939241408912, 0.021321137355773703, -0.007811963483386236, -0.02420979863320181, -0.015005273269224453, 0.025759464388080303, 0.044010700149581264, 0.0869942604035171, -0.0008853573287184788, -0.06942869426056801, -0.0228889569635984, -0.03054927504031397, 0.028631827612311915, 0.023722816628718613, 0.018060922094925345, -0.005238497847104505, 0.0358736288886569, -0.07706011180322024, 0.012062004369796635, -0.018847633962963673, 0.028864221160435088, 0.0276556936061445, -0.026036838871948537, 0.0777342675838643, -0.04027617045105945, -0.04181054066994257, 0.018350385808235815, -0.002877867879936889, 0.0010234399370099398, 0.007513332585745995, 0.04446034950293193, 0.022554082918579837, 0.00892307624964102, -0.026376158778183372, -0.043936180724673105, 0.003933811723656874, 0.005681223441997239, -0.0008643460257845311, -0.06648452076588095, 0.049773501009326836, 0.014380147782592787, -0.04924752422226249, -0.06765895684092325, -0.015572204976629431, 0.018264884601981075, -0.051474477720063014, -0.006610735299995156, -0.025588574003863752, 0.00012996675366858806, 0.004235405600522709, -0.0393805105177752, 0.02247810393064562, 0.0077107435966999255, -0.06382083723799585, 0.03519153817194827, 0.046309155714515826, -0.03540891196482853, 0.06839349276956992, -0.036254218969676524, -0.06514543793771402, 0.03494413550115629, 0.009507760828631431, -0.07420381627729387, -0.046891460171342284, 0.017053484613745767, -0.022470269184423877, -0.014303825664146938, -0.04296266328671195, 0.003043829957011328, -0.007064588275540185, -0.021980706323559553, 0.04000895723164562, -0.037494175110554126, 0.02592823043387083, 0.016628954396081513, 0.02235597038407397, -0.0542378154206969, -0.02012661244797762, 0.046386893031017354, 0.0060204993138948905, 0.0010370431813547442, -0.013348867356700331, -0.050005714981225316, -0.0004907304235608136, -0.00010669953114805237, 0.04523269349778607, -0.010252516023886823, 0.004229778932011434, 0.010713704219532962, -0.017025405729774453, 0.007000246415702226, 0.010128326800661686, 0.002933764583952663, 0.013459908305261599, -0.0241075717000843, 0.023598962815862757, 0.010811076320852387, 0.009161160369776539, 0.052372136923437, -0.015560069504275345, -0.016780897225071072, -0.03775405296591015, -0.05299021423128838, 0.0039735243606929035, 0.012758896181309503, 0.034083501230886167, -0.030627816246183028, -0.00780401645388027, 0.021847115554309997, 0.023295097779877854, 0.009515352839210666, -0.004661974359366053, -0.0337239831144065, -0.02130635535662175, -0.029467599294511728, 0.04690158625122331, 0.049384274537721935, -0.015274026713052235, 0.03308998964788416, -0.003068771862512728, -0.00042966875553456657, 0.0015447532704454833, 0.03463304117769587, 0.04444325426412936, -0.05707958174895731, -0.021858174765800462, 0.008451972716693158, 0.033448111866045925, -0.01256495968033538, 0.01788188891571744, 0.05660198351411382, -0.04076245469913685, -0.007266106178205988, 0.04548116141734502, 0.004136001966611405, 0.004009962964302022, 0.005302678962605763, 0.003217005947807295, 0.02273010825949675, 0.07573638052743811, 0.04898099638678029, 0.023031916339281627, -0.0013626651274313236, -0.0249829594471107, -0.024942540333050968, -0.061516019950541026, 0.027892027132852073, 0.014552870744728273, -0.006123599650195937, 0.04368479028913052, -0.03203911046047356, 0.02004883544543412, 0.041013358662974994, -0.05310953895337225, -0.04897182294893875, 0.039560495076594426, -0.06685730218155798, -0.047821656809547655, -0.054007857619726984, -0.001822052206416968, -0.026177298117109803, -0.008219652418619858, -0.03575049401191936, -0.03375336157468469, 0.01366254175752067, -0.04726571621115736, 0.005104997699105059, 0.02007559783908839, -0.03128118933666385, 0.0049727862867102665, -0.04235595841316914, -0.0645848090986424, -0.011866371439184687, -0.029774168984581326, 0.026347457440267903, -0.02851792621620123, 0.013959842123241462, 0.03665615979728223, -0.04953747500562327, 0.012908958508095234, -0.015104762657169342, 0.0450056971634871, 0.01854673184284879, 0.05507729985021515, 0.00606523766487156, -0.0446098781067294, 0.04225946269203973, -0.013863824070040694, 0.01991013734695434, -0.033243277418614596, -0.0023333309448510956, 0.06981333417115525, -0.00021161154976732767, 0.010755787626130506, -0.06291941752642802, 0.046646072117406866, 0.018459811590577264, 0.013399829290960608, 0.0715531895446018, -0.0027683396294936095, -0.0235525694499192, -0.016947238591354285, 0.042102827214583534, -0.08728992271120925, 0.01980863749788677, 0.053858802669540795, -0.013329159871476107, 0.03347782218805595, -0.00578504046150419, 0.01189152041284926, 0.057203147657648314, -0.0071071242846351195, -0.00422563647053216, 0.0772287679099315, 0.010453602936990875, 0.04363115864234336, -0.06595204506849929, 0.02285508559233715, -0.054811698608937066, -0.028094600193325162, 0.05807365541609893, -0.030186117337329923, -0.06172768925263179, -0.05217573882074993, -0.03292415121486707, -0.030274949373568696, -0.035030969934513226, 0.008341218601920695, -0.0271561668886292, -0.03756089255523056, 0.022069603682359627, 0.007658585182170543, 0.017072082872185198, -0.004916891058668592, 0.03867328955081175, -0.01628751916961418, 0.016988361687433947, -0.027418598362764442, 0.006803467652001715, 0.0012581066352616282, -0.02161772054678119, 0.013449735860549933, 0.0030916906824025206, 0.09052336852804951, -0.02285136105612511, 0.08040734637893145, 0.008899299199641804, -0.03448566224417341, -0.00420571920759724, 0.016970248214365703, -0.01128995874211258, 0.07007091639505252, 0.005931200813682849, 0.07513092401264472, 0.03428807204327334, 0.032177503346574446, -0.012988143118907267, 0.030365215930663065, 0.044050769998235574, -0.016837210254030354, -0.055150286427835364, -0.0030081476953741615, -0.016417404784435256, -0.02895867732185803, 0.04680180476155669, -0.03010351827478019, -0.05353172134794841, -0.0605825660797812, 0.0021902518240988194, 0.009979396879676186, 0.018922553358512676, -0.01598339007543997, 0.04276635213544828, -0.06573133598862733, -0.07238366689527612, -0.03969153259414989, 0.015975335506415785, -0.031451074757351274, -0.05800204853149042, 0.024294099628734644, 0.07992087917623894, -0.0066166093393088665, -0.026180633503113577, -0.03920035499135495, -0.10243590551129289, -0.016718789386697075, -0.025317485649103705, 0.019194980243219216, -0.04331693893841171, 0.002484071674212838, -0.03407989271497727, -0.04825431577411358, -0.013596492255661018, -0.05852107252976663, 0.006385408658971068, -0.06046354450990656, -0.0152414040334092, 0.030861654782631972, 0.036542841834229324, 0.03494554473224674, 0.058393275979333616, -0.014105911019916728, 0.006172117613842331, -0.030741104341761964, -0.008972295147180172, -0.057737031436661514, 5.049346378454486e-05, -0.0017038097883556173, 0.07138399750274434, 0.006699071004610246, 0.0026598379364095896, -0.0006957174503513015, 0.02741088916315013, 0.0024553468145418833, -0.011022315093275382, 0.023267059055900954, -0.0017481590731371996, 0.008363964439615689, 0.02911480965382088, 0.07047351564763636, 0.04221147413870429, -0.00554039158520364, -0.0014673279386992872, 0.04392417488009618, 0.010312070666092082, 0.004017392153046542, -0.05086647617419171, 0.04592577721318362, 0.02752388238420991, 0.0069867029571912135, -0.07758623539003638, -0.010420858508325965, 0.01191508510272889, -0.0053687970556631605, 0.041983311341797266, 0.004442468642605343, -0.01586868935760168, 0.053849159050382865, -0.052668361997759386, -0.031089344781221013, -0.07548218357191175, -0.007689640042295613, 0.0016067412910763207, -0.003111913794346745, 0.007469374831575404, -0.014365933947119772, 0.02098405815633433, 0.018713353320200177, -0.0043761681655216265, 0.02341502933061448, 0.0028748792260414836, 0.030157000527862552, -0.008364266734885988, -0.01358337633580091, -0.007377755595117343, -0.04064449256819054, 0.0038019910300768314, -0.010756957277161203, 0.00653633284390257, 0.03168862114351294, 0.004692788490545709, 0.011587016179702883, 0.016978553205605502, -0.02574473318380607, -0.03639559085373695, -0.035602260623959714, -0.023524894478184084, -0.0017231367945807798, 0.04977887093611688, 0.059884376622542, 0.04753561918805731, 0.011894546072374007, -0.007785466807658493, -0.06228969920947814, -0.020654475024096525, 0.07542460874104141, 0.1161111593504383, -0.006218073108010805, -0.01758100043483143, -0.014711051154524606, -0.040284173150585204, -0.0007976513781473284, 0.03014905019071847, 0.0035014640305097862, -0.03861609558901707, 0.033764531517025013, 0.010223080208817186, 0.011993347847953159, -0.00658297690046044, 0.052867900969805544, -0.025619690856016626, 0.015305150389924863, 0.023873066501738923, -0.08786034583744652, 0.00578198331792711, -0.03952428916002063, 0.05755259553225365, -0.005950967119366933, -0.03473885206748747, -0.054373460585525286, -0.0363152881591507, 0.058803614560323694, -0.028403639508045364, 0.010683973148971116, 0.002851647052385509, -0.008556882795003386, 0.015190029089946221, -0.008363806231238875, 0.00584367527895499, -0.03643896125910732, 0.027100239979917094, 0.008288579728146346, -0.04705647937527865, -0.07484217393162063, 0.02102420272183119, -0.02144819635621819, 0.014998385076421678, 0.004213676737400363, 0.039176737424820744, 0.01821014725669761, 0.05185684554509064, -0.019677847717819087, -0.04461636591742875, -0.0047279822217116355, -0.026692055108641734, 0.02204108168986062, -0.03023381722598841, 0.03515708390217352, -0.013991770899791447, 0.00800758040319387, -0.03917823772230423, 0.0036305541993575737, -0.003345943357969276, 0.07599301991436205, -0.029972893506270925, -0.0027383567339140315, 0.02205040324161625, -0.0003365028435536788, -0.07295404699287444, 0.029006996638046265, 0.016455544574860228, 0.047945951125472785, 0.06222625643202428, 0.031621708073138785, 0.04146155052276396, -0.004308364723878437, 0.010357250437651153, -0.007603748363069614, -0.004199544635936698, -0.05709662438310116, -0.05273290799944265, -0.01645201915980798, 0.016283591731179974, 0.03374751428197189, 0.0025272280706075457, -0.03132974910139855, -0.010358357087619808, -0.020567671766081874, 0.003704849084160358, 0.004401653482290174, -0.010449178698863294, -0.014717963346832532, -0.010345776454282998, -0.02358176001617795, 0.013745416250286796, 0.04495913965856862, -0.056044225714475523, 0.012268394169684322, 0.026833620253677255, 0.02480820907144357, -0.03960117728367539, 0.03219137864145478, 0.03503139895218434, -0.04048571016945355, 0.015022431216647047, 0.007221431406585721, 0.08408300923960807, 0.010316596721753902, -0.04976884200776176, -0.004342519440492801, -0.017095873394532682, 0.06525847821901447, 0.002945019475595942, 0.020218768518180417, -0.04579134489871138, 0.044464633204720334, 0.012136984800195488, 0.04304088679250708, -0.04349891389566756, 0.054371450340603665, 0.03922294534363448, -0.02006238893826342, -0.025973379860727237, -0.023264052284035663, 0.03201171479912297, 0.025252571315223873, -0.06605857599128263, -0.04795156493468285, -0.027527950463064988, -0.022012201897662457, -0.03488083615944469, -0.03342547587703987, 0.027693937324790002, -0.010242588511664827, 0.034539061295914976, 0.04338462905622422, 0.031134722846763555, -0.011943336489771379, -0.0226040448201063, -0.011019576002974013, 0.024377571264718404, -0.0020736313317789123, 0.0012201869867030856, 0.00040246798173548077, -0.03694690017479672], [-0.04415007892044912, 0.005023172271432985, 0.010410027475599373, -0.015355669991494065, 0.08817059971713967, -0.022923052137819488, -0.07468359211705912, -0.03925803177792877, -0.0062395932136539494, 0.023627900610217523, 0.0006033277680405311, -0.01323679977804367, -0.003705008177436557, -0.056095396295989565, -0.06305864016233095, -0.05509983439477422, -0.035508140966111754, 0.07689308081742842, -0.04822324585575262, 0.020212336077473476, -0.011578333287194762, 0.049025847894199885, 0.04910721663347602, -0.018204763563488605, -0.03882519070399183, -0.011149111815585394, 0.0408855306892966, -0.05394381171900504, -0.004133687375361771, -0.01659342187056973, 0.08492956872387372, 0.021853257868950766, -0.006058939750014302, -0.03979586788573786, -0.011922358216414896, -0.004134746421926765, 0.006047974910027487, -0.02082928430207322, -0.008319012651447315, 0.01060035486243999, 0.008840602770645347, -0.03264603712404505, -0.01412128999511778, -0.015467994642013691, 0.027292801784640996, -0.030023408675488635, -0.008235800687337527, 0.004941401082195021, 0.022768257683375915, -0.016863372012650143, -0.06589855769982024, -0.03978941747129015, -0.0016461988403037899, -0.004484862668997311, -0.0048455978910411975, 0.09353938269844485, -0.00015112152123713125, -0.01881974502783982, 0.018980735484312082, -0.05133671720347294, -0.0047884432012072695, -0.007488694915487266, -0.04747916920210488, 0.002358775839638223, 0.06590051044707451, 0.025018174492111567, 0.03517978969627079, 0.04735516681048148, 0.05040558676256453, 0.007083906110657343, 0.008906069331121062, 0.012836314147212086, 0.02569932766083576, 0.0695264109143963, -0.011357010048690346, -0.037857594251364084, 0.005319994306455709, -0.05447098330371908, 0.01653363471092326, 0.038064543472853554, 0.03250568967569207, -0.05376974239827629, 0.04271221915599107, 0.02446787724983616, -0.039389622805973676, -0.03636607673182406, 0.05846624797233475, 0.027781104512570876, 0.011807303515628748, 0.07026657087445477, 0.026600274961204477, 0.02484634874702931, 0.09332476959544209, 0.07325133158777677, 0.03460634921715686, -0.052292919750407736, -0.028325147516549527, -0.055515405385002436, -0.059805736125738314, -0.025673495609022514, -0.02583442568467026, -0.007870807288618038, 0.06457096949628838, -0.014947767011448386, -0.07182778524165082, -0.002246833963389043, -0.06746474454175969, 0.0404983251528434, -0.014984581479278907, 0.003388392554565999, 0.041122194641879835, 0.007167523314443617, 0.02902494459832284, -0.07221354266801071, 0.045602737861220086, 0.008446954069248364, 0.033039672106107205, 0.00016599579958124738, -0.03391858141078582, 0.053676807677914835, 0.017535566418206333, 0.04696179374408505, 0.03302438266396183, 0.016587283145542524, 0.032370668390289604, -0.009941433859872508, 0.0027999983400966368, 0.011125845340371945, -0.003973274261137534, -0.005942885743825899, -0.03076068173763635, 0.004022079621488358, -0.046071951302642286, 0.04891165748072603, 0.0040650988623350095, 0.003300700184353835, -0.02760996428962009, -0.01817988431349208, -0.02728321144303733, 0.020105748659777583, -0.012187038848567597, -0.03968158593419584, -0.018665289126336467, 0.018991013118263237, -0.03886476829911597, -0.02274263574337595, 0.03456435733775032, -0.03360405575798111, -0.007804480377453289, -0.0038748696564464445, 0.010462236258345841, -0.024573055060442616, -0.06980415369660452, 0.018495529079053687, 0.039897704837758716, 0.029581739167319758, -0.06278686391397889, 0.008933184269333061, -0.021947442568412547, 0.0017070987365634942, 0.026578641573236975, -0.05346841758337777, 0.0388073401347206, 0.007081586710419048, 0.026883038031859634, -0.04282660824110064, 0.04130578535698461, -0.0190252554167949, -0.022440575216571758, -0.029852119368945242, -0.05331313772206171, 0.03133008643689274, -0.0010542567282765952, -0.01868489992940331, 0.01949396117718063, -0.008424260826982178, 0.011710452897065697, -0.05141404203653204, -0.06324691271873766, 0.004420734291957222, -0.004845031676119292, -0.012730592518484591, 0.008687054318458075, -0.047896466339174215, 0.02943276480639978, -0.05947660484954481, -0.01065533332293765, -0.04315580728811569, -0.04647078268475987, 0.016196898950094296, 0.0486762929602919, -0.010446503889987666, 0.008326931211068436, 0.023985793365237675, 0.027695750944644843, 0.03990760082664983, -0.01302749916906896, -0.02622022756073587, -0.0036306257821193395, 0.014903699469138365, -0.009611917525034376, 0.026043348515375712, -0.0410781808879504, -0.03669967946591113, -0.0053220534960712, -0.02197165826166376, 0.042161648380467535, 0.0007925955269613966, 0.020085293110075987, -0.05108312359591947, 0.04533894811663329, 0.004717277920091473, 0.024586336087800593, -0.030597732866295274, -0.0010535124426778706, -0.023916860569092663, 0.06957774978422476, -0.0390151815511088, -0.04090143791005548, -0.07444074752703912, -0.012356611599197015, 0.005073949002439017, 0.028361013493217586, 0.008724574043393439, -0.02406370731560738, -0.009814326720430006, -0.0009574985210840739, -0.04108012320368743, -0.050527182374873324, 0.015367906773915075, 0.006565496493695115, 0.07067866013676365, -0.015091747640022624, -0.019801588374687342, -0.03586883449806862, -0.11044982461173776, 0.015895297053167803, 0.0073965931632869256, -0.04325228545944515, -0.015605617031218644, 0.012137395769804446, 0.0362623783096061, -0.025135085961034774, 0.005575403503504898, 0.012826204253187432, 0.01977201992077814, -0.05836235440262133, 0.02016638747651057, 0.05199149838285998, 0.03703119880285194, 0.02153101733428827, 0.033837743712803764, 0.00574810023167964, -0.029246509823278054, -0.01625228846541027, 0.0019046699044316686, -0.020887261307234877, 0.05232456428129989, 0.008424709062579206, -0.0033153201641736396, 0.035735608782550464, -0.04129108500248861, -0.011027699830475747, -0.0587277967157459, 0.0313718593214458, 0.038328606623018076, -0.038110326310773095, -0.004153025244514996, 0.01348317411416214, 0.03932096553892757, 0.01167827121906628, -0.01292488584478942, -0.006282487127451436, -0.01510821283513462, 0.03239658840648131, -0.01180062349568647, -0.01597088589124967, -0.008023793259834024, -0.008361526098089303, -0.04544002286615074, 0.02577431292401403, 0.005196671428735131, 0.011045598384997265, -0.030763376095316403, 4.4017398658376454e-05, 0.05176310590905669, -0.02215953436545312, -0.056361979385469496, 0.0033771958863384748, 0.04441721449255552, 0.011134753313654136, -0.04421786913651955, -0.008342304967416208, -0.06418742241208611, -0.058969381410820865, 0.0514397975150516, -0.009436888903125945, 0.011515940103600908, -0.06027645904995378, 0.04744344202314867, -0.02338974153609143, 0.04580286594392386, 0.018395841363199623, 0.019221178371855663, 0.014406804560736038, 0.03423951372689685, -0.01819008635822402, 0.0428280396915562, 0.0033471688305768063, 0.03235326210859955, -0.02553335629681564, -0.041276038542910565, 0.06248960527918503, -0.08472199618309219, -0.02443784473151882, -0.010649626686451199, 0.040108764277605624, 0.014848497403789683, 0.028948873687183928, -0.02917880396298284, 0.021129675044971343, -0.01805989918431517, 0.012428551938478015, -0.014594939309553454, -0.06827939526920615, 0.03409993834015259, -0.022987742226541905, -0.04184695000055605, 0.02311387368775534, -0.018147553124041843, -0.025329523188297735, 0.015984699329607846, 0.030973147914441414, 0.0009091101439115271, 0.05561300641909068, 0.008841168817675264, 0.07921393065147535, -0.06448157180842373, 0.01129941205231311, -0.014502797809673387, -0.019589995382961578, -0.015624673577939873, 0.07100618200627137, -0.02715829842494247, 0.012700574898894824, -0.013550884710078006, 0.05417990992065821, 0.0035827542270824753, 0.023639425607188774, -0.017967799020607474, 0.012678868522938699, -0.03373437020604074, -0.03548861619047762, 0.021300556958911636, -0.021413632945341377, -0.0029906471665374326, -0.016419265389213296, -0.06718160515103443, 0.010241764697184765, 0.025554989909033248, 0.08758223961432703, -0.009398809442541307, 0.030485179141067444, -0.0007782085158122428, -0.05386065007147387, 0.011633688552161733, -0.01383408208657044, -0.03940252141439978, -0.05542943268548629, 0.030179981960260928, 0.017005841107251184, 0.01672647992272233, -0.03312877092052464, 0.006946171898292471, -0.0003784002610149329, -0.00819991858803865, 0.014700741860555745, -0.003831320871246965, -0.035368437058873124, 0.016868403672038068, 0.06556064684273476, -0.014935672763340015, -0.0017918210878948516, -0.01314460673812919, -0.024658098566019967, -0.08371670252639071, -0.002997350450706821, -0.07183660693855935, 0.046517304574246625, -0.03173819521660698, 0.01698384317892365, 0.027220516919553052, 0.029835602859222893, 0.015539224810295139, -0.05441991816972055, -0.007195676767729574, -0.030187260960192728, 0.04533657647449384, -0.016888104158685472, -0.05028790980133981, 0.03192722265710574, -0.0007730787439532877, 0.026423797700303148, 0.039712813757366024, -0.03613809473980993, -0.0744618498760452, 0.007113165678091468, -0.0131360712964199, 0.010980447349827139, -0.0037772048506257735, -0.039511814881512966, 0.034796237421920576, 0.027502159786296543, -0.026271045368369914, 0.024652874588027777, 0.013028938078231283, 0.0004378247012274888, -0.005362105624492161, -0.040138324294063665, -0.0032713527699023063, -0.022026415635448715, 0.01662056138594187, -0.0005801345140355282, -0.09262831566043173, 0.02346906218282844, -0.04140424610712904, -0.0017709227614705456, -0.0012729354101771305, 0.05505368495890141, -0.005135146795692768, -0.01802644505206225, 0.015882879035698228, -0.058808117438548205, -0.021848032842418815, 0.01015931335035184, 0.0606091042949694, -0.0033268297045421676, 0.005252130108152031, 0.002853949503369461, -0.006126068472178623, 0.00027402498015525534, 0.014813416919036395, -0.0029624550818806157, -5.870860253957954e-05, 0.026121401251620293, -0.0063586368860290175, 0.03217700101922325, 0.04144713485820723, -0.015560173196279557, -0.003197431046036564, 0.004962957087419538, 0.0006562251284951585, -0.05654332039800485, -0.013139052638675357, 0.06320412834463811, 0.011828122853981585, -0.010439975377385124, -0.041756609081856334, -0.010710929712246098, 0.015830870594734897, -0.03083997542337182, 0.011920936505237612, -0.01879223974202034, -0.014698004412672005, -0.00044848174547403697, 0.011301118496729554, -0.04890733502792092, -0.03957839643022667, 0.012712480089893684, 0.03367845489444539, 0.003605167895339063, 0.05069402954426566, 0.01020338476770232, 0.03738453156444875, 0.0433130568523993, -0.041060529200848093, 0.004978272338553258, -0.03411484447867101, -0.025823549547850794, -0.058445752863205136, -0.000634841363156885, -0.034754287875391775, 0.003699072036413534, -0.032445393526139794, -0.02678499657473113, -0.03126574354011864, 0.019709898318043022, 0.039211893050174404, -0.004636514698237925, 0.028742712472043276, 0.009597278553921854, -0.014845382064057359, 0.07580979584747494, 0.03289633241535261, 0.03332044645146357, -0.04564048462152582, -0.03439259099940292, 0.016519969069769037, -0.020890366821570302, -0.02143007699606967, -0.026107901801470722, 0.03201994032604484, -0.04467207994269852, 0.0016574386062004052, -0.043526432404647764, 0.0254844858544827, 0.01061008120011209, 0.0019136817687233777, 0.06437585629576954, -0.03335191453124249, -0.10313827207552075, -0.008232614831082211, 0.017318229305352817, -0.011187774150517735, 0.0004375711445409777, -0.02780948664441438, 0.01693175242207939, -0.026548442043664418, -0.002409634615107928, 0.029292925871303607, -0.02807064435112745, -0.04302388429158162, -0.024065690042151342, 0.047081184803876124, -0.021417043752557294, 0.03441379891848527, 0.0007932223671643305, -0.03370737463934924, -0.0014733957175968645, -0.03951641068278443, 0.005350876946472753, 0.03098089585785847, 0.003717507571442635, 0.010681071119515939, 0.009435604372789378, 0.06378812314635374, -0.06476142212160492, 0.054748365040101776, -0.0581150304760739, 0.008711082704589876, 0.01735708312988296, 0.0019288432388543497, 0.006180855735593048, -0.02154773388850854, -0.08875958301518168, -0.022669171653414772, -0.06365914450665114, -0.028962273182975756, 0.01508550702079726, 0.0751288927219103, 0.02232591602379921, -0.020030864466387657, -0.042447787455572816, 0.0201464011974466, -0.046693736879802224, -0.005791941357996496, 0.00328784384691051, 0.019703181246704525, 0.03784252565747057, -0.0530302554363575, 0.010683396184216721, 0.004073015303285095, -0.03575714340864912, 0.06359640040317646, -0.0457006969691755, 0.0498592855734455, -0.006824462605846372, 0.03149186029423292, 0.0055508697953532095, 0.018671798638163373, 0.03353838070572606, -0.02516363324424695, 0.026074324963473606, 0.026510751399505317, -0.00806889986001104, -0.05226075493558856, 0.04125738627040627, -0.0745018240854014, 0.02509446652959624, 0.019369028542346813, -0.011405580232578871, -0.017286489298202274, -0.03494172619456524, 0.036349071418905796, 0.12408671959802453, -0.05169105672585618, -0.08976555190609194, -0.06043327007613386, -0.005032013950960802, -0.006342801433532073, 0.006001605795965785, 0.038150342485932465, 0.002178278485343196, 0.04832051982031821, 0.07047899670261823, 0.018810192836598242, 0.0031021376043689317, -0.022837770194482254, -0.0010751579799871784, -0.02989580184524556, -0.04934637977778591, 0.046245215239786426, 0.024038971088791466, 0.017841413535162075, -0.019911905959160703, 0.071895831570933, 0.00021907581167920922, -0.011704201602921124, 0.07631574255552735, -0.004863468463434794, -0.021834503903536417, 0.02294236182591115, 0.014999749210651144, 0.011246315913234675, -0.006779674135945897, 0.029446776445404, -0.03423161996025762, 0.007271675394692778, 0.03105820162917683, -0.002529904710186686, 0.026101927351153076, -0.013662853001459266, 0.02260383817835811, -0.036786104236467124, -0.031113739746571438, 0.049507825219638806, 0.013502965468087423, -0.08305410550252691, -0.019747401367868938, -0.015659211512151164, -0.07036116879208473, -0.05313886293937283, -0.004380941100927951, 0.01726602439218883, 0.025563188800324987, -0.002411374195910291, 0.0017297885545385096, -0.008346913253654631, -0.08233406776104411, 0.004547327187302933, -0.011925622421685786, -0.009021448633066424, -0.02166727853072828, 0.04002842786983635, -0.028278923084845982, 0.028192980439142, 0.07046043868788301, 0.001294001070992073, -0.029174191913015717, -0.015204049778810746, 0.037778014233332005, 0.0022729512730096284, -0.010972599800176246, 0.005750828128146985, -0.02006156962281556, -0.018090394940774305, 0.032258554811534036, -0.017256143205319954, -0.02448964339000461, -0.007677668934001239, -0.006091296553336755, 0.0660576735519334, 0.011509350552635843, -0.029389668676056607, 0.06544060388377064, 0.014651491110421458, 0.024818982201011097, -0.039536600332574966, -0.04828755741227973, 0.06619419112504847, -0.007625866566515769, 0.027363906769954684, -0.01442817795030718, 0.01194984870303416, 0.05309315305982374, 0.02644087032812393, -0.02136881417800968, -0.0018752547922512126, 0.026178219566952134, -0.029782598800637456, 0.011364925010701386, -0.019779526239258827, 0.051530178773453075, -0.02838895101548241, -0.04225089615185662, -0.04736066606865943, -0.0068620395859950575, 0.010001564038655538, -0.026175157474910983, -0.017393598271059085, -0.02144787977531443, 0.014141900384716166, -0.04203836231131714, -0.05331452038619176, 0.05308160715648929, 0.01759634138919904, 0.0061282298977664, 0.02883596529832495, -0.02774788314093859, -0.026378429967097834, 0.04636107656390325, 0.05807321169219288, -0.0007981930247429028, 0.02556446227716878, -0.034230516547803534, -0.03441167055661263, 0.0913405236458706, 0.02875344744736899, -0.027492709395452928, -0.013321176242378803, -0.007211197375319072, 0.06579375801510455, -0.027510213370943056, 0.04350879817043697, 0.0814248160630099, 0.031666117102500654, 0.033944499885235596, 0.04513423082353722, -0.026514370957135516, -0.020968665817843218, -0.03634037919952506, -0.06132477114444671, -0.034525794533955066, 0.03503550755722496, 0.027218411909562753, -0.006740179995999354, -0.0600818084610655, -0.006894810690863806, -0.023251143335191574, 0.08649312770626069, -0.0695096927292609, 0.04139915250854912, 0.016205000182896948, -0.00271953024000331, 0.02434721989176005, -0.0021917828309253274, 0.004023905571875268, 0.00882100341235652, -0.022893881087250573, -0.013507087213010843, -0.024439242633932736, -0.013232889823534186, -0.013633061258290408, -0.09190859418464799, -0.01466857394998426, -0.06200316668893747, 0.00842269390369545, 0.024265088514477146, -0.03177489396658678, -0.013326218684827014, 0.03586259889465793, 0.018822983240846743, 0.03263910835992829, -0.018545615924460586, 0.01998314581006804, 0.05455039108837347, -0.020535200185032652, -0.026721151699695005, 0.020281568715010096, 0.039136177547396574, 0.021788097535684506, 0.015934146348353474, -0.021478105443045643, -0.02834669867821588, 0.023891092832104548, -0.003845486078713463, 0.01591033801150723, 0.033180354222866956, -0.00208017999429189, 0.0121555089585834, -0.03273581513897124, -0.013058124892138548, 0.005972890543340087, 0.029790941421406075, 0.02487593170679293, 0.011528846913373065, -0.02465351168761529, -0.05563453062883716, 0.020431772087211315, -0.028733353869602945, 0.017000155429949492, 0.04604657791171474, -0.020170642734558958, -0.03539938175994397], [-0.03759580308253524, -0.061540166919671464, -0.048694664346612085, -0.011740349168652192, 0.003421700518101821, -0.05171306390104202, 0.052052873901274437, 0.002134779451550296, 0.012057886124511651, 0.0392633862926872, -0.05402424373398342, 0.032788447800107125, 0.0017989145666753848, -0.016074299783994987, 0.005457487105093137, -0.014077283021793716, -0.07491872633259408, 0.009621423597078554, -0.004382907874387545, -0.05164856688015217, 0.049617063851187825, 0.03912487578958205, 0.026498212633238816, -0.03417907771035352, 0.0021190288615950906, 8.289347202528594e-05, -0.039720125362796364, -0.01809410552308103, -0.06965756577634173, 0.017608316184762784, -0.04915950218618457, -0.024102885648265758, -0.02035595205587121, -0.008421634464308353, 0.04118656574260179, -0.01243185386752363, 0.019579242707034646, -0.03355544891324677, -0.024255523616048096, -0.04489101983347237, -0.01837604242379662, 0.05883946264875486, 0.03154617031763884, -0.006871619468654107, 0.035073137687749986, 0.01368387117338954, 0.02182860318864171, 0.06962352357212077, 0.04824934304390298, 0.0008322762834912201, 0.05126378675029721, 0.01858298632123561, -0.011949961072636598, 0.05262447732767771, -0.0020453111276464856, -0.016021459329130086, -0.010244993799451558, -0.0013724486657837722, 0.003254934993112905, -0.002585538484209104, 0.05992549429315558, 0.019906142264156008, -0.0073382303565357795, -0.00915065822263837, -0.012779356623164874, 0.06309669800699629, -0.022319277226876853, 0.01843165074730086, -0.00022244065023739427, -0.041144243307797305, 0.0075701208518755905, 0.00017611934686150723, -0.04397078649554633, -0.06279841239656324, -0.02368841120984396, 0.013267530443262513, -0.03614523410681581, -0.10275091592177257, 0.009457632227281163, 0.012491257791856114, -0.03357137540843166, -0.0007530353092554937, 0.012172321889378095, 0.0044115731227516485, 0.0015831973939936703, -0.04058068893317812, -0.02346701909522062, 0.04178273124344152, 0.014584405089375174, -0.06486694189632175, -0.07851492568187816, -0.08995866835627174, 0.029626449485119555, -0.004840981872490592, 0.023596890854837765, 0.03342234670285924, -0.006561040652553159, 0.0589817814346723, 0.010122284201993303, -0.015232633080406689, -0.005931942768621203, -0.011836218785265232, 0.04683762971174419, 0.008579074299754725, 0.03385044669052442, -0.00023883244636839423, 0.04325327755208058, -0.01752273260127656, -0.028667784655154575, 0.009722533653442113, 0.08014961174822036, -0.0149151266310395, -0.04999761053147978, 0.013864248762341918, 0.03275436794039256, 0.023501154043361356, 0.025010792055510322, -0.00810383191982864, -0.007315653856903953, -0.0004638669817795575, -0.03043840782318603, -0.02249363648550472, 0.04634611683258843, -0.0255760038424817, 0.02837980107848693, 0.02227383178161187, -0.014416153043817038, -0.024444264850815117, -0.02119021285519713, 0.08182497593910214, -0.0014823654371327385, 0.02312151858366141, 0.0333312833251347, 0.009385737148721724, -0.0028789800744862953, -0.05223222919489751, -0.006760263680869287, 0.009622605446930341, 0.05941743048116922, 0.062018692244033634, 0.04080505109612461, -0.024769175244611665, -0.026521766460255062, -0.04026479195314294, 0.026658826296892802, 0.012062278510691313, -0.08102139232274684, -0.06408984430559626, -0.01712553376079193, 0.008412422112151336, 0.021059577756151613, 0.01973888676258035, 0.07607368214233926, 0.056552247715642365, -0.02778506180969032, 0.03502285925616273, -0.042828215062532, 0.0069508731541016635, 0.061022164276086824, -0.035822923050474235, 0.07722550860910256, 0.026604777293087228, -0.002681609004373013, 0.0176353440133126, -0.04382305674195157, 0.03641397811540032, 0.006509646444009186, -0.027771209235232158, -0.03899858742329553, -0.017442513119644416, 0.04012526427907166, 0.06330549906555757, 0.02022135760728183, -0.034616844662926326, 0.04582369481591027, 0.012651737873671928, -0.0700414824196187, 0.00037450551674993204, -0.03408571614929758, -0.04428515834734286, -0.05948537496580356, 0.05461742813093392, 0.03580646442377644, 0.005594285830901008, 0.01840491624276969, 0.004789150536193532, -0.05586803236665205, -0.005280188972375611, 0.022823930398149367, 0.05086389555487667, 0.01627614398366856, 0.013289764447238112, 0.01162995955598252, -0.011230307148627555, -0.04183716935992721, -0.02546147022453532, 0.06555396315145011, 0.03926331099266838, -0.0592676381660202, -0.036074268620470515, -0.007134459528203209, 0.04089939180497167, 0.0012746256978442123, -0.02354381261329681, 0.06327355417011242, 0.028981382997025885, -0.025141941112542077, 0.029943168682674846, 0.04527496047807594, -0.09239217795061665, -0.057279911170670474, -0.0403866972449176, 0.013637552303408827, -0.02680339333052193, 0.033783103175825495, 0.01223050869746733, 0.03784326819710839, -0.03766469910949611, 0.02950997421898559, 0.04828704166280062, -0.07110686893365574, 0.005385106053979161, -0.027031624289779812, 0.05853799090061559, 0.021063298564158506, -0.007891908820313407, -0.015692090305898878, 0.06222927001067678, -0.007796950096137781, -0.010408866284481946, -0.01230681666106779, -0.019414378423041535, 0.03133181266127691, -0.06582588638173938, -0.033887751987235565, 0.020387754960278493, -0.030981045157109536, 0.024375347402290946, -0.016280650246614597, -0.005268236717882444, -0.1141623996015584, 0.0400101240088035, -0.020464598487990936, -0.03009937804285511, 0.019678211831224417, -0.013422594356692125, 0.07741081804087009, -0.04123982971406063, 0.024064387136197744, 0.010681088483975575, 0.0398662927463543, 0.026576529348377183, 0.06040510719522661, 0.04757721401450687, 0.037625982272163884, 0.003836981636039169, 0.03814055868387079, 0.08267964564889034, 0.0002840933812829912, -0.012306948553161685, 0.06277565444258724, 0.05906525070743191, -0.043385019946988665, 0.022182206188615855, -0.007530396846254296, 0.008948715633991203, 0.010098093482640997, -0.030069633821658417, 0.0180381470560163, 0.043985472849775595, -0.09980954244230329, -0.0443314523880484, 0.04879998056709606, -0.006843548333763952, 0.054609824897068296, -0.01015478162416132, -0.011807653560525964, 0.024012538862297754, -0.025850349081056927, 0.031139407056421254, 0.030123091567803406, 0.019120468760799935, 0.018596612088202142, 0.03496521598369803, -0.02016498898335095, 0.02568749369326004, -9.124309380844827e-05, 0.03721943209783067, -0.0013481307318795473, -0.05430584327968051, 0.0393664814693181, 0.0018437767947730838, 0.017804115498042613, 0.03783588367733968, -0.053532506629131796, 0.09368689575120656, -0.06853349797598865, -0.020590200426145594, -0.07820650042416175, 0.03869434918524644, 0.037768910148488447, 0.022636151259363295, 0.03403389026405432, 0.014867569092714753, 0.02414083551681916, 0.0414942292232939, 0.021955739721563457, -0.03684237828734023, 0.014349308744620556, -0.021752728506959938, 0.07412157297284379, -0.01014819270877995, -0.013009328404194543, -0.022824768862753957, 0.04386941800961975, 0.004427823530196907, -0.007231092885752089, 0.005570629789687164, -0.007796015573335522, 0.030880036921607824, 0.017716770060657232, -0.01814903316851774, 0.06606139487101419, 0.005653945491509599, 0.02110038107005153, -0.02107203879638656, 0.03939391191398988, -0.010533725489938178, -0.03248150577520844, 0.01505392800939029, -0.014587893071614328, 0.02091105111850657, -0.03570592485918382, 0.002601377072164685, -0.02452697433283495, -0.05264474612280134, -0.0012888883547131137, 0.011118620820716718, -0.025330054723709184, 0.04165498179695646, 0.01571154497869282, 0.015651607401938543, -0.02749520212471821, 0.0040526529176791075, 0.06506753692526417, 0.02954726601620139, 0.003626017397709097, 0.022077857419948187, -0.06524141852651347, -0.04532473022773626, 0.035419877185061996, 0.014098459541006388, -0.04780144603069886, -0.04691502174936788, -0.02165846051003923, -0.07207537778877039, 0.004965754796174338, 0.025936844703242506, -0.005088030085405273, -0.006876320330475488, 0.02768836860567541, 0.044353207128754034, -0.013539740292420624, -0.008326252787522035, 0.03138566407534097, 0.051547327143531864, -0.04114274324922518, 0.007110729766112131, -0.0134177618198451, -0.014442168979937038, -0.03439053943457414, -0.02436593324306147, -0.09758457146639755, 0.06104675607381992, 0.030899753917646714, -0.01361673657064347, 0.025485475568523507, -0.00045384801160870995, 0.01932218557884247, -0.006289348554148276, -0.006759427990893105, 0.000707876074717358, -0.06269399847510146, -0.00461428903262221, -0.013305416435449817, -0.021790552890135713, 0.0168566194808363, -0.04087474213730951, 0.08485113715517874, -0.0008539502288494452, -0.05019110624796981, -0.02734414749346271, -0.0005926240935387758, -0.039489199153608455, 0.02426817730549525, 0.009409584621323451, 0.03240421244404764, -0.006863111419545599, 0.03415272234086412, -0.07480718826203106, -0.00023384194418623558, 0.004161616174971125, -0.006812134723954172, -0.016257038827927377, -0.013778799740487544, -0.025134641401203202, 0.05407327250235968, -0.017153379168353928, -0.0006482831659395519, -0.029280144532128287, 0.059491810233336107, -0.07383069459329285, 0.003631811403608204, 0.02231100634072608, 0.010041287110635526, -0.04566844721966306, 0.022231604210224503, -0.024265325301635474, -0.030174628873222416, -0.027291154350828517, 0.03307715672953487, -0.030646287402232682, -0.03952093655861109, 0.025915356128339877, -0.051924444396838375, 0.047289687896148846, -0.04486863701095068, 0.0174387710742136, -0.019614867543783703, -0.06995017529984489, -0.029487360123380085, -0.01400358428712027, 0.0013990886545769581, -0.04351439248788643, -0.06231343646428954, 0.023574661571361257, 0.001527334860786781, 0.02825921066586901, -0.02324438865606804, 0.009490090092646933, -0.03040699499627812, -0.013518355230884098, -0.03489487894615246, -0.029298311256810088, 0.009900127591720912, 0.04283508139926921, -0.023211846541662785, 0.05865439201736437, -0.04000958465096039, 0.1057008718750434, -0.044952008295053844, -0.06293331522349514, 0.017329398737625883, -0.04303160921330034, -0.04325903528870521, 0.06780430318900316, -0.0002354736429417747, -0.018894604245278782, 0.009713284315812256, 0.04033059825059266, 0.03465148973329327, 0.0009980706364742101, 0.018026271059275907, 0.003980808158670126, 0.010781493946274324, 0.026757256967047123, 0.00948886548937822, -0.06596377726928701, 0.03363232128645919, -0.008719741900035985, -0.021503553701818362, -0.021899933758019453, -0.08304254303890111, 0.0660500340270598, 0.09132918702874204, -0.02512354050002517, 0.01781092138714123, -7.279729509022258e-05, 0.05533858640072242, 0.003659485477002521, -0.041384743000208245, 0.009355317108669175, 0.033217328325453245, 0.038483591012494454, -0.06603714862409514, 0.05055740499617269, -0.028276764127521125, 0.007106434790799368, -0.013698060729438761, 0.0392051466749468, 0.0035565492934572117, 0.027950454797771244, 0.010910339409323589, -0.0401543691232395, 0.01752091817939682, 0.027928539064408675, 0.032103517406290714, 0.04954355312175943, 0.04731292776758943, -0.03991430962386242, 0.0330773720327739, -0.03339898669510645, 0.0016875364308234968, -0.022010377399143414, 0.009780638064590662, -0.009364536705691016, -0.049041347688753976, 0.05145906638545229, 0.02364505436809666, -0.007957742633914031, -0.05632564302668119, -0.017659777083600035, -0.01636507315861559, -0.03469472130728446, -0.05542951281117174, -0.000618159346193462, 0.041412135642701846, 0.034295367308824834, -0.03969284741712671, -0.024882485045721072, 0.004032625113362893, -0.011249767634001612, -0.029890161251933344, -0.0008544047314750808, 0.00789422325823043, 0.04566678320359406, 0.011480689877258126, 0.00574191339344384, -0.050237354487587586, -0.023155661371951037, 0.040949730061539805, 0.054422345930751195, 0.033598664947727584, -0.015857709324430775, 0.00535574189117543, -0.011308570680041258, 0.07141653800334677, 0.04584619104040226, 0.00876027636884159, -0.03459939529173841, 0.02491364067232385, 0.01950485946098881, -0.03088914283442364, 0.018534074522194157, -0.0633671967082229, 0.006826969962812445, -0.004185103653089835, 0.006129022876573921, -0.057575500512244866, 0.049609980105088755, -0.05944491260191736, -0.032169598631168035, -0.018424396322821245, -0.021812916217671844, 0.02845084004099525, -0.006987330274576418, -0.034255730556080964, -0.011248906208938507, -0.014309789906852652, 0.0015568434624348923, -0.06229524581656053, 0.0033077224700994007, -0.046385550687467435, 0.012818481484959615, -0.03259035959243746, -0.05893276322251245, 0.02404969936983391, -0.034281495858304145, -0.03269274279900059, 0.03333560977160641, -0.040010370831688735, 0.015562246496069753, -0.03165450156711171, 0.010052268816677406, 0.061495124419324185, -0.03675223402993213, 0.06001323337138586, 0.041985741425996446, -0.02006145042492936, 0.040854342509952075, -0.005537337820621947, -0.06373955383571457, -0.009503688058763213, -0.032704078720413, -0.01592048718677184, -0.007896802356593643, 0.03173276986459588, -0.001727598897231144, 0.005877681858153651, 0.03294858756862453, 0.03018704571322729, -0.07117258044495652, 0.011746515139350959, -0.011635117928608742, 0.028945888276735058, -0.07591739520348081, 0.026377109068951105, 0.0893267350801614, 0.006000360098084238, 0.08816676598086458, 0.05617242499296111, 0.014123314641495582, 0.054148141913899224, -0.016196489591292423, -0.040014110236551007, -0.02539974062294514, -0.03160531463349128, -0.006096961642101142, -0.004645518958845121, 0.04401581188241932, 0.04927444038502903, 0.023078219172550703, -0.023754702104063132, 0.0842055231407596, -0.029440016855610072, -0.021124573268127556, 0.03259955570973199, -0.0031589928462807683, -0.014807957375303802, 0.01732964152062742, 0.052104730203777684, -0.03363344949207605, 0.024076219119335173, -0.005073813062446955, 0.004968641335943948, -0.05468977360045079, -0.014942287242517633, 0.02651483175358309, 0.09677584158050143, 0.004938920711198525, 0.008115369394371788, -0.05134469573537998, -0.019325281735152404, -0.05078284019097372, 0.025318776504266605, 0.006445044201068023, -0.058113907766201366, -0.026674229890741807, -0.0028750689901247957, 0.06314940291337964, 0.03476331881216701, 0.04256811280532575, 0.05499774718179501, -0.004637846460800655, 0.07243552295198329, 0.03910062195424886, -0.05915208339624169, -0.04839728776972404, -0.009074465198396626, -0.011010212948194322, 0.06931910240631371, -0.02738369530191261, 0.01114503868666115, -0.03828195079166953, 0.013166525318824913, -0.07709608390639225, 0.04041451716463444, 0.04844330223469282, 0.03205057633285388, 0.060851406805915116, 0.04859485957646028, -0.019498150782249774, 0.08126929195245144, 0.09645865966930066, -0.003984955895351381, 0.02659278407807706, -0.002176020432039539, 0.010660412659250678, 0.08777732622996161, -0.05870440074360413, 0.004618329618770882, 0.031150706124392576, 0.03374328786375282, -0.0503205250662194, 0.02854999322492447, -0.01891160042744804, -0.015922562700580574, -0.007734651036751236, -0.06358630226932817, -0.021390981404923515, 0.04030468290238775, -0.07032655737266066, -0.006334383991127998, -0.021707048033015215, 0.011035094961728583, 0.07092052309980215, 0.004200211900009139, 0.0173787291292771, 0.02113353759002216, -0.04496488647607577, -0.024815036018615833, -0.020293532702091024, 0.033129756745824614, 0.04549314158193561, 0.03860524038303379, -0.012210309275701143, 0.019959612263644216, 0.021080908347343188, -0.05667764638752016, -0.015670276744464518, -0.035854225920982204, 0.026973731775880326, -0.049621151397840346, -0.02120899550262515, 0.04055524681839047, 0.024594049439996345, 0.028602993190928676, 0.044932464002162144, -0.013089723035933167, -0.008634153495308817, -0.016764898992618276, -0.04143207692249035, -0.06692231545805478, 0.03809880156729086, 0.0410885091235569, 0.019859526163359047, -0.09595168144022008, 0.013374157774211642, -0.03545510408278911, 0.055585019228669666, 0.04652639620028088, 0.03797978749303222, 0.021296584709360352, 0.027289305608956097, -0.03241683597727304, 0.02132623544423896, -0.02165737359835516, 0.008462067915918494, -0.00589277488665131, -0.039529766776136545, 0.06322883010237794, -0.024381418718006677, -0.044900868338470144, -0.01727541868141773, -0.031779308373799615, 0.02717753447995307, 0.019933301090680443, -0.04975936806367254, -0.024728548119425757, 0.04152909892016443, -0.0031660031788132794, -0.012411052912617468, -0.03388752562412632, -0.013225233817109385, 0.02027888830514137, 0.006387283633712195, -0.016032276300178196, -0.014315090072162428, -0.013116860631979265, -0.03836116271721707, 0.005208270327893674, 0.06397327816388099, 0.03728516818654808, 0.006731665306896531, 0.0057358831315000155, -0.036111853110673754, -0.040142928484980404, -0.039334416169483466, 0.0118399022100915, 0.0005008660591162659, -0.053337546972290116, 0.005650753343532046, -0.03328908997904768, 0.07674387690048655, 0.03542037009275055, -0.11497285285304329, -0.10804063719611053, 0.013598725435254156, 0.00505273242522489, -0.0037066837778276635, 0.017552973448370018, 0.025133625326427576, -0.015493826182280235, 0.018299389642289204, 0.004293251500218951, 0.02292661970235319, -0.0277892311019912, 0.004032004749808964, 0.0021520922596944617, -0.030110613549643114, 0.07441706686971859, 0.05123337407052445, 0.013538321965271171, -0.01539914896638538], [-0.0202473201445841, -0.074016685367988, -0.022255705467380794, -0.025644827157798842, 0.030355768358229975, -0.08914645752483193, -0.018889117076739268, -0.062339731372321176, 0.004544189138647314, 0.029125379409680175, 0.02747217375553914, -0.018798372858642037, -0.005251102173999604, 0.037260417036980166, 0.021896644052719377, 0.0060575131809495, 0.011432157815038743, 0.02232230423264475, -0.04976219822682698, 0.04500137052842066, -0.029195293945470702, -0.020586208170538217, -0.026261696204678216, -0.0007858571799729378, 0.03865921278199118, -0.008914649552874429, -0.05322960273717615, 0.017411184535436677, 0.017837658495399263, -0.039392111780562504, -0.03844471234638868, 0.012942084875729096, 0.029536488814546156, -0.06989146395837051, 0.0649509958161745, -0.03215508206368043, 0.025299520597553443, 0.013575142030602394, -0.005164342937442746, -0.009813987393911363, -0.054177621772821996, 0.0006881135253195669, -0.0552968916725328, -0.035459127323107485, -0.018850298326212538, -0.0394736108339648, 0.04435006402565628, -0.03606179933938535, -0.03187075434390319, 0.06495330490884814, 0.019879648834731818, -0.06796201920081665, -0.0221025574620479, 0.05056295275273739, 0.021769494412082868, -0.06183586394142789, -0.0007344992545571148, -0.02179749635986151, -0.018787083373647092, -0.03914134384808576, 0.02731759417591002, -0.03522578360651473, -0.007395722405337461, 0.001025781992820403, 0.006826846511090076, -0.0466869239935105, 0.0014995560888096996, -0.10083922188195824, -0.0490444745817144, -0.06446413391335802, -0.0510527794797085, 0.013415023119709152, 0.0215001942541671, -0.0012434153000960991, -0.0319104111546459, 0.004902984986341089, 0.004031933991481293, -0.06878175934939347, -0.009514961481027321, -0.034135412322393394, -0.02374429892900782, -0.06233767080822021, -0.06527263921157235, 0.0416846458359098, -0.02746174784486715, -0.04309436453787514, 0.028446909519362996, -0.0878928439992104, -0.007598190856078176, -0.03930640181449583, 0.041704893779815004, 0.011987310139608645, -0.006275668448285976, -0.00281029912983318, 0.02733786090380739, 0.08768466225261194, 0.03220516790514841, -0.068588125577883, 0.015186632739957375, -0.03337754674256836, -0.07845834970651268, -0.01746080807889319, 0.04626276683040942, -0.007438668277674475, -0.0004272295601598772, -0.01775193949604456, 0.03337393545429063, 0.04302055431988906, -0.017178243329673944, -0.021050444553634976, -0.015366153397603296, -0.010078123421444042, 0.003377115978210662, -0.03266345470439881, 0.006677450976042604, -0.015052723091721046, 0.006566523231019258, -0.03642757498367607, 0.013618740166801552, 0.02556971830912098, -0.0005523682888270036, -0.004510136330542726, 0.03606949382971765, 0.043252442742943605, -0.02993559856412078, 0.012138090363455697, 0.0332163653886821, 0.019892764962691673, 0.026896250524048836, 0.04134331135725421, -0.03070390825048003, 0.007604840247158564, -0.005285312415775273, -0.05739276460040512, -0.01088717870832605, -0.008952872352597651, -0.0077038248779014665, -0.057381160838483984, 0.05282307207100589, -0.042293217646834226, -0.05226632581140794, -0.006648434382785137, 0.05101292032662258, 0.006159837729760977, 0.025612488712910057, -2.598791802691793e-05, -0.021278599389119083, -0.06192107652426448, -0.05300762956839317, 0.020329455225644503, 0.03674654881183215, 0.015536974037038766, 0.04991890423165214, 0.039116130390627515, -0.013972773721542885, 0.018486052479334415, 0.02119849514710879, -0.005856966557558673, -0.05986462555681775, 0.0072146970192041955, -0.04806502401315949, 0.021878275917917578, -0.04945110535836078, -0.007276788274581124, -0.017955663925384047, -0.026481940738644773, -0.0389277084982575, 4.744717086629994e-05, -0.01694166235311389, 0.05853078897157665, -0.05799440957909389, -0.03586765316524669, -0.08492173585353162, -0.0029412072487158734, 0.05172281736738973, -0.07214794227418878, 0.012925106004886527, -0.03063696774061542, 0.04828305357017061, -0.03587251192973647, -0.03002763685925363, 0.00888873439726821, -0.024376908972387413, -0.017119309269675483, 0.01764300914220415, -0.016584681291449042, 0.0416134872315164, -0.016909238592620935, 0.040403185599815754, 0.00044962871224564743, 0.026792938702542714, 0.08036457377338209, 0.019099729172190914, -0.0406527574689206, -0.01721443865286314, 0.027246363760423074, 0.01835720039755551, -0.019923840427080303, -0.03855136118334473, -0.06752392709399538, -0.012437728941972898, -0.04017609083493583, -0.007639046895980692, -0.020564776242629267, -0.03816164466197225, 0.0661073594110763, -0.045467845101493085, -0.021382424879688104, -0.006912805507329687, -0.0137102714217294, -0.029622588881863022, -0.007110640787461695, -0.01737774273918231, -0.027991177994318, -0.020884877215904016, 0.03367471541444783, -0.046231942122810954, -0.03632079910405707, 0.02721318373082867, -0.014251676381305202, -0.006317095638270376, -0.04339802137704415, 0.0012709377994392875, 0.006803588138562068, -0.03355937459206912, 0.09215058199853844, -0.014983535779988013, -0.011932942981123962, 0.08564015096803927, 0.009885053760504348, 0.01053952434400299, 0.006626262464895221, -0.023309667536734063, 0.005905349618388766, -0.06830969425518225, -0.02865363820092268, -0.04766781373633772, -0.029814776416287322, -0.007121107375902427, 0.006986848259261724, -0.0449854034521147, 0.000982832580464901, -0.003918493899539859, -0.00926107863867816, 0.08298643215309258, 0.03086030218055368, -0.009608372022584742, -0.036658875453803516, -0.04298810618846536, 0.019597797946601242, 0.07360904783590069, 0.016633859166541712, 0.019396398442155682, 0.0242577802020431, -0.010952776523579824, -0.005896121522067639, -0.009335865654333258, -0.01888617133523638, -0.03033051647543149, 0.08364531808567109, -0.027969275210991386, 0.032339307010957906, 0.01616315050158854, 0.011110238673190503, -0.03387997636725963, -0.004689035278368926, 0.05065640891106852, -0.006283791828912909, 0.0100821530567014, -0.020696283121317282, -0.0493621965450531, 0.017953549185445703, 0.019494457428272514, 0.018036557281291433, 0.015189716994522123, -0.021927910460376905, -0.012679338993508057, -0.05167883327848211, -0.02852642060118769, -0.04441540951085488, -0.03084505952916313, 0.05106889035942377, -0.04909649697530495, -0.008000778324041311, 0.05497936333478231, -0.003093890059784508, 0.029551923928372827, 0.009372683977481493, -0.03564978404917862, -0.05186186014004316, -0.005914494457214095, -0.018415558308122134, -0.029652825501936708, -0.030086406246429612, 0.01624454755105853, -0.006613302673820323, 0.0010654040819483585, 0.06352625655624008, 0.03457817731425346, -0.03562073400419779, -0.019498842533166322, 0.03466932341999918, -0.05201027079076471, -0.009279098722004742, 0.05383893554679988, 0.024205494986129922, -0.021506981571690682, -0.015008613489047206, -0.04079733821116078, -0.0015129404407233545, 0.012475542105011688, -0.005456438714885209, -0.0016082080309731835, -0.035954230673798236, -0.04663247416675082, -0.036366433177237985, -0.08313303776059904, 0.03448847709838595, -0.00408397034300499, -0.0003096135172875854, -0.031843239516869855, 0.03594443936602953, -0.016663591074299728, -0.0016209088292009912, 0.03193198683262231, -0.031831480113782, 0.029175454391939363, 0.010545066917568938, -0.020453027905926634, -0.004490695966552123, 0.05915369339132307, -0.009333211917689082, 0.0216193870469934, -0.016447015754062207, -0.03506160693185819, -0.0009215003491651993, 0.0285562101577852, -0.03315320678680283, -0.06647110623341787, 0.010118368450292738, 0.046557375195475835, -0.04417053881079517, 0.013407486036814398, -0.014999064868779088, -0.030742127424025052, -0.015100600223712879, -0.030340066607778098, 0.024884924022664647, -0.05470617168572183, 0.04020075073979816, -0.004232595115538831, -0.027576805249132943, -0.003735523669033927, -0.0007521357862892033, 0.02754688909513275, 0.07414712121803288, 0.005837586858300297, -0.0335286764938614, -0.01700540518014374, -0.043445990021488405, 0.0051534942585545265, -0.005353774748593036, 0.01808099256229382, -0.003005597464323791, -0.009780021313951759, 0.02207690140999095, -0.028030694595262414, 0.049390857792959084, -0.0566721626058377, 0.006782790999451911, 0.04980986099942154, -0.028102512817705365, -0.0009762215945392543, -0.03415620354012779, -0.04412303983969883, -0.020453733229054166, 0.007197605355094428, -0.004819837495706724, -0.009030238024086357, 0.05327119172467698, -0.041853670343417984, 0.006163657584433001, -0.01426040819205443, -0.015958401642087748, -0.020783093828701533, 0.04476390916186195, 0.05987473949592943, 0.04628733661734125, -0.031088631535438782, -0.018160776384967763, -0.08613429093807035, 0.05478324202646857, 0.015119931724061156, 0.02567936636361807, -0.03525756940759607, -0.053667269871267666, 0.004970927075409167, -0.002928178786680943, 0.035289543920978196, -0.00896010033594401, 0.034697130715518436, 0.020365804120914235, -0.0148297285724283, 0.004590680908177146, 0.003855804726100552, 0.022425381509341112, 0.0177916702305663, -0.01411307790222631, -0.024584933015582514, 0.04265730132534642, 0.0002152614559436939, -0.06064354820396247, 0.024556026341159914, -0.019943405784976408, 0.038143881781349184, 0.04263773999471828, 0.005133908487432048, -0.025163799136261746, -0.036093683087721665, -0.049900626772758964, -0.025350999080544372, -0.0008837954185705558, -0.02260440818382322, -0.0021747631009216522, 0.02266894201203495, -0.01775515748028422, 0.013944894301091793, -1.961717878254499e-05, 0.08353159207099516, -0.030098232676755092, -0.041895118602629504, 0.08228770624271182, -0.06703975532117837, -0.01807034042603972, 0.01351483814683776, -0.0047406806031250704, 0.0025829438754571563, -0.04755987302753907, -0.011511119673941564, -0.06569865751383869, 0.009265032966304694, 0.07301742619324954, -0.059827600692801006, 0.09224867681915154, 0.05152438039521156, -0.006522152867306836, 0.014721600527966084, -0.042278792332392304, 0.0021457053816400715, -0.0031743402518617687, 0.059312592412315124, 0.027162951734916067, 0.001261807980439665, -0.026618049968839617, 0.002926522068731611, 0.022391213859990437, -0.020841970823514754, -0.004776050681138111, -0.09573813843708463, -0.05113009234159508, -0.02292788027245519, -0.11343924478398812, 0.032033210050693636, 0.014763040363555177, 0.05250457413809275, -0.008185611213607908, -0.02395117860524123, -0.05635558188315648, -0.015205810654947773, -0.026514739714893244, 0.014357277376387334, 0.021092292547721967, -0.0057197195419077035, 0.04370361332265294, 0.015289975761864088, -0.009136906565799753, 0.024805637700095032, 0.009972002389441459, 0.0238865955216456, 0.01736772110737373, -0.0046080175610800815, -0.001219925770496777, -0.007736227716631758, -0.00328148634555074, -0.023345646778334284, 0.015151825056409829, 0.043340985862431895, 