{"cost": "QuadraticCost", "biases": [[[-0.2703665113535921], [0.23480103653704262], [-0.7689594222033661], [-0.2922353520302158], [0.7099975069505967], [-0.6191487178857413], [-0.09427547773010989], [0.8950452414176562], [-0.9122824886603998], [0.6613189192330272], [-2.084602192580029], [1.04234266328406], [0.19967211972203652], [0.3071432408893632], [1.2688372492208853], [1.5251216449783056], [1.276985950060245], [-1.0909693720724039], [-0.9105763837549812], [0.013238475687680405], [0.8172294868906064], [0.5757464925340697], [-1.362465200931196], [-1.4122609862475761], [-0.14134505356590307], [0.8248525075377278], [-0.905216070464412], [-0.42135450120022233], [-0.35799342811190854], [1.3764167766561561], [0.5691114285428364], [0.12790304765975014], [-0.41099250867042825], [-2.155054551996207], [0.5496612145148014], [0.010169018613192434], [-0.06112956032769318], [-0.6187158909441994], [-0.27025316271750466], [-0.292184976519743], [0.3112462431136645], [-0.19127551843552412], [1.8353952548409], [-0.6410720431034772], [0.8529332147867895], [0.6057926516427667], [-1.545049771428825], [-0.7859847784561964], [0.33380880442757477], [-0.9427379764761799], [-0.14564068199068736], [-2.9954797904687704], [1.5392424838041336], [-0.14398805863406045], [-1.3643841752814552], [1.7814422337543516], [0.9971226220590735], [-1.4656767666751906], [-1.0178342629884203], [-0.4085150089223866], [-0.13191661947602262], [-1.290193310576898], [-0.20653380582424208], [-1.2902842783784274], [0.6020742843421202], [-1.492617673892445], [1.0157546187083817], [0.9682252035471232], [0.9508849035036407], [1.2275645161516455], [1.1977423266765188], [0.5219409810005423], [1.7319017689095786], [-1.4177280092105495], [0.011375719859563009], [-0.4211334985002956], [2.1193141158442534], [-0.8731446015341346], [0.34924771279508376], [1.571378140129773], [2.4234779137535134], [-0.3331519663449114], [-1.399280036470374], [-0.5242276690234402], [1.1993442195669188], [-0.8518069794803427], [0.39184052060072955], [-1.1925245304232746], [-3.4161041249003565], [-1.8420574365422349], [-1.6591748644725843], [0.877454645148372], [-0.8093804107042335], [0.8097606181362766], [1.468300865283036], [0.03185178659894912], [0.7901956845271789], [-0.4802162130663164], [1.1156469992375078], [-0.6050950618895774]], [[0.4301193343024062], [0.9213866572323679], [0.31216516764484886], [-0.9886541070190841], [-0.5842940848711582], [0.014743875060476816], [-1.2775624965237582], [0.5904412677791624], [0.5051499949939912], [1.6635020850046034]]], "sizes": [784, 100, 10], "weights": [[[-0.01608114969260534, -0.044826597094906724, -0.02454344913420057, -0.0019043276289627156, -0.0718549821283834, 0.004649820980013886, -0.018211895473479983, 0.010900715798813815, 0.00916818854413379, 0.038723973509391434, -0.06870831949550463, -0.07346709125302317, 0.05970986252643231, -0.02158223625806074, -0.005646268994179601, -0.03702515238535924, 0.008040897214533375, 0.028269327492433192, 0.00748212834628991, 0.0395114872065286, 0.0006744368529753216, -0.0582421868127686, -0.04280116914317413, -0.04377109189383319, -0.005226939206055837, -0.014860686178334843, -0.02631404375615989, -0.01647485477368432, 0.020978127926634945, 0.00854004640923509, 0.01535354662383515, 0.0328742179272472, 0.005478533649040209, 0.021485258862134444, -0.0015743013712590734, -0.05165220157045243, 0.0006102420967905256, -0.025733548966712545, 0.0139121945251607, -0.008570002542871635, 0.020872692450726874, 0.035418392962474995, -0.019026936535752836, 0.059301069232169004, 0.060835909705933985, 0.024239759568104206, 0.02610007713384858, 0.02195289137256967, -0.029364341846822677, -0.10163283312515439, -0.062443925388931995, 0.029568454768494495, 0.05784765046640866, 0.04790382417245488, 0.03926666556080398, -0.012284360939587685, 0.05848066556541711, 0.06150766348888824, -0.007072921690779424, 0.03140190796806401, -0.04179215678620079, -0.007245193586060211, 0.07707244490568403, -0.0036518964807777813, -0.008709017930973487, 0.013798579994275475, 0.07247828211648064, 0.025709866308773085, 0.01656224906289266, -0.008956029933644749, 0.022958224056759572, -0.004851963544609482, 0.12077898478231089, -0.008508771124130754, -0.0033034749861171075, 0.028065373976633532, -0.11034399775849578, 0.012674055885932869, 0.01718558967131379, -0.024957421045334865, 0.02784150114004763, 0.032591531113405355, -0.06724142617806333, -0.007312597866119519, 0.04275693457208492, -0.08940666209640906, 0.012670473976872357, -0.03501473793970721, 0.008386158831655577, -0.0004825138561039364, -0.024283383514774815, 0.02337102586860344, -0.0643264981279377, -0.04858538945846685, 0.058215187773138666, -0.024648690593078233, 0.04841876252686998, -0.031176810970948675, 0.05244737177166002, -0.038160281367848305, 0.03906766878410668, 0.004621785227952111, 0.011271157652859137, 0.02734756817986087, -0.04349711432282165, 0.019099307607091914, -0.008202378056993765, 0.03905144426413676, 0.04440488195354464, -0.01032478121191087, 0.020321295315171767, 0.023129567691344794, 0.009681263687345345, -0.015205451882735945, 0.01677100945510273, -0.015340266857068631, -0.013263782372071483, 0.04273034620322719, 0.014288885824543851, -0.013848577158617122, 0.007630333870617607, -0.040422943162652845, -0.04027104318980313, -0.013118520397844924, -0.03760429990850198, -0.008166293888758365, -0.01846988109929753, 0.02266947125157842, 0.04394251364430465, -0.03283143069781073, -0.007038627928835367, -0.039555684785807406, -0.03150146213420656, 0.05162277359515239, 0.02088650289383407, -0.022313520107774317, -0.020795141558766154, -0.07051286887523942, 0.012755667332104894, -0.01607074287903516, 0.026006307712029657, 0.06719641982501999, -0.006459749449042351, -0.0025826963610435286, 0.05029018647924288, 0.0586927045814037, 0.052647529055896085, -0.03592923318242872, -0.032265358889558275, -0.025479544742491676, 0.016971000259864703, 0.007877886761491055, -0.012937883151269243, 0.025200115052950285, -0.001374686806610826, 0.04199575108187588, -0.015684871688875668, 0.002289390389514971, 0.0006683029237170628, 0.010089211682049532, -0.009680459213857332, 0.020954365117147433, -0.021539547286773254, 0.02855702928825315, 0.008462093574409446, 0.004448514055133885, -0.054862009667135406, 0.0038845132577411436, 0.003111137393086685, 0.03847478843773705, -0.005626049434348244, 0.014979294306625377, 0.0578885866216245, -0.02196361277572887, -0.06687710105119705, 0.007966542116301826, -0.0343249767245692, -0.042170899742000056, 0.01942773448410789, -0.027335803879606425, -0.03423747072932677, -0.06206314806583787, 0.005238184596161127, 0.028645116523194784, -0.027313522931535262, -0.041154420603449295, -0.020630156656865534, 0.046964332081939564, 0.02078283630711472, 0.04435518670826834, 0.02050448417381937, -0.04443128778070229, 0.0010625375259437902, -0.012156279638831691, -0.02895548515201592, -0.05706966870146115, 0.008244620128200132, 0.03713009752210185, -0.044800773193802775, -0.009763113536176838, -0.012730651550182265, 0.012588321743227349, -0.00614099978295204, 0.027638230156770388, -0.013404742287554108, -0.0729196557236976, -0.0427558506299654, 0.030617797454736913, 0.01781531392868122, 0.008383974772649067, -0.06464089320212062, 0.01209391325873948, 0.02444117589022252, 0.011311391328064678, 0.050747442953356724, 0.060739700402602514, 0.00950758084256179, 0.04562855754707127, 0.025079913428850915, 0.028155797650900642, 0.010390495023602163, 0.03714629074275237, -0.015464017955062812, 0.06286267726298177, 0.018662350393202326, -0.07773195888137996, 0.026671521648717656, 0.01564108570760727, -0.0285822064632158, 0.02179684825404497, 0.01362311453532329, 0.003214535490588335, 0.04318571023106476, 0.01292888655932908, -0.08182018397594915, 0.013361724633909233, 0.03211911996221485, 0.026542897626350925, 0.0051251991787627516, 0.026632934500753467, 0.04204674627081593, 0.03259250043714672, -0.02873637118912642, -0.0350899365425459, 0.01214015783298225, -0.019364293171353835, -0.04160511959117817, -0.008661869969203777, 0.011966188578209667, 0.01923143321436366, 0.05313178098555143, -0.01623039906156572, -0.1278658781573289, -0.02794361364108819, 0.013232987475061275, -0.059308639844695275, 8.700958083352366e-06, -0.0015230315052077528, -0.0588524501874413, -0.040186721413712316, 0.031795557765406796, -0.015542479028558523, 0.110358415482592, -0.04271925328908393, -0.07983563649480942, -0.04264829039733887, -0.01834402668232252, -0.034378177534209596, 0.02582018857124004, -0.0029600767697562243, 0.029918538973882143, -0.1076587706265334, -0.021834841000687742, -0.05608932037208369, -0.009714946673937403, 0.003998391376434441, -0.043372323407045374, 0.038134976792204914, 0.009985476944145973, -0.008193315376227459, 0.04480494233399161, 0.04188990505310778, -0.03746576867332154, -0.003532273268643496, -0.04177248122831779, 0.02170532839788231, -0.03394198231722007, 0.0393858487501806, 0.050891492239956704, -0.0014588491822738446, 0.007502866182639051, 0.0032145271403282924, 0.060573109156029876, 0.009869734340713981, 0.005934476149828255, 0.014496812479281352, -0.07085326592587236, 0.010222743229002223, -0.03307544179577816, 0.025012632329355775, -0.020950464041220973, 0.012838771834138627, 0.02151226416977751, 0.036982360138754646, -0.012704465240069154, -0.05593412951520514, 0.0435972384479631, 0.02342916174004792, -0.050568821145818975, -0.033451880744807476, -0.014190153778143593, 0.015882188678048827, -0.015013638623048225, 0.021991371106822026, -0.029268891487133488, 0.004813994007960539, -0.056591991685604304, 0.04325618250832514, 0.04232618553094247, 0.04250035253970498, 0.06411626122567017, 0.05662505123854028, -0.09543327582698653, -0.03979160822121546, 0.01872134828155506, -0.005268845318058386, -0.060413123443459574, -0.08426533762619808, -0.004708221462104018, -0.028369582993155285, -0.03637492987553835, 0.007285096330830981, 0.03941974293009664, 0.04505588151463721, -0.02417235501758141, -0.005891679088996178, -0.004165986763259677, 0.026511777241850106, -0.0024679188720772966, -0.018821776068354067, 0.006654450046392446, 0.02808788084493265, 0.020214617306539413, -0.009840084981525624, -0.0004042401033250522, 0.03610659602347186, 0.03800784737497091, 0.03936747155185487, 0.02535888250477217, -0.08776968269704653, -0.0325816696912702, 0.0010670460582175901, -1.2971103800413013e-05, -0.008425150246004608, -0.006762142620895563, -0.007702821590859193, -0.04180137745704444, 0.005197304827118557, 0.026546720333953038, -0.07871501598859011, 0.008874780643003297, -0.02679854989270955, -0.03174797904795463, 0.06070572114734183, 0.02949558767383872, 0.01639677099364294, -0.07155855687377603, -0.049676333367578006, -0.012900604174482811, -0.029120153945503078, -0.0071194010961187345, -0.010554312923779808, -0.005297219008996496, -0.031669132312875686, -0.06835218090175757, 0.04980485912519601, -0.03924067978706213, -0.051693032068010944, 0.005431687381486695, -0.0414634975150054, 0.047287023756319005, -0.04976715017432064, 0.001010880243003833, -0.018421359446108693, -0.03827515754710252, 0.03009672604936669, 0.01717218751939752, 0.006810213234380768, 0.012412924685937396, -0.11348347960572194, 0.014774307749837028, 0.018508168664614102, 0.02361709200274756, 0.010616600973693687, 0.013292443408344682, 0.04714689222711559, -0.017894328872311065, 0.0002250663365531808, -0.03977602528932742, 0.018549415984464617, -0.013188889232614031, 0.03394247479307496, -0.01391759736875463, 0.022917096815699707, 0.06217378610879481, 0.05152234857628738, 0.009109428004458811, -0.04620999483599197, 0.0127177480904421, -0.061645233274939246, -0.026262441371351624, -0.0028755778855181005, -0.02395356607817815, 0.01430347207234273, 0.011433890887252518, -0.057462508633701795, -0.04111030530924103, -0.05305228246021567, 0.022686902275554786, -0.024310165103147947, 0.015829949301069467, -0.013602993696836643, -0.031216160647366435, -0.040582105097480295, -0.02127204017042689, 0.03822701423034336, 0.020294209589828482, 0.011108552700532322, 0.009635656750444851, -0.02028434873583023, 0.008372959625088204, -0.02639039612956382, -0.007803809080438289, -0.021491166230624418, -0.03514255878734684, 0.06858568538193774, -0.024696445847791886, -0.037651013308462496, 0.014212400933658909, -0.003622253889074423, 0.02264155851971903, 0.00987325135359496, -0.017092059105734782, -0.01290832823206214, -0.025369601838877907, 0.00933272996329077, 0.04400265710085788, 0.029146715138274472, 0.010730606641015447, -0.07966599876592564, 0.003238503806622081, -0.042656176559347295, -0.006309339564320233, -0.0654198131253063, -0.07913250743044949, 0.005570712544036088, 0.041027836055077864, -0.02568122001057867, -0.018887436737839585, -0.027619686431189772, -0.019102069069774432, -0.011857389022933673, -0.04895392956116952, -0.011123997372268627, 0.016028185560331497, -0.0022279068176189287, -0.014619019288917984, 0.0021727494233560094, 0.016622485710536358, -0.01641697124758827, -0.057243552417777344, -0.009115638938250747, -0.06398146647558418, 0.030914034326938004, -0.07191006432294271, 0.023153904610850432, 0.0340341710011864, -0.009838942899099954, -0.0666989535768808, -0.023897090718103964, -0.046514179507696825, 0.009273460673018305, 0.014644712900028807, 0.032551844181128956, -0.013145158866017578, -0.005330243154081601, 0.01882178651206817, -0.020608691122509338, 0.016297975490428062, 0.042546760736157256, 0.005039447582676967, 0.015525764940145024, 0.041791421568464805, -0.06992494820737086, -0.02229347716436552, 0.018636351714330857, -0.06956643360546673, -0.05065594194570195, 0.015440920165765733, 0.038032132786977514, -0.015100212428428777, 0.0009565201651029207, 0.018925740151652073, 0.05164243958994552, 0.03916379811362992, -0.02196805342865154, 0.037433227137377276, 0.03229156356167477, -0.03421643853695626, 0.05344669967051346, -0.07178870259416346, 0.0076965211456735015, -0.02234935349522698, 0.01624049961383452, -0.010560779292185202, -0.0013541066493767534, 0.028892398412542885, -0.06565364446242215, -0.03450856793738021, 0.02298594723273712, 0.019878313093818014, -0.017560462765119262, 0.0053933030309521665, -0.023086242580081805, 0.04158589898589819, 0.003917623687428213, 0.05070603712616444, -0.06676401027165053, -0.042835592857966176, 0.04765501354993961, 0.018491786512296892, 0.03734278793970825, 0.032071256231137595, -0.014293619180178055, -0.002515500625363332, -0.03725727887924912, 0.04339143416901061, -0.025413088440255086, 0.03736743941974589, 0.06114883655754364, 0.03949866310474366, 0.03204359265483212, -0.05961963811995434, 0.0241987559768651, -0.030137604242966944, -0.026415433467490777, -0.07820263119608814, -0.00665214377003277, 0.0030114945762401003, 0.009503993682248715, 0.022638866048710706, 0.01004379002625569, 0.004030419926837655, -0.08358338771558685, -0.023438251744432537, 0.040874421596493626, -0.03314150927645112, -0.033679856024200885, 0.06624853222848992, 0.019966224172206278, 0.05464597776122071, 0.04648709847474506, -0.0014266466920734454, -0.025459654431434553, -0.04444294407836207, 0.0022579800426468224, 0.0414661765781098, 0.01772721016902806, -0.03915118996619183, 0.021738299568934524, 0.006277212763305915, -0.008403820847759072, 0.013080349982761792, -0.04885359576136938, -0.03629558717289864, -0.027962911427943528, 0.0005629252302760195, 0.035395031466261696, -0.011275231675304299, 0.0029676168391412788, -0.026323922647715877, 0.021255055970093178, -0.03259887407574742, -0.07705378524307029, 0.01018884078858211, -0.041257609657145415, -0.014409820103381956, -0.0449573052370418, 0.04609086908321371, 0.041921175294173336, 0.012197992511928385, 0.01103920455953605, 0.032147063648003585, -0.037978798953483384, -0.005277132810098451, 0.012843565437827257, 0.00339480361170868, -0.023373987163249493, 0.009908891045221373, 0.021513043577497566, 0.03126700508102672, 0.040262862673251354, -0.016840160609976153, -0.07340752949074758, -0.03422237522599783, 0.02029115354572203, 0.07378200918123445, 0.05516269359450745, 0.06045985050637797, -0.01411874391609691, -0.011416548182076656, -0.0549220594147844, 0.002388901504376032, 0.04112826092755598, 0.003653640627772278, -0.021847041321926605, -0.018067442620610656, 0.036332868443553455, -0.01092757312520506, 0.007170136628975371, 0.032006294294456006, -0.04058299193946933, -0.0029228132113637124, 0.05243190806021593, -0.057381069724026, 0.017836637116663345, 0.05257472404702957, 0.01974965712264586, -0.004743420782985204, -0.03726166327787061, 0.0007074805112454351, -0.08118580753260003, 0.033675758367410914, -0.0201548450778952, 0.024740327635941774, -0.01491490415518482, -0.013833212652313232, -0.00331507247488547, 0.04334367331323621, 0.06089217061220174, 0.023401359640617663, -0.0019179990688970303, 0.07767755365743788, 0.005277864408681686, -0.01564003869286029, -0.019326785882477573, -0.01665097259914009, -0.006830718453440404, 0.024469656068251695, 0.003537019553945639, -0.024947009566741018, -0.03278993249768389, 0.02328086133144223, 0.00957358359645211, -0.05546706973621265, 0.07800774816048343, -0.04021483134119601, 0.013225550578819734, 0.07663705320697521, -0.01503187657275674, 0.024887234851073834, -0.016124608645072123, -0.05295374025580293, 0.02286481133293589, 0.02568435054300907, 0.0030605990103423747, -0.0028646163910082496, 0.04022087441180602, 0.024920405177486567, -0.022521432365827022, -0.02437249799760826, 0.025944548897837143, -0.05776359260080399, -0.028650994531389137, 0.006284066054487672, 0.04577618774735587, -0.03406659093982543, 0.08386694730366107, -0.01379583835243347, 0.06931062430896476, 0.012427626656248752, -0.008606158219059554, 0.07183955428587356, -0.02590550273621491, 0.011266576251478118, -0.007970109228346694, 0.05965964248040724, -0.0007360750863191881, -0.07968238485866977, -0.01174072533091616, 0.010615595887184597, -0.05624754213048149, -0.03422027363809, 0.053756499063055255, -0.004235047861614954, -0.06074674672115684, 0.023467222613726683, 0.008173861717013224, 0.008569688332080489, 0.01910216927805766, -0.0042309842000247695, -0.011779887776861536, 0.01556513037665352, 0.0006606427307812987, -0.006641659368708436, -0.04379988848006684, 0.07795010341641558, -0.05199695271574408, -0.011293806414659043, -0.0342276253106943, 0.00683893875026796, -0.0038327875553587055, -0.005716199597308833, -0.060870139961767426, 0.010347095801693728, -0.028862501883316353, 0.028619885831980264, 0.01794241256943338, -0.04400064342645827, -0.030439604173398815, -0.020036412993734622, 0.024966411040622465, 0.09070343694987051, -0.07058814305212198, 0.07502686650336914, -0.02792227574436711, -0.03636523578242305, -0.04933341309741851, 0.06439633193959551, 0.07053361500773785, 0.027095466614645226, 0.05841554097229694, -0.04803064498624867, 0.027186026851178262, 0.027382526749247498, 0.04218258001052576, 0.021641430216576947, 0.06477007075148448, -0.008160188537599684, -0.008372608475161034, -0.018500043819931613, -0.05586592185105551, -0.030686546609083598, -0.010553968706536252, -0.02380186208653416, -0.03742873254606378, -0.05247549559915216, -0.014010079304411366, 0.017881850034027955, -0.021747783856174065, 0.007499445668607045, -0.0745375973721281, -0.0013331034805140474, -0.017981016485399764, 0.022526488628433445, 0.009791557488962228, 0.0028284312947126737, -0.06685902217011154, -0.0676093303776937, 0.03354452126081632, -0.0410031309298247, 0.025760755810636197, -0.06842880795403623, 0.04078333618103821, 0.018329038810985857, -0.029650587984498735, 0.008819470027237142, 0.014539527598347358, -0.014446178450253607, -0.006248301642157683, -0.048361365034493974, -0.008765113650230348, -0.02446061064895039, 0.05253149269155679, 0.024119355438355635, -0.06481006383154567, -0.056565695263523175, -0.04853192753525569, 0.02750388142793999, 0.05206537245159306, -0.009010219646916283, -0.0121866095702941, 0.0030720787217616897, 0.018904358089325536], [-0.04815896622720829, 0.036733415017738434, -0.005171474602736614, 0.01501460492940131, 0.0030728328722718933, 0.038038922133034274, 0.010614358456229874, -0.00831303984419579, 0.039313499655626416, 0.002676900442664306, -0.06721888396494459, 0.07878245550032419, 0.006961973193888316, 0.04493984852788219, 0.045286943955226915, 0.06332016992155884, -0.03671872414366797, -0.08322595778638572, 0.04442555077623966, -0.007094875955851564, -0.05076866975218127, -0.03213294690616995, -0.017231908782701637, 0.07539738393591207, -0.008301013793689284, -0.021805666961086937, 0.016387661888147633, 0.012990952951215733, -0.011535703155650058, -0.006814709233317346, 0.005380007703307555, 0.036912771750803985, -0.006603270564669371, -0.013436421018957395, -0.06473558506626963, -0.022764016205329203, -0.020636452565970662, -0.020720459023723683, 0.050121214661983396, 0.007141680949234569, -0.025434588308084403, -0.020373404231923988, 0.056218642960487786, 0.0019641334214839873, 0.009301343252296855, -0.030083224798072624, -0.07930963540533546, 0.08817082001376371, 0.13747092262895722, 0.0066623779609934, 0.08283565011882164, -0.013251905934431015, 0.0018776857721452584, -0.020187813002015973, 0.006441228214478683, 0.009382220276050951, 0.0430627570915656, 0.0017143391096597971, -0.015788839133504144, 0.0073297383369128, 0.0059842327359728815, 0.06537528713665727, 0.059055767194144626, -0.05551223026506978, 0.0392252892809708, 0.043594064239426085, -0.047021006695530755, -0.05038968944210816, -0.04693144476929569, 0.0076012927544404025, -0.010068342167022706, 0.009787943169345076, 0.04150306467944336, -0.004689427742269286, 0.040428090478820226, 0.04625236332941629, -0.021465998318836426, -0.03626162551939232, -0.047467269249305784, 0.019486656075705294, -0.03242801293628991, 0.016410977712228218, -0.01581355293041759, 0.03160013852056678, -0.011496936219683212, -0.020431747328093018, -0.04193287171890882, 0.0033402915695454386, -0.02499338396690425, -0.007335348837053518, 0.04485282414160986, 0.0019915821047081154, -0.05321681019843416, -0.016310449394128883, -0.0401542380621003, 0.02616531053374967, -0.009191203301261401, -0.006101237490945167, 0.033378616857222716, -0.04556670827616862, 0.007341435955007409, -0.019801949085441344, -0.04238909403519365, 0.009079906761564185, 0.0018958298668343622, -0.0013731500710355996, 0.0454762548526094, 0.04377002491637346, -0.06852718126238443, 0.0776622731140127, 0.024347519680044425, -0.010259503846086412, 0.0059209610654020394, -0.017659938142010435, 0.029319508593002787, 0.04522159960675627, 0.01716883431993164, -0.01682156838495785, 0.008434946861277794, 0.04001531666888202, 0.04350964369151291, -0.05249183392971703, -0.003127238867448016, -0.036121225889011614, -0.017974621124025796, -0.006313677585175284, 0.030911431825677647, 0.007678256400769005, -0.06943762904971842, 0.01794107303517851, -0.023974374879582795, 0.029943586783895294, 0.023783459174790873, -0.030916756410559913, 0.052736117966785144, -0.07032667526694034, 0.019071364459462104, 0.005149934485104215, 0.02077377163016759, -0.017740527778657356, -0.052049161663320624, -0.0674187654958579, 0.06381924920593482, 0.017952343114146174, 0.024402070875626937, 0.0010854231445905549, -0.00203411560193067, -0.006818429926005983, -0.007109167910596322, -0.055638807066792466, 0.013268267363331223, -0.0052967200884185, 0.05418573580654322, 0.06169653718270326, -0.0550415205756832, 0.025440333968416357, -0.035164998741805356, 0.07505598290737614, -0.007401209085443994, -0.01020464507743474, 0.011263654761043244, -0.007244816625258756, 0.019152133887636622, -0.043235004827790566, -0.00774636725024864, -0.03550606169768459, 0.01781894783159109, 0.10395424369722149, 0.01348713419968715, -0.02756058570395225, 0.06382453396286893, 0.06170797972372925, 0.02914628509924579, -0.06847541763201538, -0.038416848448400785, -0.0056262733304295875, 0.0037127423550362302, 0.059449956252800196, -0.014913807215034268, 0.04801741048499374, -0.012347835396795678, 0.0017127978885258727, 0.01714564196571172, -0.04953943931861717, -0.004328245615711291, -0.0005808270960378503, -0.0061087164466183475, -0.0240921527599685, -0.07267982807940312, -0.020424368649146447, 0.04917708650626588, 0.020957750411338395, 0.029419875710934767, 0.009672927188558542, 0.04465318326009641, 0.05301487130773132, -0.04506688504046842, 0.002702201025912753, 0.019025173111386875, -0.018352423818185738, 0.024110055743000354, 0.04833211204641554, 0.054682161740653594, -0.05392645722017593, 0.08028626076173921, -0.00616042216063155, 0.0034914877274152775, 0.009585185821775177, 0.01666661021426776, 0.0009000877043672473, 0.06650867678691157, -0.02379399153896017, 0.0058606872172731654, 0.010746196600879648, 0.011555755330717047, 0.03036737112032089, 0.050449552299431266, -0.01592721912596325, 0.011004008539606803, -0.011676036156833542, -0.029497816840710466, 0.0224335360411723, -0.028613528874642243, -0.014748160110545385, 0.03226316541250846, 0.02082139034282459, -0.009295773678792514, 0.019342292421260763, -0.05667522605534427, -0.008407004871980196, 0.019172293207477997, -0.014813770349768192, -0.01956390423136759, -0.06368606599284198, 0.011759846255638126, 0.06109884157420716, -0.01511105308375343, -0.013065839186219053, 0.08975768778062339, -0.0440856644744139, -0.026810892497297227, -0.06160000955575406, 0.04027630248007736, -0.05068946104647459, -0.048810612000643856, -0.03574790529630969, -0.09361875066337964, 0.013148668115312939, 0.010534895812111967, 0.006394728010048813, -0.03146677374258693, 0.07525227910560638, -0.023229126430544717, -0.03770647130678798, -0.004768392859595785, 0.07311147911415747, -0.005484432536087721, 0.03623029710246623, -0.052609697284077564, -0.02364042899482625, -0.004372332976475057, -0.013228592829649919, -0.045601871002703895, 0.015956253459921858, 0.0046411282142084865, 0.05299351118068357, -0.04615506463111323, 0.03130996885502788, 0.03281466635215539, -0.013778778930475416, -0.0073568851321454435, -0.02358209037367261, 0.022021097536471308, 0.04073978921372545, 0.005295259339800892, 0.049630558279953614, 0.060015025925078506, -0.045777196806503564, 0.005118406284257383, 0.014692100821399231, 0.02736755714339212, 0.06320195399317778, 0.09841900522989548, -0.03603546113495381, -0.011754571183836372, 0.048580827527095485, -0.01585631573026396, 0.1084222539752372, 0.020371494297468987, 0.03150526545330609, 0.009784165891634933, 0.0018818882081259522, -0.017864508412023666, -0.01783571519877975, 0.008346542178530276, 0.04223863670259095, 0.03561796949256155, 0.059434495014200846, 0.021384817532748596, 0.0765861197372218, 0.03362312576912495, 0.048836427737926916, -0.08441077375515087, -0.03757716585604733, 0.032367596854203165, -0.04542191982281223, 0.00435487717100604, -0.01382804238588005, -0.07699237423083885, 0.08957751250495107, -0.027052505360221447, -0.03170613622508755, 0.04211404615863679, -0.010288733106574646, 0.06207957414899539, -0.05222081422284104, -0.002664857577059046, 0.0014257415093841762, 0.014717886566063413, 0.0449520449321777, -0.01875282254131354, 0.04450026085143489, 0.004068431435084578, -0.025314734617481217, 0.03576619192804063, -0.08011561611885022, 0.05534046823216586, 0.023707220887238423, 0.057580649218897335, -0.062102305280320895, -0.02138300095799314, 0.02320597541654437, -0.003325059573356353, -0.029498588835828586, 0.00715259095131702, -0.03508739309905407, -0.04626591551870686, -0.060763307666800284, -0.015919776018745314, -0.07213390455180371, -0.02393992609960262, 0.008412254145823942, 0.03768716811539859, 0.022340168220639837, 0.021169818742742406, -0.0039828222959489516, -0.018144410645329474, -0.04055756486506455, -0.03586594488738741, 0.035144041935343553, 0.007711843534802274, 0.02091926210309575, -0.00750079296454656, 0.05759109303927572, -0.037387733284201245, 0.012962552283770246, -0.030860122185253597, -0.005719300292440421, 0.0021648530123826943, 0.03927627207106456, -0.017923696666392052, 0.05463400847036445, 0.02292135777171907, 0.018970127750812256, 0.037825914588811564, -0.017123956740975076, -0.0451740134782128, 0.021300179819607145, 0.007265097251567017, 0.05515863297821281, 0.03985699382391977, -0.005543303220504835, -0.050198099632708805, -0.008047798856786631, -0.018888821892731313, 0.008487492040416236, -0.0014596220614595725, -0.008572837174365812, -0.013722017229575728, 0.07566620904680818, -0.02380750863376332, 0.01219852069596589, 0.013890522573700962, 0.06419012504909619, 0.05231312638203723, -0.024381207694576988, 0.024745927100277256, -0.0016815730371392292, -0.03162836787847734, -0.002679821686888955, -0.025238864239508635, -0.01722257345943618, 0.0469524821816684, -0.05559354702996311, -0.0040872544456005185, -0.045891700894111584, -0.0004745090636122462, 0.02560250155480524, 0.01640489727222629, -0.019118067596531212, 0.027196313333243727, 0.06374491399250798, -0.0037125202016013337, -0.07000087013507421, 0.00658559161209464, 0.006891463516918039, 0.039083284595313926, 0.024991733790778143, 0.0469809746518355, 0.04170497260045152, 0.03509493178076053, 0.0512279004114855, 0.014812780768664003, 0.07621395007875985, 0.04853880351374908, 0.010667098922840875, -0.05690059679765782, 0.0028018131031062425, 0.007809885340689027, 0.034697631900365795, -0.004701105883350427, 0.04385216263487029, -0.019590415734929815, -0.003980748914170271, -0.0030721390401671086, -0.0025562385384592322, 0.008834214883952382, 0.04614420926589843, -0.014668040772755792, 0.011899871763826248, -0.0088321730624756, 0.035540790095666026, 0.04987287797083012, 0.01488199695008172, -0.021231472090256748, 0.0055448981899606925, -0.008096883896765694, 0.02300482515153606, -0.0005374661061282257, -0.07031942426111246, -0.02314565476727049, -0.00012310617073160927, 0.0056912073278484136, -0.013597807963411358, 0.011872686547581054, 0.03414522611215233, 0.01051704278629193, 0.014088531091609806, 0.009600850960655957, -0.052698431620354994, -0.008772395338593206, 0.04072737191255482, 0.0026785170167111655, 0.004345918568154953, -0.024804566857541604, -0.0013517112545746238, 0.0340934989942431, -0.02774336397864611, -0.011651508157570397, 0.01675444503529001, -0.004254059843675552, 0.023167952102822107, 0.034396177775701885, -0.04822115114737239, 0.03311906294986686, -0.07346018404739071, -0.03748588375650005, -0.03483613105757399, -0.008456560409952739, 0.02332721497815531, 0.014301965844521524, -0.03662009697983877, 0.043456622866685134, -0.005747424410978022, 0.0701797387136835, 0.045997054296429696, 0.00299781148116091, -0.030315950196079106, 0.008576074111411496, 0.02973450664755117, -0.0038785566941502573, 0.02177569314408397, 0.06952226947461528, 0.06062902865088345, 0.019511099353810648, -0.014715229605476504, -0.01272323112380112, 0.0191810380662709, -0.029588836326088407, 0.006985081305084996, -0.021192517923084943, -0.11408255955100581, 0.05791476523517062, 0.04556110764067733, 0.05335621475503566, 0.014798060249102603, 0.009326522915589847, 0.004228738520681582, 0.09241329108667792, -0.04182982297423317, -0.0019726470593408184, 0.009906842726564268, 0.0028023306074345597, 0.03310198865414891, 0.037918355841509065, -0.0657885729685255, 0.008607678313904405, -0.04416354290955816, -0.012509661178853973, 0.019069797581366957, 0.02889017619768005, 0.019525899329685393, -0.03488203866756916, 0.05990964051161224, 0.026841893542196658, 0.036632618334918265, -0.028772523912563536, 0.03046097173497902, -0.014725292369970956, 0.043043161094634304, 0.00802194004641785, -0.028204807791772257, -0.03711161705673527, -0.01707815262622883, 0.027599202093618214, 0.008350119754348457, 0.026535637585020744, 0.036562391322237285, -0.054467245488007784, 0.031484025488206786, 0.035273922209235295, -0.07291051636337495, -0.07259999567770596, 0.039532720872518134, 0.016950993673999357, 0.003365582960359611, 0.052248661389236485, 0.022343330184675134, -0.0335696450416565, 0.01308083649289245, 0.002387176178463074, -0.025314732134369182, 0.0035027289901565354, 0.050248412472275954, -0.002906626956605097, -0.03297714435108447, -0.019437498029796735, 0.023488681426254238, -0.03259164766378722, 0.005540969432082064, 0.044970295181804176, 0.04516898806379334, -0.039775974324166026, 0.0022076209158024447, 0.07894127380214593, 0.017418858813702497, 0.0389245855647968, 0.06890534026744054, -0.03293693598396578, 0.034341291758797084, 0.07674932178864, -0.0014036046015951217, 0.002625015185161187, -0.04318645962258584, 0.018147836365006016, -0.016993213292350724, -0.0021705542275226716, -0.0006681181934467637, -0.05242128475042094, 0.024890181659388354, 0.05467590492887238, 0.043941510383455916, 0.03271145843471067, -0.03350122065638057, 0.0038938409482214276, -0.039028810555546675, -0.020719790258852254, -0.019045099084919238, 0.031381882469679045, -0.004121693814154579, -0.039898978753500285, 0.003122978753421368, -0.01818231463384858, -0.018355977593293295, -0.05116416646240864, -0.006585490257268366, 0.06619461955205609, 0.07408394870015571, 0.015180364813702744, -0.07014617597613303, -0.013996687332656377, 0.017315094665906083, 0.043882650369084, 0.009018250078274207, -0.004640720030637049, 0.010226894498739031, 0.055370613197841104, 0.025128516511841677, -0.11722219634136201, 0.020308680582927823, 0.00977362470463587, 0.028946011518559158, -0.0034818157556714274, -0.00882803636437228, 0.0034916086118096123, -0.040043846623024494, -0.07288267022820319, -0.0023083642827779866, -0.020876630354606275, -0.012908540002034044, 0.02414164517476055, -0.012862571610080822, 0.04674810894782329, -0.023133788625634782, -0.09626503561725416, -0.010424715976609373, 0.019561981348375956, -0.03299504793606296, -0.013921131933433544, -0.026395766652693286, -0.007369234875752756, -0.0300027422599096, 0.01563497695081276, 0.020521809789798718, -0.011795714253230744, 0.006758668620141321, 0.01842207472407841, 0.008772778644691484, 0.033188747524790466, 0.024667358190135148, -0.03541200206213705, 0.016833747963253515, -0.0318615814226822, -0.001300779043509921, -0.0162557577460142, -0.0685480976359269, 0.019902350367042212, -0.03778096631596008, -0.010517734216443402, 0.006348164227438174, -0.01415577351199894, 0.036164964006522984, -0.006518619737921934, -0.01890736945695328, 0.006519286901339022, -0.0023162708468756864, -0.022469913223727773, 0.035941905188282997, 0.020570625798823794, 0.03041665328341842, -0.020463170676903144, -0.015190239325840854, -0.04725483844112915, -0.038412850601625824, -0.001911418650924313, 0.00128382794996658, 0.03248503564294564, 0.07860498289020798, 0.0037870765677071494, 0.04030460207812809, 0.006083359069272212, -0.008213422393942954, 0.04863804514855059, -0.03086478909838326, -0.010693695684954636, 0.040461007643374125, -0.0033793622409082073, -0.025638658204950614, 0.02568349041964283, 0.06138117963373043, -0.029076114102087703, 0.0641781513895439, 0.007420341223637316, -0.052136885699124495, -0.058980108452088564, 0.06077954850463835, 0.04058955998657138, 0.03277251163266108, -0.04645911902106026, -0.03137002682818334, -0.02435232475978428, 0.028298828818565214, 0.0031282325917085306, -0.037342828674930016, -0.06734982279527198, 0.03393180582319702, -0.0013859097688330507, -0.02045307659975105, 0.020068328159696478, -0.035666755395723324, 0.0049322654182164015, 0.01060102161352595, 0.05346704319832864, 0.06097395391834156, 0.0026009723905731814, -0.017305839290514543, -0.007167190108950102, 0.014546326101585533, 0.031193913626182623, -0.0066271838392432825, -0.06782763730462645, 0.0021431589219709835, 0.018323113284984097, 0.0015470002413124114, 0.07656849972973652, -0.02191555923985037, -0.05625311654338181, 0.039669228036696, 0.06893890618890693, 0.04191710552356272, 0.047057500541515175, -0.0034988964326790268, -0.04864660512472286, 0.010241693122966775, -0.013444260192965709, 0.011642548038169867, 0.02958690757678766, 0.012753672287480497, -0.007831486731697467, 0.03272507420579666, -0.025361000302873825, 0.005659808573573574, -0.011508418795215605, 0.001654174899921155, -0.028730898124091096, 0.04196807140839346, -0.0431821996140617, -0.03383326338186248, -0.0037890292086827206, 0.03337222133457292, -0.052102107940324036, -0.022518993154590456, -0.02745656746352706, -0.041254022317883825, -0.04946529391187994, -0.0004467731301982447, 0.023396985306945624, -0.015788495953021325, 0.019058177324846385, 0.06330612480053817, 0.01339300978248223, 0.0940508030557298, -0.03686781931296716, -0.02182303175460065, -0.012774237821986872, 0.039485307814194584, 0.04405004953877818, 0.05396096096546724, -0.04649760831077293, 0.04483742024659484, 0.031857616573188384, 0.002354121866980526, 0.01920374530804041, 0.011007287974062595, -0.024964710731822663, -0.010685435766414038, 0.021006830328699478, 0.013928626324024017, -0.0408206365909786, 0.06067913236773975, 0.001400387543303356, 0.009266273858411788, -0.023519204502831213, 0.0505866013279508, 0.04987745833391048, -0.01594667536165104, 0.009343565768586639, 0.018457134503771122, 0.026790438293486162, 0.0017887017368065795, -0.0433741076867008, 0.0015938092832129547, -0.012853334458064384, -0.03153906416248346, -0.005331991633585452, -0.06343464694859254, -0.01697904209632888, 0.021979493596184636, -0.03629526039803523, -0.039524205246184045, -0.04149215451466408, 0.009706042900230775, 0.027530776668530352, -0.038204160593942174], [-0.016005897669164576, 0.035072126564536885, 0.047366505749190116, -0.02110099477180995, -0.006676368461319706, -0.014522300093624757, 0.09150457455048529, -0.028977594955930715, 0.045525496908718426, 0.05754644644366025, -0.01960603708948203, -0.024161791033155224, 0.016236309314499167, -0.06316353381940813, 0.005464842740616682, -0.03999525513031847, -0.004152691244695193, -0.003952080450764926, 0.012734716963462693, 0.047242386980342985, -0.00044514532919275474, -0.01772326588140793, 0.01158931813605246, -0.021804438161141103, -0.0073758802872088605, 0.06761066465587508, -0.003909645282755202, -0.007323088205584446, -0.047941031854999275, -0.015378264930571105, -0.08996835685875028, 0.042803590170022734, -0.06695495763366387, -0.03892748568495114, 0.02295909407196162, -0.003421739972708743, -0.07997613541445756, 0.042106515850382664, -0.012085705879830542, 0.010154368856990508, -0.027744350497368484, 0.03966782934714302, -0.026071605053173897, -0.05385394657210758, -0.05023164804553211, 0.029449367455948876, -0.0036572516308736565, -0.03744607698684676, 0.021479141352493437, 0.0015966170524224586, -0.026863798468385516, -0.04825131333551756, 0.007995570312722104, 0.015852029628031748, -0.042902361535404006, -0.026254688220441778, 0.008120852771438213, -0.0064979668989564475, 0.04552152040977652, -0.012635408400286301, 0.03262071123743716, -0.018350261740563284, -0.05390334365079451, 0.03388198188437678, -0.0508536786187221, -0.014718720726328283, -0.05297530527176368, 0.055557489415623225, -0.0058851402603195616, -0.05933462005526276, 0.0436914706329427, 0.05829606377645442, -0.007827804117265543, -0.01362365779588307, -0.011256831368285506, 0.023356570316062388, 0.00017380819093616351, -0.023877745118967734, -0.05509061533380496, -0.020292264800376554, -0.022584716634769637, 0.04421336942586252, -0.006287136527430029, 0.0001415555125317164, -0.00893707526922938, -0.03242759540410619, 0.02493506726513071, -0.0156757099110201, 0.07727213799576481, 0.051325238607795316, 0.07702004150045985, 0.04261620165607941, -0.06229649121483704, 0.050374902292280414, -0.0017573685183383402, -0.006562857736445569, -0.03768847962383324, 0.13969156096288698, 0.07450857404597178, 0.029273620790769946, 0.02714735666397478, 0.04003433921520082, -0.002111274664229426, -0.009156435174606981, 0.03739868193611767, -0.05685139762961633, 0.0022666223101962435, -0.01923859826229186, -0.04707029171841905, 0.037267011258355784, 0.0006942847057442763, 0.04438166795507979, -0.033862288437928455, -0.09678950228838616, 0.061302786822659994, 0.011911273470707574, 0.018380045850906235, 0.010372747880135133, 0.007119781171286116, 0.02950038102805547, -0.017353672065330117, -0.01109085326478942, 0.0016046437840141969, 0.0310249667990666, 0.059485674542583404, 0.042610239477644286, -0.0041498024858439495, 0.020831289600964316, -0.022457092603587473, 0.01541786676068809, -0.06023669655661836, -0.0035879005547700925, -0.0063393073918077665, 0.059564108353187095, -0.010031088173860067, -0.06366428855611175, -0.011752428500706843, -0.0035199760703278444, -0.03087550840949349, -0.008959571476551515, 0.008984839233881612, -0.010372713278177192, 0.02951510867951045, 0.018541603531648885, -0.0029941452037058106, -0.02904092637837916, -0.04352275026737264, 0.08412498018805803, 0.029387127426550735, -0.0008942143051140966, 0.06382675615153888, 0.010481729478255014, -0.027184581509729227, -0.0523134334374219, -0.014588310031537138, -0.04411853739121424, -0.034320761808284216, 0.0235586476159323, 0.013048180185138232, -0.032158404723967506, -0.012203820553702704, 0.027901052099106285, -0.01774679272987105, 0.003598011358392242, -0.05082121282882802, 0.015144133204548058, -0.023712131313169064, 0.008406564407978922, -0.012683054744044074, -0.002739025966515891, -0.03614089507507366, -0.04113313974716253, -0.02911792157131987, 0.010482760819929144, -0.0017497755734444448, -0.013106391723169674, -0.017653192356917403, -0.029778517155095642, -0.020880511206151704, -0.0032962188029084932, 0.016733801068962894, -0.008337714318644813, -0.03358216675087822, 0.013686943070302488, 0.03508002436032407, 0.011208450228999802, 0.0049655115220503514, 0.03434864024773326, -0.016835078027704595, 0.007412226109050688, 0.02594917844818609, -0.014171652272319332, -0.027820559785415356, 0.011412013686280082, 0.014634399062518122, -0.006608554986171902, -0.05847807483708879, 0.047137112512987814, -0.006988905655926644, 0.03855192875255833, -0.02859670173803496, 0.012471111257422132, -0.03488294967348581, 0.04845367038351949, -0.019563043357744843, -0.026011473108160772, -0.007412623153431254, 0.022245890055532912, 0.017833375300457022, 0.05016773631053035, 0.0029179038564655924, 0.0014059564392099142, 0.026959209664297098, -0.01346399818907531, 0.03667927686840396, 0.0016102727923189661, -0.029687290847719545, -0.006663002890120056, -0.0432969825728446, 0.003387284296639152, -0.015028131991685975, 0.0234743351606192, 0.04365045507510583, -0.027202338566807073, -0.022066803319286305, -0.039807543492614554, 0.0049070149581259105, -0.006346248315215913, -0.02564310376213317, -0.0043030084709941895, 0.007243865029707225, 0.018028970196314238, 0.0025967776604695486, 0.057716385300170224, 0.04831672353172113, -0.033941941120066654, -0.014953849055245905, -0.05978017373331729, -0.01939538921823165, -0.029535446641470835, -0.011070363254878137, -0.04564761887018187, 0.0006583560821800678, -0.030215335499718603, 0.007607912140559886, 0.053379397116449886, 0.008924015543334511, -0.009965709585385488, 0.0077122586344960265, -0.041459321980329804, -0.03664145930577751, -0.010653994943411084, 0.0034144458795088125, -0.09002959930549835, -0.049406150244696787, 0.012904797820704573, -0.029202795584702925, 0.026920791640090997, 0.03939034982246942, -0.04820588550813825, -0.008173498105623624, -0.0037065424458865635, 0.07551304939717754, -0.012588907884816146, 0.02456034016342468, 0.007408211923103823, -0.013211703592602085, 0.05880273800514988, 0.0002992816596976946, 0.0035835247898092547, -0.03315882025600304, 0.05477157015124202, 0.05958850866945196, -0.03752037901174493, -0.019093806535942667, 0.01180867965798763, 0.04723302836754005, -0.038200017796319284, 0.06565015405675348, 0.02134711100594174, 0.026287159532854865, -0.047659020401100816, -0.004314645346424087, 0.013452456378676632, 0.009689426913840673, 0.05295181169666017, 0.0132882445558649, -0.025967836534648688, 0.0471511774954615, 0.016210827256390607, 0.0013400604221938887, 0.021591968541936596, -0.007387310491388923, 0.002288521351288503, 0.00738505768846313, 0.04734418672308393, 0.06572311987368464, 0.045980818005666925, -0.06175875171199198, -0.03242343390543002, -0.020263952427732188, -0.001886617812793699, 0.009204876593231713, 0.07056360051703965, 0.035174935770590575, 0.02932194876257266, -0.033356278489259254, 0.04328352717311163, -0.006183057611261574, -0.007934918319565958, 0.03454851806400306, 0.016185767720270406, -0.021110696894018482, 0.007498005835734985, -0.026444796964532894, 0.020950264078492476, -0.003290629807962188, 0.009996600533067742, 0.03087520027880375, 0.030143702447610006, -0.020281607462491028, -0.007983283389248535, -0.01480496739919057, -0.027360533064842367, 0.010794879655173362, 0.03784293182859327, 0.0232829758873804, -0.04549365502942345, 0.04126988767591251, 0.03387057877992511, 0.02920734765527685, -0.03926590052520126, 0.004526800289018104, 0.013682721094937334, -0.027967106761083965, 0.00772530901069047, 0.024755461897452865, 0.0033080609042445974, 0.02978158823527415, -0.012688981822891484, 0.020678425124951518, 0.02718239208881442, 0.06638828368241113, -0.02436845391858414, 0.07026666480461391, -0.022630180500191176, 0.032382091689135355, 0.0005892859650042382, -0.04314036965760477, 0.0603402512532603, -0.025943628993645416, 0.005497965685397669, -0.05097865686065473, -0.012458752248707187, -0.05619270271630232, 0.046876137841686906, 0.061415372301819184, -0.004841064015082662, -0.04787090393634812, -0.008510378412528897, 0.037083312171229475, 0.05994079089997527, -0.004235429548331808, -0.020845544760366878, 0.02949252048382009, 0.040876306329172496, -0.016475918611614557, 0.009326001838563086, -0.011381683762855132, -0.011496545854055676, 0.03399930750486468, 0.03439007363972663, 0.020618809606493187, -0.011908305569376863, 0.009893451824608268, -0.008117801671262593, -0.021786503793815647, -0.0016656339214600974, -0.003860215946148242, 0.0026322088226911305, 0.016698843838454956, 0.029343727415840633, -0.05426852064210339, -0.011039622774774908, 0.007134125971831364, -0.03504024845251984, -0.05080181997093066, -0.010299732488364468, 0.009753631222793083, -0.017173923951977747, 0.064847715315296, 0.0009975138453532388, 0.04165320198823004, 0.0073864586556886555, 0.0025179291067516296, 0.0508086138429913, 0.07874428693145853, -0.048180242735280224, -0.04904341564288334, 0.01771793028450606, -0.00020355739462313472, -0.04141327464967298, 0.010030496573085492, -0.04220037415639203, 0.021954356090621557, -0.03375358828211921, -0.014779887735936673, 0.027652003848718347, 0.033844899898194995, -0.02082975518341767, -0.05152434094015468, -0.02416084730975156, 0.04466607136133206, 0.09388886659933164, -0.0076617460700111936, 0.019666260766795923, -0.013574208004247057, 0.04878182378060735, 0.008578546131632888, -0.04036201885389534, 0.017709620960845152, -0.05197704566066035, 0.011497812960627449, -0.033718839298282004, 0.0237078061708444, 0.061667063624857466, 0.02290956934995565, -0.007499075810729655, -0.02231360104694281, -0.007154360488152425, -0.02011453190549495, 0.030488690594248035, -0.017883370709055706, 0.008290095845847533, -0.0021807130687138284, -0.003261022046351041, 0.02028418893981105, 0.04552096681798585, -0.029249947615137353, -0.01879608143490749, 0.019429519043443432, 0.024810948248005588, -0.003979853657646178, 0.00699519066696557, -0.018831630433816332, -0.03698243636027576, -0.047323666603795125, 0.016573458517474954, -0.07076253754932622, 0.06771295203976609, -0.015514127316862098, 0.033953577553523705, 0.060171771224618385, 0.04982921922750994, -0.004934182284063451, 0.015952868548030023, -0.027406005681384456, 0.05271323142366378, -0.023667714978819483, 0.0018597245765055426, 0.035536116180191854, 0.018202526765409767, -0.00812120277056915, -0.019458075182542982, -0.016798223505230584, 0.08820079842831886, -0.04086459504152264, 0.02047005403411158, -0.02036931294497565, 0.04845811569957668, 0.034840650369755914, -0.033709347624067944, 0.0022106668036703785, 0.008613880977332528, 0.010611491723279447, -0.012562507977795354, -0.018168825645481845, -0.022793248071255098, 0.04403561799714547, -0.04958810141712803, 0.015213644997599054, 0.017876413977227924, 0.011975797313002719, -0.051073057721092496, 0.06316250082852133, 0.02291565231207972, 0.020395636246575023, 0.006172589899832442, 0.04888979964244977, -0.017078980243343863, 0.001920349460512598, 0.02555589322588128, -0.04754595658363791, 0.00043320802025420215, -0.005036154043458634, 0.03539027259044547, 0.02240488235972511, 0.010204419247441436, 0.022652288603577903, -0.038151479550054365, -0.015308490938640094, 0.03182022239010181, -0.05928877282062477, 0.02374633991923244, 0.012979696282033961, 0.002003644981328724, 0.010423132939361743, 0.009696024633489566, -0.041476141423825295, 0.027788219717988918, 0.001407267686295096, 0.03907386121646479, 0.03835918981156739, 0.06771363399706125, -0.10696741143340935, -0.01791794933957986, -0.001962957634265098, 0.032860731339177655, 0.017173714825159742, 0.008028528341669849, -0.03928904440417217, 0.10536769096964885, 0.0655065258758568, -0.037603433734559884, -0.03466223775627595, -0.041276345381737786, -0.06351103061051278, 0.04521515921169379, 0.017505542212225965, -0.040815964714192014, -0.058213007232021476, 0.012518937945831593, -0.04361293140611146, -0.023296064752569744, -0.01733634826910284, 0.04110379899548704, 0.05956338535106132, -0.034109189922332785, -0.03367450175719933, 0.05793406901092476, 0.014736732030101384, -0.06518237814389485, 0.03441809866703685, -0.02011510604027709, 0.1054985019255797, -0.008195678769198739, 0.01699411795730982, 0.0008292781772942869, 0.0034760769456149503, 0.011226568383198398, -0.049542055841156216, 0.023839824523426176, -0.051377549321420725, 0.03099133797727252, 0.016563350434538587, 0.017602010342120562, 0.012011231676730344, 0.09806383608672439, -0.01102269579840404, -0.027147567576443536, -0.09402478950236104, -0.03878878405002364, -0.0044932069869506805, 0.06593628099409297, -0.03075075772343456, 0.06771962548603029, -0.02639293824562131, -0.028620638890312335, 0.008822838095027452, -0.02400384542344012, 0.010504007660255358, -0.01637576313353286, 0.06482380926017742, -0.036877012453952016, 0.015870622749448483, -0.05242970360560543, 0.0010633010435069415, 0.01779512133929517, -0.0023405676117678144, 0.035733831386072515, 0.01726619297335929, -0.02814952947170193, 0.015369669762089309, -0.01163497123218909, -0.041823503803109674, 0.033958973901948644, 0.0334393417688088, -0.031717099572639254, -0.018176208749733545, -0.03439292322924052, 0.02130313413793517, 0.053443206625429014, 0.003338124077282773, -0.009426199455390966, -0.01239018270404539, -0.022115823096938575, 0.06949185467756847, -0.031722173853600114, -0.036980968844884984, 0.046317944907093477, 0.05498243874509184, 0.022341008379766585, -0.05492774421055826, 0.014653863523484122, 0.030737117389713735, -0.032135692017288726, 0.04609743311766381, -0.01752078558284495, -0.009455795276810102, 0.048941865333027815, -0.0003959934170175399, -0.004279606710693393, -0.0640907135787924, -0.017202085172037442, -0.0805406096117121, 0.06154159597007388, -0.02820543033137934, -0.059241913730924155, -0.0346464524773676, 0.016373620858788303, -0.042345731686451483, 0.0008443011020924571, -0.020455338376484937, 0.03395732062016317, -0.025453156340910478, 0.053356471264155984, 0.02532360896695311, -0.027082845685543307, 0.0471909521745405, 0.019988366410983817, 0.012202862123743026, -0.07104891621853045, -0.05906920161191539, -0.04247306174413312, -0.08997409569932051, 0.033560290057464554, 0.015123701949283747, 0.01770232572860294, 0.018676336435945896, -0.03269408214357498, 0.02227696213786406, 0.07864667289175915, -0.011352511546220304, -0.009855781910845827, -0.024473347065069376, -0.04306379346591742, -0.004354777630697714, 0.03151760156313129, 0.025186415950276094, -0.03329925806516539, -0.010598725770728585, 0.04214955356368504, -0.017968945815956677, -0.024441275779785446, -0.06735973168897194, -0.005683094561348682, 0.029341214732764274, -0.0030274099362222065, 0.005214985522411418, -0.057335571221659595, 0.039057189530103904, -0.0019937889924065183, 0.03881043016786116, -0.020641658601144384, -0.03434723362634555, 0.04168726028611187, -0.04263028015632534, 0.010682644158470285, -0.044498342604295485, -0.00043706249087749777, -0.037754597770602825, 0.01683557621739582, 0.026388572054145503, -0.04834215594150654, 0.02284871261973203, -0.04729448660468825, -0.006651283614701264, -0.01734371476927243, 0.02050538678403115, -0.0399740266010916, -0.0005991364017115054, -0.010193770700748898, 0.017968308517494026, 0.03592539575480471, 0.03845968030482868, -0.06048592020966193, -0.012749646438978626, 0.006883571745086997, 0.005200250366535232, -0.04264381671886983, 0.0031434526654073452, 0.004175643901243758, 0.04218125835592177, 0.046183370420068905, -0.021764773443371216, -0.012331827551873367, 0.007961239616594621, 0.024683288585705974, 0.045722726684437776, -0.0027577581687792097, 0.006489355292059787, -0.016537871890664493, -0.08159916386719115, 0.041863714515535666, -0.05007402475963759, 0.04281951029306589, -0.013180628686630102, -0.05049226890787313, -0.014247131773881013, 0.033739808742861685, 0.00860326332419893, -0.04267524876390546, 0.01856526303383177, -0.020144079031020536, 0.08226284069192757, 0.0009142463576854495, 0.013158317274570877, -0.02732191628003353, -0.018119171466815156, 0.0418819550527651, 0.029447041741889994, 0.0853482671345046, -0.0492291717427209, -0.017435646521012697, 0.052789033240170036, -0.011325194944238141, -0.054829283729426595, 0.08262536750874891, 0.02837711770401141, 0.014385082492829724, -0.009259060080547162, 0.016518364763384318, -0.06406938071916356, 0.0012355183303990112, 0.023532092160523564, 0.020151983871631106, -0.09226972425453471, 0.020476819115749296, 0.04115780065083603, 0.08333150139645999, -0.019020079170529062, -0.019838221110551123, 0.020704297302779232, -0.018139280676080956, 0.011926040420852671, 0.03150468928398094, 0.049574661962176615, -0.03486835608510976, 0.024052991294196753, -0.07055243194597587, 0.01879441833286073, 0.02344997236360469, 0.036573072164197404, 0.025716293378223124, -0.031252440224210164, 0.007539450410831789, 0.02142311421667783, -0.0028458890224523463, 0.01195079399269335, 0.023106069249704504, -0.00549145255164776, 0.032139850805505715, -0.026720440907476824, -0.03684940687496974, 0.018877592299643937, 0.018949981114839805, -0.013134836220300549, 0.010831680706698993, -0.06876128351969928, 0.021717120965757845, 0.017719532612258792, 0.06033414344079271, -0.07228391360208886, -0.03395135883011534, -0.018197457542783037, 0.03678009895998035, 0.06508444345320333, 0.04203324525511621, -0.04764591708069758, 0.02711369738503724, -0.05026163463153018, -0.0055579828349237624, 0.06395726716243984, 0.03690906470200712], [0.016141987969001497, 0.015184747991613193, -0.009419726641921157, 0.057057044384993275, -0.003030515213934197, -0.007324004633713213, 0.0585691339497974, 0.05499434281914929, -0.02070853480184617, 0.016088991921180667, -0.048175525319282486, -0.022615352399071833, 0.007310686105011816, -0.048343702127360576, 0.01824378518157128, -0.028283587573472952, 0.028819517301173245, -0.04351648911871784, 0.016702490688882212, -0.005443161700056727, 0.006458106099387148, -0.028770340688289504, -0.04111359906424776, -0.021658620577911767, -0.028224326284041944, 0.010936408531304094, -0.002959497928692856, 0.007088540157948609, 0.008900507108138335, -0.005093928957242153, -0.04173784421420556, -0.014184485012310791, 0.0005750675993952012, -0.0006648741248187889, -0.012173177504147896, 0.018415391324685393, -0.015073678922373041, 0.005694199772422591, -0.009436141293447723, -0.08265719780760672, 0.06383905465839733, -0.0010747321170676348, -0.03826148822871966, 0.05074634008642207, 0.0060276359818265375, -0.03219738294760379, -0.05413596581662859, 0.053747226807210266, 0.014841615290483114, -0.03389178576264804, 0.005338856730223248, -0.052722930497957066, -0.002626822620632303, -0.024493469713678745, -0.014135616972408904, -0.008838647771872975, -0.059900995225372636, -0.07287009175904659, -0.036490384907970616, -0.02887506672532886, -0.005937473294376024, -0.004031356644085454, -0.06848364398679171, 0.014065632072586817, -0.020443508100077456, -0.01640127712964475, -0.012597920664228643, -0.001794007373433499, 0.007188298407788645, 0.022035139470806625, 0.04104290665555866, -0.0661176540174948, -0.027018945912833308, 0.06696183771626658, 0.014830343149099288, -0.0038870422829239797, -0.03341603067641933, -0.05586549029249884, -0.001461827388509421, 0.007405199566058436, -0.05255054878806945, 0.03332953697678693, -0.013366382265233416, -0.021107626852512128, -0.027724508612547334, 0.01613161554963716, -0.021681639980495538, 0.02763628733838264, 0.010812052562819937, -0.020863761123101055, -0.010904261585430976, -0.040446213367949735, -0.05254237378734166, 0.03777972310949031, 0.023605247808584414, -0.026233346302209113, -0.044202286513007796, 0.014522776823819222, 0.006990905449270892, 0.0357732280018637, 0.01935700056283091, 0.08744756202631958, 0.030203343263963955, -0.05083482232779762, -0.04383999821489381, 0.03618151878808974, -0.04660929036069465, 0.0019328873641831841, -0.022827062010726706, -0.017551825748862587, 0.044548160319564635, -0.04332386141667899, 0.0016804943927803558, 0.010362470365971701, 0.05754277481834557, 0.03410028178853213, 0.020910041524359452, -0.050721517747639125, -0.009769452530536103, -0.014582098216747035, -0.01193869223549768, -0.011797523298442305, 0.004772731389393666, 0.06365179205655323, 0.05466266607033137, -0.007763883090986163, 0.006128530758305883, -0.028416184833665415, -0.02799521843683219, -0.03571270066892751, 0.010195653801543145, 0.03920535167757187, -0.0020542941176069614, 0.01917699962088511, 0.009193731670087819, 0.01362390636025849, 0.0222290936565921, 0.041483744936816926, 0.029240794933784765, 0.006220568106332377, 0.01267534464548516, 0.012448908375996636, 0.010984544165311087, 0.018829136990986834, 0.013825580058112805, 0.05134012215260741, 0.010206828096638133, 0.011997345515257964, -0.024604111475960887, -0.08155684048406585, -0.07571415550377836, -0.07065516889425065, 0.053063109720687, -0.07584828023662953, -0.04139553526164873, -0.022767746250951165, 0.0270647482405041, 0.031446837792844344, -0.027142409671511408, 0.007514633081833357, -0.019270001885475934, 0.028492743066521952, -0.04686682610051423, 0.008227458769235975, 0.01687789810583883, 0.005588454458371863, -0.0699007726002247, -0.02567533992286502, -0.01872866754182833, 0.04528840260226763, 0.019219952985627804, -0.029995354383807755, 0.007335904278574277, 0.08020399518557364, -0.04131652574047869, -0.002201649002497682, 0.005383656745068228, 0.011087430700928562, 0.005905183904776444, 0.021732505365339116, -0.01380058893765162, 0.027568676323675583, -0.01400029073537004, 0.03231810995892303, 0.004566436288277653, -0.03928275363935622, 0.03584567086193686, 0.08847793320835749, 0.025152487694592385, 0.030944451312370166, -0.05457454730957587, 0.04876115428631757, -0.011820131447175208, -0.006215787056429714, -0.05868042342606309, 0.0178743858161885, 0.028430061862340233, 0.04859648074122309, -0.033685487168009384, -0.022144318232658226, 0.07282638448719547, -0.006386851031541667, 0.026878522058336563, -0.035398651869699725, 0.013223097303698752, -0.029550200368033186, 0.00565272367687509, -0.0471225150492165, 0.05459026258143258, 0.04971617652130015, 0.03287230533253343, -0.007308727446884871, 0.011021848639807182, 0.012041273930104028, 0.0032222226404822513, -0.0324943803539004, 0.005198542872365556, -0.002552810490334396, 0.020303790682309242, -0.08330801518086048, -0.0027452410747478458, 0.032579192797299074, 0.019487093530413214, -0.009130073793546018, 0.026991164534166955, -0.07007857009628125, -0.027235085468186128, -0.06137639995132689, 0.007698288983546703, 0.03197518498513217, 0.0022950617344261117, -0.02962337041963104, 0.05345508220052567, -0.041398528277675435, -0.01019361238176571, 0.01263008752447506, -0.023417881811022234, -0.0011494042649208603, -0.014399947832746025, -0.025762952804950414, 0.010353138668653448, -0.022885234265295682, -0.020210930951905022, 0.0021369182339391773, 0.02817837006496771, 0.046719873235204726, 0.03957137468997387, 0.03141469140819754, -0.06598224254020761, -0.09416878664664104, -0.0025180900522721776, -0.05178810931380483, 0.017569646692645983, -0.009390664194803564, -0.06224660686367157, 0.01589249942309495, -0.046964066446910646, -0.007337516774483914, -0.04910192792497233, -0.07256658055498191, -0.061116880255687754, 0.06769306535505644, -0.022169976048357243, -0.003212556146379415, -0.02706181361520397, -0.008234133555929692, -0.008279652473758123, -0.005479779207191663, -0.01999460693309813, -0.016143422964848265, 0.023986808428279136, 0.020831092731233205, 0.008324449218312983, 0.007456847928498596, 0.008396662557059367, -9.448620924745071e-05, -0.032528845186293696, 0.03726089023836771, -0.04667016926620733, -0.01553612904467877, 0.04397640652828615, 0.02558649566754928, 0.009721207419489175, 0.06526442237895157, 0.0770042582951964, 0.0031236536887912563, -0.005067863716561662, 0.021373140065320567, -0.028797295919748167, -0.002721324380346755, 0.022466098462589932, -0.024832838551245295, 0.05578248822328739, -0.00928052766538506, -0.018254133715665737, 0.014267966240774255, -0.05601573815790534, -0.02173017225140187, 0.0004022868327266249, -0.04043055991026059, -0.0004428062415575725, 0.0036972930237805343, -0.032903345705790524, -0.002507631575023977, -0.046932688997560756, -0.025316142816456305, 0.0048224479027513594, 0.059371435593718346, 0.014542629103977257, -0.004390389868430862, -0.0850894235846242, 0.01614564738958456, 0.01301768648688366, -0.05669287773257, -0.00013567004063597633, 0.0077776065748429365, -0.022218229815212424, -0.06555852978211203, -0.079764247639499, 0.02983527560058282, -0.013614702540974766, -0.09165765080005915, 0.03974429128351546, -0.03872167152225461, 0.004685451076570915, -0.0034704199195353573, -0.0004957224123430576, -0.0008182672091352898, -0.06213665679915859, -0.024581098613169868, 0.04792978916525904, -0.02473111869275585, -0.0032979500704099843, 0.02604922334556722, -0.03290437931589872, -0.015697080584582888, 0.007573026353122513, 0.016515051319961664, -0.04809298171620786, -0.018263948070903504, 0.002929941011747883, 0.06380504585100867, -0.04693691124598526, -0.030415754319979026, 0.05584789528304862, -0.011228505054160887, -0.019285492574623846, 0.07004082303125207, 0.020013873503151185, -0.01660403367822378, -0.028411392521770003, 0.014496739959840925, 0.023978784333251766, -0.03051331384902394, -0.010334798852591944, 0.013728040609357211, -0.01166078663045674, 0.0013721977905312769, -0.0005204878447852282, 0.014902832954941093, -0.013056748092466213, -0.03589569803578724, 0.00152016440690584, -0.029270787522457792, 0.003428451655770264, -0.03461532706619642, 0.03272594965812561, 0.0579712970692321, -0.012647282859326087, 0.001236493364953009, 0.00970540320327035, -0.026522403920684768, 0.008311698111569366, 0.00013647962433792682, 0.049585880057140645, -0.021169963399498583, 0.005785956464474639, 0.002472953721300589, 0.05824179031382948, 0.016314733181665007, -0.04545462261303011, 0.024616258343299606, -0.03004864186888599, -0.01072027470002256, 0.011201025729034959, 0.01780377552771528, 0.06041403325014904, -0.04156307665798609, 0.10234882552990596, -0.036942289577417006, -0.02861396746793291, 0.023411297118876986, -0.012347651821140624, -0.0357393429986591, -0.0376249154869237, -0.007360936224031714, -0.023840808365177928, 0.05025131492540882, -0.05588683850992565, -0.009678325844338517, 0.013983269127004302, -0.03268242030977403, 0.033517098290698, -0.018606968364459252, 0.016340449694039628, -0.0389308362166511, -0.004993134266664168, 0.03520456725805439, 0.059726134196675267, 0.015281750902664412, -0.04487938240173812, -0.024756761978838547, -0.036599219468823836, -0.04864481419564146, 0.08991894863257699, 0.07321081850241158, -0.05934938378214512, -0.056190897375283176, -0.008637874536776039, -0.016883432588106366, -0.006475925276278266, 0.022220813752080838, -0.039412551867419675, -0.027642342002176756, -0.0036542902319833645, -0.043356753028329524, 0.05601541831585642, -0.03302896901553986, 0.0956913713322237, -0.015460009128335476, 4.0375180216495575e-05, 0.028587583878822438, 0.0472899485867746, -0.017428789872662227, -0.02310426990939088, -0.0050909952995485674, 0.07894316010567938, 0.06651913469244528, 0.01631261967982577, -0.0544020236661081, 0.015398969762048928, -0.0493027478944736, -0.01807521206573117, -0.020074948789995106, 0.013584738692555007, -0.02052750773749341, 0.022989390475773443, 0.08968441770116971, -0.02768127662031845, 0.0406351745690557, -0.010165709665401774, -0.022455286622768304, -0.018686456891163356, 0.021746084590273076, 0.06050227837218842, 0.020330303025688695, -0.010549202518337285, -0.08207352299731009, 0.01338695472693876, -0.021343052279183896, 0.02407917987528152, 0.049557708667254514, -0.06142184472295621, -0.03580548916780176, -0.04403212741831989, 0.011236260212470843, 0.008700622340240917, -0.04037941945666703, -0.040256434896053274, -0.025280907810555992, 0.028024375677069214, -0.03788790294414797, -0.03870969435716381, 0.03692113921109143, -0.023286016189711177, -0.002790943008106042, 0.01928819365208503, 0.03682848771475864, -0.007250033237458214, -0.016132692447950354, 0.013013556419728001, 0.012244877224576354, 0.020256131362296873, -0.025409570730636294, 0.0213941127205474, -0.01714154917836778, 0.027139207114411767, -5.803315837074809e-05, 0.06730038808077876, 0.024078274082381942, -0.015517240136647554, -0.005066951357578799, -0.03344689309046686, 0.0009245192925933277, 0.03888558069026971, -0.026646724332033026, -0.03857521800154428, 0.004723035193895798, 0.00994598362723515, 0.09565045920071767, -0.038506522054738875, -0.0454649540323271, -0.056175393693807314, 0.0009045467068936028, -0.05770881564523235, 0.002497525609067827, -0.021403589987421784, -0.014616254810693332, 0.016240359783350103, -0.01376309792516773, 0.06193351123320884, 0.00898659268718556, -0.056420033806901256, 0.02963156109681451, 0.03187958243870397, -0.07548732904407358, -0.018232601623541702, -0.00943989906525127, -0.012394747948450498, 0.021958173007473828, -0.01990742369771541, 0.03582746435423129, -0.015376994868502967, 0.02685757141673417, -0.018989631649327175, 0.011685137062399849, -0.001030668044688763, 0.05866136436446891, -0.005889905557186264, 0.05268445012609039, 0.011677523693072064, -0.034051051548020815, -0.039305112077945424, 0.0060086385084509655, -0.053985737759576054, -0.020726766800042828, 0.028153637109624107, 0.023347850079887208, 0.027124482936096584, -0.02379995073684028, -0.02816257218722958, -0.023699810568704804, -0.04750860992345946, -0.032952359819600624, -0.010026973368676922, 0.01165541522754296, -0.027535006666332497, 0.009890907683790376, -0.013189812745711139, -0.0009570406607712011, 0.007168340660225363, 0.03127365969671738, -0.050834524631453916, -0.017466432994668254, -0.009593363119760131, -0.04940925604126634, 0.004028626907243313, -0.039857803429088214, -0.049625603059044475, -0.06042941952664384, -0.008785274951536755, -0.025903934220182615, -0.01869429100696433, -0.047659932488094844, 0.006675940059933174, -0.01572820456406489, 0.06739454570571571, -0.0015789160860525046, 0.013324747401847924, -0.04307308076795486, 0.026727610058087936, 0.02540018751195408, 0.017939962521221632, 0.04072638720654553, -0.05046163359797096, -0.01590969804532102, 0.04390795058090694, -0.024316435310713525, 0.005571986527669506, 0.03408952504238154, 0.026795842336323743, 0.02482575248119606, -0.03544830626120658, -0.0314927147152685, 0.009149838825653548, -0.0037357959180269796, -0.0342134769838676, -0.00549418193425425, 0.004003523755740238, -0.009251540650071765, -0.05191208123594208, -0.02434003304074251, 0.03871923411113476, -0.0385212954552726, 0.028217129985720155, -0.03651060231669324, -0.042909919904696454, -0.030358451519308854, -0.0010670557320914158, 0.07561272660237482, -0.046231681727012884, 0.008270662066396758, -0.006070603771366588, -0.03964578043321126, -0.003223793482010147, -0.0022582822655690562, 0.003924537453032806, -0.029213968075769824, -0.051439795947631047, -0.05092382465200541, -0.05442144154333617, 0.05488369986743506, -0.033608351571614264, -0.0028625722200518763, -0.022821051263703707, 0.07910593997353473, 0.012965132881223345, -0.07321998765744826, 0.07734069679068048, -0.0674921621780613, 0.015189807097166785, 0.0023573966887236743, 0.02727332751525102, -0.027572614925224944, -0.06329012963671274, -0.030243100472167488, -0.029484961786304477, 0.03156319532599299, 0.021371025044687113, 0.05670687925690277, -0.02578026089118055, 0.06738385471510654, 0.030411838091673964, 0.03992883546163528, 0.012070397938707709, 0.0015394918041476645, -0.0010970069619835898, -0.03679548382824489, -0.03554568957283632, 0.0025565892884858075, 0.011808290958974177, 0.002264502292944649, 0.046770580877119945, 0.01997744233483548, 0.0174385832082227, 0.021829335041755847, 0.028949488675191547, -0.017793795915327256, -0.007894244748210379, -0.04513649440984723, 0.028293134026714236, -0.0356688045465811, 0.03088458292727712, -0.0662400837355172, -0.0554516132058791, -0.055893716482922955, 0.03962217177031865, 0.005433323640037949, 0.03494774633776513, 0.031585146899434514, 0.001288620503283148, -0.006596530985649426, 0.04277770495361476, -0.03438447781909866, 0.010072782269946673, 0.013103025543331703, -0.03944762991222818, -0.03247820521063781, -0.02226678170582484, -0.04256698962943219, -0.02273830186591926, -0.034098972985536054, -0.052617978858193803, 0.0063027859966300875, -0.05264012556673759, -0.018256678968197694, 0.059215358571921964, 0.00657968950670386, -0.05445981560947133, -0.0008384383085394888, -0.019113867087953918, -0.021498570072070712, -0.03933303140027268, 0.032258979815372214, -0.0016105077696109465, -0.028797702940106494, 0.031135477225973127, -0.006402977783386836, 0.004897690597880917, 0.015384161500264329, -0.01682524933986173, -0.009048942375624744, -0.01380934067337862, -0.07838942144207232, -0.06410944872202691, -0.011948933754286671, 0.026472497729855795, -0.026161692129426938, -0.05827732452199314, 0.0384621074258889, -0.05858743363848903, 0.057143004041606646, 0.024354339763492824, 0.04033746087477572, -0.07446787052916945, 8.900882733982123e-05, 0.006551662867608577, -0.022095696148359982, -0.07470630259838833, 0.01064146885788669, 0.07563027197632456, 0.00018546037115548577, -0.012984810395996332, -0.0030332950165221258, 0.01612769414798688, 0.03813881995073234, 0.005854651950513728, 0.021017884690818892, 0.059000511562244104, -0.03267145815119396, -0.002204979247052939, 0.04691914707255266, -0.017038554249446454, 0.013482172512536228, -0.018676632631277935, -0.05673264779915677, 0.002827099125280967, -0.00044732783178274194, -0.027904303072518344, -0.04099226311042747, 0.05047099077787998, 0.008068339634235427, 0.016071674239402135, 0.018660726975454713, 0.032329798537222405, 0.02897450813213698, -0.01948358052849868, -0.023439142395436985, 0.04699851466216869, 0.03258453231486462, -0.028943868584401348, -0.014842683167714976, 0.01978535861267926, 0.03751095905918933, -0.08586074166765738, -0.04831603791051821, -0.0180257591650475, -0.04236589515476742, 0.047718880581669024, -0.016088473977765617, 0.014848427374001365, -0.03310026844376158, -0.06054442169290832, 0.02342396847823643, 0.036057921419474455, 0.036547005951998314, -0.08353018736070202, -0.03558111206377233, -0.08812327117996303, 0.02054983189039994, -0.045333454239942526, 0.015472810807812846, 0.03194844638979196, -0.008882907180809764, 0.005892865504746714, 0.013597708041165685, -0.015296467980927677, -0.05547908093327465, 0.034427412890204664, 0.03432266918346384, 0.008410077355565464, -0.039712214456563075, -0.09685583449730642, -0.03115165594410779, -0.0033197702626764918, 0.043097114802433396, -0.014354099077830742, 0.03873524766082204, -0.025629739644184156, 0.03740594491861236, -0.020052722144507852, -0.0024505267857118144, -0.07402658338772075, 0.07229833036705434], [0.005443014364544254, -0.028423802696685162, -0.05005922586023343, 0.032570811773026995, -0.021281553688280615, -0.0240943328791512, 0.021481172002027565, -0.019092754916052678, 0.026536440535519398, -0.016793499255911, -0.03586096624618544, -0.023133884069381345, 0.0013961982616218387, -0.022553172631616835, 0.033880386443245716, -0.013224410467453967, -0.03505031306768992, 0.015938672364775832, 0.05605828737621637, 0.033973881258430795, -0.05799666223918071, 0.03206615625586652, 0.007285082355300193, 0.04442421758100678, -0.02369823851779374, 0.011244048686616286, -0.06045237644156543, -0.004385429392097311, 0.011672971572195665, 0.0020462005600158937, 0.043052945626282965, 0.042766224607245405, -0.045738778936847524, -0.03862389319142561, 0.011381703302591112, -0.03131703664047481, -0.010040786518705404, -0.05801462928891938, 0.02107495123233215, 0.014747711933312369, 0.007867875882708087, 0.025306672459949185, 0.05613573974573984, 0.0011305777921192754, -0.024446475819817813, -0.024812550856441844, -0.0338427513754186, 0.026131057103694285, 0.01453188241192247, -0.01767109952764936, 0.04342791597486561, -0.014359795041254144, 0.018065071626330836, 0.04112935973801798, -0.05583872604815215, 0.0026662694186774627, -0.08658902237994817, -0.020679584137553005, -0.04500926798261053, -0.032708494486541055, 0.07413981070669265, 0.06047824441963428, 0.016088497061504798, -0.031154723860121546, -0.01823841844677462, -0.012193531642400137, -0.041131260234017794, -0.013963535625395925, 0.04922946721534759, 0.07548813015503827, 0.01277996393410744, 0.035433845556493926, 0.007924824846729888, 0.05699534935823541, 0.06035285190090123, 0.052991169618168354, 0.024147475981429266, -0.026653876734754414, -0.024050602183212887, 0.016370944627635376, -0.0033299752455927764, 0.03290089614406937, 0.056182120112210965, -0.013634605199602825, 0.0075512796874681746, 0.031158357874453018, 0.04040251227930591, -0.03492855684669645, 0.02032537823548985, -0.004005991430915025, -0.027057912677501454, 0.027760442052329897, 0.12007468375001126, 0.011412770492691165, -0.04044019030392202, -0.03251435506229518, -0.00982498009792897, 0.015570714606885512, -0.020249409963194298, -0.0009280179715802949, -0.023896639697733205, -0.06386568033496963, 0.0648902445793387, -0.005996538398652068, -0.02229989122507122, -0.03767209244660844, -0.05969835715805606, 0.026656522252746024, -0.05083593456449105, 0.04437028871777217, -0.023367412188651855, 0.012071433290721004, -0.016317853087742275, -0.056253901108224265, 0.016778120328152697, 0.03798262572722544, -0.01784484135421158, 0.026981267396686825, 0.03009273498579604, -0.09055136888459071, 0.025684422920947015, -0.03896916999131976, -0.0028004431443283363, 0.006668262189047501, -0.02397134578859082, 0.07762677347460369, 0.0008107281672486123, 0.04739022843316608, 0.03382239678885917, -0.026008547326709326, -0.06750733696924065, -0.051530276794203835, -0.000171404504603358, -0.002862627155077441, -0.02105102925511681, 0.040712069669014736, 0.04201817360507607, 0.052594716301825925, -0.010562204741710376, -0.0815209480874922, -0.012511503527372125, -0.01592522597433899, 0.001155532839428968, -0.00023788436934862344, 0.0016227488803938694, 0.0007102654273377652, -0.06752842677896495, -0.00597698119349453, -0.004736757378741322, -0.015127151417581506, 0.03374581413289751, 0.009198250284866176, -0.006227696621869534, 0.033992596012152966, -0.022713546983611083, 0.01301376418677323, -0.005870998731574289, -0.02210910425624891, -0.0019889758072454003, -0.03412567796050662, 0.018537642974365814, -0.03565745623600393, 0.002674070999088378, 0.033710990631220905, -0.05064954771689366, -0.044635071148435644, 0.040843809956687356, 0.04282801074542871, 8.929305776729967e-05, -0.007686415077995247, -0.04087515582581698, -0.04964025516431875, 0.023525901572095446, 0.0010869126726370765, -0.03661441288216174, 0.023034674770882602, 0.01722050509412989, -0.017680664163961215, -0.03546120367135708, 0.02447806608844388, 0.04580980195147917, 0.047327165298486455, 0.020722731988387887, 0.024497350939442917, -0.05275063289843506, 7.456849659558179e-07, 0.02620612595284977, -0.019609739716838364, 0.04936051749313348, -0.05159312232135314, 0.060032150509346356, 0.05168170553597108, -0.07315948218324428, 0.06873486071324221, 0.04626296052227103, 0.03470245482867819, -0.005745050534339896, 0.094623033231923, -0.044162266408606085, -0.0820603329052526, -0.07805394000356643, 0.043365818610679965, -0.023624910045748394, 0.008303213605023759, 0.0009056490315145311, -0.015901603885464834, 0.0555811927236541, 0.0076030837534124375, -0.02764573251219335, -0.03089926566987752, -0.016896216236189938, 0.046108373050196494, 0.001552133780469674, -0.07729891174884529, 0.0477470478847131, -0.06222639298988274, 0.029568026802677373, 0.01929370541111209, -0.020809010605815147, -0.055416220896044456, -0.012436355710619393, 0.02269173368219778, 0.05963561771012872, 0.029746189784771504, -0.012999741556663415, 0.06957204806496846, -0.04389159553692606, 0.010193703597692576, 0.01628695046098376, 0.06366949186805149, -0.040751570439344416, -0.07982048527143744, -0.01308780698906287, -0.05444618609184649, 0.07872357803792289, 0.051752507927045256, -0.06250380247258644, -0.015602590182835713, -0.018648870831564, -0.007693799740127201, 0.03535129223036726, -0.007489122687671643, -0.03647832366999829, 0.04348898845273077, 0.04624780305935954, -0.0013384069668948705, 0.06752955579816225, 0.031078121623791415, -0.02403849871509769, 0.025336424287586003, 0.03843733244985113, 0.007794183516447213, -0.017119446737076986, -0.01627152921193976, 0.019267446966768152, 0.03506014653411784, -0.057443735068945956, -0.05960353434441633, -0.0438159642957225, -0.05303262841904284, 0.029586225228114365, 0.022509643231184633, -0.042375540390107255, -0.0018928838706400253, 0.031863475235375895, 0.011835688410363018, -0.0014395038619427621, 0.017036343895370665, -0.06315431622822283, -0.05196285931442609, 0.004490466455173299, -0.005761432723779573, 0.01334582614746672, 0.004023551574334829, 0.0018525484790297285, 0.002364611200935017, 0.05157218593159446, -0.048526059835967764, -0.0351339555979212, 0.04244391583432299, -0.03360308037788828, -0.022150564652628723, 0.008243558846667675, -0.009136809685046899, 0.021606868340874146, 0.02652368013199708, -0.03488821042177575, -0.03610212360469884, -0.0037978852073992163, 0.051830680256700026, -0.03325337717354159, -0.028863988329294675, -0.013589657505734596, -0.0011342834346096914, -0.0211529014163502, 0.029499890504751155, -0.025192446421965026, 0.000266733606133316, 0.06843834066510425, 0.019601000244684193, -0.025813913594313224, -0.022227261473951997, 0.005090970325745866, -0.018054375678367512, 0.010226967634427138, 0.00882885249538833, -0.0029571004901733635, 0.056749367655094266, 0.031756170788984676, -0.03162484304851761, -0.05665774727231696, 0.0011538858048840556, 0.026947291718592774, -0.01317198290050192, -0.07100807135540488, -0.01127865285133517, 7.01692215941645e-05, -0.02480415683340882, -0.00830599559047759, 0.03457762286038737, 0.01098669447377158, -0.07060499469069302, -0.04432713975493035, -0.02984377418294984, 0.05167656073022875, 0.013375022626162459, 0.030508810693891074, -0.029262810251028042, 0.0244431247837964, -0.024753399093047405, 0.012734622199775485, -0.03350408922673161, 0.033035967593476635, -0.07433956239581378, 0.04591980673364875, 0.03171072647305325, -0.007473892123721485, 0.05368314775869127, 0.025582027627796686, 0.06569799980012335, 0.02369872322420777, -0.04259897667509059, 0.004421689695615837, -0.002812204898907919, 0.007371663942704884, 0.033386711118186536, -0.03980818585696851, -0.006969810815213292, 0.0276420012534923, 0.0015260413320008332, 0.034589850710266476, -0.04292946334602093, 0.007727906159947007, 0.027190929115031848, -0.009318451926432256, -0.03712279581476162, -0.004245912044411714, -0.05229299921915773, -0.03602562031114417, 0.015012410811714217, -0.00869681280744866, 0.03732345421825122, -0.014488999238247926, 0.011485073969356756, -0.02625023194503793, -0.004425469329246603, 0.011898296370640533, -0.013902815131736346, 0.09056480207638565, -0.07166581606949905, 0.04866355626313717, -0.0054884372845430685, -0.03815737430163526, -0.008793263984938144, -0.03541041603380764, -0.008368932138765512, 0.03597658965972191, -0.06907961144796194, 0.021458396975946016, 0.02681221398204966, 0.008321494233480529, 0.0038946470149297807, 0.006398692793043269, -0.02882727964817446, 0.025953289378024585, -0.01198657520704269, 0.03642839169727184, 0.01469290179904483, 0.08515190984238245, -0.007762641349910908, -0.011971170311656062, -0.04427862344876232, 0.022301832872381223, 0.011412562528312022, -0.007346203944823264, 0.018215638988147428, -0.04952588907354096, 0.01500014111738939, -0.042640124830318205, -0.04864065076001735, 0.009165365755005057, -0.03826400444721117, 0.0007975210721430439, 0.002230440945157761, 0.04875430043660521, 0.018966670635585485, 0.023314624356453144, 0.06346556899519189, -0.003953890411687561, -0.05603283590647236, -0.028018277679270388, -0.03935001045414582, 0.018030377915308853, 0.031697599794631846, 0.008274330226744283, 0.022754888704287015, -0.030258029142171097, -0.02555295227427598, 0.019452961128639448, 0.05165872329288185, -0.0038665759983704845, 0.05352568783256918, 0.061049641818231845, -0.03239541778590675, 0.03180146280869561, 0.02647141653646809, -0.06267640557110551, 0.016785755126876033, -0.013585576988937894, 0.04761025209033703, 0.010336937468765536, -0.021168887799899307, 0.02365927136154451, 0.004661793854059753, -0.028077535544401587, 0.0034180191628724642, 0.013564670711502731, -0.008327153643820032, -0.045918439685492585, 0.03472560023402165, 0.02054366246329017, 0.027120919967539153, 0.06838925562609995, 0.01950245571626086, -0.012299103479905708, 0.003907093264979652, -0.005606569540520842, -0.0145463040533382, 0.04139517851975522, 0.03697706458043518, -0.003844490458657771, -0.023955236317030244, 0.021461995126704363, -0.03368153293110299, 0.0273367711152023, -0.023602151936625508, -0.04059157184330781, -0.02951837067881914, 0.011961147422193565, 0.0585610268456707, 0.01512237159173647, -0.005975327938720243, -0.08308362712953501, -0.07448745772811917, -0.00031941085255640943, 0.005045148167785435, 0.034278874882066934, 0.02788573985786632, -0.014628157963226016, 0.03317138108657461, -0.0071336821812993155, -0.0004694213469089048, 0.04131649885529398, 0.04865880565681007, 0.06342882361222192, -0.03996944732418745, -0.06288306132271825, 0.0068873999918465075, -0.027526386505450886, 0.022107176326359074, 0.0022539002897336347, -0.016273898732196274, -0.042564144033641345, -0.029767653363216594, 0.051616604318493686, -0.03366437196779296, 0.013990791236467704, -0.028781320600503472, 0.012864910025050804, -0.02472411775893952, -0.047813503191898, -0.004163202012996247, -0.020575277209638785, -0.04909724563450738, 0.012912706674227158, 0.007879863103079142, -0.007155659478678622, -0.004991353228586036, -0.0012851870261479975, -0.03182708025596234, -0.04226935857918805, 0.022060648616794076, -0.012869672677550762, -0.03410612355290032, -0.020683331060445526, -0.013409149171106392, -0.030661262037756654, -0.003019233569686051, -0.029311924856262987, 0.0031644891563264196, 0.0032984981865852745, -0.03208551276513584, -0.03945917012461993, -0.02265607285180915, 0.007498927334827676, 0.05165018365206158, -0.03758636496024776, -0.05791307163530087, -0.05148315792069347, 0.006996783705106679, 0.04114333137868471, -0.01439240407807156, -0.02544087822183125, 0.0029504214494502218, 0.026330099626423787, -0.009401385847920343, 0.010404198874756684, -0.012458260301928478, -0.013339523338499294, 0.025970598423596346, 0.04816487738693296, 0.04519773788985103, 0.004507528967174955, 0.008201254602339824, 6.0603538740266856e-06, 0.03151625487740823, 0.017114525613010446, -0.005722180370660828, -0.0014355240250437924, -0.05133926218753913, 0.03632282262477211, 0.01578123823898273, -0.023946374102122588, -0.008785985598923608, 0.0017616456726956455, -0.03387967531768433, -0.01715579582254182, -0.010151206664596703, -0.002757834572958671, 0.021912087625146452, -0.041863434176468796, -0.0048859267380887755, -0.002272792628490821, 0.029051194485882576, 0.05974585474201172, 0.032915223913581954, -0.04613010559084612, -0.007484377950627208, 0.03134252925425575, 0.008234013941916352, -0.001087909077356017, -0.012730308374191885, -0.013161705211770763, -0.04285957768341514, 0.02760156485097522, -0.03597474647779907, -0.045180060714879754, -0.02818087281446196, 0.04755179422356276, 0.07845195139372464, -0.013231107473542503, -0.03715253337578556, 0.028656376174298625, 0.028739367115423815, 0.057313380980454375, -0.017099144209652715, 0.02011763360092119, -0.04094340407293946, 0.009696210954230596, 0.02950922919033776, 0.031580470878238155, -0.02264836775065249, -0.009205751886394628, 0.018596851409033242, 0.011022372086053807, 0.08831715433592778, -0.010939598172572519, -0.009485958670087932, 0.0052433236318834954, -0.028137642477631643, -0.01742525458915449, -0.024836808758188035, -0.021714676826225254, 0.004395389326641664, -0.012427080071401758, -0.002462825235335747, -0.013896694375330193, 0.03298936884033995, 0.02338277986737664, 0.06986653357076004, -0.022489361706638226, 0.021538181793668797, -0.017020570669373302, 0.012259193130535617, -0.008984258335692556, -0.0559095057068491, -0.02422878769460703, -0.05362192444049951, -0.01142656131655981, 0.008933636538800093, 0.04958593430343204, 0.0037386712788429603, -0.043934468110087777, -0.01105951669156578, -0.022793168019110015, -0.028776439926036568, 0.008537245851922436, -0.029405834975638107, -0.013168053945591871, -0.03772637589613433, -0.019518664290593967, 0.04263721845171235, -0.012899165223275184, -0.011719073626140485, 0.02191550981897007, 0.024720956030423152, 0.0012848336766944281, 0.0009698783736307553, -0.014564611914849746, 0.0017507885548842873, -0.021103752434699696, 0.036192640128358135, -0.012295180963617616, -0.016588493886270164, -0.052712538372518374, 0.01197863697263636, -0.03707571020978774, 0.006233002861651805, 0.024023057032501342, -0.03316643309839643, -0.01326267514332476, -0.02686755030842042, 0.049236676004318934, 0.06840952824442385, 0.025048894237184434, 0.010797660420206153, 0.02003770797197794, -0.038725406318663225, -0.0020403086123906957, -0.06115216803151586, 0.008009222437884343, -0.011050293071200704, -0.025840209846817584, -0.0006988780417236313, 0.0015741126906714733, -0.034605928270835265, -0.011413504264690616, 0.03700847950092272, -0.006033035436254439, 0.02894767115535101, -0.07320881238270079, 0.018769348389058638, 0.03284238962648578, 0.009182281306753056, -0.020803137605012696, -0.017205318186246762, -0.034751433830143744, -0.005982135278058838, 0.01922898690142985, 0.0030468041690164083, 0.013943421689760269, 0.024237291663897747, 0.035139800013766646, 0.023285734862329575, -0.03913449391191054, -0.02552730700904953, -0.008168469145256464, 0.04981021086887434, -0.006316744828571872, -0.01827241934812541, 0.00241964167049061, -0.00034069506975264384, -0.022066539261134, 0.006964634885952945, 0.020514118360570214, -0.021038910391459338, 0.018204273578144404, 0.0071223671608218655, 0.01661207586567048, -0.03310350150050199, 0.019269850554380994, 0.03706082037274278, -0.06127253383410496, -0.03555156728804979, 0.08257708048769079, -0.008934815227299749, -0.01017812165688691, 0.01642547506916923, -0.0906284311374183, 0.027825254966340193, -0.01350301902575672, -0.034405791695743156, -0.002652271366217784, -0.055328920791932336, 0.06619235267552599, 0.016095750168368755, -0.0003796540563400492, 0.033517973495966115, -0.025483652470907912, -0.04326990142319981, 0.0174503922642752, -0.004617984588102212, 0.040755400448494065, 0.007179654238084089, -0.012989331176446071, -0.038418586109272276, 0.01922265132952938, -0.0029324332385632325, 0.07444396125671483, -0.09923679317237424, -0.05470244410994328, 0.00021235918841025104, 0.04357485145897762, -0.06808082090996795, 0.0030737962752440777, 0.04845749109234408, -0.05575122383917669, -0.011153573432124473, -0.0008520187829658487, 0.0046782851686904894, 0.033407110989294546, -0.012798164307259415, -0.016498989782617147, 0.0719412781865324, -0.023755391982351066, -0.028284171907576827, 0.06090536740525139, -0.013364165862020013, 0.024544153120562802, -0.0012312996935205094, -0.0007315965148520265, 0.018098262003382742, 0.047659616574328774, -0.04235708470341258, -0.0046088331769278445, 0.007488006225522184, -0.04083908134003779, 0.04402702953613384, -0.024587176672618068, -0.010530415251373545, -0.018500979989171957, -0.015461879005141397, 0.030373373393874893, -0.03992815215516504, -0.01761531873508364, -0.019222058401534813, -0.016302752800899743, 0.03745723988215147, -0.0426293747838979, 0.04089990803699243, -0.03122041496950573, -0.006955249703938636, 0.027303654577746733, 0.07484948950633286, -0.013677017694843944, 0.003530805035841124, 0.0037957711702235747, -0.030420540724869837, -0.05339568359298348, -0.032029544857772894, -0.033743138790127324, -0.015900998332356153, -0.009705729542902497, -0.021091493050509884, 0.042157636790156654, -0.0509452793619035, 0.026043104907560406, -0.03468974769876513, 0.0139337007243595, -0.016420867036725274, -0.002964404548522607, 0.06569336170134457, 0.03604832863543533, -0.000978683142624838], [-0.026171654686167445, -0.02474293343594836, -0.005420165628202801, 0.005805100158746668, -0.048151182829976484, 0.022423227905205848, -0.021690538870780825, -0.026565320166135182, 0.011727923090852329, -0.046437940419090724, 0.0038723257571965522, 0.031192840859638034, 0.011100106092262073, 0.07461294909765959, 0.06071559068552101, -0.002830718479251102, 0.0210289614718801, 0.008470077611076831, 0.03125617683269942, 0.006784175026979361, 0.04458525076571444, 0.01699451336864414, 0.026683063547360303, 0.013336465621710142, -0.00412141903034289, -0.06153307761851819, -0.060590760100736725, 0.09701122698214716, -0.00047490287196134436, -0.040350250469212465, 0.04429952585746446, -0.04540531379825157, 0.03484043426338053, 0.05929943858724508, -0.007365476356150064, -0.03961331004465907, 0.0429120174415207, -0.04706323291927178, -0.019377794634891577, -0.002962626175348514, -0.017995232053073906, 0.048311424173275656, 0.02328380345303888, 0.03117962014727094, 0.0022481853950982074, -0.020334430603282858, 0.0012634940335647215, 0.025356068157953587, 0.09121066461106424, -0.015214551861271668, 0.015559451587627133, -0.018016510320175542, 0.03216990980687353, 0.013630076805962852, -0.016672579607978525, -0.03151319004617095, 0.011082356955146089, -0.0392424429245762, 0.0215225071592983, -0.003739847015817115, -0.049593882590200714, 0.04665014983526856, -0.02112869937329676, -0.05216881929063901, 0.055485773558868905, 0.009984865728463122, 0.0010351564174388207, -0.03946666583809343, -0.04807991112234749, 0.021470760319507697, -0.09033371985968985, 0.04678404673639489, -0.024704268640659905, 0.0009994451451254152, -0.021829789390310446, 0.03590980949860136, -0.0475894668326346, -0.04500722555190197, 0.01933899891333174, -0.06228771851612176, -0.0742750859310767, -0.014008458203956247, 0.0036746425736592287, -0.03906666460793773, 0.007981237446118613, 0.00019079774794252688, 0.057111288427820636, 0.04518268637265695, -0.009124521288785955, -0.00053970997875424, 0.057178595098955884, -0.019749734279231736, 0.0034646803903312035, 0.009384132587683123, -0.03401728550933007, -0.05603499274029652, 0.021532414345450685, -0.0007960300828460666, 0.016111530193226437, 0.01326321714069712, 0.013684132848942761, 0.04502625786370085, -0.025886593591434227, -0.04288106023249422, 0.01662441831022842, 0.03946393199944962, 0.03488134277247066, 0.0237337039413337, -0.015550940945829048, -0.039070261209691225, 0.05520031078624427, 0.016326503394284646, 0.03792491454078583, -0.011782992985443982, 0.05775120000760224, 0.012464223044989498, -0.02932259775239197, 0.028249206659277267, 0.03329547564360241, 0.0297462323130617, -0.05042410481007966, 0.01215070230441202, -0.015119811853880255, -0.015216775105601687, -0.021648513810599485, -0.03971757296872747, 0.01651929001815759, 0.040486853119597356, 0.011316806643397789, -0.04725816603630072, 0.006935494451735927, -0.014639216092276964, 0.027216277463268965, -0.021918633501274726, 0.03928745108813494, 0.03298943568702155, -0.0009803714629904744, -0.07352847310426584, -0.00491723349132093, 0.05530613519407985, -0.01915230695575641, -0.00981996468956482, -0.013825244885635838, 0.02910358616995306, 0.0524331730053311, 0.017028533466778524, 0.02920898703671738, -0.04432354842914065, 0.028181632860557266, -0.006574521623685546, 0.008403374980442193, -0.0024524260293834746, -0.03972883633865719, -0.047705622945696254, 0.008796328151108432, 0.008401682886861694, -0.018156574223839907, -0.014093299121529667, 0.017406692271130255, 0.03554456144350297, 0.035999866868078614, -0.012430107662854599, -0.002718942033100123, 0.025832673417276603, 0.019155122674049563, -0.03483198998246186, 0.057055126641155085, -0.005735149237943848, 0.007564800120382861, 0.03740451738876209, 0.056292921519317134, 0.06292041449150633, 0.010441208059210184, 0.043480907740159044, -0.023491102972865503, -0.007260047636320909, 0.0353091469118107, -0.0506377025772613, 0.021589455613884034, -0.001194402292093205, -0.015742119257270083, 0.01581839149677467, 0.1099924392735493, -0.0281605064691424, -0.04301282460781051, -0.032868135512147435, -0.008985196463852983, 0.05569004905209015, 0.045120980052755846, -0.038349447536043836, -0.03081205511200294, 0.020800635072704358, 0.04374355827857558, -0.03423309220846561, 0.006311463877383807, 0.008045817582779958, 0.03906491631100177, -0.0002756571480030122, 0.049773538911661586, 0.01013849801356684, -0.042445620854539574, 0.015803754300432574, -0.02664114100141452, -0.011809642597045757, 0.014270369042219505, 0.08213652760566999, 0.05689531145295111, -0.0066383621197070725, 0.023759095933132413, 0.009068989099427984, -0.008205227339870728, 0.013012480812545078, 0.025593562979624708, -0.026474759565798662, -0.0031842456420114454, 0.028494609699174188, 0.008414629106376024, -0.04449263561604709, -0.03497616342673609, 0.015579039959078125, -0.060700808435054286, 0.02260862677419665, -0.06563370157654032, -0.0005112981382414657, -0.047777697199464085, 0.06879098865486652, -0.03536468302849198, 4.873354638199042e-05, 0.005589058144928336, 0.006174712142851118, -0.04047694036889498, -0.050163775336783435, 0.03353828588298409, -0.017419120664473948, -0.007373092795213723, -0.027595570890584877, -0.0036823632332450384, 0.012980782265390721, 0.0029410126582608965, -0.04202245054525894, -0.03619043492587247, -0.02655068146318881, 0.009234236421644528, -0.02293064499387432, -0.0404510270366133, 0.036800346386270645, -0.029737392126407688, -0.03505578314242356, -0.01066692527095467, 0.00019323941113295523, 0.037439857642744705, -0.015053635685404469, 0.0005851075649026025, -0.030661410759977244, -0.01789625035396956, 0.018637594697944383, 0.008048517362290907, 0.03838299278758733, 0.02231606275204653, -0.004109356336796032, -0.021126740854826773, -0.017155150045534664, -0.027905188457428502, 0.015707914686491065, -0.03743681947906004, -0.05133415209917503, -0.028845828522590346, -0.030122617299789906, 0.04141346573455592, -0.02083692220986632, -0.024926018041012514, 0.06435398101655751, -0.016125178550351765, 0.06664203999605074, 0.005921046141077036, 0.038121752110920226, 0.010277247923163896, 0.037034794453734816, 0.005991462025088664, 0.00804661732943242, -0.014493492923892978, 0.004727192683743125, 0.052871962889748415, 0.0009362813752013848, -0.0010116872659763282, -0.03713491491132431, -0.02720649634038158, -0.0006825111719092946, 0.022467144264363005, 0.0402162945842412, 0.0012265056948438538, -0.033095438413504416, -0.01649878300807559, -0.04558605476225425, -0.012579739972519696, 0.005615035078496991, 0.041410277774033326, 0.009476658154527558, 0.0726277412683229, 0.011285611600445816, 0.0022876268192296746, 0.055026852777396405, 0.07336907556787542, 0.010522186032251161, -0.011190618378331603, 0.007048903826383691, 0.02165395155464331, -0.0158224583666943, 0.02023601114871548, 0.007847033339071956, -0.016591140276009598, 0.02586183015648978, -0.05643502071950579, 0.07872333505719852, -0.058125124570502874, 0.001126689491594324, -0.04842998462322219, -0.022896361364358724, -0.011748928457616032, 0.015354666024275251, 0.04232024984686111, -0.0031459147877870223, -0.08003526708592616, -0.02675813883829905, 0.005754845205280417, 0.06709816031122687, -0.03917709862127226, 0.011429975837729459, 0.010614036087571005, -0.0037244236519343873, -0.03587279955199797, -0.006250156462084218, 0.006204268212591418, -0.04057592621642828, -0.05975475902257149, -0.036297272320012196, 0.029535697239013455, 0.027583011479542514, -0.029654323361125084, 0.03401906514980247, 0.0027453207868909134, -0.017925521986079017, -0.060644025314522516, 0.013831795883358308, -0.014717363760363266, -0.041835127981011334, 0.04249313804070629, -0.0728620151599125, 0.0010251239024073686, 0.009693272557650501, -0.0025689670552265535, 0.00652151002329423, 0.0013567164000433223, 0.0041967013809703635, -0.01008666160836189, -0.012552130638646882, -0.07895454216426168, -0.07120725739190172, 0.019795554964920137, 0.0492263271905636, -0.07168153748922991, 0.006232218049735093, -0.0017067875585396399, -0.06831883363380639, -0.03684100838664367, 0.009697981367395766, -0.04253153410148343, -0.0038061841091118222, -0.00018354385598835177, 0.02603158291542151, -0.03134822119663182, 0.007321388374124778, -0.045437854623273544, -0.08920726602638364, -0.025354081989037325, 0.003674915810779497, 0.005523970186236621, 0.0025892132054752453, -0.02487553936136624, -0.0047231797771582675, -0.06600340226128172, 0.04047084445302395, 0.03078983168480156, -0.03458687278117728, -0.007732156681045791, -0.003971283346355518, -0.02591152303767132, -0.01250838519479954, -0.0682661532261205, -0.032235847311330494, -0.03870310950235707, 0.016922314364589013, 0.003998848882752852, 0.07844494505991052, -0.010535799514165086, -0.07070827308129947, -0.03734990810282455, -0.05382200139615821, 0.03305611125313548, 0.00041867073591937123, -0.023783895471864897, 0.03537201399884774, -0.014957953328065493, -0.010550205876611348, 0.008002658732065439, -0.03910183712009891, 0.030345114024045265, -0.0076404987081730505, 0.02759688123586515, -0.010858027628947662, 0.009240563406678651, 0.0061727842919964806, -0.04885241239427991, -0.02612963274861644, 0.03433525109090872, -0.01463714969955961, 0.015459464729495317, -0.02701158559720063, 0.03377685189301495, 0.008846973149217086, -0.025845455211490353, 0.03794110345624645, 0.041914981532681764, -0.0183092805294531, 0.019083376413521723, -0.0544980184081883, -0.005716531996358657, -0.039641276088474356, 0.05100067268954791, 0.007854506924629426, 0.01798629217642848, 0.008903784140676631, -0.016532416370466815, -0.035418238879181704, 0.00666269205498235, -0.004350600046445235, -0.02599427119894975, 0.058495122591371504, 0.019355508638691604, 0.025455225296144378, 0.027323305385572715, 0.040364969924195415, 0.018026466415463304, -0.012550437001487929, 0.0332852300258362, 0.0271758783566464, -0.05912969391731467, 0.03747795543317462, 0.010053186816887409, 0.05994629032611186, 0.02176384478331945, 0.04210724470790244, 0.012322265094380247, -0.004960099524952829, 0.014823885087151536, -0.03484873026476499, -0.0004592937044734911, 0.044478824615061106, 0.03475580650599266, 0.05941208015561944, -0.02289505197836835, -0.024790578821943854, -0.040533090977554934, -0.02554237776264293, 0.029127262605333982, 0.009532414452486163, -0.021958848492622748, -0.06275397442899106, 0.011592583149139796, -0.012264739471001195, 0.014342534618940158, -0.004413435360639881, -0.02096064365126595, 0.02174190406535887, -0.00783818315041519, 0.04287229389519652, 0.005478050939634662, -0.003237748350346446, -0.02296266225335069, -0.026582678262689684, -0.03579981564060707, 0.011052241919636604, 0.03169139109977271, -0.012155796616117666, -0.0018731018220302792, 