{"cost": "QuadraticCost", "sizes": [784, 100, 10], "biases": [[[-0.694924951502012], [0.811240429407349], [-0.32373720588249305], [-0.24423864418376146], [0.4075771509875572], [-0.37515784885409054], [-0.25803634940026215], [-1.003569896664271], [0.6385163625406518], [-2.0602015574835284], [1.0828097675049961], [0.9444688982872329], [-2.077078642843686], [0.5625642340201712], [-0.9341852957774647], [-0.9861014648350869], [-0.9016647948806367], [0.1632705751804682], [0.4186270290273428], [-0.22526923096385454], [0.422382424259892], [-0.8862195640970935], [-0.10313243302298566], [0.7127474355141562], [-0.7768300055270605], [1.4790495750032757], [1.0313318233425497], [2.6814016053619985], [-0.3251823775834626], [1.3758858256188478], [0.8171079717755039], [-0.9542544250155021], [0.13294442234795806], [0.6824273924594652], [-0.05253540932855628], [1.8792788064548136], [0.7459286309787162], [0.3120235590382258], [-0.24016373992360576], [-0.6345827457756315], [-0.054386682774840205], [1.0345133068527181], [-0.196287371239652], [-0.4852299680910704], [-2.00973621325374], [1.0268008478642645], [-0.08845585037511194], [0.8407478771340487], [0.5991178262482089], [0.9660082148618047], [-0.3282465974961186], [2.176241385873672], [-0.6366533316650406], [0.7931816344884305], [-0.6049927249599631], [-1.7803722054037778], [0.2953160513953857], [0.3104225561827075], [0.4718673474349618], [-0.2158017951396041], [-0.5803203140532848], [2.7207908464472514], [0.5171326603223293], [-0.7072177565468736], [0.07684107043265524], [0.08424961446668104], [1.4146442278755873], [-2.472876119996373], [0.7858082998947589], [0.44727902862312574], [-1.047089827272143], [0.7754385418553613], [0.32582471822185854], [-0.7129681194792648], [0.9429796467209446], [-0.1962468679867301], [-0.7238518201251464], [0.09306728860146594], [-1.7005937378080989], [0.4280006792101954], [-1.670067508852066], [0.20699479469368182], [-0.7650108046044157], [-0.4668029578691583], [-0.21603335838104498], [-0.4359472509313147], [-0.395603345944425], [-2.091528006132976], [-0.9880868965458515], [-1.1860875514606033], [-0.36050916747829453], [-0.4470145184517647], [0.1320578189909595], [-0.9286536315664528], [1.4023390351220497], [-2.4260102969259467], [-0.12743055619552637], [1.6610362159282306], [-0.38053973514053635], [0.45986747879726675]], [[-1.5453554922022237], [-1.6007744497516674], [-1.9084483465536235], [0.1551845320543176], [-0.26841504907404423], [-3.54588880915762], [1.0588131247306634], [0.5604386618018802], [0.3887231476011792], [-2.6409832414601104]]], "weights": [[[0.837124567167797, 0.4349959407534926, -0.002782688054175707, 0.9166072931753699, 1.5318046874891533, -0.4151220471086403, -3.5809462480972516, 0.6724928341856001, -0.1001433859179866, -1.762274607064455, -0.9392187689242552, 0.7250380685639908, 0.8421773739498157, -0.27534245537810725, -3.3477249276078815, 0.1925405221027644, -0.29212724810289153, 1.011785723182029, 0.9062136622508703, -0.22071534603965856, 0.19101001350855776, 1.1131634758595699, -1.6330366131172516, 0.7778703221772177, 1.503837073829105, -0.282972565538432, -0.04757061760274502, 1.2384040967252874, -1.9516290180580413, 0.3720919429133847, -1.2944147686827518, -0.7474238111766207, 0.4704419418044997, 0.07891239536622191, 0.22774295317450222, 0.6012254863668272, 0.6056586086888982, 1.7257769346915706, -0.7909113532381733, 1.12267495450712, 0.15453355813929062, 0.5699550207701051, -0.6248786562017119, 1.0350801736721156, -0.677970116638242, 0.28229467934164004, -0.5449780670227132, -0.9461516756789791, -0.15835836896295613, -2.255111265044751, -0.2306511157409941, 2.1253425877003504, -0.40349780771172405, -0.1415916163876294, -1.129342347640065, 1.9252007724581863, 0.2052187734028648, 0.2675796025951353, -0.7961780907363925, -1.9596431177479754, 0.2891118221227818, 1.5002368704834463, 1.1809633105031065, 0.1677649045446935, 0.8869828058337687, -0.31427831500674697, 0.43293192610970577, -1.2285981234965635, 1.705464236825681, -0.348639032250283, -0.2020975064178635, -0.18323338978124232, 1.5302714391832963, 0.6459099875372487, 0.0025997937335488163, 0.6126841658593535, 0.07402641492125356, -1.1179661067530007, 0.5374025284280057, 1.165091486042393, -1.4343349050608682, 1.3270964684089286, -0.3116818326297037, -0.14252056016532486, -0.3461510813068797, -0.08169657580826215, -0.4490154997404881, 1.4375853858223164, -1.0286677416603973, 0.5572116416128493, 0.4700057106249974, 0.9323995575517559, 0.11081901217389935, -0.01942138420406922, -0.8298096365402259, -0.30263536920375345, -1.089138916469818, -0.1011161720925222, 1.5511362936155215, -1.4425301886304454, 0.5352993469594954, -1.2056485273715842, 0.6615244306269976, 1.710416358652457, -0.6550204990617862, -0.2325671264564281, 0.2901870342619965, -0.23888228149180848, 1.2994778016896305, -0.4733466788934505, -0.05983233671304746, 1.422105336735139, -0.12794869918440147, 0.38287710008923165, 0.018939452533899195, -0.3205813076797692, -0.19578577977010067, -0.40131768488713004, -1.145210830517049, 1.8293105669820113, 0.4407433830108016, -0.7800645850020569, -1.0386084090461558, 1.0707208532640264, 2.6983784650407796, -1.2960711603150126, -1.36584470070909, 1.7340448292366468, 1.1881167375151889, 1.4145483503332452, -0.9766036103725795, 0.08963283130027307, 0.12003000874040491, 1.372638093172032, -1.0336406521033754, -1.3257800031567244, -2.472393790484287, 1.4110041656654295, 0.9300186601095829, 0.13179566612273355, -0.23572522703707327, -0.9993407135971897, -0.1275119534563183, 0.21006027419668966, -1.0803172979778048, -2.605680550047233, -0.2842539047223538, -0.14814172930238623, -0.19848552361061858, 1.1692471880338309, -0.6081243291502525, 1.002939198595058, -1.8482031821539588, -0.3442679472731983, 0.772009541812269, -0.9982329282004949, -1.0236902483780317, 0.5188830293510085, -1.300383162626655, 0.5442513241318332, -0.4070305251255061, 2.0263371078518966, -0.36806155259627676, -0.6667465453903678, -0.41387282683524496, -1.3845089015901535, -0.906635189135018, 0.3855119743075868, 1.427684764610712, -1.6707203409778697, -0.418537805748294, 0.7282920089373499, 0.22233144441963357, 0.8687766335467013, -0.9690304036439931, -0.4556860937984983, -0.7421975595230037, -0.7620599049446375, -0.42129862179117444, -0.8546975176476003, -1.7659450453062764, 2.7023854086442043, -1.3107376537554174, -0.49596184978782715, 1.993019536461727, 1.7337833230583561, -1.1424150286747585, 0.00852260145981784, -0.16161055107551708, -0.7825637313697331, -0.38554602113893444, 1.677267280269218, 0.09704536088466788, -0.8249397850531303, 0.7800933229037239, -1.819620092536234, 1.8716763148457867, 0.7977136878978706, 0.31701989544636505, -1.4039105739466438, 0.3149632261527485, -1.7733153640969437, 2.381946207165913, -0.7879304851100565, 0.8701422886225677, 1.9860771196172016, 0.768798711500361, -0.2620584705188426, -0.5517872906213159, -0.7412194473508724, -1.4097377117602032, -1.9519518922303574, 0.4799954241271817, 0.17195861696035092, 2.052452630051436, 1.697454770763043, 0.062030734207202794, -0.12146156747169135, -1.2100067885357404, -0.7996724577474658, -0.19902197414814055, 0.14502921239222719, -0.6036748031631552, 0.7635332050314738, -0.7885366234328165, 0.06408610602578332, 0.4388687820011352, 1.1849359563743078, -1.2915121530402114, 0.396832833729955, 1.909490767932582, -0.8535225289087023, 0.49449299975764976, -1.1924287385212, 0.8254358884632849, -0.579781240728732, 1.4417250334254816, 0.9776241710252169, -1.042007691199562, 0.9053362034577951, 0.9129025426812053, -0.937604199928901, 0.0961586112118095, 2.0648727774960434, 1.6853528082796472, -2.1688287762987115, 0.34277046456696286, 0.20573593928433093, 1.3288610307628375, 1.8309967380163683, 0.8387711099094828, -1.8992708721838083, -0.4655321853949154, -0.7080345830961782, -1.1208061446846729, -0.41694961499117916, -0.5543378277598769, -0.753492053655611, -0.7441754503433372, 0.12245489400215752, 0.3319111460954283, -1.2477557708288678, -1.612574854771471, -1.0044233908483584, -0.16487150603931328, -0.05653805631025738, 0.3615274191359399, 1.033220611720132, 1.0002099616171036, 0.4847335304149206, 1.420264579644196, 0.6428699292537438, -0.2802478109130962, 1.3134980866449104, -0.839265470005888, 1.3244467050544433, 1.0088831087913903, 0.4671182948652785, -0.004371514585310505, 0.0051969010281872185, -0.2649031641342868, -0.6397677375401457, 0.43975705444830826, -1.3245789025693657, 0.672348291019932, 1.1100487851317944, -0.16764965223440279, -0.27694417853055575, -1.2737332684806653, -0.02152534713323515, 1.5275552049187697, 1.8072808440359385, -0.5733981156078402, -0.7788638179352464, 0.6007527974055157, 1.2537487691534537, 1.2060745819958607, 0.21557206173827073, 0.11739658508111765, 0.7305975981063821, 0.315662171269542, -0.35001013454019275, 0.358176235309482, 1.1013754458329172, 0.44356346176810607, 0.24593096548384016, -2.2152681407725003, 0.7886693086435126, 0.42137272945137577, -0.9647922767159921, -1.3830591888611965, 1.0142108073700253, -2.433708453293042, 0.7266482568988437, -0.24937656965988353, 1.3742659543076086, -0.9583834436933436, -0.6602413783076891, 0.437475973855889, 0.012599804117399567, -1.2042792013388868, 0.34163253700633867, -1.2766417875471288, 0.25509183128706703, -0.9649632132224361, 0.6419683819440144, 1.7907394342725989, 0.9066484754915246, -0.0580648401813279, -0.1609837021369591, -0.3556110795169856, -0.4908867219675742, 0.1685809593380702, -0.927420724721759, -0.139468652310487, 1.0898110109868955, 0.09983307999379863, -1.2363986820849668, -1.5620308476333853, 0.9613134095665397, -0.4624155057257321, -0.9035673825342535, 0.870677301338046, 0.719261156365451, -1.508318931177849, -0.7277853244005604, -0.8531000297015591, 1.1007371010674736, 0.3185965148944261, -0.2802984494614181, -0.8496420042268185, -2.067345587389674, 0.4110879609203516, -1.5496587566884947, 0.5244666890575037, -0.29199122477385697, 1.2304943154357735, 1.2824698696185661, 0.9786161747938359, 1.254875880406904, 0.19026725452427193, -1.5879418933369964, 0.6299919191640707, 0.42621817783957744, 1.4981894822246047, -0.13130724000628766, -1.1885671951676395, -0.9738982945837487, 0.8365223594313345, 0.024996363908681023, -0.4011857184448907, 1.166313772681846, -0.32082596634328636, 0.12470890641891426, -0.35945874109998477, 0.346468363597881, -1.2922923220741238, -0.4216828779591884, -0.06167722799523375, -0.0028469772271563208, -0.16618388580014304, -0.7233717857372209, -0.6962728016567927, 0.43228063688820906, -1.007913622439652, -0.752948069021697, -1.1093078852774554, -1.4455562153207175, 0.43741837629439395, 1.367221751328308, -0.2595344709205098, 0.17588953111450273, -0.4134631244648902, 0.14576426304434678, 1.1585008762270232, -1.863001379335472, -0.9102777621128284, -0.9041972566757289, -0.4250963052853797, 0.8214687175266006, -1.227195220666606, -1.990544453366124, 0.03377351583840953, -1.0775422725311021, 0.23960253320406236, 0.46250275583720735, 0.9465880463444636, 0.22513356870924833, -0.10943094625846367, 0.833862644784957, 0.7656594445699633, 0.6506725530186256, -0.7043619993695883, 2.433366147137638, -0.5267376974894483, -0.3763710969687713, -0.4523525567187158, 1.1654299841374478, -1.746567238754851, -0.4665388362583753, 1.1413496156882572, 0.009003479784175374, 0.5877333750786276, -1.575881186164111, 0.2073534831546053, -1.0409720937550995, -0.4336907330640011, 0.5718397929991372, -0.8446436170480005, 0.26675045158688093, 1.7510733597286854, 0.8871364650043355, -0.14820978930288908, 0.11635348065728884, 0.25942431753285083, 0.866361577397498, 0.2515791948784979, -0.06309003859028664, 0.04931199886939473, 0.918064747956943, -0.5269923725235715, -1.0972094046728282, -0.3718283623569542, 0.7605694016298318, -0.06906510440756548, -0.5302457462985959, -1.7316980686843007, -0.4914008759325063, -0.7239607710370816, 0.916387487868466, -0.11184655415431637, -0.49622216466642194, -0.34983982658960444, -0.8420228084977208, -0.273364593180594, 0.737410462708716, 0.44108007314734304, -0.7187026958888657, 1.5572649488200427, -0.5494487980345922, -1.3120702508668267, -0.9381422292416484, 1.5519601374593799, 1.1863035428581474, 1.1519021875234232, 0.969266090133157, 0.13562401954752384, 0.0614403735859817, 1.5810302651279156, -0.6460666563241583, 0.6088565899058523, -1.0427816873350595, -1.4092047305755226, -0.8401790451099909, -0.40405731970560055, -1.8659448908487946, -0.05698197568927939, -0.02670663754771646, -0.4144780755437216, -0.5667750062615278, -0.24556625678716565, 0.9086598576577731, -0.5116694723911955, 0.3379598367689968, 0.36934727839709897, 0.0886191491153122, -0.9574100223351978, -0.496698997440934, -0.6130797406582695, -2.150153482856782, 1.5247749868142795, 0.08260200290699846, 0.8269075372015477, -0.8005003234500264, -0.08820271744473374, 0.6264017060342355, -0.28954581872808927, -0.5925915167199048, 1.2173798324524514, -0.3467627731429216, -1.017023049823451, -2.062565235615492, -1.6472157939380492, 0.7368114238651322, 1.1275883938976796, -0.35449765877103834, 0.7355194281676486, -0.4741089322581278, 0.32181622267726606, 0.4185406161939195, 1.5068848353811544, 0.08002489986729105, -1.8419663090625216, -0.16195204639132743, 1.6598235056640174, 0.4811113872186848, 1.5672240929453625, 0.746576941929074, 0.8768408541394139, -0.24955379492444563, -0.1621033296269927, -0.16755869114653427, -1.307971903265847, -1.1263292632498105, 0.5896238884961191, 1.1606713590241449, 2.4045953100036903, -1.0949808997347075, -1.1531895723544725, -1.2588605775152164, 0.7000373640606579, 0.11525653781064418, 1.339596653576892, 0.4206211546759817, -0.2008395465087505, 0.4152180351773441, 2.231018658559613, -0.9263231973867296, -1.6581837026447432, -0.6402015030154562, -0.6805842735060523, 0.30416799266405226, 1.8514863447190624, 0.3541567178802658, -0.6221760301860996, -1.0552362354419944, 0.48062724860142975, 0.17323651387368305, 0.27951533010874297, 1.2417842935668002, -0.7505868647032664, -0.8078394411368183, -0.1090292778556313, -0.2690637927225668, -1.1716548926628514, 0.5759519568750102, -1.3735822607732309, 0.2593309681589352, -1.280496753482043, 0.9423316137417204, -1.1376041709239515, 1.672370197146763, 0.9724821895984369, 1.3576570412977285, 0.7389600568366123, 0.6845760887385427, 0.2733922658756105, 0.6437114952137207, -0.39252845994172375, 0.12235002007445553, 0.5400759292074647, -1.0751905633445438, 0.16412229211677076, -0.5571324183776911, -0.8752815383051054, 0.29440925660072476, 0.36144686206664106, 1.4424219001948888, 0.2060767540245656, 0.6605590731647824, 0.9835646319977415, 1.787729536470426, 1.1391436923638951, 0.36284617852702666, -0.8088146319930343, 0.3150419200726309, -0.21353946847075025, -0.6054265881237164, -0.9317454386091162, -0.2887291865456891, -0.9791885833756836, -0.433860627771313, 2.89243234272547, -0.9512251588345775, 0.2433158194779808, -1.7902725521814296, 0.1692867867011726, -0.8818865277603245, -0.34252727041052616, -0.22281364520334387, 0.23043270267957022, -1.2321872512751388, 0.2511130767877765, 0.4998364565697682, 0.21192778150925493, -0.04802256053171821, -0.48914287213494356, 0.43745452695809595, -0.024530934085134702, -0.8155920040403059, -0.9318802981044401, -0.785555097323393, 1.4729113599926378, 1.01448506198085, -1.2721813264550146, -1.3570060424943025, 2.1984225745883728, 1.4954511460009188, -1.388411789342196, 0.6029626559713698, -0.9201274619773733, 1.2251864263803482, -0.1635335326616011, 1.4461737561402233, 0.07087480030573515, 1.7717688445829824, -0.0010864606453231877, -0.2033928719422726, 1.6931215247065579, -1.370881225638577, 1.7027457027525736, 0.18600583681648078, -0.2546942889433268, 1.3019355990272277, -0.18470073276265095, -2.182716120048729, -0.454514445691594, -0.25931275911813645, -0.575362527414719, -0.6398137564491935, -1.8600198896328255, -0.22795019676938968, -1.701533729271791, -0.2022747675974547, -1.0066378320423233, 1.6336745973596594, -0.08213155046663904, -1.466431589155488, 3.147369700609083, 0.0727629655527209, 0.5697362486708736, 0.0624535139237597, -1.1267391613525313, -0.08756428347460407, -0.023420701230875914, -1.897661386886349, -0.11049295113383731, -0.12800152090232053, 0.9320328414087983, 0.1192904623650748, -0.25659298835145666, -0.43324158573627325, 0.9531602362449354, -0.668162800866589, 2.6025829380717624, 1.3325855782414149, 0.4123609434074243, -0.37688201569245455, 1.056294925263004, -1.2014286984925422, 1.4894326789244547, -0.5275373876156588, 1.126505366705141, -0.04018918475944996, 0.12868939262361298, 0.6636561148915535, -0.6336972258232155, 0.2618408588809621, 1.8470360307957443, 0.4360037320161974, -1.866666354184366, 1.0357118265502627, 1.307515790966253, 0.5583050654997864, -0.428687857721289, 1.7051987043314907, -0.6738894773736211, -0.9061503904598077, -0.399357426804009, -0.455274538547112, -1.013238449647447, 0.8227604856135523, -0.7072401935157885, 0.2825615935922883, 0.3863336222716908, 1.3743340116285259, 1.083638213456131, 0.5259417410099729, 0.9039341705275128, 1.3714920021240338, -2.7766269309509704, -0.15442495907191187, 0.027567957503179488, 1.1720526834091796, -2.0735320030524766, -0.39939444407119123, -0.8849834359542821, 0.28879763752346693, -0.1798247310628492, 1.5159744481179216, 1.5227561176512736, -0.6719053231567156, -0.9038502931074607, 1.800068950822001, 3.236138690648455, 0.7370183252401369, -1.1627426166141799, -0.7373019399927073, 0.001834808017058667, 1.16662355368684, 0.015551891204821524, 0.2868146704443915, -0.1137804825752011, 0.5678268722272082, 0.6422410146528058, 1.4710330249488555, 0.20676794796413075, -0.34678900322301476, 0.2284690818141638, 0.6924426882521535, -1.9776225204456974, -0.0006933139723389325, -0.31859844435411827, -0.060027403432333364, -1.9003269783523091, 0.577025877139385, 1.6673311168765206, 1.077704340077675, -1.0327340299711825, -0.14712991446551332, 0.33084179122662716, -1.2037631836587683, 0.13649895520868074, 1.5875007747574725, -1.5295829489071109, -1.7209301019693939, 1.5353870739099869, 0.6148894371562469, 0.34267453838840034, -1.0709858064635993, 0.4627323853653266, 2.494186664922677, -0.20764525099271203, -1.2694652705463656, 0.9180472665151824, 1.4369309748559957, -0.9520285638673904, -1.1426032507220651, -0.7716120540758272, -0.16783183566772478, -1.1652292196816059, 0.5935711007108023, -1.525871171286855, 0.4025253793492754, 1.49483095154495, 0.4299083285327715, -0.9604394850375481, 0.18058977941359244, -0.39053436989951645, 0.11947402054982764, -1.2936176017312098, 1.1593787929665473, 0.9387051045678351, -0.22950017721877136, -0.012506642023553352, 0.4049809083175032, -0.6155536855345622, 0.05021299458492409, 1.3086389911023035, -0.9176049815666307, 0.3714462639691705, 0.9514195204523854, 0.7194639004467023, -0.13032334235959528], [-0.7409615085625189, 1.5814954039996183, -1.7987241137324543, 1.5843992728023735, 1.1115128544947768, 1.89159145218365, -0.21101899928062504, 0.3869698172396871, 0.3733909890102912, 0.09481719378076875, 0.14095446086831573, -0.2735648231469315, -1.0226121114666369, -0.14761195676045313, -0.023195479479421768, 0.6807401009939491, -0.5555642992586575, 1.2620837562501637, -0.32420802299218615, 0.3218746401992512, 2.330862806897134, -0.06132568270353554, 1.8010073922460241, -0.7014267632547834, -1.4437995830958006, -0.21840519471306233, -0.676856763124679, 1.6309886582786375, 0.313089612673956, 0.8432855324397357, -0.3701838628613856, 1.964661529012296, -0.8622939007058169, -1.9033527553668017, -1.1843010853585647, -0.7042920688841157, 2.27642431884772, 0.2559566945518334, -0.8981411402181447, 1.5624405464040099, 0.438771713662247, -1.2053063613690433, 0.1380770082204791, -0.03770928883875848, 0.5190249201086249, 0.3299806493201243, -0.32870326343177947, 0.06866349458334717, -0.3879915552474841, 0.1048023388809233, 0.8047205159682684, 0.9715888741547756, 0.4454035999090504, 2.213250048920974, -0.40714207753387405, 0.5577591639526702, -1.2433418334336095, 0.626720350639432, 0.7296231762613082, 1.4313368455686022, 0.8834785638414984, 0.658591845364319, 0.38481910130027147, 0.44160314360638975, -1.111194389445594, -2.1314631683037653, 0.9240667979058972, 0.42406066967337386, -0.28422689899246006, 0.20529372651178934, -0.7277023382597367, 0.4770641443812351, 1.5897724819191001, -0.21720631903892176, 0.1994278378784902, -0.5088225603139724, -0.34849586908026814, 1.1948837965381993, -0.23051118814044566, -0.44370263450935105, 3.289396508956343, -1.030812815480291, -0.18143575644561108, -0.27725920344811494, -0.019956244910503157, 1.0783097042367187, 0.36851052131480927, 0.15349627629574364, -1.8529248709778317, -1.3513408223120393, -0.6430432073464912, 0.6710488016733644, 1.3120394471687935, 1.2418500057094, 2.453178766883834, -1.3640418796222002, 0.08757116935405039, -0.8644458089214856, 0.8907012773748282, -0.3117699968933331, 0.387272907455916, 0.5865608440662655, -1.3299633540866203, -0.2126617622350425, 0.30966016956696313, 1.114892704113097, -0.19365763918198087, 0.9165255333493006, -0.7098607170346775, 0.004214472281578198, -1.0784233372495287, 0.4819652505065072, 0.8406043026241846, -1.131064328903554, 0.4512703675144086, -0.4979938686056128, -1.1180243529993612, -1.140202858071357, -1.7326728353470415, 1.1925324130404091, -0.7136102027542417, 0.742838041489096, 0.5239374486559779, -0.48585914404476144, -0.8022641642726769, 1.2864426665322473, 0.14514388358984986, -1.0292168393830885, -0.11797115500223257, -0.05052589711174295, -0.6217636794772228, 0.8597275067553358, -0.36901012689121526, -0.6028360752160655, 1.372517900094832, -0.43364299475279716, -0.642027707307161, 1.144654354580119, 0.5238811488224471, 0.04416032424313547, -0.042722290853475516, -1.6180045714930014, -0.5986048230688367, 1.8022655903653853, -1.0796492632610777, -1.8488698732064537, -0.5694130032507939, -0.5325483464375971, -0.5504672540229767, 0.09518000989495025, 1.521826128858716, -0.09229971364134987, -1.023481517545445, -0.15339611914781953, -1.1475367451818053, -1.1740991648409147, 1.2678149679087265, 0.5455242416774274, 0.3966403722210152, -2.105237708688994, -0.35109984575203074, 0.9503934941974204, 1.7706746659863077, -0.6920137615761535, -1.045909782663676, 0.4721457552378676, -1.0195769757939233, -0.4745772394333297, 2.3012947837932867, 0.6116535531332202, 0.8853662701894308, 0.512493972438971, 0.06299759330178578, -0.7912926269845831, -0.07400154951137027, -0.45655314537885705, 0.18717073942079998, 0.6164874672908286, -0.648369983309689, -1.7501795570353955, 0.6189866882546344, -0.40067999968282486, 2.854565099697714, -1.0961240890208022, 2.255472913069873, 1.1515374845774244, -0.18438140876869719, 0.838454202495995, -1.592392824990163, -0.572272527741581, -0.7028655765230799, 0.9810188206593904, 1.0960299961277806, 0.21811057742119022, 0.3073346882873651, -0.6111138010758355, 0.5106839888638922, -1.3166187526853133, -1.2498963983418474, -1.309263648304355, -0.5983799400281782, -0.06419889094652932, 0.3706786993258591, 1.0927454291948335, -0.49465005326802775, -1.299413668159004, 0.5896199662018959, -0.3208836096662798, -0.6104730487184927, 0.5753825370408449, 2.3502970157406002, -0.2137088236587151, 0.30994904146982827, 1.7993336697188325, -0.3085076167618032, 0.5828073235238819, 0.009383085799102313, -0.17990025538633853, -0.9865265110645773, -0.13103349745250986, -0.3598122959374372, 0.4719753507581051, -0.8622458867117294, 2.218007757293899, 0.8253597728779555, 0.8918160688359152, -0.82105488521656, 0.17844911920920298, 0.1628636484675175, 1.8201806505478093, 0.8951162957045408, -0.14580309846080333, -0.14006457592830607, 0.3141380491179123, 1.5286503400140727, 1.1675977447820043, -0.3980128631603419, 0.5300250469784783, -1.9460539239630255, 1.5249996880818315, 1.6893686979684268, -2.189837109888701, 1.06092559633652, 1.0213288384289156, -1.3297822299278923, -1.3492503970776901, 1.1371252966297583, -0.39096254988456686, 1.3054917734821754, -0.7714941788268344, 0.7802396302525093, 0.6543761883820515, 0.485589705932445, -0.3961236043854711, 1.5141039545246526, -0.36055264602189246, 0.7078089410314411, -0.09193264397608952, 0.962269195636276, 0.9515752655042466, -0.03708596687035859, 1.7503503911424916, 0.3155032153315497, 0.03947166072634288, 0.6162366431613179, 0.302919767314496, 0.3111278726283108, 1.869559727662475, 0.18152368565547838, -0.6925898652378405, -0.0546173072087438, 0.9445140357996089, -0.34289926774598917, -0.8574111354146867, -1.5157902657431728, -0.06474231523231189, 1.0242357247425504, -1.3041829898180295, -0.8717285151109125, -1.668219571776571, 0.3835261879997979, -0.539891958928598, 1.7911429910296446, -0.06182040703797738, -0.543717035438864, -1.042805591021576, -0.5755460746374259, 0.30065928289060057, 0.6662138255304428, 0.6405674962117152, -0.008636338488597428, -0.2707335377318228, -0.951887103556786, -1.4568056907492721, 0.6432730555414655, -0.14815990716488847, -1.3735294235083002, 1.6647124420545802, 0.4516624793666569, 1.3052359084766418, 0.6972282102642471, -0.2597993177671655, -0.668852935151499, -0.7749235966281944, -0.13716764952382524, -0.013816898280832648, -0.5278178090872211, -0.24054900938068707, 1.145235017205864, 0.06311356055327239, -0.5164372224756608, 1.553563450566773, 0.39433398335258435, -0.7085175853280709, 0.1043910568958489, 0.32168312508108476, 1.1342110184888157, 1.6725035327110604, 0.9942362502280178, -1.4650817377078227, 0.900143769187682, -0.353854063854808, -0.5276148084539516, 0.31907088217996327, -1.419052296760579, -0.6677979188324774, -0.47749906980652185, -0.31634682080587806, 1.4380988160623949, -0.862827907158737, 0.2811420114225197, 1.3488614164667827, -0.35243551830589387, 0.2912971970965772, 0.8526198424043843, -0.4844532193728493, -1.5511019398749204, 2.1972507977724436, 0.6077742406351326, -0.483379964816155, 0.12822599769441906, -1.049014007572676, 0.42470286125784545, 1.1266331301342625, -0.11597552561372167, -0.876794679221547, -1.633405428899305, 0.15995056271599278, 0.015892596505199905, -0.030902843898626877, -0.19539756645293618, 1.843606622459548, -0.5780322063051757, -0.5236987885272859, -0.6487792634800598, 0.19981061703053393, -1.9024469615144208, -0.728567536844494, 1.91524367908154, 0.8561030277899131, 0.10770357085461038, -0.7670532907503782, 0.1130009108118044, -0.004792597119269768, 1.4000865060074585, -0.7262286869367351, 0.07300957457797756, -0.73614482702842, -1.2228075590977467, -0.38055883228994714, -0.3142861015135692, 0.34344652910748097, 1.0657994665423025, -1.5014654090833188, 0.619793755050774, 0.4079134960628095, 2.303459718621625, -0.655450617592004, 0.30082269038784426, -0.8081678541689153, -0.6621184046072899, 1.8505612090193448, -0.691435469246421, 0.837101865778723, 1.072028015794503, 0.025121282313163757, -0.16501953674204642, -0.27407259392992966, -0.2919841140043556, -0.13700997583470506, -0.07481911042124134, -1.876752696555747, -1.5441879627456945, 0.8971193602041941, -0.035445446051609555, 0.16304346485615157, 0.7859037081738651, -0.008205930165465523, 1.3562913912275265, -1.774926524256776, 1.6430140735213972, -1.4148416620846187, -1.8802595349895064, 0.623086217926196, 0.3279572949146565, 0.4076276390462748, 0.5278427346597327, 0.5499035015732694, 0.4756865464342179, 0.6605985864011764, -0.557907879747109, 0.2684216989502265, -0.1756390516206041, -1.5617104772565098, 1.9046832913323966, -0.7384724827211829, 1.5532743223632037, 0.6607252197163158, 0.7506686009946741, 0.5909928585047549, 0.46044141929193155, -0.7236642317881165, 0.04611313011441456, 0.3179329955790906, 1.0804724612349177, 0.5857940351439188, 0.36268661743619635, 2.6555665901377834, 2.485621231656804, -0.1290018972391192, -0.49765069408461404, -1.803966275881847, 2.597977548820751, -0.7261861045534818, -0.5605203889972267, 0.23579203862083112, 1.2921943615599678, -1.9615301503680376, 0.6812445136324506, 1.4822309552541355, -1.5609861592147056, -1.1440778594487595, -1.255857930027174, 0.3769981426617012, 0.18099942610078465, 0.9974272977462609, -0.20767773094223926, -1.7068242311432071, 1.7562620161227065, 0.17934705893094366, -0.21903996073104956, 0.06280388754889281, -0.2094700058483095, -0.4741551295986895, -0.5617754686714519, 0.5627156181301015, 0.9811609830329403, 0.8239418449241712, -0.12107256256365012, 1.04177412917688, -0.05041749768756074, -0.1364688018960995, -0.07558945697160538, 0.8835782039736724, 1.6234016380960834, 0.6711896119659682, -2.1832045252254835, 1.0592657016826743, -0.5821267650475782, 0.9144053560995687, -0.588832941637347, 0.6965419743075109, -0.809203030190079, 0.9477097198449159, 0.5953140644853726, -0.454147222962843, -1.5668598147105255, -0.17437535810304253, -0.14466840517201882, 0.5409360196258085, -1.562270894776158, -0.19117010966048417, -0.7907251256686918, 1.3222103921970496, 1.5316987760892469, 0.03544696881420051, 0.26503316886547956, -0.41592890273970273, 0.5646234957090808, -1.1967750009909675, -0.45278699391867183, -0.68282159777056, -0.1327980028015382, 1.1531775700019598, -0.8014752818144459, -1.988581162168781, 0.11115616589390906, -0.44267930939770694, 0.3913352626519045, 1.1134749612060548, 0.738858819093556, 0.012935170446056073, -0.8661312294477278, 1.9276063428379056, -0.6667719517171761, -1.8549514128708118, 0.31012658186085085, 0.876007541163978, -1.2663760189362143, -0.4749615008637882, -0.7994876862003818, -0.2687475429862102, 1.9432442353568748, 1.7251959258732368, 0.6402094425521029, 0.24639539527245333, 1.4505690196277943, 0.43378588963790893, 1.0557292959264217, 0.7082278292704741, -2.0438808016199257, 0.8045081680346663, -0.2241050491706113, 0.8038444007008512, 1.2581790356364946, -0.10721386706976044, 0.9079815340047097, 0.2223625961937847, -0.9241069580012045, 0.1764416925402539, 0.5880397749348558, 0.7240928550041495, 2.0783921566158967, 0.9510571739651789, 0.29582307093459137, -0.6165610367177644, 0.4808812539317602, 0.5642912741189579, -0.8488116854880045, 1.9618320033481007, 0.28778789714391434, 0.7029122902317722, -0.14957429361002722, -0.11982741030200604, -1.3764544894177608, -1.1936295632551004, 0.7100284861912814, -0.5242359431707646, 0.09454913812189143, -1.8904847489025223, 1.1463502143829885, 0.21226776365740055, -0.17857197701709368, -0.5296488070984827, 0.8506268918686083, 0.6220201913226115, -0.7579026526185659, -0.027418122591996552, 1.1852470645436055, -1.1868412844882599, -1.0630330971363406, -1.313944599178473, -0.0009279321335522935, -0.5783327404326618, 1.1051697117555626, 0.4188755756572469, 0.23839728534796736, -0.4868104346779316, -0.4629980657848219, 2.3327310523197675, -2.4415412338399594, 1.0503272728563162, 0.24768022821877594, 0.08849627351701586, 1.3642979958315926, 0.3278332201918561, -0.2792623416087927, 0.43624062849817685, 0.43677968102069786, -0.33626029418586895, -1.0960159480313771, 0.3557614432069622, 0.3239859647915454, -0.5538902047880986, 0.5312379322416438, 0.7229100071434027, -1.7560741733547889, -0.8659396366731342, -0.588612629007995, 0.9206334957506815, 0.4138836261483702, -0.3423221313633211, 0.8841176807456856, 2.8899844437516253, -0.5941465146644858, -2.4917181949051668, 0.5304683829361019, 0.052165372450624053, 0.5998463109207117, 1.2153922146640797, 1.2663024743934916, 0.9691458927705783, 0.609500415599397, 0.005976288088274524, 1.5103203549721715, 0.7157902640426203, 0.07326495013629984, -2.088029981243015, 0.4459719129745643, -1.4062034976288282, -0.012542541341527066, 0.4968602728338968, -0.6852234939149684, -0.7587043487954748, 0.8880192739812851, 2.4352083650104674, 0.21860300006342534, -0.058434555636043876, 1.0672177510785656, -0.5127741956346216, -0.6922096008911329, -0.03098100462823134, 1.1010813325812343, -0.5037464333030003, -0.9521012858297551, 0.5234574759051271, -0.8729790464469135, -1.0465644005844166, -1.5507766027520746, 0.41894410112748887, -0.2507968403223665, 0.6717529972805786, -0.5964987944037351, 0.8149914546247107, -1.585699575941506, -0.6453966826018009, 0.9697489043259767, 0.19984739521252778, -0.2420933142253083, 0.6148261938543864, 0.050317843177352106, 0.6060546838327342, 0.9804301752911597, 0.12370439512925423, -0.8715232260384799, -0.22159052436136029, -0.7671475947678247, -0.3008894543344632, 0.4899940834128114, 0.042501676554601256, -0.8979613721085286, -0.28603771188107013, -1.55081420172857, -1.1107357760187508, 0.10519351725839411, 0.589611022471944, 0.26011105445641225, 2.4717004318284563, -0.9518242841052967, -1.0320604122514363, -0.37253907279124676, -0.5188763572447347, 0.8519308042729623, 0.28524184573260836, -1.6302133161408847, -1.0182621081003684, -0.32675080588365635, -0.11104327828120435, 0.5924107881731951, 0.07017636419349581, -0.6924917147591244, 0.06429795958828198, 1.0307502793477161, -0.5652736624741347, 0.8348295910878637, 0.5991628556240154, 0.7719394684192427, 0.5533816733627833, 1.5660869717974226, -0.042145464532806994, 1.252486015234084, -0.4598906818348241, -0.6292135690675565, -0.41979896083175017, 0.6759645318102823, 0.030915107887399467, -2.004817776126164, -0.7126795285789909, -0.09818089297080487, -1.5489507051449551, -0.6747568257695056, -0.38163381877052266, 1.9829403736385143, -0.7544258185133227, 0.294263343993649, 0.8997443414292121, 0.5028290152647839, -0.7181551885308334, 0.878241715727783, -0.9897766449874308, -1.1164738699832528, -0.7374670931983671, 1.3713346240021869, 1.630363293170478, -0.32122813988449567, -0.15335390094078757, 0.8143775409882053, -0.47529631210091616, -0.26354290525260954, 1.0775613898724135, 0.024234423962138103, -0.41959850804808285, 0.15990563444951958, -1.605214776395696, 0.38165861225499725, -1.4057604642402555, 1.3414386819942747, 0.16856379312261544, -0.6262837961380194, -1.4078633506751879, -1.0053635927598585, 0.07081517786203494, 0.15065113738265193, -0.5098431723891634, 0.6311930933357877, 0.6816023859826735, 0.45915307406609446, -0.6750519540832676, 1.447223132441793, 0.9538163603087951, 0.12013137901225834, 0.48550421982178665, -1.634938529893679, 0.6554902880423608, 0.3491535083325821, -0.6622849466381077, -0.9639331071367127, 1.5419103019193392, -0.5770106171203653, 2.6094522527162156, 0.22513425207685211, 0.36021084667788755, -0.7102726100275313, -1.1287112907533703, 0.10951335721949554, -2.013028406731442, 0.31539250476129604, 0.6062556729892944, 2.4779519986724163, 1.785511891798265, 0.5683096060430473, 0.9734527250378502, 0.8950084855329601, -0.7846392889290298, 0.1925297180655787, -0.3866223788850397, -1.060436087087213, 0.9050057936044152, 0.6422615546718269, 1.171971003326747, -0.7097099816530167, -0.4698321297802697, 0.5422908600362167, 0.5504358579394264, -0.0279291948000014, 1.2118329956235456, -0.39854326948378294, -0.1859435119080093, -1.3345911546752784, 1.403263727365942, -0.14259415848118487, -0.2773573584230364, 0.1433443502830055, -0.2870650615089376, 0.6783446975875366, 0.7269594556772455, 0.26570868311730106, 2.6037385057538485, 1.4997286712468088, -1.6378136046428775, -0.2324627186850942, 0.41685880464749225, 1.5408419176880164, -0.370972964914483], [0.8919927387508326, -1.5161774726714554, 0.897124306931442, -0.6291841449474985, 1.0798551044202997, -0.8017014793635654, -0.8709916695572384, -0.4179520801178516, -0.4050807998672409, -0.29416355541151296, -1.7233146655291178, -1.8159341980089132, 0.24637429585146653, -1.8585401263170165, 0.6655307454702395, -0.04083484762719057, -0.5160626334388866, -1.565213645698521, -0.9831036054523995, -1.0726944811066348, -0.583553844882902, 1.725433759214892, 0.27880784873478087, -0.7860757058760618, -1.2258001165718428, 0.7202971258771342, 1.3453552423450437, 1.360592036871538, 0.23861775260505927, 0.6677764136472749, 1.381240696664681, 0.19621241224352934, -1.8171984457162327, -0.2931488106380253, 0.23278378805011313, 1.0214882649138521, -0.2823704847247152, -0.9690303788109637, 2.23027424716063, -0.22946392382761013, 1.6102612969933257, -3.0806593924190078, 0.9934825431097238, 1.1726838072837562, -0.8650308823119891, -1.6609255876726985, -1.4152626461641777, 0.18149927279691142, 1.3360871712609101, -1.265199056306908, -0.666075560321074, 0.4433871477892781, -0.4981559929432166, -2.0725007692969912, -0.5387933868387353, 1.370553914557149, -0.3476391706727948, -0.5908052640960383, -0.21027896218854317, -0.30410611949997235, 1.694540749515364, 0.7108995897089547, 1.5112160153305505, -1.4349950545995886, 0.7039909387123487, 0.6934397566313115, -0.6185264388796727, -0.3820248130090228, -0.3093339434055546, 0.956751411307887, 0.5288432206793056, 0.24069014361726765, 0.05758355526026821, -1.6899880822629192, -0.540812626774873, 0.444277982063944, 0.23384193824405908, -1.7617533926368936, 0.13418773030765369, -0.6563577280727971, -0.7475807369897556, 0.6589897489410705, 2.1126280888620363, 0.10310369707376184, -1.3653579221134093, 0.9128485904667647, 0.13866431419020872, -0.6317827445189224, 1.3762475807354728, 0.7231467051063337, 1.8427755585782648, 0.5159705328276729, -0.8708084133756699, -1.3987499568707276, -1.8976821633694523, 0.8166236258440447, -0.10498313115837259, -1.2645249375895475, 2.244610121978066, 1.159140974158431, 0.2548227126923466, 0.3916758063216446, -0.81441220739914, 1.379144348097806, -0.7582728095906915, -0.3486516216528142, 2.2067462467085406, 0.24411192774460833, 0.3780694041962427, -1.0148717571526595, -0.45649816838921936, 2.12169710396057, -0.30416331513287465, 0.8177511758100466, 1.469190680937796, 0.009578605758171377, -0.2428513043324976, -0.202373271973521, 0.7896005755112133, 1.4472163745681565, -0.5970403757632372, -1.0104127284319595, -0.022358971225959697, 1.3957427560277043, -0.3679747798663961, 2.151328904572322, 1.2236492904273124, -0.3850366541116206, 1.125318804036395, -0.07685991761865087, 0.054126423614390136, 0.2877944812919839, 0.06490926958307236, -0.035530244579654674, 0.35255209874276106, -0.22341027212100642, 0.6259121795996507, 1.5492170133527188, 1.3879607651955195, -0.33196931391830636, 0.687027056446803, -1.3467963439011534, -1.0795510710471656, -0.8710851296120006, -0.23341973565666088, 1.139737604598942, 2.383510737207356, -0.13162926894761293, 0.8106250318232981, -0.5390882938203156, 0.33833765039538405, -0.25193369677976807, -0.6374349695013048, -0.08205801061975214, -0.4148075786886921, -0.9742781719402552, -0.768395751227326, 0.46930679705432077, -0.25056765099192246, -0.17365484530520875, -0.4862420270878188, -0.701573641308769, 0.465402264548146, -2.81657191194635, -0.6703580337008206, -0.00929763218156199, 0.01765731129626547, -0.8485776516976334, -1.2180177248408706, 0.060915581480484, 0.23932027058630495, 0.8712701515609163, -0.8364146063144126, 0.5359710684852965, 0.7093879514006467, -0.23733225885460366, 1.5718428299287661, 1.3903320743038734, -2.4934255170226285, -0.668232969371624, -0.69567526731314, -0.20616685748457897, 0.9941625262230288, 1.496455528356835, 0.10015095117144435, -0.3632129013095189, -1.0840272818152963, 0.986838324412921, 0.10690456432012042, 0.9247232196646834, 1.2280538488280983, -0.4817127061538928, -0.3260896167166823, -0.05300951125969053, -0.878445232029005, 1.5446553343056706, -0.5489713615649907, 0.6399148606788297, 0.8384372792044453, -1.1886318886091827, -0.28790659856635537, 0.816560780622249, 1.1092932228709838, 1.6053535667285317, 1.1311981228051693, -0.22643812564382576, -0.49601568592671746, -0.08999423045608322, -1.7729801862907948, 0.7998415632318012, 2.9118792349870835, -1.1602858921667556, 0.36048998582795894, -0.11096127656164272, 1.3901610091216372, 0.27457473113337816, 0.8856905296940817, 0.988877094159302, -0.1578260791148346, 0.4435841884019169, -1.5350131303449595, 0.8635839487066679, -0.30386223287392966, 0.7374150678339948, -0.9192905572199221, 0.17049277751762898, 0.9617390880946873, -0.32775425344706965, -0.18823471822767876, -1.9574879967055046, 0.7203214180240217, 1.4975007551651565, -0.3574131531418932, -1.4775521737236899, 2.2256455202797065, -1.0667459973468292, 0.6855880211190771, 0.6044165726648997, -0.29185697828397916, -0.060628519260566525, 0.10830499943406784, -0.08744870679357235, 0.49792116190276164, -0.10748774144952379, 0.21220113495774956, -0.2523800549542541, -1.2404083853497387, -0.6027610949112076, 0.8812913080341033, -0.32452965154303864, 0.2075813599863601, 0.2387578641176911, 0.606486493910912, -0.39312033083291914, -1.5638943159341603, -0.8061687018509358, -0.20511452264822191, -0.819473348886704, -0.5208557818003879, -2.4121916606233875, 0.37345330384205794, 0.4953101425144646, -0.5180231585747158, -0.7032227290853797, -0.3519819820331659, -0.11969620999046325, -0.19072818260886612, -0.6748270079693774, 1.0653740974189665, 0.58475330212948, -0.2647152424359375, 0.3641186447981372, -0.4128188199590128, -0.031373197116664676, -1.1461235628329784, 0.7613390772559026, 0.6905423629074464, 0.40700132653100807, -0.14518463060231845, -0.29416931843370114, 1.873284904854632, 0.8342238269061147, -0.22189825331524698, 1.1618945737661062, -0.5667166301468736, 0.06405782761261164, -1.0411624089053348, -0.5043871472741127, 0.5615692522099396, -1.2015840090040448, 0.2020415884332315, 1.2139065986043345, 0.6747840921119783, 0.17121286445430767, 0.006290468249061435, -2.027766944888291, 0.04167183571577674, 0.5440222147700219, -0.6778601888458464, -0.06600006765889779, 0.3995100866293353, -1.0198600741949673, 1.7467571798631125, 0.2888662837811759, 0.5673252750050213, 1.691183730587932, -0.1547291737858272, 1.0690355551520319, -1.076590137974662, 1.6890452221289687, 0.4177633658882822, -0.46246365581871035, 0.7950052947840777, -1.1184029517085043, -0.8121699609073825, -0.3496000432260219, -0.35920089708632036, 0.6895788494896661, 1.3319376438207733, 0.7135632976680492, -0.8247181947006277, -0.5271546051578767, -0.3273544768015895, -0.7118173685263086, -1.4833772084838162, 0.5746439006076678, -0.3382797256597958, 1.125977883696477, 0.9779073779867583, -1.561306202275674, 0.4880428599676617, 0.16964194601962723, 1.711252106484676, 0.16022154755862658, 0.018877099081888497, -0.05752141578732123, 1.4825327418945087, 0.1259004326720005, 0.1262908083804013, -0.35145279212050934, 0.38302845318818474, 0.3253171597434103, -1.3927939912795713, 0.4410311343299632, -0.32868139070322183, -0.9637721438348911, 0.7089686924350627, 0.2900642428561965, 0.08361793527844416, 0.6611811400328657, 1.1607728247345401, -0.10032383941693342, -0.4538682132452961, -1.418150532104256, 0.7791198382580671, 0.5866383017095358, -0.6672009700206427, -1.0634105460988577, 0.2179150826844666, 1.0686904414751508, 0.3664431351640324, -0.6024855292196507, 1.8147228418709682, 0.7681000709480701, -0.9223081634464395, -1.4375385977380073, 0.6079527597547136, -0.1736939622376072, 2.40011948227354, -2.023526927529853, -0.1127572844166153, -0.0276991640812338, 1.435963695095801, 0.22594742055715558, -0.2891156646039728, 0.3975095653784453, -1.2452274295646817, -1.3300413762786008, -0.4692886683795582, -1.19420071136101, -1.9680888652762711, -0.7649238051099916, -0.1421441591399379, -1.7739086114055316, 0.8656299017837338, -0.08436020080296348, -1.625847223571444, 0.30039903909109644, -1.3280611392177661, -1.1600071817101212, -0.6300068804232392, -0.8394798293193044, 0.8506551971403815, -1.7869377222413572, 0.4023442601366909, -1.103364494068394, -1.1625720637847772, 0.518890006699308, -0.37633751177367636, -0.7328363893502211, -0.20921254292212266, 0.4596378186648601, -1.1053146476103226, 0.1707621362970119, -0.7809015670001999, -0.16312406256723233, -0.26207213453662703, 1.0903443263859078, 0.29273814182292784, 1.765251055845505, 0.8923852463711275, -0.7339514107774038, 0.4889025632543411, -1.5283435292340593, -1.5662799013392328, 0.7880356467142926, -1.1616995792305238, 0.34577335681565174, 0.37705421560990987, 1.902000756940227, 0.3348967308526111, -0.5266980694197623, -0.7763925814219801, -0.43232258594972617, 2.005487668386487, 0.18189190563659097, 1.8956623918186546, -1.431010237957534, -0.5691424528833507, 0.27133157505098987, 1.1003493308123715, 1.3488491642416975, -3.0390796490980994, -0.6407117497820702, -1.3866847859181275, 1.3097441144803963, -0.019936748171569357, 0.537452486124786, 1.8548485385635405, -0.8846190461956595, -0.0683758602159576, -0.6777987993201512, -1.4253910415373154, 1.078373729417597, -0.014258320942660352, -0.29453269233146984, 0.059374890031404816, 0.5114762472435337, 0.3312398428208503, -0.8645073304327036, 0.07923223251036286, 0.9187987082442093, 0.37597502654861553, -1.490099636685248, -0.5924773354840989, -0.5784994466272122, -0.47563838781463014, 0.8224098845690682, 1.1551485136472945, -0.1983363410444211, 0.38738344293988164, 0.3784678957060092, -1.4154138414490345, 1.365729531150032, 0.9376572892403668, -1.24726068255487, -1.050428963446649, -0.7159452189955489, -0.9505786677415179, 0.711955329428844, 1.0149734580074137, -0.9618056193539093, -1.5807580965779324, -0.707222740906233, -0.47102287252394415, 1.8443538872385208, -0.21072135572648104, 0.15287677867683844, 0.9817593339431963, -1.5695373285153156, 0.4345474618448943, -0.9003644317919337, -0.6646899722665861, -0.2371644337887743, -0.9623368922303314, -0.7896580788973774, 0.8724283267552613, -0.17042107216810204, 1.0206786861006045, -0.8887678519770242, -1.0462461361857862, -0.40557644047038816, 1.6618394925612066, -0.7138378736059491, 1.2582576745881064, -0.7342664670456639, -0.7570129890965072, -0.9241610198879306, 0.20670812446682463, 1.8187595593276193, -1.1232284126505667, 0.3390785817385152, 0.12589003533092244, 2.1170107210491915, 0.6759487396410906, 2.5053313115980287, 0.16916010113845023, 0.19249114823063782, -0.291194091969386, 0.2394023168050425, 0.6513362075257549, 0.4759555879367163, 0.926172263232175, -0.47235930417687666, -0.12064644503861287, -0.3258741094315949, 0.4964534719903076, -0.014175619893336502, -0.49656068421286076, 0.5957746272753424, 0.33088416141177757, 1.3711564657587207, 1.0942585534455047, 0.07817861558648809, 0.5080493441282726, 0.3814034134304947, -0.937864057503522, -1.651958431322629, 0.07489919700013832, 0.7162694516064376, -0.4396830304246466, -0.7818656613073578, -0.2721966317201917, -0.2979711117849719, 0.809753648212467, -0.7285772725704683, -2.0369490207534464, 1.0701631274717813, -0.09334232397948357, -0.6906875175818744, -0.26585881872647416, 0.30875499822590036, 0.14148836203084164, -0.49767311396012825, -1.4927004037601153, -1.4783039034068484, 1.0139816170498153, -0.3569231534781069, -0.5068221602126142, 0.12659620447256928, -0.19935282871635343, -0.6817104368191158, -1.0236100591607178, 0.10868691760881473, -1.163096433519512, -0.3514598289965918, -0.1575412768440674, 2.5120350585731983, -0.37608651270394283, -0.2941248854607754, 1.0500665127148325, -2.5511063780161147, -1.1685578484225323, -1.8145371513607917, 0.33167248626112134, 1.2184487330852238, -1.4063525539370187, 1.3297968286384794, -0.39011338925838085, 0.9084781070494168, -1.5279288475765822, -0.49467815694820233, 1.712022420574705, 0.7719284955586845, 2.020443431511109, 1.1121170013241495, 0.3301008464054623, -0.5784222880801587, 0.47588670022395674, 0.6746049156489464, 0.9186178909211037, 1.0755460036044122, 1.3724515267605726, 0.6485065142608429, 0.8326315512415295, 1.919356121889603, -0.3453879688670893, -0.4964044988022777, -0.5928128507898399, -0.9650748516995221, 0.9026308022345028, 1.5388046138191296, -1.1531919486787947, -0.6860538425133292, 1.3267171758576592, 0.1096683507573388, 0.456463005204534, 0.7330642227033761, 0.7209409043892895, 0.41096475949478944, -1.0049166732503125, -0.831060262030694, 0.22553887126322053, 0.347703439531588, 0.2693631055811921, -2.346482270117909, 0.672494226952369, 0.0983102432044655, 0.7217096284291005, -1.2624479787187726, -0.07773314077720185, -1.6774226919704083, -0.10588535663317594, 0.3307063933559373, -1.1178746516215798, -0.15238383032337088, 0.8009769777356114, 0.5577234895660406, 0.19163316744665496, -0.23801455058832208, -1.6522645429771123, 0.5277738630678099, 1.4506997142825409, 0.6142917252312715, -2.249666250771558, -1.4456297837260996, -1.0811005839326966, -1.2108694360428038, -0.44238350644612173, -1.3165789064625342, 0.522218489387801, -0.3605781167685255, 0.626806797212624, -0.38090732434539054, 0.7826017250258572, -0.19972595198520335, -1.3341828733634005, -1.0575312784122202, -0.7338127755576547, -0.1090856574856778, 0.43164842403743625, 0.3126287285059333, -0.5428552640590869, 0.3943549834979596, 0.16288325257388914, 0.11191581535751138, -0.1273196214378172, -0.3197326946959892, 0.20311408670417322, 0.06332699510088324, 0.8045894575285295, -0.06594586611675553, -1.060854870321783, -1.2115184946035922, -0.5016989215965032, -1.058237252181201, -0.49700817094674776, 0.24152178906299385, -0.036709611129445326, 0.4820615396395674, 1.6840811170814751, 0.8708703905731396, 0.2830373351573894, 0.6527612371255023, -0.20081894646339002, -0.27960829814722166, -0.415029939242087, -0.7445555976373138, -0.2408048287504699, 0.8120324000925088, 0.12004680200215133, 0.28997968925220435, -1.1530877361731078, 0.03815454486796391, 0.09956185968454659, -0.6490673471966388, -0.6690372932105406, 1.2021421355455946, 0.39222444813750046, 0.6349784744102404, 0.1744446564681201, -0.9697687034782037, 0.6162451068788111, 0.4309856979456622, 1.804772613524335, 0.2126105969066974, 0.34522056889632885, 1.3888340367387586, 1.704263089254296, -0.7978699647528185, -0.04835419612148195, 0.42367551916687773, 0.0217416068444894, 1.0048523360805073, -1.2686483255520415, 1.2457920655363017, 0.9366596815958457, 0.0261284513595981, -0.156634463973703, 1.9092952094519526, -0.38606832445847283, -1.1467345114488472, 0.3439636883444202, -2.143055416088139, 0.8523268661400442, -0.003257885637006197, 0.7639255092454088, 1.3966528208726907, -2.1751377594778765, 0.44754240408137075, -0.2539340483794415, -0.7988470625689833, 0.7422898080136953, -0.6766220053086768, -0.8321792244556815, -1.4917065721022433, -0.02239756801156309, 1.5564901369285398, -0.03416338247689113, 1.240192462717579, -1.1873585145294097, -2.830601976013422, -0.9160706304652301, 0.09601297861749532, 0.08079573671000874, 0.3833263038121999, 1.5319439952094025, -0.42297380662060946, -1.5721360529022852, 0.06178692710018145, 1.0497210721252406, 1.8194641477703477, -1.0268478465710027, -0.3619645332959008, 0.1524925340662643, -1.2422237378470404, 1.1565068201616726, 1.133405027748916, 0.7606300891935568, -0.9623826329850326, 2.914444348244309, -0.22567806849829491, 0.7346573145710228, 0.46360389654402573, 0.26853501342882646, 0.8047974647778217, -0.13084452814160422, 2.3274613548289063, -0.006527844655426985, 0.18837723428687603, -0.8659747906458239, 0.3586519249075893, 1.240879740298415, -1.1350227753153421, 1.0498521663718472, 0.5268818175075687, 0.6471722956392073, 1.3530910952734059, -0.6246928810496322, -0.16956863519353862, 0.1026831901059368, 1.1005442215995602, 1.0370640124940824, 1.6577237561983218, -0.3056961203019779, 0.8124717305948855, -2.080099078142386, 1.7394409172899425, 0.2248029019059052, 1.2963489295014414, 1.2342346195525622, 0.0022513032485571476, -0.5069448665625179, 0.06642222551855305, -2.4061746055240665, 0.9928939087191178, 0.6155389424051588, -0.560978110788973, -0.38318547228269445, 0.34413488890042865, -2.135421122654478, -0.2818816703915843, 2.5739377347128265, 0.7726038172023806], [-0.4864207727469303, 1.029977446655022, 1.697758957796225, -0.7234831080022429, 0.4889423116784244, 1.6237095687861074, -0.5991963531630037, 1.206473534771986, -1.5246897944077424, 0.8885463951236122, -0.1816980755733529, -0.17188329049164783, 0.29225357837196986, -0.26106889892113655, 1.181579020295125, 0.07734834721978406, 0.9676478991143959, 0.41634727379840836, 1.0185246620569137, 1.0278215646202058, 1.914933692160379, -1.0371462254423078, -0.3156298749195754, -0.01639997656909985, -0.04334199640079757, -1.562334647968328, -0.9588828192766878, -0.8854908016908665, 0.4691320394070708, -1.7201610366372018, 0.682329283842979, 0.3270925505293793, 0.552430378178961, -1.0355267930190657, 0.6945591617098067, -0.229455211926316, 0.285010828919464, -0.5939453254579863, -0.24460996567781437, 0.3826354336803268, -0.9504073531618057, 0.46880653537679773, 0.6567872776183943, 0.11383868967108328, -0.24679551182498521, -0.8654232063997729, -0.1395636852818783, 0.3117398652619972, 0.17599233792237914, -0.1233511590442412, 0.33057583993971223, 1.1149914014379871, -0.24255288603568295, 0.6169855516529229, -0.49984662421140513, -1.2008913662171288, 0.047434615376315124, -2.3274037357507185, 1.6837548509036082, -1.4689721994254248, 0.48378066610706055, -2.1286541078367027, -0.7293935217466809, -0.3927320553186708, -0.5819086150884076, 0.4253804029408014, 0.017435682512203458, -0.6106455442774176, -0.47977100630895614, -0.43157580548493296, 0.4786693721219946, 0.4291236141724303, -0.9750710666903202, -0.304968397155572, -2.3262320797009597, 0.9328749424403113, -1.259724342819966, 0.651758759335962, 0.9127491764792216, 1.1662455807342675, 0.7671515229016602, 0.3846057241689296, 0.8323407633959178, -0.5661937490507976, 0.1346411539883015, -1.4099921140423068, -2.61629621069667, 0.08720457339064572, -1.423890342846271, 1.1358746334749446, -0.7447982116546656, -0.40842500844903595, 0.11475815680757649, 0.46914432559860925, 1.245157618291718, 1.2404103196422536, 0.7076894431120409, -0.6870252264845051, -0.3812511315360671, -0.30568434748296613, 1.5319206375791694, 0.5896724328278377, 0.6938429884338069, -0.5764916946573788, -0.2981207802747407, -0.27987571680219536, 0.8414536405529257, -0.1956957323912193, 1.7698483805349134, 0.21660336224634077, -0.6783735070266278, 0.19140888682366988, -1.0594736173327453, 1.5342566083597102, 0.07015840892307348, 0.8732152891264086, -1.599397492920018, 0.5668159136274652, 1.1762765850136467, -0.9878028194687305, 0.6031720833071236, 0.18968905409615253, 0.06318438774523666, 1.3330203805241816, -1.2523395046576684, 0.3964881299615922, 0.4617773061698058, 1.016963759865078, 0.23422086417835097, 0.7993800550113435, -1.5347118995150892, -0.3972261377380926, 0.3473077498501142, 1.5832973062357876, -0.12353547955877572, 1.6933320576641389, -0.11568794179093239, 0.26972010658218176, 1.2017013361502098, -0.02616461925585752, -0.28204066213958995, 1.8554194786417109, -0.9661601860099073, -0.29126614455950167, -1.5791857309508446, -1.485292892596977, -0.036083519811001, 0.5160032495534289, -0.6184059317459055, -1.1269560159451815, 0.21002081984714768, -1.3201545799257874, 0.8797107852326302, -0.5616945458556022, -0.3489581397075746, -1.5278892844020293, 1.4867047726086013, 1.2211620804352235, 0.32400668175712477, -0.3798735489448619, -0.2121973688172027, -0.7091802435378706, 0.2965995933484663, 1.084201690125863, -0.18286719770881363, 0.010330838791932303, 0.6035802771313772, -0.5611823838187742, 0.11337646037735277, 2.742339153569933, -2.3336824456515886, 0.009737125278205451, 0.1984713716352676, 0.03304603726928018, 0.712168437063785, -0.1969223722513531, 0.1656110442488166, -0.5703091558712367, -0.350564851837804, -1.0538085598498268, 0.09003895359182923, 0.029689997012632474, -0.5637520783541272, -0.911533600535235, 0.29449684136174153, 0.15311924377013209, 0.0780592281062275, 0.6678832169850585, -0.8187135417601835, 1.308546287101572, -1.4274183179379696, -1.1100984612584353, 0.4145506603997634, 0.2527176374970294, 0.09954738303584262, 1.8590221523595059, 0.060443101620011416, -0.27340621175737634, 1.8730933309685343, -0.2818139872656174, 0.3458812967427639, 1.7888483761938572, -0.6987937462015393, -1.7389896222030505, -0.9931120468845802, -0.6382018439141377, -0.998147858626392, -0.07629864666508492, -0.623920843603144, 1.2073243158449674, 1.6654782925538856, 0.9846081736959691, 0.8380141785124188, 0.38424780413886, -0.22688192630821644, 1.4201031313623786, 0.5207918894639649, 0.989864244749139, -0.00020299255089611528, -0.3743719131075348, -0.29100180429064654, -0.33919050977075976, 1.2772487019857062, 0.58484594458839, -0.9880281125630608, -1.0241131248395674, -0.10394033756138175, 0.6616961103089738, 0.9012404620905053, 0.012353324836322026, 0.1687114416791831, 1.3199036141337912, 0.6499435374778392, -0.016332280243765495, 1.0228139655496065, -2.0200155206167523, -1.3469595173494826, -0.4707736263276983, -0.5227906492015423, 1.9824195382250482, 0.44711025079116007, 0.365930908175539, -0.21382549220364047, -1.5769532426702018, 0.21331649258408028, 0.41120693332350383, -0.5502787649884693, -1.0243538535398073, 0.2700685562597148, -0.27809219338449914, 0.6840551594977983, -0.6095835228141994, -1.2012427943160695, 0.7962074216888141, 0.02363506351404486, 0.34066603984980154, -0.3943251886322959, 0.2890771645843943, 0.6103991328299359, 0.5234132263153038, -2.1675301889686565, 0.41996609690900416, 1.2547478522954916, 0.47070055845227454, -1.343227414025876, 1.5736675111728196, -0.9363437682650358, -1.6296428182467435, -0.7405113359338882, -1.8988006118073188, 0.9533006433770944, 1.6808451943972398, -0.9441002013957539, -0.6548805626362408, 0.8920007306873659, 1.2606845103485986, 0.7978888351120369, -0.9303078323217873, 0.09253534279866268, -0.553675767477047, -0.4712467951217634, -2.7947957344319168, -0.48598909597893863, -0.8773491256698697, -0.8187269518118545, 1.4012933098753235, -1.2850170389714453, -0.7196432485663224, 0.006207881635183679, -0.30207356803357155, -0.15311414448070096, -0.8302711957249238, -0.37962225302123737, -0.18074962103018577, -0.706811590420606, 0.05633207685591419, 0.09028912620225871, 0.9866021197738948, -0.4451199677548973, 0.3405118272492051, -0.8699202074007567, 1.2176619558842567, -1.8056617564365003, 1.135290408151391, -0.8162204099112302, 0.3943569858978221, -0.02592418051515401, -0.28843100338296684, -1.1364571667267347, 0.42521747079648636, 1.361431185834401, -1.7759545469541191, -1.6642564269416535, -1.7282092944320335, 0.4955753284422721, 0.8539120481778465, 0.6337762349461208, -0.2570558879663931, 0.022379623156466875, 1.0696166545958838, -0.771498076601491, -0.6289874784537398, 1.4123344921493928, 0.2956467161596486, -1.4850959338984104, -0.8747380230073203, 2.9650577823532043, 0.6649991334889986, 2.1015712378674554, 0.7738992685226053, -0.5631623182375803, 0.6274459704013556, 0.2966167929268161, -0.962064808435441, -0.8421887571182191, 0.4590890170924239, 1.4026179778442296, 0.30097641651636975, -0.1004634042482735, 0.7136862778469241, 0.4585678399371706, 1.8595382659559976, 0.054505882465325374, -0.23069079939181295, 0.8217452819355764, -0.8179368404564308, 0.3056525027415819, 0.7847255075421805, -1.1337909067471101, 0.5965950652079011, -0.1583830641994475, -0.5547483677337322, 1.0889418728254667, 0.18989671778218079, -1.2540533697034517, -0.6987898778564343, 1.5390570473663674, -0.295438414345284, -0.22925223136362707, 0.8524272056808971, -1.4806397719101738, 0.383781153495494, -0.8143222428828912, -0.4116893835308065, -0.7342472504509393, 2.664479744571886, 0.7612738002588794, -0.019197062391215686, -0.22910847776651982, 0.7922079227441071, -1.067763902871052, -0.7928444129024549, -0.40002117900828793, -0.580057803846268, -0.5931421751341719, -0.0315203550699802, -0.06360395674458248, 0.741590236086908, 1.7791048179886835, 1.006893804837742, -0.09407405683809864, 0.5635823227221758, -0.2521383300139216, 0.43955666108875185, -0.24037656761146378, -0.5807393125453605, 1.0443603844872438, 0.2205830501654576, 0.4010586122603332, 0.09796864253031742, -0.23111351453369666, 1.797587277860891, 0.6363114540509462, 0.38701393531101685, -1.7320837182287185, -0.7817774003136484, -0.22009873920840428, 0.2378465531610904, -0.013335151571290116, 0.8735272496497776, 0.25025503777179237, 0.38362164098725615, -0.6007005988563915, -1.7180008021236437, 0.48028020343679245, -0.491979609515479, -0.6769608494303735, -0.06030907285116909, 1.7422247267475366, 0.8108272795404601, -1.0507889615573098, -2.459179602517386, 0.9578410468811765, -0.815887429642563, 0.4778258229361711, -0.6559179514052574, -0.9691976643542205, 0.28217971532086367, 0.5630415239634688, -0.8773877604920314, 0.18956626384753295, -1.0887392070350062, -0.024310508045495463, 0.8791246105080162, -1.1779663990939326, -0.24896692953016059, 1.2413930407566587, -0.4810022243006447, 0.35970820224399297, 0.4036858041765877, 0.8291298099592231, -0.6214493147263183, 0.7212849655693381, 1.0583919768757062, 1.0510628906003234, 0.21970776228769182, -1.1671027615952985, -0.1987015178770858, 2.289435475757305, -0.6708053278454349, -2.130646563365044, -0.8361146346675807, 0.14392489210324536, -0.8463580476806511, -0.020849180688851984, 0.9068088135698201, 0.2609212771504334, 0.411004991051013, -0.7027003188597026, 0.4004664376407756, 1.3866595020781067, -0.43211743642769324, 0.24216069212651548, 0.969442152171623, 0.5264629300044893, 0.3877719634710685, -0.6229453374664641, 0.4446446717212577, -2.155556909326259, 0.05775647741839606, 0.11346949118378138, -0.785238295750268, 0.8764144886193185, -1.425134378343927, 0.6269975557387855, -0.6916338557017779, 0.8121456178481309, -0.3503463344187721, -0.0388237039684583, -0.2823479981364322, -1.5660121906946844, 0.8319832199296301, 2.353112368607098, 1.7070777516480524, 2.156655820340131, -0.3256728326366681, 0.3986064610750984, -2.4633807218210872, 1.4935690601663947, 0.40150616587602156, -0.5531406664315963, 0.5105762347772882, -0.3069854693739453, 0.20287225151888283, -0.9624835762280793, 0.650901798997877, -0.1684682371312255, 0.7122091942732081, 0.5815669877564897, 0.7548606602314352, 0.5795950241303232, 0.40203725424311343, 1.5653623007815902, 0.35434495089205165, 2.256942777312489, -0.5116110463224478, 0.9905836523513475, 1.0514071634692586, 0.9952626729898943, -2.1483701086754525, -1.0096589476446052, 0.9792927140619759, 0.19145428987412175, 0.6411392770568536, 0.18750777560653287, -0.7035890126549373, -0.4857008090771927, -0.3892400100263327, -0.9927253495265367, -0.08527198616045978, 0.7771254198244972, 2.241493605976729, -1.2547920824766055, 1.4140941898025907, -0.22030012574176255, 1.642445025426468, 0.42714477109873394, 0.16863200470545878, -0.495288509846016, -0.5348832043467464, 1.0578851045228748, -0.8321484439803571, 1.236977470812114, 1.2864126115581045, -1.889736794677676, 0.6136466150820712, 0.9026567744645534, -0.021936526262151965, -0.3770230732900419, 0.7853714360595561, 0.3065812456192362, -0.36416063269376103, -0.9918388916025089, 2.318226202327532, 2.6313293976356706, -0.4492475465106978, 0.9049282105354908, -1.2982068147396966, -0.6899941041917823, -2.4375057977082406, -1.3431824044363068, -0.1151384435861656, -0.8245838340347088, 1.0569163758297055, -1.4317355202045414, 0.40161199227267264, -0.7037861454624538, -0.6653598768831358, -1.3023029048863222, 2.216687838661799, -0.18325054746895464, 0.18675613396614923, 1.4822845815746566, -1.2215463639133715, 1.7623559817449908, -1.297494749665166, 1.0745630771913444, -1.0748126027820233, -0.5952162738715823, -0.16661876286291843, 1.0512874603713707, 0.922378281692468, -0.17156889388532984, 1.3929644325060697, -0.9176352868421587, -1.8039869574788152, 0.15961299931228873, -0.5414707189162131, -0.0014844131899635368, -1.3364256821529272, -1.3001053134025211, 0.8238435491570144, -0.8227724226770685, -0.6252737520605957, -0.36770705668775217, 0.6371575049941023, -1.6344135815707248, -1.2534860884756436, -0.823427519810161, 0.7336706522319724, 0.9866802638211706, 0.659304834449957, -0.003568934747870468, 0.8412721577239207, 0.39888836025624047, -0.653046559395379, 0.9451412626622594, -0.3834546906138267, -1.7074859723452114, -0.060198887669122424, -1.502622561264759, 0.07130338419200112, 0.6755393210321899, -0.45713876519025515, -0.5790877713041558, -0.33819286623111267, -0.4198867695876814, 1.0923900975575593, 1.323825055679892, -0.005631592755229891, -0.2654005187140542, 0.9007923229426956, 0.3744255690058393, 1.4045703049685325, 0.6870907194581278, 0.9666455070018819, -0.26095384730973653, 0.1862600960679958, -0.5970157599477084, 0.4589305658029813, 0.3964172172001776, 2.4646492376885645, -0.6930769929460638, -1.092464754383314, 2.373783473254504, -1.4086469457111492, -0.7979957279364369, -0.669891421919728, -0.9074147109457976, -0.39951537063526177, 0.03205330267830062, 0.5871594135645815, 1.194286385963194, -1.4677670353627323, 1.0745477632767426, 1.7592050456104982, 0.17085174557884023, -0.03978248765160931, -0.6317346074162385, 1.1899503891470644, -0.7801855656859523, 0.9400867080233724, -1.0895021861668077, 0.46098306167135944, 0.4182888211154789, 0.370953309584686, -1.3418325591131242, -0.40610942705527386, 0.6320439883702977, 0.08648204604415725, -0.44022632928613364, 0.9950686967773762, 0.8205354929382511, 1.411582025798396, -0.48521952004676716, -0.7889853202062679, -0.755791824309784, 0.2962159353539317, 0.5092503564969876, -1.8007026287449976, 0.15184439659751442, -0.6563924520282423, 2.1442270680876088, 0.32943116305728465, -0.40102027271821883, -1.6649165355524749, 0.38118191861348194, 0.9298504712072363, 0.4441284544287751, 0.8379926376942382, -0.27703161969015044, -0.1231173564573217, 0.6915689137212555, -2.0346906195216157, 1.1817255768852621, 0.56020214570681, -0.042047070062985394, 0.4554258179758112, -0.21603986412320478, 0.5704132313625674, 0.18590897175839197, -0.8117182194977007, 1.0357172326257384, 0.13846684117635036, 0.6376678159373337, -0.09849430091312494, 1.2327585151131017, 0.7701100722356057, -0.7141872187248626, -0.29362768297413155, 1.7159017635992297, 0.2677975105624887, 1.1594540566006126, -0.2695387963492775, 0.3300705219578097, 0.3247064740904169, 1.397012038010784, 1.7480491695018707, -0.6604183927524492, 0.6328206108115044, -0.9041977892661944, 1.6124895294753612, 0.9113283055026391, 0.32150538553190733, 0.30295787810112024, -0.5574615784983187, 0.09416660946528105, -0.2741262550411841, -0.37997495819856114, 0.3830309940081279, 1.0910859248534557, 0.05822770049583186, -0.5673970104103289, -0.9164966483347138, 0.05397817767042031, -0.0027076270597672456, -0.6488945219560079, 0.3431566543497565, -0.14209190024419363, 1.4947371623252919, 0.8287366757980905, 0.32913861050671894, -0.3378047630385827, -1.474582215041924, -1.0824289935011024, 1.6596138865843013, -0.06645538182672822, -0.2613759638899232, -2.131008032700858, 0.48260939982808776, -0.3389074690083556, 1.6675631523742414, 0.34432575006673816, 0.7443824542020282, -1.054890788526504, 0.5183874309791566, -0.07942346376320808, -0.17637562286513503, 0.4954665937086479, 1.0705223070211916, 0.8956859076615833, 0.72955218815681, 0.6583290181944578, 2.5256866329710603, 0.8557360706767556, 0.033708865437992626, 1.290783481445252, 1.7756761023473122, -1.5226896347421428, -0.295316737697881, -1.0668113628806979, 0.43677298690418326, 1.1661447065417112, 1.207416126467799, 0.670093072970072, 0.22170063898326664, 1.1141191920067495, 1.8761297802790815, -1.2526563993256898, -1.2789659559744337, -0.8303089585738056, 0.27340626726116996, 0.028519500080455753, 0.722815333540932, 0.4733109090648027, 0.9330980282803609, 0.8605296614486022, 0.2764928252538157, -0.9347148980130059, 0.3942688481871852, 1.9946375612580267, -1.1747258825358922, 1.9143666109364348, -1.3185640450079097, -0.4394250282728129, -0.5967693597914357, -0.3448486983766173, -0.3965392528404734, -1.3587455555915475, -0.6983153143181928, 0.7764338517207271, -0.6796485179511944, 0.2057479016680651, 0.9068794055910505, -0.4907872559632276, -0.8084603990709119, 0.3842612552597035, -2.2869935277839923, -0.8763405672203971, 0.026327481628227598, 1.9158709667819018, 0.33176337455845967, 0.6955236021388725, 0.8231869207269896], [-0.24635089483005893, -0.4104240954338577, 0.3664247658510703, 0.20291409216617698, -1.1790199420364367, -0.29101872139412566, 0.14633436776014386, 1.2313197615125422, -0.781517171237282, -0.058237997937058486, -0.10628519998732647, 1.3718136178785887, 0.2940221151973457, -0.6949498588075435, 0.7771012931962946, -1.8154133109565156, 0.32325478365612764, 0.7664068259480153, 0.4340529807053784, 0.8020400321644396, -1.019867885598275, 0.16106081688720297, -0.6334743632152757, -0.7399600518073152, -1.3451312304779828, -0.5278285301378995, 1.3017924077296759, 0.2740296611094201, 0.6032130453386529, 0.5862280542991705, 1.1827385272693933, -0.8568464994931728, -1.4390213375077157, -1.348931954297848, -0.2163134997773177, -0.8159876151251324, 1.6540929180463717, 0.2809725798121044, 1.2498525280322248, 0.5355171756574821, 0.6756852405331146, 0.16632916041818743, -1.5554862837592274, 0.2522817901514042, 0.5020353587263628, 1.754962866846976, 1.2860039916820654, -0.42310986552855606, 0.3576044618228607, -0.5195105519943145, 0.20346153770813633, -0.6516383192887037, 0.5784376906224156, -0.8334736554247065, 0.06202354075996092, -0.796620432538315, 0.40813632336247097, -0.48619749748864316, 0.06372460729471735, 1.105310972230229, 1.591308946270934, 0.10776291047144068, -1.6005332517155006, 0.5032901486273154, 0.0716353006537026, -0.5341355764186626, 0.3134459460970518, -0.04031158014654271, -2.0094523869689476, 0.6375576253010422, 0.9818629248443375, 0.9449861657147697, -0.37045608876414854, 1.2446899026839202, -1.4975676954627486, 0.24924787048129102, -0.014339556560627183, -1.7276834032041595, 0.41052311618215986, 1.1645808363239536, 0.3950362060368377, 0.989437356276267, 1.92959954473469, -0.6075459108433511, 0.1806920597795307, 0.22239698319775153, -0.16456237482085675, 0.538165988283517, 0.36545259911458644, -0.1887581067162875, -0.38607140238656484, 0.3620616049283271, 1.8419065668881767, -0.07210474456649239, -0.38274198648156926, -0.1899150061671635, -1.271667090245399, 0.5611844034663616, 1.485568140744631, -0.18328837256969968, 0.9202206251436053, -0.34319616487605487, 0.8601784840938337, -1.4276362689783368, 0.47672400478542726, -1.2413494436980765, -0.4139129254096864, 0.9842887159477783, 1.232730951157317, 0.1339960680869087, -0.3868248896248965, -0.4368722056039851, 0.6620007046959752, 0.6271622756531001, 0.8460386509248996, 1.0191263477603205, -0.24228546051164523, -0.0598577623036723, 1.3124993620776635, 2.2529024325600884, -0.8967996279668681, -1.3175521477314958, -0.452903772884405, 0.6410463040160203, -0.33319747708954817, -0.07880639444220847, 0.6638092474304393, -0.505027936970568, -0.625827124620212, 1.5115987623896123, -1.0798862273029848, 0.20102701509859658, -0.41284144822213703, -2.155300635156572, -0.0987440864864712, -0.9044825148695578, 0.021578220982890375, 0.26843349098810676, -0.08561318081296936, -0.6958070268612212, -0.04921712043180756, -1.0027012338253363, 1.5397042486639019, 0.44854263365312647, 0.6025566018887434, -1.220952588152997, 0.23287969647882512, -0.7098591893760972, 0.3995508158175632, 1.9725779872519924, -1.3854426467991048, 1.4793336980393448, -0.6723121457691065, 1.2526082990133447, 1.365948163854068, 0.8039001101053727, 0.2541758341701127, -0.20429785785207005, -1.9677248483374898, -0.03687981748891632, -0.6184216161040395, 0.07115567777035783, 0.12588311306159594, -1.6169170119678475, -0.9430763736333244, -3.219733485859298, -0.2632164915237676, 0.5233846378300409, 0.989896658649918, 0.9934728645425863, 0.6941931310551323, 0.7874946267611381, 0.0374761551761171, 1.7011760408626375, -0.13787480834460109, 0.4475832059437872, 0.2344773858355701, -0.7556607892209961, 0.023379719521110242, 0.45626164645539385, -0.584480592322577, -0.8847023980266254, -0.08643631280663715, 0.12590429382820448, 0.8055346315246984, 1.0948898537548075, 1.590872571433449, -0.22537505324185245, -1.3608209588527693, 0.8443610872437103, 1.607500747942761, 1.7650255980275653, 0.2537908183890871, -0.39375611188218484, 1.6388314966508288, -0.31167045310765273, 0.38472853683595015, -0.12173875480007766, -1.5252275667939232, 0.5383842992704235, -0.7438555955171148, -0.4350929242485876, 0.6234456864864117, 1.1493369991379672, 1.008944625288738, 0.22848863175992817, -0.3612792013329263, -0.266541157366379, -0.193388357113363, -1.1493083618026647, 0.3089441784461884, 0.45043261423070113, 0.7533213704083846, 0.23435439749305753, -0.30499178305069413, 1.087257070462725, -0.4996302996209409, 0.42889099795851404, 1.1272591978294273, 0.6071382937431934, 0.016868903462214955, -0.298175365174599, -0.9221837335962845, 0.8798817216703345, -0.27894857957894315, 0.6883728477634337, -2.0782337101968733, 0.6858149584523119, -0.07440996833560026, 0.08100179248786456, 0.6372976829791239, 0.14975413763046613, 0.6921609574240666, -0.11070759184575323, 0.6310494609357244, 0.14272825212243115, -0.25158375002963385, 1.169324900994576, 0.02725538031168664, -1.5079613072182791, -1.1189359110650077, 0.4776468968542424, 1.4139292020317904, -0.24134033439484798, 1.2763825462788365, 0.6650522867806279, 1.836852989538539, 0.23459812373081035, -0.35707457147895144, 0.8125446836071334, -1.07179114622669, 1.3293208010082835, 0.5413990362698169, 0.15239500384576554, -0.9270282625718038, 0.8837317815882116, 0.08608655343350086, 0.5741339810625214, 1.6684642488125876, -0.2171222923726089, -1.97621828273807, 0.4400689862702304, 1.554341855643215, -1.377955910929952, 2.650567112235295, 0.13837982551899708, 0.5770837778368981, 0.5846391667045175, -0.361085122120774, -0.40616764854236287, 0.5142961500115696, 0.3253881108988527, 1.009875147233045, -1.4779046043809307, 0.5319535388340233, -1.1308912813576084, 0.38772339596202093, 0.5167770397802066, -0.8406282222530266, -0.9723535362879828, 1.125900086178171, -1.3248540696770166, 1.5407086391718188, 1.3830451511949762, 1.6349745013174792, 0.052402866702990034, 0.4728882089856954, 0.8926935860714851, 1.111622845279398, -0.1547350583429524, 0.17144295769659784, -1.5643810015618294, 0.6633138312223842, -1.0741284913405609, 0.46954222760731745, 0.024019107436551286, -0.209937812870033, -1.3212284876628646, 0.9693823873690313, -0.4864593694304034, -0.223690806083906, 0.9296726996795076, -0.8933222237927215, -0.6784960518401086, -0.2595680954197632, 0.6559413198257049, -0.46884560489270843, 0.26089761939679684, 1.349365921975249, 0.09287850857473491, 0.3265858761426582, 0.8104146509626426, -0.45955354126406184, -0.688640158527949, 0.9912484976633222, -0.733295372492906, 0.2498980239252144, 0.7064867852760001, -1.1379145428442778, -0.4324459006682751, 1.2302047572291295, 0.15031766017857562, 1.7608668860740404, -0.8880716427911538, 0.48885815727123527, -1.387352128473124, -0.8090766035557071, -0.392234900772341, 0.20441437591055017, -1.0414376415743436, -0.006706082440332957, 0.4776516406733546, 0.18422712979435277, 0.38545373514936393, -0.8404299698613917, -0.4066209677894338, 0.4862503009174326, -0.029308376661503044, 1.051117548139212, 0.672853680410424, -0.47566455618208137, -0.23788353561964018, -0.07195733880806661, -0.8073869685735252, -1.1709848235175142, 0.005620077404549203, -0.5362755113990867, -1.2602805787076505, 0.41862190909506486, -3.785575474446256, -1.6168943330078318, 0.6238881200992336, -2.4778614693199157, -0.13356714140852213, 0.8919840866761299, -0.29233159873183473, 0.4854623911099867, -0.8402296833909675, -0.6167438227979841, 1.1349378539346895, 1.9745747885951286, 0.3522731294978056, -0.5720953450120617, 1.987920958238898, -0.2657184538012, -1.3690910297131924, 0.6369025081260995, -1.404414519698671, -0.5536282257610714, -0.05061042529512624, 0.48905327497437284, 1.759854193957256, -1.2118282993538492, -2.1878042025619893, -0.11236334108165387, -0.8981561901746737, -1.647810036468624, 0.1791516660164321, -0.9928699868688042, 0.5002787648900737, -1.3707648390669727, -0.1643340618099502, 0.06957432033879893, 0.06761829915940044, -0.07284252318859845, 0.6921742841000317, 1.494153189547272, -2.087077456775872, 1.1463802693624985, -1.4655082313042118, -0.593462298349281, -0.9495682058294025, -1.753199920942832, 1.150784709491623, 0.893483210791247, -1.5302122049036075, -1.2845676991458062, 1.1499599292637297, 0.6077858570881224, -0.8271944393352462, -0.22531244372558368, 0.6167319286007993, 0.39044044597134575, -0.14386634992190078, -0.10720975022025173, -1.1991887775469965, 0.5790736053948045, -0.9509540933587864, -0.48698108066392093, 0.9141860878143865, -0.27589403968586357, 1.2233147202217962, 1.005043554666851, -0.4002830665676417, 1.3462203377679964, 0.5422218781925456, -0.6522046255747164, -0.7021189214034511, -0.582281379572749, -1.4146687330432537, 0.6625288295705603, 1.7593902664421055, -0.41511590259186104, -1.1201914257672212, -0.2742146367824169, 0.7167075912170241, 0.48600743147476194, 0.3752187407472209, 0.39516786848473434, -0.43073905362514925, -0.484581021628982, -1.0299148501607944, -1.3582813509736513, 0.5330368970434755, -0.9235491050565061, -1.729414858575653, -0.22391090646470113, -0.46579103472205147, -0.11063513930914182, -0.839538986411565, 1.7067545883692317, 1.2190030093085835, -1.544250904386343, 1.5068638235222662, -0.24863679675713982, 1.717396508319476, -0.8274419850258999, -0.7728694702015431, 0.006166466844503918, -1.0604328453317176, 0.40203969990103416, -0.6074234433271354, 0.46282463872309026, 1.6285443031867248, -1.2207147952002257, -1.1450989599002634, 0.482946933537908, -1.2042182700751893, -0.18062484883275937, 0.923963408569196, -0.77309826777952, -0.9281976690838643, 1.1169472085476473, -1.240326215599184, -0.3226681620451541, -1.2735696224312805, 1.0465063418022675, -0.6683582500086026, 0.18359896262332462, 1.122313625708289, -1.8521945721783124, 0.19256085022147662, -0.996250533249442, 1.2351861022864923, 0.22969526377927896, -1.0592519453226734, 0.23632101366414837, 0.13882166680725294, 0.37792209837451507, 0.21130419524038793, 1.8460129823295306, 1.46501196341048, -0.41203399291306314, -0.353045339736635, 1.2883758580581646, -0.40113050824409185, 0.13909574435318572, -0.16445560849783855, -0.1316338567993621, 1.097277745372187, 0.08403907381619835, -1.405416505731337, -0.7963469086920252, -1.5266025303768154, 0.29630886386126937, 0.3116621464254497, -1.688895937499055, 0.4785486500272471, -2.391741549942368, 1.7486624758969136, 0.45156314404167147, -1.303168676651445, -0.5335839966660225, -0.9891645399131689, 0.639841957121187, 0.9532560374003964, 0.9894923047270352, -1.7211377827297336, 0.5764038704592883, -1.3168032042953153, -0.9878665409563383, 0.9240413982423729, -1.1143505473037363, 1.6133863772715595, 1.1820023627865082, -0.9559080541261566, -1.2907920883385742, 1.3959071863347927, 0.37874826641197507, 0.27693484950602987, 1.9828633342459097, 0.3809730938915279, -0.8281890790962025, -0.15787719714312912, 2.079114510457984, -1.429013877117913, 0.8331237315768485, 0.39183375325447667, -0.5690651901667183, 0.07479937270469267, 0.9670375388803494, 0.838241315214443, -0.23274347814603544, 0.15057619042890413, -1.1126452958661168, 0.44615179400465704, 1.8924386016892512, -0.798209299008992, 0.8074704901904504, -0.9079607477632973, -0.4696700547409997, 0.3582307099107555, 1.01278155509614, -0.36044704981923276, -0.9732126395085724, -0.5792879020451288, -1.1489296555947457, 0.9985196968721829, -1.5911518915337186, -0.33298633041598974, -0.6043782599565003, -0.24253212468028434, 1.0765972673198367, -1.4776714001114735, 0.6913438255983269, -0.46940570113843977, 0.18558138996901383, 0.056363329633920996, -0.16543312006313352, -0.4830208569268222, 1.8115291407629852, -0.9083184740798156, -0.06452283129959127, -1.196710381012337, 2.359106306525083, -1.568222237376085, -0.7523988777788092, 0.5951390611312616, 0.4206362940906989, 0.09115555291965188, 0.2311718141993332, 0.24195864963549962, 0.49946704897015703, 0.2356201259766478, -0.06352378911270658, 0.08295290305908457, 0.6386256774188841, -1.361995470570535, -0.32652800881996685, -0.1548264604475048, -0.04310781518470524, -1.3097005601666285, 0.905395041610818, -0.741004686398807, -1.8593021684402533, 0.2094021466722687, -0.780947176095537, 0.8621127563074577, -1.1068667275269597, 0.3510662873895373, -0.4884307679931772, 0.2021112430868558, -0.15388173201982241, -0.09245363615111221, 0.8613216564119478, -0.16055138717849401, -1.1648349919918137, -1.0856370959580408, -0.4500257790828072, -0.5068665516808478, 0.4852694144379067, 0.9510792350173495, 0.47315767601997905, -1.4202755859150844, -0.13190185649052197, -0.6017811133885168, 1.2075373581340334, 0.6711639225560688, -1.26798396640598, 1.081276115755034, -0.3670275853612067, -1.0916045419826665, 1.7739082528763896, -0.6672985509791407, 0.7184741647285364, -0.23919105593546372, 0.2864327078112532, -0.43871335462236055, -0.4106404148205722, -0.33976433482560375, 0.8360355842359887, -1.648697242675291, -1.2237103270180059, 1.2583124628073277, -0.6068703558066498, -1.4831492896754173, -0.3754553727726878, -0.3654004088547416, -0.9061393006677081, -1.4038184104420872, 1.1549506277979833, -0.49475969124700686, 0.10761774723122682, -1.9260555086928937, -0.7457634522085853, -0.809923057338884, -2.041271080194883, 0.1598329520720717, 0.8539820955953232, -0.2121030090916666, 2.396668110277556, -0.5179290361175474, -0.003731372654630145, -0.23620389236777217, -1.3447981768035018, 0.0215072591052581, -0.45762000337591124, -1.308156187549595, 0.8703376757178438, 0.7721389090973486, -0.290075197302162, -1.1050636073977567, -0.8313750454082521, 0.8981373060912345, -1.4684816172930644, 2.6368328315784986, 0.3522648793811763, -0.18698164371632442, 1.2575013417499228, 0.17378819703617987, 0.855016954005534, 0.45946521695175235, 1.0787322300774902, 0.8371990506939025, 0.711619062699003, -2.5676826464113995, 0.9000660984923147, 1.634659172406658, 0.5700440379561491, -0.05006651881547234, -0.5134233646312601, 1.1444391534940523, 0.3080547919082673, 0.40626177381394585, -0.8448375902423743, -1.0230522145899956, -0.10493144449032778, -0.1315177655109187, 0.8876227823369275, -0.8808618330249712, 0.5362853354777845, 0.4470984856645516, 0.9043697365500775, -1.6971413777574011, -0.6812664582951589, 0.09305540020541456, 1.8802276758740035, 0.3478923489985775, 0.03170226198276089, -1.3623303754018716, -0.9615812550403717, 1.2711599110387815, -1.0435555902801732, 0.7292977451765779, -2.2282469460969803, 0.9795481947477145, 0.0991539601637259, 0.27288835665534156, 2.887597229531398, 0.3638566901174071, -0.1783114060347328, 0.6421711914160417, -0.43698027849951226, -0.706162120161003, 0.722493596920054, -2.0913735562501223, 0.27651640825631413, -0.6501796089668024, -0.1552938776289608, -0.115347449587311, -0.258644879851075, 0.9898996502539993, -1.1659547287904422, -0.6385563325173039, -0.3716105197477304, -0.10341332315698946, -1.8841784740696972, -1.534310112457534, 0.46368055237633815, 1.173134901105173, 1.5674028242269478, 0.5543383727973562, 0.22437257832113025, 0.3706682354207292, -0.3634329767499744, -0.16434137085077788, -0.6010526333759587, -0.807413037309197, 0.2165743244739118, -0.4928112109621861, -2.0865566267576874, -0.5742411529200078, -0.9680142830467147, 1.2154520578307066, -0.683542751273442, 0.29729443866001626, -0.7585110395982256, 0.5074585434350414, 0.34795923188548206, -2.10668709945247, 0.9210046361691537, -0.408514026636089, -0.02496569899154932, 0.005726539480773977, 0.04488028146136296, 0.41818886948550077, -0.013842749229186593, 0.4165008783360413, 2.0441348856494335, -0.46622049591057624, -0.8488541107370212, -0.27332600248789735, -0.004860914041766793, 0.4509064704188397, -1.0875328950187442, 1.4933290255093894, 2.398613346192482, 0.5011364218177125, 1.5926283198675262, -1.993924455365158, 1.893376888348624, 0.5607324755003332, 1.4892719858741283, 1.7927809240968942, 0.7469017725680364, 1.4127905388679356, 0.37134457629643225, -0.441228570076587, 0.569292015952973, -0.8439711001923732, 1.2253383045291566, -0.99583479054341, 1.2051311991534006, 0.6752865883476821, 0.35825669895527706, 0.7708430296927795, -0.07325190580747984, 1.4348730102335925, -0.9957894600523068, -1.3245687455598874, -1.5657987999173744, 0.6260888053171605, -1.4115333798993783, 0.7802649047142245], [-0.6278311311023993, 0.1812121173872407, -0.12298713135250379, -1.161437709939472, -0.10559479232824101, 1.3415050598525278, -0.5379395401920376, 1.7186244535296404, -1.6244086423006494, 0.20005966695001276, 1.302366071259471, -1.3146659888316516, 0.7358558924223731, 2.4218098878314716, -0.5327851912658663, -1.0381429518036656, 1.220531482947522, 0.01760456377361518, -0.06759252262358462, -2.197871787916847, -0.0912068439943948, 0.7359161665999306, 0.17776501827796395, -1.8846846944285163, 0.7684103613510331, 0.9533200589396656, -0.36459583931193773, -0.2690689208577302, 0.1866823394498469, -0.956384105981906, 1.7321143116457371, 0.9572694260758206, 2.4167879472634786, -0.019963620414543297, 0.4109250983146215, -0.09994592826960208, -0.8557657910010362, 0.3699966851279698, -0.20135947935270276, 1.1797863197046272, -0.7879069415832913, -0.270997463487857, 1.0099613092338844, 1.0719041494165864, 0.03417033893941735, -1.4433233919297312, 0.12160187630121884, 0.6980698682903244, -1.98150948338721, -0.22584588468080274, -1.6411492570276622, 0.3200857828988026, -1.153062574698299, 2.067121304511561, -0.09831690637072008, -1.070622208987236, -1.027393602110668, 0.16006958886977182, -1.2997082268385565, -0.33564005938918723, 0.6807318233690186, 2.136698190326934, -0.37693815711001183, -1.025217680417859, 0.4224440241516093, -0.12258058591107653, 0.2432475080212731, -1.7211190142323374, 0.34172993747161384, -0.15081611756341384, 1.5892649014377014, 0.23073161469812017, -1.1144497050933382, -0.15163120819197148, -1.0171395276943245, -1.1026935150324313, 0.6925448356874048, 0.3340867575630484, -0.6792897335420521, 0.22475388452775288, 1.77710598081263, -0.9406376179224837, -0.6048667642757337, 0.09940449396591698, 1.0482075657520094, 0.09246007701443243, -0.06038297413429585, 1.0327982682327628, 1.3316063450809035, -1.2879234307698157, 0.4776723145611076, -0.3869511985967336, -1.6473598442936321, 0.5745213345268906, 0.17612402016459486, -1.736782799445563, -0.38754297436385254, 0.8754937921591326, -0.3720481993469148, 1.624846790203435, 1.0355360615286617, -1.2986431394521123, 0.29342754143750627, -0.7795844504709195, -1.2161398375035088, -2.3852280594032185, -1.6881299639316487, 3.630443206788387, -1.0848427356559194, -0.20989425902375622, -0.09014845530568895, -0.42151755401139096, -0.803826918686033, -0.14861865074597003, -0.9667512624146561, -0.9725913950873637, 0.8177489540692291, -0.42421213007091235, 1.7586246394304073, -0.028871658696693996, 1.6349845069227338, -0.7728437330581508, -0.4518879601142946, -0.674186760193207, 0.06049604622535209, 1.4582708216872557, -0.5389905248195173, -0.4022072513494641, 0.1005919557476074, 1.5599483700811914, 1.724594264769575, 0.9015110777564539, 1.2301483520369185, -0.41254464955777, 0.4334627928776399, 0.4570562740913992, 0.8198848651783773, -0.5884955794005282, -0.8670767403169455, -0.03365854004293078, 0.05309768045456955, 0.5111433899522769, 0.031217747638812143, 0.5139833129413085, 0.5636521862267186, -0.6126151720558204, 1.3586520998562928, -1.189374218375288, 0.7141479429554225, 0.4864546312493337, -0.6215366495544372, -0.8632511698278065, 0.28029684723411147, -1.1797014552439384, -0.9495742784661255, -0.5661348664630751, 0.6812038283817471, -0.5247596023098717, -1.1410357718891568, -1.9643271985044208, 0.7437436336652373, -0.007061696858176344, 1.0519832413908832, 1.233176123744856, -1.140740551804671, 0.9521652941592499, -0.3589993974392177, -0.13997709464140262, -1.7355639386672683, 0.586323091661708, -0.34475967585519063, 1.125933201148506, -0.6638104165114848, 0.0748858838535935, 1.1312865506287688, -1.569789635632884, -0.19703026223935333, 0.5315969006994615, -1.7966138281894304, -1.436801487194183, -0.8618636836886941, -0.3439432883682872, -0.6738640878112394, -0.9197467160842469, 0.5892523292078816, 0.5756378208230488, 0.23188840213955847, 0.6803488224278137, 0.1948302961542099, 0.6696539151997254, 0.27413227232967724, -1.6918028436583363, -1.2998644422099868, 1.5127446700691034, 0.18123658840767162, 0.5041344567088963, 0.7580137588899267, -0.40091242977940544, -0.8030666183153106, -0.6703563923550904, -0.38224299324037736, 1.7020867205017018, 1.7740818054082044, 1.1730270603557804, 0.4414062908576557, -0.5225353411541958, 0.1606763454319413, 0.5455626202439674, 0.718345701723974, 0.6259119235055962, -0.15807517008935762, 1.5848915198240232, -0.15780405151150803, 0.26893446959905665, 1.0170540595751953, 0.41523372645451045, -1.2025258683418818, 1.5852588758535455, 0.35074352961345706, -1.0136366270302062, -0.8329773527316928, -0.6882272458678547, 0.3407028086095882, 1.435098124277547, 0.1421671682747704, -0.12876153608884336, 1.1254297335872387, -1.922484260136966, -0.7993496799023416, 1.1124651683551916, 0.3118353764510675, 0.7986388627144447, -0.586309242875326, -0.862280869097678, -0.9978688144400486, 0.07513261608894746, 0.2868177045151238, -1.4021445066529001, -0.5598143046259835, 0.4791755049327364, -0.741473951280658, 0.49088274646163743, 1.0509600707387754, -1.2701436810450082, -0.26146348675912756, -0.432132072367459, -0.2701566535135784, 0.15310315472818964, -0.2649638093007006, -0.45100323327085484, 0.03458868524420161, -1.1451616210079953, 0.8942272800633994, 1.4066699897650736, 0.11317820430340808, 0.13102652817948912, -0.9119393727684176, 1.0054927931409656, -0.11586501802557914, 1.6081709729917337, 0.2564747419210251, 0.07899472197378704, -0.4246045937965638, -0.3775393541890866, 0.5295518378895391, 0.9229069110743215, -0.46255992979383476, 0.6017903886143934, 0.28347861851179096, -1.8669408556514808, 0.2282214135398242, 0.009703514914381367, 0.2984433551178237, -0.013625464070396328, 1.3041138009981619, -0.9993395298421895, -0.9288738069008814, 0.1765033298316136, 0.11668926128338679, 0.003976893686843212, 0.36087009991560726, -0.11821441037308933, -1.5010948243386226, 0.9178222916804508, -1.7275175628899149, -0.012708577134609189, -0.9189219239051752, 0.6957862383636473, 0.5756992515087088, 0.19965227236871985, 1.834657692461769, -0.2431990692010831, -0.602067123843386, -1.9714236535780367, -0.7452014346138792, -0.48192813001261237, -0.6244813214474374, -0.5567487125957881, 0.06289938125888284, 0.8501770734433343, -0.8659493785628415, 0.5285943329228253, -0.22140761248875523, -0.08960679193774089, 0.4208209461318758, -0.6714272278092748, -0.8499272281982649, 0.8131153383340867, -0.3366970176389133, -0.3266252414345969, -0.34158027989398115, -0.5611038584934266, 2.4142646722672128, 0.7239078719980455, 0.11708023509565477, 0.3480825141558147, 0.8270377851958356, 1.4062442072852952, 1.3945630746351592, 0.2292445555652522, -0.6315945488042968, -0.5494289415159237, 0.8581593460037688, 1.4234003989076218, -1.6175217842826164, -0.5077978426425619, 0.7507091146504448, 0.16548606869828777, 1.088559545869456, -0.6906048866591736, 0.36504691771227193, 0.1972135914901164, -1.1368870388133738, -0.547900244790492, 1.0002100774403928, -0.07058841768317843, 0.9735037042470601, -1.3481530591516917, 0.03589779703025522, 0.6763898013828951, -0.8945268920510621, -0.09899608961501925, 0.2362940719765699, -0.010465259869764657, 0.6868772481776046, -0.4793364956953596, 1.7747347557180342, -0.5248051581802465, 0.9644091412752254, 0.758179175736053, 0.5881593266718247, 0.7348877009337923, -0.5087201720985142, 0.9585022202251828, 1.2225441108550352, 1.1642258843718492, 3.7419626937699926, 0.02515848046846376, 1.5227735135176652, -0.07776931063546437, 1.550902390212346, -0.9513495032905247, -1.5189388699181652, -0.9637644987697197, 0.0876641223501936, -1.0006556691301975, 0.82515790044493, 1.424879227159345, 1.1787664623377425, 1.7875552851223835, 1.8360209802775398, -1.000259736567186, 0.57711390183577, -0.20739241981275125, -1.194424527321992, -0.6699364719754367, -0.8917218539125181, 2.0402158372868087, -0.929463577810038, 0.07679845984776697, -0.09253654684779575, -2.235125213422801, -0.08220596779565877, -0.4210594065369371, 0.9024014647970761, 2.1896136433737015, -0.37368813343653373, 0.8041863182952349, 0.8400124300803721, 0.997090153562053, 0.31959598477861634, 1.5658953163358935, 1.0329481093428279, 1.0194754264680115, 0.23447573622801582, 0.19080779680385182, -1.3662055110704627, -0.4256719886010686, 1.089825893001219, -0.7961167668987823, 1.1478050706431522, 1.3036023257523077, 1.37153243506882, 1.1335870983863965, 1.988631674063684, 0.6344713375465771, -0.8513165974069299, 0.18995370111763268, 0.6653107659677913, -0.5646084248033097, 0.6955463875757604, -0.8413812755622722, -0.3596794272561184, 0.630811548980748, 1.176081410547191, 1.4899891298934462, -2.878133116904528, 1.5342662461681742, 0.05514474856205798, -0.06841583173138142, 0.8192599799738868, -0.26874524464010213, -0.19714776955496632, -0.303027051379139, -0.19604623413586728, 0.9851601441266793, 0.4718449016712081, -0.8044141076724954, -0.889137710662315, -2.1416694889378216, 0.9734274903709633, -1.4671629726328228, -0.3182572533119193, 0.6574204974877057, 0.34359831147911196, -0.12355714049198595, -0.7623790941392319, -0.6208283988106431, 0.9881401358681222, -0.04997742794243146, -0.30680752877601764, 0.8382859045217811, -1.0557475064569013, 0.7178054203354814, 1.1784425343259788, 0.33360892406014436, 0.3450861403622964, -0.23050565557170816, -0.4847392917009334, 0.229220515331981, 0.3374327835972948, 0.9398356040130109, -1.3691436219099733, 0.42831814897887366, 0.20169989731706828, 0.7825974134133981, 0.8940387060776951, -0.3904755690959205, 0.5196969314803314, 0.07823625571050313, 0.2214455220703039, -0.7723257160554439, -0.6175182482633266, -1.6131836192096818, -0.06442651623642606, 0.2015810010808852, -0.330011245726137, 0.2906184026472057, -0.09581713207404927, -0.5656332755400032, 0.54058267519745, 0.4914321118283908, 1.173811877069615, 1.1233722896549465, 0.20193298339259344, -1.160942020305082, -0.17925248945152822, 0.7092973737714631, -1.6531248502833564, 0.08261124178508591, -0.6357712933927291, 0.5430973757737828, 0.9043106407906816, -1.6893411971042513, -0.31620819915016324, 0.8003534252367218, 0.4343000431413536, -0.8807762996111108, 0.2669325263652738, -0.09108592076918307, -0.5606833832653825, -1.606343489007785, -1.3257456350256802, -0.13104664083131173, -0.6961818288625896, 1.1859298007219536, 0.7520556216892854, 0.6000715985583325, 0.4743434039270464, -0.49479310960304196, 1.009752856206485, -0.44095148750330465, 0.45115765408902786, 1.1165844581391255, 0.25881101270615653, -0.3421884985547929, 0.7441916928683262, -0.15140404312849512, -1.144330551365317, 0.6478134446526501, -3.3766270990303564, 0.17910856003472958, -0.8119195062177315, 0.28112913108883364, 1.3246423397838647, 0.8399836624412036, 0.9223519141942182, -1.3629213528694506, -1.465849167044784, 0.9632104969937645, -0.6918713964652591, 0.6796246527256958, -1.6918388180656794, 0.09823959436474826, 0.9244687341014222, 0.20656469283862314, -0.38363849886705115, 1.2564620378753986, -1.1221543753863006, -0.5798225337445413, 0.5926944382619265, -1.1419099299397382, 0.013959943943307337, -0.5008545145431419, 0.3274944588243457, -0.4158557720973367, 1.6355155370782062, 0.00405673449288101, 0.908789808674643, 0.7408147252079575, -0.04412213831398355, -0.02086747122896101, 0.2339704343923922, 0.34520850024576544, -0.1713313049384682, 1.3469250270495492, 0.5223496610315763, -1.3533578824565151, 1.0841268135350215, -0.15959032680410082, -0.3922244832723777, -0.028950553990766542, -0.03963408933411962, -0.9695525441042793, 1.1811590890031638, -0.7214740733066745, 0.15568779782374728, -0.024669585484543434, -1.0011842106479554, -0.37396901400451443, 0.2913602289257844, -0.8304385367329095, -0.9711344070009942, 1.2399787685874548, 1.3085118916798617, 0.19734624235226153, 1.3262761629483666, 0.6086055001583995, 1.0861735961404715, 0.2549239357929525, -1.3086964334342797, -2.3322702390558163, 1.0337091893774912, 0.34311743227960756, 0.7192345109658941, -0.3008815465077479, 0.9226618235261714, 0.5927011845557423, -0.27570714791020384, 1.4986898177071521, -0.08723830438421896, 0.3441695540809843, 0.7998299733377545, 1.1744904988175657, 2.2399328153068185, -0.7876310732680869, 0.5489879562472186, -0.3235178013941566, 0.9546904576542387, -0.2844920727363531, 0.33990054183749246, -0.6982554073865866, 0.4096393641764524, -2.039665779746731, -0.36672898183638186, 1.89697130201348, 1.083613294359842, 2.5629317197054973, -0.5889854354816176, -0.2844292271919615, -0.49901596890493605, 1.3605444028284146, 1.8938823991650577, 0.6927235374482735, -0.21567637267572345, 1.042806505990382, 0.7452065476669482, 0.010753824310942732, -0.8946181733084908, -0.19980618632316027, 0.7824649084903997, -1.056854289013039, -0.022582204896622153, 0.32943824415670553, -0.4995463465924282, 1.729753618329549, -0.5555976416602197, 0.3296898990416021, -0.4464686188040226, -0.41343480762347884, -0.016830160326649485, -1.824949579425197, -1.0332024260279196, 0.2648734365193628, 0.9949230580906732, 0.612340921245109, 1.249424821825638, 1.5526167148235388, 0.9453820469738758, 1.265816623315349, 0.424265294739114, 0.4567227313013843, 2.105079734580855, -0.22721940391183726, -0.3949393191576747, 0.46645700899030884, -0.2910356776608453, 0.5353548614124701, 0.9248727280284612, 0.8171526935024389, -1.3769315586547817, 0.15849981229972915, -1.4322204388143602, -0.38318718742758917, 0.2511226951053891, 0.5872413329248268, -0.4031661003656595, 1.2289446601386818, -0.26514441221531426, -1.4093195800601763, -0.03289289413613039, -0.1316661965749218, 0.3411402310878731, 1.8275958249612116, -1.2853314442212231, -0.8804789811267401, -0.47131684852176803, 0.09335132113147575, 1.1359202732888032, 2.7951687812325856, 0.575811443576984, -0.3552176889553105, 1.3426474379374749, 0.5005162677141903, -0.044560783036011305, -1.3981807273092175, 0.2692343319691752, -1.0864334409479692, 1.1510584923196356, 0.48637237543230444, 1.028913007974424, 0.2325081030813835, -0.37624344285971234, 0.701487459055031, 0.4475621253047541, 0.06989514632662636, -0.10785784837627806, -0.9956677552782839, -0.6477047237767715, -1.2921276246995, -0.6934816317004153, -1.0765774647758233, -0.49168215390857406, -0.2606832026042545, 1.08033929333808, 0.4015476753649055, -0.2797118638799052, -1.4097331806715405, -0.4313453641761595, -0.35559647859731264, 0.1505308828957702, -0.3134616440259979, -0.04721441197561827, 0.5171695570388272, -0.34343135130842034, 1.5478615568948961, 0.6225698383297166, -2.34388969132048, -0.36735007706637335, 0.006076419049667608, 1.1061001530500534, -0.00011099151871501713, -0.9875612807698667, 1.0869989449363358, 0.8454731162495053, -0.12283051908353111, 1.600278408445278, 1.444880921291071, 0.2446280007317898, -0.33073790188163105, -0.31429052479602454, 1.2624500240310192, 1.2772428312960573, -1.6861818861260245, -0.7238834971139638, 0.036154523127850335, -0.1208840411144741, -1.9057585610864156, -1.28197434636529, -0.11966688409151989, -0.28652194550586857, 1.0238690637511405, -0.12506887682661563, -0.716046532474746, -0.3685106849342017, -0.535185098409206, 0.28475999134535895, -1.3606650908110172, -1.1995618951305014, -2.3314808687116524, -0.30209436838428505, -1.5764310676683304, -0.7647743302786985, 0.9892924086552555, -0.14098498718384642, -0.2057079768628857, 1.4382700070898806, 0.9604216168155773, -0.41458357431865844, 0.39808084767437013, 1.0353601462695579, 0.41867343073378954, -0.6067112781400205, 1.0575879945501285, 0.040232500177747224, -0.029855528891665133, 0.6507641877507309, -0.9483350057680188, -0.398447911214558, -0.3367303171685282, -1.4746872743767818, -0.4645973199764506, 0.3249183438387672, -0.3764756765455204, 0.9877938777987068, -2.175113728481697, -0.41513273802890904, 0.6363654077701344, 0.14575287697037922, -1.158955567888742, 1.6477640699904716, 0.04408782220362065, -0.08823047090275199, 0.4047407559781052, 1.272499699619372, 2.060770030879773, -0.63017689076829, 0.2604727563551448, 0.3634104879722079, -1.5810683873640385, -0.4624007092795651, 0.7420492691743364, -0.7564898613846129, -0.2043057651035402, -0.30739382038459634, 1.1376114587076513, -0.7767327625361409, -0.6486123735494407, 0.3701749100391188, 0.0780003303258314, 0.45768828107212084, 0.27407407239901344, -0.590194561146454, -1.351117115502481], [1.698361554530773, 0.9597353473110631, 0.4549601584177413, 0.24188744590022696, -0.47459094481866304, -0.23625043360162323, 0.3719305751505, 0.7550909335494912, -0.24369636997918004, -0.7218079497996023, -0.9192562308450982, 0.10712311564009752, -0.5886812529900248, 0.5990592733211016, 1.6818090533176233, 0.0355792870306998, 0.3481074036373175, 1.726275815116143, 0.7344956874113399, -2.1721401851728412, -1.6410497843910132, -1.9163834877987196, 