{"biases": [[[-0.06250935959097809], [0.11947467520595073], [-0.4357153767472815], [1.8985220813371653], [-0.6134110263327119], [-1.2998050954079923], [0.41626086005052715], [0.04097444532880073], [-0.07351645262094392], [-0.9501687086262548], [0.003082083851535565], [3.2278507360947852], [-1.5221895492870936], [-0.5562795137819561], [0.21119947390126334], [0.4825617632618887], [0.9317242997352021], [0.708767971754399], [-1.0259137626060872], [-1.4183399785245796], [0.5114994575378271], [-0.4215381491138693], [0.2306542096964587], [0.06358625513545749], [0.8302807049260765], [-1.586477653026899], [-0.838153612335951], [1.4209020235549075], [0.28803029903778177], [0.41615161945205636], [-0.5328008375597062], [-0.7521663701074974], [1.4896009072646226], [-0.008816440567569623], [-0.5320048547367855], [0.38758454906969425], [0.7103006907253944], [0.19543336304884287], [0.8089919927392873], [-0.2599761268976716], [1.4609215092022112], [-0.31719529805732966], [-0.4495328231786828], [-0.409283904443834], [0.15357012036272352], [-0.5999138043712272], [-1.2243770325313226], [2.032112822670319], [-0.4079113731147624], [0.7819586152093079], [-0.4117736963443631], [-0.2446652349417549], [-0.44078374571840356], [-0.9021272911651474], [0.5550043482804622], [1.4112017588493202], [-0.4613693675872466], [-0.8038004927646053], [-1.5629666189464058], [-0.4809816591794722], [0.050849145768354496], [-1.9086980420207158], [0.24818575068374055], [1.02905548798775], [-1.4560150751923915], [-0.1797349573988972], [0.7211863265886105], [0.374813661445731], [0.3050873639760908], [2.509385087300496], [0.8564369154771876], [-0.885193074844834], [-0.5577679112358992], [-1.9736709491600406], [0.02234073991581675], [1.7028725133377711], [0.06986446096294717], [0.4418607876928691], [-0.993491251636129], [-0.8599958792497243], [1.1232603046061869], [0.40709672245579204], [0.24677007326994402], [-0.5371350410162395], [1.875836414166103], [2.081446780933426], [-0.2953576547879081], [-1.7619398470820322], [-2.140923762731994], [-0.6870934436242065], [0.09493070352502585], [0.7663655233320696], [-1.0605289168327972], [0.48323189138095723], [1.5865938721866604], [0.5462218322646112], [0.19820222392256265], [-0.3492292920936933], [0.7940769229266872], [1.6043513186188942]], [[-1.1308027311808149], [0.49922952315887525], [-1.2412096915590316], [0.804166092651801], [-0.9409290038138554], [-0.680434046497176], [1.6394903325897705], [1.4376879106663225], [2.0070042267956842], [0.22430203247850844]]], "cost": "QuadraticCost", "weights": [[[-0.01470268456307026, -0.016283442269478577, -0.04395249582547554, -0.02327309266493007, 0.017460157196546942, -0.012269286134929136, -0.012700202901834896, 0.021087375759309756, -0.0015322283756918967, -0.061156870182483315, 0.00020898856505703308, -0.0895457351053834, -0.020059603607941866, 0.011805268480361886, -0.03071153719646779, 0.02838707245279152, 0.019004341237660396, -0.04969330684587486, 0.04127481354221074, -0.0443920683920808, 0.04006643996819852, 0.04895426179949845, 0.0016272269208195773, 0.03456487380494493, -0.010894458155343404, -0.06480916464037172, -0.007711385633625279, 0.03265520916324355, -0.012694588245079451, -0.004733707448077009, -0.03651874149600758, 0.00715959256864091, 0.0250462409352017, -0.038262401350687245, -0.026665380043626005, -0.02103219854422188, 0.02499948774689173, 0.06735479716087057, 0.046769235290944164, 0.02989403124549222, -0.011312076407887593, -0.0017721709454593779, 0.07748949473682341, -0.0035994877041478353, 0.007124336480626561, -0.007277700691551628, -0.011622277335758933, -0.01294858276783612, -0.012081313900541072, 0.03951782535128493, 0.03334373732590747, 0.04893256444296691, 0.0844662517249591, 0.008889286879471438, -0.047881598005096, -0.057572828042256045, -0.014813186960013597, 0.011371126399539341, -0.022807456741156116, 0.009357237067640838, -0.029393608232481796, 0.03324304384987104, 0.03847846915438841, -0.0618919556385177, -0.0027944714803946635, -0.01875540101713714, -0.018749067724664892, -0.025639106471183237, -0.07768038644110195, 0.06297730316320622, 0.013141643938597002, 0.04327643173814856, 0.031590307171368806, 0.044431139266556695, -0.023443555160391153, 0.024103125862422952, -0.0059946445779932135, -0.01893440019164829, -0.0006344238103558155, 0.0235932660290723, -0.006577158707005265, 0.034113137489655894, 0.04166917003683574, -0.08394245011823295, 0.02436745043802453, -0.013916127549208953, 0.009921085898776749, 0.009441308385292863, 0.020805315841502022, 0.012447615551692007, -0.01306436695284026, -0.020331038879647767, -0.023593452937376497, -0.04149213637405825, 0.022972106701543954, 0.012627765486686596, 0.0072002881039724955, 0.03380897997037154, 0.010766074846433849, 0.017112669838037407, -0.0032176503796499485, 0.03767676740263222, 0.006669020814436742, 0.0011482063743072687, 0.0014935252681295616, -0.022131381475854615, 0.047929758626969486, 0.07968609010821723, 0.03343956415590777, 0.026555992270222397, -0.004913534703452726, 0.018760187484589717, 0.026601542888240903, 0.013476152117402409, 0.04280253577386959, -0.043183742554469086, 0.004815716927677312, -0.032329072985902686, -0.0388279544951739, -0.005740804282821575, 0.10858669927827537, 0.03471583241981107, -0.0019096929373467986, 0.031796766869036666, -0.014968601921306097, 0.06584248612106762, 0.015880966884209615, -0.009548257070549074, -0.032236094343962025, -0.02523400814529959, -0.04381813090224277, 0.04976320406305693, -0.03268444352707429, 0.04373333327157779, 1.139542319253773e-05, -0.07693222793378059, 0.03328289361064978, -0.012489528711347437, 0.05316778915684515, -0.008209376543313633, 0.027214841294018046, -0.0716101410007174, -0.03252937469683601, 0.009283977538937482, -0.05859789999614906, -0.031157764635792222, -0.011517452584545809, -0.009324201930662884, 0.03972142610319054, -0.06853618887436584, -0.03662754156771029, 0.07159393025762599, -0.03673152351586218, -0.04610784987755766, -0.046832984172044456, -0.029324250731279266, -0.0469034993877281, 0.02727003282344354, 0.013510502720398734, -0.02839273967500462, 0.03238214590170687, 0.03928938886019893, -0.054684141240261615, 0.011571159619986175, -0.026268396969562076, -0.010997546174396782, -0.012299205073644749, -0.08587520298423221, 0.010134908320951189, 0.0020084517278467933, 0.0043471581035745945, 0.09049372815987948, -0.03440834418795392, 0.06817623331710608, 0.019315763896148936, 0.027582584723022496, -0.025053698023017785, -0.018954092290017568, -0.0004199235497177679, 0.029251789386421763, -0.026978452521452145, 0.010680966028281367, 0.014193937317953317, 0.06560987912296404, 0.058461080096020156, 0.015677883498394943, -0.03555194690069757, 0.033739138120525335, 0.02928578110263727, 0.0535885755190316, -0.016917403799078964, 0.03316646082216022, 0.1027716912264011, 0.013547119001307189, 0.05248538591514017, 0.0010584008118769274, -0.019884026287258865, -0.005821378357258058, -0.03040086441191998, 0.0565572721170567, 0.05032288720846328, -0.05062248320151691, 0.012343748223916349, -0.025446961681163695, 0.0068899125186124895, -0.05197427370614072, 0.038153371675968176, 0.030202334377353656, 0.03051874931466807, 0.021118362961948123, 0.03064815425390335, -0.034081018656452154, -0.024795023209187035, 0.0024286889612045856, -0.028559952912880823, -0.034514566124624634, 0.006215455831429024, -0.003287919774860883, -0.0010969150120980161, 0.052653348610355824, 0.04689237703186681, -0.03179735960440048, 0.02986810944402828, 0.05707322005256592, 0.024046985860472908, -0.027226540303420445, -0.01000635117097248, -0.026682304313915974, 0.04983976365598025, -0.022024964385310986, -0.008230172961923564, -0.019078867403395105, -0.02377556206885781, -0.012321268782360678, -0.007832580453536866, 0.024728132489542372, -0.05782234323459612, -0.010809188812591325, 0.014105890087609188, 0.04393817170555782, -0.03493160537367153, 0.01309303244915031, 0.0075947420234353915, 0.011517242362382801, -0.029112070437157297, -0.04143010061048286, -0.026581378909437604, -0.034895426314112445, -0.014356630089835929, 0.02128891865419384, 0.04036319396706508, -0.023263480408592867, 0.06741986726149748, -0.019628638737393934, 0.07740657409007222, 0.02250273529830942, 0.0024454374369620945, 0.031214952006831467, 0.0422289812306078, 0.03643527625821894, 0.038317189144275864, 0.035449176587957765, -0.004379073358831165, 0.029762988848211214, -0.05284992580013899, 0.085661355726491, -0.016940863302274355, 0.0024977290943620062, -0.012733004214724869, 0.0020451384623471794, -0.0032739703840268955, 0.028240253089559762, -0.03686628902536327, -0.047676279746559934, -0.030803469349792865, 0.007451732134869474, 0.042698934543107636, -0.008204786714168529, -0.03535356087789886, -0.008190767175734972, -0.09587861184646894, -0.019817965810740693, 0.057417968489852, -0.009314990178088383, -0.07265531943020322, -0.062275893410660685, 0.059261803591506075, 0.036000288815871216, 0.018977653187911836, -0.036413695678297185, -0.05990267224466742, -0.0023473850692199176, -0.06376799757665262, 0.01929302741902327, 0.023403646863182685, -0.02738382010758855, -0.0034781695036698824, 0.01803322002797992, 0.033080074152980296, 0.06136057623632461, -0.013407063642047136, -0.00658507014062248, -0.06988507452132636, 0.028064471298307504, -0.0033709001983577252, 0.042322359129479147, 0.022691601498260182, -0.06149245339001249, 0.04380367381707424, 0.027952684460654, 0.03058456451394295, -0.030467205203137507, 0.013898596323641247, -0.00706986679027075, -0.026812912319578486, -0.02243502181630847, -0.03889093483008541, 0.0111545488829039, -0.020534737374597652, -0.05264531323804076, -0.005312537822565631, -0.012356016763276814, -0.049419933782246864, 0.04948195221471245, 0.028394513532031016, -0.05982368319092091, -0.03764166301806426, 0.017337398441380394, 0.04522433301848851, 0.0021074411137552364, -0.025280459800998873, 0.0926431195969674, -0.04457927517448372, -0.061811540893070026, -0.0555092995276815, -0.07492145664246481, 0.017313731999109877, 0.02145012205740324, -0.053949174191621416, -0.010343493888488584, 0.07258530333194825, -0.04875442386319454, 0.014661430893573428, -0.008527680364751955, 0.013224901777413468, -0.012795091127157585, 0.018538476753093037, 0.04785721674184872, -0.0030488706210657426, 0.042950637323000036, -0.07197857294265216, -0.022581943282815795, 0.014944054972826987, -0.0025150429290671664, -0.025012577158637885, -0.01348527402615117, 0.038549501679443425, 0.035609001879598125, -0.03803097086978063, -0.021403395333457254, 0.03617894048685, 0.017953208241293792, 0.02191253774254049, 0.04713628980643932, -0.024369761074415675, -0.005576504971397005, 0.024511445559092578, -0.02824171551443777, 0.058959575339818236, -0.041855043816695796, -0.01484399751285954, -0.007334906951131248, -0.015393472143373287, -0.021118766241076416, -0.009807871401319099, -0.0128963369518563, -0.0076273975039634475, -0.019839609506701446, 0.015886072354892502, 0.01829620733722793, 0.0551489769432126, -0.0006663971665491871, -0.009705974280809913, -0.05567504586477047, -0.05039780090277673, 0.041575344296789, -0.06888312641024946, 0.010398634504577382, 0.029849609046822607, -0.07351451909567577, -0.019418154269518494, -0.07603511176518228, -0.06960928607116294, -0.01955538926224595, 0.005917214428133532, 0.06189630568279704, -0.020976724981282335, -0.04750533936304233, 0.007267349215331149, 0.050414843436754016, -0.0495466752592396, -0.07107488496649388, 0.028419103909225106, 0.08245485328222708, 0.004974600698606355, 0.016784468072667768, 0.043279122151017965, 0.006119235070759433, -0.002487495116048768, -0.007862147491057339, -0.0005863800280791919, 0.007577968283743741, 0.006292342705444332, -0.03607703921383012, -0.07191911803931007, -0.007515641603837871, 0.025686091324154347, -0.03452575659233526, -0.04618864513799805, 0.05622461448904542, -0.010839948106708254, 0.0409495148347307, 0.014378685957983186, -0.041537409221583076, -0.022145832679134773, -0.020530711484473496, 0.005410731669037396, -0.03250505619463672, -0.07518210935446548, 0.04479431067905665, -0.04012617350271829, -0.03784889713498, -0.006098620885185265, -0.010814318197592505, -0.03149921396358781, 0.016051304661912905, -0.007938313593449623, -0.00565317230097307, 0.025434543632966874, 0.07045868071666728, 0.010236004895994254, 0.0017531780686203238, 0.018876562088620253, 0.01162803017844201, 0.04811443570995995, -0.013610265598519147, 0.02953142785840261, 0.038974727756988, 0.03839103016122765, 0.04228848008176298, -0.04583183914129274, 0.009023512215360347, 0.04421192948018273, 0.005991197520556985, 0.017279974819797383, -0.003101675199287545, 0.048896276189838085, -0.027837105104468487, 0.016870734991153744, -0.019308130253055205, -0.04348163753407553, -0.016072718657380757, -0.035652872757927515, 0.00419349571812456, -0.044743714678210186, -0.021007656566200687, 0.06976499585946534, 0.03343047084226459, -0.07592610972095305, -0.03140005151415975, -0.026957258624032244, 0.019352682587547586, -0.07608596753526296, 0.03130571464318703, 0.05151390686953102, -0.05468738433026288, -0.034922979491903705, 0.08466451807230295, 0.02348236625526978, 0.060730021308559416, -0.08434948610178017, 0.002024507485916841, 0.004945484997966013, 0.04018578342577608, -0.035717503701386696, 0.040131709437530326, -0.043878227739268784, -0.02365419054975362, 0.00879296750845049, -0.012142667711873705, -0.04392265908138075, -0.011151026239346176, 0.015589555224510346, -0.012213843381005405, -0.004950084418471264, 0.0029980628384634433, -0.02219178915292804, -0.049979579548068497, 0.056255564117178025, 0.018971042959638567, -0.05044309381560032, -0.0656883544169317, -0.05047226140703249, -0.07021205835109721, 0.0030110361888951594, 0.013093263638055729, -0.013239785932708545, 0.005407219506600894, -0.03101719349638105, 0.004622236229516034, 0.058973147601475276, 0.006635374320007177, 0.044926151453549716, 0.008514753671379511, -0.052834070851190136, -0.05830863402099474, 0.02205750125705774, 0.04214574121751578, -0.03588506337686286, -0.017529274865967386, -0.009861689093584789, -0.007023396684888625, 0.04334301333365056, 0.08619373929754647, 0.0004825329339776329, 0.010788375009780775, 0.015177467183745018, 0.012776606922458371, -0.0011864226356119042, -0.011687804244255301, -0.02465476383210128, -0.02877660779653934, -0.03693459082853685, 0.03907435025298816, -0.03155147793353828, 0.01718813728473023, -0.014241695341216198, 0.04072940533276608, -0.0012293896333400538, 0.04811704729584124, -0.0027092149989949585, -0.017841650089008673, -0.05595429994562771, 0.026240105460479956, 0.008932713650207955, 0.015470955792599859, 0.05060735313651803, 0.045247528402998026, -0.03891615611236045, -0.03217384294324694, -0.06569665204138862, 0.05980669911379274, -0.0057874111286132955, -0.0065082016711557195, 0.023597156257566837, 0.010023600656682782, -0.03227622948961613, -0.006265987482708583, 0.059548660042312004, 0.021994893630252855, -0.025587497114094155, 0.002000879957042318, -0.021504165610857804, -0.05127197867122737, -0.002175442026457866, -0.03982048347142806, 0.040599222132185704, 0.010767872161849256, 0.05518786504345498, 0.024699884536597747, -0.04012526861883501, 0.031334565153189074, 0.014913538571481103, 0.022490156301922363, 0.03774841311517506, 0.002826848694780787, 0.00739907989979948, 0.05470346924986521, 0.004100743683508721, -0.03138342210374893, 0.04428412778629071, -0.02194510863901423, 0.0362297819556339, -0.01511861741635192, 0.06959834035161562, -0.04397443371848442, -0.01116912582660764, 0.03019892019883155, -0.0224713961410261, -0.005954793799156033, -0.027017597369106888, 0.012886446015290275, -0.07830284173256956, 0.04932252365406783, -0.015559199819313882, -0.032769329418818834, 0.017086695412288605, -0.03528713619076027, -0.0032083273105391894, 0.04384207123316373, 0.017379228400871003, -0.01573060929717752, -0.0021672778463681587, 0.016527400489719672, -0.03268421216196462, -0.06540670762232599, -0.035789359875813616, -0.04966440905002006, -0.01593485948339465, 0.018781767602003, 0.011476397899286284, -0.03483056553225152, -0.0305743104046129, 0.023897647119445507, -0.04271225021181119, -0.0006427874496449164, -0.020243141381565046, 0.010872329792729406, -0.03894655574643713, -0.02814708298206526, 0.045487805750719694, 0.02186998728356077, -0.052910428199597244, -0.00686211733782813, 0.0021974232946496363, 0.02965508319903688, 0.0035798776212519366, -0.06590669571522627, -0.009693691673241843, 0.03948771964375482, -0.017556550245463865, 0.05164906910700201, -0.023543048730628496, 0.013289405513643401, -0.01292131855704754, 0.0031606302461843826, -0.0164683359118395, 0.018963911440026508, 0.021751670583481708, 0.004305205126274215, 0.011440179956590251, -0.008492284960567786, 0.01175450180245029, -0.026948397731783345, -0.027638089410333654, -0.0138014348115515, 0.0181445544509286, 0.00219967031526258, -0.02628262319156378, -0.08499038987366718, -0.01820371923295185, -0.06897376909367084, -0.012851691002492033, 0.03178269330136327, -0.005039763709639834, 0.04086503004490234, 0.06783015789246653, -0.06568969796528629, -0.016378400913400454, -0.0005566331792250102, 0.021103720191389487, -0.034011098006905494, 0.0015738636092273684, 0.0586792546124096, 0.006158701544864094, -0.03008332659650827, -0.035657891289122584, -0.0437210186487606, 0.08857087618682412, -0.0018348035267408778, -0.009221459669164588, -0.04834262657906322, 0.006985541724422907, -0.010742464569084452, 0.05205454163025042, 0.009181571982351177, -0.025320524979967635, 0.05413210134554099, -0.023347894848340555, 0.059642827373982854, 0.04604070968027413, 0.02589497328349159, -0.034271543937246865, -0.06002317590876185, 0.04187226872298437, -0.007866359173401071, 0.003267389431290744, -0.007120451006365364, -0.024070417058417764, 0.029234460186723685, 0.03443813969238579, -0.04643203188949717, -0.042451682296304756, 0.0013734592674690582, 1.3507956955922425e-06, 0.02091061906238117, 0.02014874414118543, -0.003027418446814448, -0.00800634357236251, 0.014009655733577769, -0.07599190363498802, 0.010302601882516605, 0.004894175117981209, 0.055804993632611564, -0.0072525359116171195, 0.01861694292919075, 0.09145584631123717, 0.039655425150208964, -0.015519728535979197, 0.03799238753805138, 0.005713713707175167, 0.0996003869954852, 0.00574793449965592, -0.014390947711501501, 0.005455718018774264, -0.004784110160423254, -0.02727866038770332, -0.047417503255166034, -0.004311480172738667, -0.02084103511059703, -0.029659993296628866, 0.09713988920494243, 0.04020507451784323, -0.014252497144251986, 0.0009574832945606832, -0.014908201815536497, -0.020688617926779975, 0.02509777015727735, 0.05290210071285615, 0.027508769680537143, 0.012822250623537581, -0.024788168630936837, 0.009484702085063754, 0.025483369308239766, 0.03499141540565607, 0.08798582921892083, -0.0463392028124388, 0.004228293948702136, -0.000869121748699195, -0.030597451438789915, -0.010045059974387987, -0.0055183926880292, 0.025342796535084953, -0.05475133305827385, -0.028947581527334152, -0.01758374301836604, -0.027857919047743207, 0.0184124567910067, -0.06572891445106707, -0.03098352071122145, 0.05173012235805874, -0.031593161463348444, 0.019048975366130955, 0.013151243762281661, 0.02369780022320785, -0.06224490551548577, -0.02940361236608857, 0.08304100910799588, -0.02238318510613083, -0.00024098234186013546, -0.04333041427107959, 0.017623391794847974, 0.017204719010036267, 0.012982398624713778, 0.02273741565312388, 0.001467871988409662, -0.018854065137665278, 0.019730953728641587, 0.0075809100097557576, -0.004977400214970924, 0.050268567035675435, 0.0029557827736497724, 0.08208153135283512, 0.001372656516405861, 0.04219037437208169, -0.03251782154126502, -0.02790675397413366, 0.0029790277182817587, -0.014111197015052182, -0.034530727650373634, 0.020467988077114887, 0.046140860807864496, -0.05310302054380989, -0.03765913596538743], [0.0057627174643865705, -0.07558132846795386, 0.04696911847642637, -0.021962130173668753, -0.03598881179799244, -0.014513764931363152, -0.04376421245965596, -0.011370882322851843, 0.0063776604944154784, -0.050864329314613335, 0.036437770833871154, -0.019083394728332783, 0.0048083176512899945, -0.006178811727831209, -0.018529943574258485, -0.026656341376276725, 0.0032152875738723726, 0.00020058869729441532, -0.02518526785938799, -0.010644889656330373, -0.016520443715580067, -0.024696911089631318, -0.06183469771309807, 0.013751437026003474, -0.03437061005722632, -0.01978249575213654, 0.02313480521756629, 0.0313215182845265, 0.027106786345503012, -0.04183251840551794, 0.03854212951294063, -0.008486755521215502, -0.02421857613467294, -0.0011829574266066301, -0.0793742317853005, -0.0080496006083261, 0.021407301564506216, 0.010536134770773387, 0.029907262544027178, 0.03297386978490915, 0.01244920891266561, -0.01117611151717717, 0.002120482555206318, 0.019093756926033833, 0.004866537415693211, -0.01941693489175318, -0.02053196440832436, -0.028420420338068353, -0.020598842481599284, -0.01590894846160959, -0.02890781416688776, -0.014764901108771978, 0.0877859805299752, 0.0022227584552351066, -0.026131462832181675, -0.08558308084513123, -0.00411382490359414, 0.01421088802368127, -0.009755611862817102, -0.0188453595752426, -0.0009120437850721099, -0.008904269660484253, 0.004282043423308819, -0.01507133865518687, -0.050433006506306825, -0.06371037899414853, -0.006974511995386371, 0.07327241019847361, -0.04758721321001781, -0.014025035189598953, -0.011864092520469193, -0.058728011283893725, 0.04202162926826049, 0.041299530226980206, 0.0013184966140995312, -0.06790521006039642, 0.03506228647213027, -0.03794951693586921, -0.006686107669314718, -0.01329877241267546, -0.007127121509451995, 0.013216393352362391, -0.051633603142459114, -0.002309978503079592, 0.030848704766122108, 0.03265773761284206, 0.03440378334773601, -0.0007305355700406525, 0.005094881020345903, -0.02805203674993031, -0.029791527068670137, 0.04961638878875369, -0.05010880598379452, 0.013325414475917365, -0.053467697014478885, -0.09262635537960817, -0.012158869584317167, 0.03884965214637936, 0.02600301214481828, -0.054541329706452625, 0.03721255275175323, 0.01710822259045856, 0.03156715679209172, 0.009714985452089939, -0.0032876512822288917, 0.01016466691764459, 0.04234568926445759, 0.06650520881936824, 0.05249730352343929, 0.011238553258521794, -0.0476118371425701, 0.006424732416901704, -0.034059032742503846, -0.024942781593506467, 0.03723034441906161, -0.00348981045150666, 0.026708534890336002, 0.020489295641273542, 0.0009742847569307429, 0.032884889731199164, -0.02440851757435583, -0.02807093982585738, -0.0074186989980310975, 0.0577561124789669, -0.012787191438413845, -0.015180854585941895, 0.0032710043960068385, 0.027190424658272833, 0.06299273799771912, -0.03984884945637259, 0.045858253601115874, -0.03167078835011283, -0.0013607820222836275, 0.028003565308230206, -0.044533651439377465, -0.03525762333256735, 0.0033218367069536106, 0.015721070672785675, -0.026383810943927017, 0.04276885962595166, -0.003202024981360428, -0.020562833471067167, -0.0007105471930085515, 0.06695342789548331, -0.03107759006301114, -0.04340753724072673, -0.02540820789326364, -0.012282552068886007, 0.024689330888529478, -0.016814607746054335, 0.004002782611566519, -0.01798844906025255, 0.014308198782482597, -0.033191424050970544, -0.02486923483478575, -0.017824584925793256, 0.04577261943804741, -0.011807545467184096, -0.031228866198373204, -0.03062341056143994, 0.028744435182578305, 0.05083815802186814, -0.002698225587493823, -0.007789940570245578, -0.020549611844959098, -0.06032776248607865, -0.01102896935192679, 0.0061482490743243745, 0.01903387345985652, -0.0294848808466461, -0.03387261325734684, 0.0060382752253102375, 0.03369602358081127, -0.007128927466016776, -0.013725901952163192, 0.07252440765909397, 0.01294483459847681, 0.024176604550082352, 0.009801591867119324, -0.037749152076688997, -0.01747795247581743, -0.021392971724103874, -0.05662179227531011, 0.027339501446835845, -0.028320996808069394, 0.01373356578271875, -0.005860726079278565, -0.03833425081079119, -0.03518108751826643, 0.045385324617285054, -0.01804890383482872, -0.025977038601632797, 0.01941223031894353, -0.01931423796591077, 0.10312293001910729, 0.007447446154056972, -0.052718615134375306, -0.011535921851358396, 0.007581651273683085, 0.03741604029143172, -0.005889396591689749, -0.08229193230339069, -0.03430094132824339, -0.03467335323282912, 0.038885875752474555, -0.09162690057355169, 0.038037942837762594, -0.0006706161810155194, 0.00477267654404709, 0.03159907828053833, -0.008707602351509903, 0.00781917554454489, 0.010156933034080398, -0.07292972238346226, -0.003616796996731259, -0.03317468678586978, 0.03998258309225694, -0.003479614455820576, 0.014967154328182979, -0.03238104290993638, 0.027118337137957128, -0.03836285268762618, 0.02477206267926654, 0.02135089891536338, -0.01714195507270337, -0.06045875174323708, -0.03833601734318531, -0.0013383575762275183, 0.03531422295580865, -0.09887584210518414, -0.03106101497228096, -0.004130289664053032, -0.027440573435964514, -0.007496083914964159, 0.019418306657834318, -0.04326576896828208, 0.021290128421100115, 0.004974300776361857, -0.0025796850938139605, -0.008367048017728262, -0.03432986013891047, -0.061453290346225646, -0.027568834530375053, -0.0022407075557050343, 0.057715286406153275, 0.04568631189409084, -0.0233896725213087, -0.011582189982587546, 0.009165120727468876, -0.05521745779819437, -0.029379712406108458, -0.050692538884024134, 0.0507654791933959, -0.06269535602271635, 0.01753678169525997, 0.018149709174825068, 0.0671725218831791, -0.004849257509744331, -0.04584743894122103, -0.059096694441316544, -0.050431098866049504, 0.03305290628757416, -0.003915788348456952, 0.004922030282325765, -0.004982303576171588, 0.04735839781745356, 0.00436835150097723, -0.08977681386982057, -0.0720651459005671, 0.028798777999353372, 0.012013698509864513, 0.015716086948157123, 0.007168745851164109, 0.029743123730516404, 0.013268478975765857, -0.053419015566461905, 0.023338951529094508, -0.0049505116871059575, -0.04909993137417298, -0.0539180905259943, -0.027244883858006445, -0.0445625995717664, 0.049719035784367885, -0.00015483585387165118, -0.04069047550656063, -0.02452906057854823, -0.006008605422799461, 0.06587188216989313, 0.027413802100992594, -0.03212612180496001, -0.0099969633921819, -0.024974493066638757, -0.03700201839044388, -0.028404762996196563, -0.024030610466255424, 0.10649336564346971, -0.0076248883190425205, 0.04852170855064421, 0.09305838689664148, -0.06414237105843064, -0.014795029069507805, -0.04321908301008475, 0.008257684596096649, 0.009505968194532394, -0.02486515093242208, -0.027531394095383722, -0.0265930968282986, -0.01754049210564047, -0.02287418728822192, -0.023605194237778064, -0.06634400412730217, 0.018779288342540584, 0.006516947502986232, -0.02862626201179121, 0.022092566964036296, -0.028229869720767305, 0.07277702776411799, 0.010887622759174908, -0.00954020146641312, -0.005991715761250756, 0.07396362609375197, -0.020419962324872254, -0.08860491398496025, -0.004894161919427435, 0.021542984407132214, 0.014927398772523423, 0.00336643500273284, 0.06823448159365383, -0.0011727285776007422, -0.03059502630364878, 0.005631845218722781, 0.03702144882761393, -0.03391348855552511, 0.012304716141734534, -0.0020892564495145504, 0.02539618254922584, 0.005960703988762472, 0.034081960844576306, -0.004724057940997042, -0.00700541288078362, -0.0845059882734076, -0.003960685276083534, 0.018362578148806756, -0.009921753019619842, 0.03232629526685833, 0.03178050526372044, 0.0008273779140234189, -0.008466170764473183, 0.02815692199657643, -0.07833087788980729, 0.039150595884054555, 0.02747192838378473, -0.013641765283643772, 0.09903999995357403, 0.008140816684224452, -0.025037167701307785, -0.05151739374870568, -0.024479013447491878, -0.057077778514164255, 0.0013446281844616808, 0.06403728180047077, 0.030679021945497594, 0.023355100621369692, -0.010824805909793771, -0.03512035010089647, 0.030145926126763496, 0.043936618942943276, 0.03633586843060966, -0.023137213961348692, 0.012325124065930757, -0.036768304698745605, 0.04116593724834001, 0.07583183805367742, -0.014283106199157234, 0.019959438826796686, 0.010719368637892423, 0.09145063153118858, -0.0031291455968775407, -0.008357191396942494, -0.03489733786470165, -0.017118127761755184, 0.018807500264946063, 0.031529624307512556, -0.021825412223954618, 0.0260200576796871, 0.0016303019183913834, -0.004147704225135387, 0.011408170424549263, 0.028635644059668387, 0.009535268285402632, -0.08037877401356162, -0.05892572795321966, -0.0366387376184259, 0.0049955777848214615, -0.00251157975109714, 0.006602083657027808, -0.08259243337303268, -0.025398210937150317, -0.030585588340768324, 0.014756310581324374, -0.00010229738463147892, -0.059636455061713715, -0.011826961439014459, 0.03668412539791608, 0.024749833618562568, -0.012735727497413413, 0.07552105867931366, -0.007385004359457016, -0.023865353114676646, -0.04326015018551284, 0.011828926801769737, -0.04971246338666837, 0.0037481817548659473, -0.016213626860229435, 0.03683161987023348, 0.0603653598014433, -0.07121182177436278, 0.005698401868811121, -0.013474113995908244, 0.021601041690016306, 0.013860175732974675, -0.0459220971023027, 0.023458675474194578, 0.012168158217351609, -0.025122758004432165, 0.03425534414446215, -0.02202056970839043, -0.0018854632955306266, 0.009773928893747393, -0.02746084444043705, -0.007267759151675046, 0.033778295952119314, 0.07837811679072139, -0.005741420394225029, 0.015561122809113625, 0.020571037096762067, -0.010624994730209619, 0.04255700354989968, 0.059552653650154705, 0.009316687012507364, -0.030339798742481834, 0.012092953515013929, 0.030869320758042117, -0.0005325712698614928, 0.06016321279461364, 0.0028687466278148467, 0.015944814147532526, 0.04088680807812683, 0.006246689009296694, -0.06903960171219685, 0.00798568986077658, 0.03728348649194718, 0.03469345810147042, 0.006999803510833242, 0.016108461036117013, -0.012672073160876976, -0.01609452855466238, 0.015874493441247712, 0.03752477538810765, 0.02479921521744823, -0.01399335790102761, 0.041250815089682584, 0.023801238174652798, -0.05564850179480303, 0.024556009298523425, -0.020924676655336046, -0.013116970474487016, -0.006282294465859283, -0.04103571583163594, -0.005601511393712283, -0.0007909209450182589, -0.0005738685091690821, 0.049448588298439844, -0.01185002652637673, -0.043377039371793394, 0.04584439637586237, 0.006576437290141028, 0.042291848286015475, -0.0737990641057096, 0.02725679487908168, -0.027966420407152866, -0.057571418969312164, -0.010143828810333733, 0.018168253538876585, 0.034068830565632535, -0.029372870505985953, 0.01685277429602707, 0.044812556977757274, -0.07728006504504763, -0.02972623646016957, 0.02438112063957649, -0.026888186860121874, 0.022898305691382105, -0.010290803056251506, -0.021958836270316397, 0.05721329366449386, 0.036490682301743814, 0.048249292066827106, 0.0183480309407798, 0.008199293046182854, -0.007774803304732847, -0.05458018332348702, -0.05639902496788981, 0.014330165381639096, -0.028774673605130547, -0.017842329139446108, -0.008251267959370924, 0.0004819292289134094, -0.01978146784355588, 0.01025759688567339, -0.03395986856076795, 0.025571212378654312, -0.018138559089510897, -0.005365367062313098, -0.00405229283700478, 0.03510904301424408, -0.011266789720039166, 0.00978937871904041, 0.03940895430145567, 0.03129708103150949, 0.00197228676279073, 0.011648456136835733, -0.010440227516269917, -0.031426651406285644, -0.044937306663280455, -0.07512184020993903, -0.04197200661049221, -0.012821164813696193, 0.025416333127088072, -0.007155548559127031, -0.1085166527336894, 0.04079226512334868, -0.039808608444994405, -0.014253093686396481, 0.07719652166516114, 0.01738137894588579, 0.02321173256588982, -0.01271648750154261, -0.003255043609368142, 0.0476576320006845, -0.006906394653304162, -0.05243519699510767, -0.028887755907486923, -0.021636172285198395, 0.033963878221116746, 0.03230561471514566, -0.05971843032755221, 0.013037411066985144, 0.031283644575444865, -0.007571996889144151, -0.010566366691540627, -0.018145210583429633, 0.009659888414693323, 0.05681305147244582, -0.02459750305061898, 0.011674868103363222, 0.05896479833666145, -0.018367771291341123, 0.012026458399661039, 0.017993116816924924, 0.002667389650085674, 0.002372482368080391, 0.005524837086909827, 0.034401722673533065, 0.04038221872173275, 0.04511097699177736, 0.04799543413236641, 0.035146461054612194, -0.01875196476848773, 0.05778921662926663, -0.005512910944530163, -0.0031775028233251303, -0.008298123673954678, 0.012558122713243311, 0.02188781360676406, -0.029175369811763156, -0.05915599536434751, -0.021877938991456316, 0.08629589445973797, 0.01696076198735182, -0.038640379660306985, 0.012108280693459145, 0.046398881567847654, 0.008833488444950592, 0.044082777371314, -0.06235606635022908, -0.054155697762936016, 0.011792193336688397, -0.03167647223633053, 0.03534507224110987, 0.04302731676295801, -0.01262222540362545, -0.049561868880388216, -0.043826703115179465, -0.027962464970116483, -0.058275108123587785, -0.023513096533153813, -0.018586462835311575, 0.014114213325926456, -0.005040206554697271, -0.04000577862855622, -0.011455216223249281, -0.0380124692108622, -0.024181649051478158, 0.009350236770130168, 0.007487224752569309, -0.0175181473453989, 0.033652048658010074, -0.011744279440017305, 0.021374801678356477, 0.021650245579254962, 8.387355369001394e-05, 0.012876206874817069, -0.06062317169243518, -0.037495979481490416, 0.014198517163763654, 0.05068899995354186, -0.02544277521267258, -0.03193907384211899, 0.029030537418235063, -0.01972609082695992, 0.029756393791130455, 0.0011221928146870894, 0.00930504697272806, -0.017955921939851092, -0.031748623327500405, 0.014888338658624132, 0.022873444202612076, 0.0010394767328265199, 0.0374830735634507, -0.01598200102804129, 0.018155981966564944, 0.049520824086167474, -0.001734344021606628, 0.05162312132533055, 0.013441099240531688, -0.04443824527641046, 0.018734444366150526, -0.012362098356496262, 0.02562521052164296, 0.026760642653257193, -0.03673854276507061, 0.0006490250172957846, -0.00900621190381985, -0.030485277076169055, 0.00909907974033611, -0.028709914069362127, -0.07572351993705081, -0.04336728977861799, -0.032533922618981095, 0.005497489829484172, 0.0449866581721301, -0.028448772625781042, 0.022526553742264928, 0.07328831175290132, -0.00597343329064233, -0.01644214249622141, -0.025749655458380226, -0.0018070007560506709, -0.08767658648471197, -0.005150876989320588, -0.0277735270149819, -0.00574114770087196, -0.058258541964899144, 0.02322234698911588, -0.0036852985119222004, 0.0064604722443670284, 0.044317669177287244, 0.06105704191714891, -0.05828071958408548, 0.025073688286686234, 0.008274325217757362, 0.0408455612560061, -0.053199411689296094, -0.005907863678474686, -0.00016349137385251078, 0.021247013219834836, 0.035333970095102335, -0.03389243556546926, 0.04991191835302098, -0.026290386182737397, 0.052271736127028394, -0.025474744049562993, -0.012849338378898284, 0.027171542081324638, -0.007128008406952652, 0.04393173401315832, 0.04691381159305943, -0.014165862758698211, -0.06646256455375432, 0.02644001032771787, 0.023240310155777235, 0.017622673489986102, -0.0020394038014056987, 0.021057224415571084, 0.059425766362661676, -0.021860508325564406, -0.02922415585171611, 0.015917902777084953, -0.06888281818744742, 0.0048183571461885375, -0.03507596629171092, 0.007319682863912397, -0.013365917030272765, 0.001255332864014222, -0.05037825560211534, -0.045015583798001677, 0.04143527410720941, 0.005967000346251298, -0.032216176423186374, -0.004830704802740548, 0.019052748837460005, 0.05136897750918707, -0.057865783338743086, 0.04933083817875455, 0.020418573222971085, -0.0023170245596773357, -0.009733411508255721, -0.03204760444844228, -0.007162355066016909, 0.00508366741594158, 0.03910338658627468, 0.03683568583157857, -0.010082239161869882, 0.020756655832463163, -0.028096392876555205, 0.04397701502218177, 0.040754796599066896, 0.024776144664550453, -0.024843536255510803, 0.03886073997769242, -0.024889460239257512, 0.05455110598597541, -0.02237211534616777, 0.010762415600319014, 0.03133344031891188, 0.012546696563736163, 0.05009419121544944, -0.015710737307493675, -0.006183654366322072, -0.012518214577921275, 0.026866187279717523, -0.002804617650445165, -0.023159077752329706, -0.005920166777744686, -0.0022121103037417134, -0.0571908636001351, 0.029044260584748734, -0.03354426603370842, 0.028054544883819452, 0.017130223639859863, 0.042882392370152754, -0.03292718727303438, -0.0216356924808578, 0.042288758857370136, 0.04007199841754946, -0.009838651416518154, 0.03113349795212807, -0.060454746404867456, 0.006666773884695286, -0.03803105869486549, -0.02477720686432764, 0.01616348701881815, 0.0011493583970972002, -0.07993145260024584, 0.024045509319751218, -0.033485364148273154, -0.000312460004667268, 0.031054005666774406, -0.0007609092503960958, -0.06258930502930389, -0.0027885255449177668, -0.009597194464263131, 0.01027209907665851, -0.04023881965860134, -0.06385784680627067, 0.027573021767331316, -0.06824601399401284, 0.017946632221700648, 0.033459005562364995, 0.00549900016734525, -0.05054848508959015, 0.022197186642571882, 0.03404603386567545], [0.04860670786602093, 0.027901262635399972, -0.019045391231052162, -0.06225189859428203, -0.045004340232525045, 0.047887827872622475, 0.019709073181753616, -0.0066099111851358975, -0.07116998864748196, 0.018667338461270635, 0.03998409378575834, 0.038726396149192856, 0.06428186221369293, 0.04498318650690131, -0.01385236330362051, -0.024868190329709505, 0.020218747951728844, 0.06445213988998379, -0.02417237152968712, 0.08944572855976825, 0.00035143934622478766, -0.07425993100219429, 0.04514966003537083, -0.03183946650839092, -0.006537324239584874, 0.021727620960584216, 0.044956423827703686, -0.034043461123256735, 0.04687812028654719, -0.029254681972978862, -0.06279425312908486, 0.03412547147558717, -0.010040623962258601, -0.00725207547102266, 0.006840654522298706, 0.010139742962642754, 0.04225739519497528, 0.015624330441157838, 0.026949473267201523, 0.027679413016836178, -0.03282652843396885, 0.01300824604417788, -0.02564729636473081, 0.004222156199340447, -0.01664209826480882, -0.010145339947824919, 0.039180501954918685, 0.00612519986982331, 0.01097494536649224, -0.005433885903092438, -0.04053769422682325, 0.06088050741258897, 0.01444720537956061, -0.0194112535173282, -0.06968703007476641, 0.06132419779718535, -0.031313130036226954, -0.04078497924480446, -0.015162561481251018, -0.0030874170788785745, -0.02050032672357462, -0.04231927261643377, -0.0481994228995571, 0.01355202490010048, -0.019232686892403292, -0.06362517273432468, 0.020524119099070454, 0.027077979040590422, -0.006586795799636171, -0.04762061544280233, 0.004082020940936658, -0.00406481759246764, 0.020125464021765408, 0.0009395076192296497, 0.04965866346925333, 0.005404850822107732, 0.014936308009039362, 0.028980292032191057, -0.0414053934303673, 0.0031041681572237583, -0.0030180187798501536, -0.038387588219977654, 0.014787543459069756, 0.004335207879495667, -0.010518646132405095, 0.030654532964917155, -0.01951930857795946, 0.03792391298842924, -0.01783842096476988, 0.01007149584626388, 0.016864880049618763, 0.030370500427039194, 0.06603240115998452, 0.008508107688770397, 0.03223471069743013, -0.031799792662714356, -0.014247981799856185, 0.0226749375617039, -0.010722284778557675, 0.02315992731555269, -0.04755011276244293, 0.03250133966209418, -0.07649864612822842, 0.015284706203617387, 0.026967610964709253, -0.027252491404224068, -0.024965809546938892, 0.005718306922817998, 0.046997393317347536, -0.053118223717975636, -0.038566388784480495, -0.02419175955550514, -0.030179333560664368, -0.028869435971701145, 0.04166098662070851, -0.01554913485925699, 0.010874572225949434, 0.02698098200555422, 0.040726150927682496, -0.0004915609378246432, -0.057384192329607335, -0.020377134936475496, 0.010261456391578239, 0.05663538192566619, -0.002864037213867381, 0.03973701043914755, 0.06551772584796832, 0.0017308396153138984, -0.012207524189924745, 0.03537124076651358, -0.009889772415678994, -0.0034288247006928124, 0.00118703953866598, 0.03425356368140831, 0.016468031124433343, -0.0034416738951437886, 0.003988663479538287, 0.02065767950109926, -0.010729477235032484, 0.05977745722843102, -0.042171990500034104, -0.01689547855131503, -0.04773994285912252, 0.0267737133602044, 0.06206855199720494, -0.013223473703103656, 0.005653316460486448, 0.018343779993121014, 0.04309603928339095, -0.021904009060267512, -0.0583057883076829, -0.016191450772206704, -0.012084624694088376, 0.030336663862316194, 0.06392919559323866, -0.0563366513049514, 0.003508130562856032, -0.03264731867557054, 0.011675056005981056, 0.015411573374828116, -0.045823236308257485, -0.03837421556292677, 0.06373998267398535, -0.013520069460259045, -0.007035531538032159, 0.017104223185139582, -0.010008596391400365, -0.0011076235374956286, -0.041539156812777034, -0.006202572973860778, -0.03830225288448682, 0.04215512278403821, -0.003032584170275112, 0.005994191801140645, -0.0358136959926932, 0.01732855832511714, 0.025120822725224395, -0.062041136562011115, 0.0319351510336685, -0.036681639908122524, 0.07452239101182782, 0.04219996740871399, -0.007863145227682769, -0.0021277395465193138, -0.032838197402153387, 0.014549187504617688, 0.0009288730311739393, 0.04221445250420942, -0.03702842738085823, -0.03725817237718305, -0.0053921438622537305, -0.011825820322565938, -0.011149059059327431, 0.06822019187795877, -0.00349283486006659, -0.01883968793674709, -0.029221822655121694, 0.012249041499479928, -0.04703577252039353, -0.05622032191547712, 0.015409967311145521, 0.0230902134046157, 0.03379074043064843, 0.006873125521200364, 0.024181505274119334, -0.048620830435115094, 0.007371960509360187, -0.04630264768107959, -0.002442139710481722, 0.03832696793241657, 0.08845523899180745, 0.02795905502554016, 0.027131592048419088, 0.009538314902632369, 0.017231329440021696, 0.009564860257294623, 0.0017512899148186577, 0.023706140540760322, 0.026143572268405774, 0.020329146052653922, -0.05253946148790738, 0.0913410996940079, 0.05001469022230526, -0.007557798501336227, 0.01377132067283447, 0.04983636404649302, 0.025020182824861105, 0.04335120561097622, -0.007942771668843133, -0.005682016494522721, 0.007308332720348961, 0.03037907828292526, 0.042334570752828746, -0.021115098382299784, 0.013846281643044979, -0.04962514984410734, 0.01843005342621157, 0.04140609186351907, 0.040044039697761935, 0.026781042807432476, 0.018480384268155174, -0.0029875220477607045, -0.05243413195841575, -0.024144738160452216, -0.007194330139636047, 0.021514476173767828, 0.011812844795127954, -0.056961206895659824, -0.01360942376719898, -0.07430342744381425, 0.02939272362355319, -0.03552517413089741, -0.08040716253047184, 0.054710953922011925, -0.01775111934989381, -0.03756516875656508, -0.0443970730492917, 0.03036025983940179, -0.01534316610927783, -0.004875466348720823, -0.0003407196095159334, -0.052678408398674645, 0.011180116812944719, -0.03195523050285838, 0.026632257671829484, 0.04343290625804845, 0.021211983374149118, -0.028316053439558987, -0.013742750214122445, 0.006281640610087557, 0.041929425417242164, -0.021509190959506708, 0.042545552588699895, -0.07522508637264876, 0.010038692174904067, 0.03300784102834649, -0.03713191369744936, 0.009375705641298188, -0.014636064923497252, -0.02007227203718689, 0.017369729107104676, 0.014770633627622983, 0.08398229848574412, 0.015228114719475801, -0.018481207164299036, -0.0248378937261386, -0.015768874811064666, 0.005930992486058768, 0.002873285928854909, 0.01313895504390106, -0.06463851497211874, -0.02006789114048741, 0.029938430766298242, -0.0352829278670589, 0.04853309637649631, -0.04515250187522607, 0.06215957785004792, 0.0030260891994163086, -0.009688937519801166, 0.02402073447555923, 0.02145266306515589, 0.007069812971654279, 0.00940373380192456, -0.030428628852008064, -0.013431899181333567, -0.011829929912227895, -0.021074485451418764, -0.01841127685193211, -0.020392274312713794, 0.0018502833219124358, -0.01616108934519879, -0.010267432485689452, 0.028753795733376893, 0.0333563660572413, -0.00021677485158731998, 0.006714342058270907, 0.018095199952531785, 0.06313283627883984, -0.02285805092080837, -0.037937198489687955, -0.014107422399972659, -0.0031118980748712677, -0.11735814728776771, -0.023516652640422697, 0.018898608701259957, -0.04224802473451498, -0.005703167878301332, -0.015641032109214976, -0.0015046792908879906, -0.01653698431532949, 0.02223688716704273, -0.006414004207335559, 0.07237304663421314, 0.042217878973027555, -0.0190992453810661, 0.020896174249267534, 0.024824461895426687, 0.01077695100524552, -0.006937182174186145, -0.09522470104986762, -0.045518623985166505, -0.005772074631959998, -0.005843840677107491, -0.06208218369661026, -0.004573721068198365, -0.032939411633253764, -0.08139591201062273, -0.029958382427067613, 0.03356179724537147, 0.024800966121377378, -0.028569046048618648, 0.0009752330395451017, 0.031763895303070784, -0.006979997867443777, -0.005538034321775436, 0.015255978886780248, -0.006861386252444844, 0.014342649654566381, 0.0622027888905422, -0.059721677096294355, -0.0563052244376918, -0.023197292579581957, 0.01018067423000672, -0.05522484992914032, -0.056994123407867955, 0.012024827592236897, 0.003832013878860962, -0.07864177212574734, 0.04065766729365851, -0.03774003860451065, -0.021358915802608115, -0.03161545259158316, -0.010254518169865124, 0.03118669234411284, 0.009838131771495147, -0.061390983240244876, -0.0019368768081912768, 0.00384407999927032, -0.046740146095065174, 0.021376471043107748, 0.06303666614961641, -0.012624306571378857, 0.004921150757225471, -0.012042907679903181, 0.026236734276625418, 0.010213883076220304, 0.010499888787780748, 0.02249180589456337, -0.0063756181134472425, -0.027465961881689312, -0.0068832930090585425, -0.02505383241278505, -0.01874663734480731, 0.06818823979622149, -0.039072837784999, 0.03150108929112185, 0.018487544135744237, 0.02594250416762477, -0.02100939566744339, -0.033588316046023976, -0.007263966526487094, 0.01091247644101551, 0.006784613417203572, -0.0378725729029352, -0.03261930926461886, -0.040451777758618176, -0.01088669095639655, -0.004057823693565994, -0.019857541699546812, -0.011461329717224505, 0.03677556191223091, 0.01615300500859261, -0.027274553539584724, 0.02132524530497486, 0.05051881081195602, 0.03526803385957011, 0.09217937751970914, 0.02844209992076836, -0.011759544021328361, 0.007510652670649472, -0.0502344841835977, 0.014970162565558378, 0.003303306938283203, 0.04424849767743362, -0.0027857722373600398, 0.025791041869021473, 0.04877211038285232, 0.0025465877907532874, -0.058324392581942254, 0.011701520559943895, -0.00673965668630623, 0.008639466698301821, 0.020129790686469362, 0.009680113546460974, 0.013318509859040076, -0.010291651800501218, -0.03383168987943493, 0.034261128897515, 0.07124281474055859, 0.04339214862237335, 0.004114331048221904, -0.11812025482768507, -0.0013876010237764758, 0.003289995544221577, -0.023754841945397037, 0.003244510181647152, 0.005136546783604935, -0.06898483565804008, 0.012690015475996907, -0.016174364942078502, 0.024017383952212926, -0.005104903210589683, -0.04329946680036096, -0.018212314321463408, 0.00925322997080246, 0.006709423395729733, 0.02640260292246532, -0.004682445428219312, 0.013998904583238372, -0.07519469953827826, 0.029632504936041748, -0.009290643038290037, -0.01176679498522754, 0.008603979574455294, 0.03365848166062051, 0.02634046614254946, 0.008031710982756426, 0.01877793764594604, -0.008940114632315132, -0.018007691621321497, -0.005112220046110621, -0.024963985923245866, -0.010681203702132352, 0.06429006759311608, -0.02321108528789454, 0.0017106391964795344, 0.044493562406618656, -0.011886300515518203, 0.006233288791668686, 0.044664733387094036, -0.006573283317746621, -0.04454050103612422, 0.007098046418001863, -0.004825487261214955, -0.005911238852051887, -0.02686210825838636, 0.013335770771839894, -0.0298424192459908, 0.02705520530212881, 0.10775344746089902, -0.005395010361237656, -0.045388699479891166, 0.031228132085116093, 0.0001564258598624013, 0.0031759696970216082, 0.036409897163151864, -0.07064124937498653, -0.003925168042772358, -0.002410877290319148, -0.01925597491613047, -0.05655287291376558, -0.06998180190749449, 0.061149332751601324, -0.014186845715994012, -0.01197579199550585, 0.043068515875845086, 0.04237115780924061, -0.051682849805874474, -0.045795545587864965, -0.05015601028601955, 0.07679968281976166, -0.0751295938385269, -0.008211233945659443, -0.007535493242335212, -0.00544406509869796, -0.0024301284661931355, 0.05317048570435697, 0.02150242323009035, 0.05329902198003066, 0.012857430511745902, -0.028975012276865324, 0.00033586614245991397, -0.03178424880999231, -0.0006213070726504907, 0.01903872607623942, -0.07991128921901909, 0.003420164402400419, -0.022960174690919884, -0.0030964273147573327, -0.003937154376905301, 0.006578141640850768, 0.015468009459656772, 0.029350368421938697, 0.014460885803620914, 0.01894590698673544, 0.05684608192034961, -0.034648588058214955, 0.00857459893745777, 0.00795093207527685, -0.06964514462707411, -0.05212243981156766, 0.03500373863707937, 0.027364613930776636, 0.030348447457055512, 0.023310769859448723, 0.0411608624603963, 0.0052022881501815514, 0.0038403615974742533, -0.06438073523212269, -0.06941208862162114, -0.011076476529668339, -0.02050972667603665, 0.06929290280006242, 0.025074979811673843, -0.006404744864035612, -0.02374494936382039, -0.029190853097345898, 0.018202834689614127, 0.0005295975915168732, -0.007195346863097967, 0.006166287349472397, -0.037817962093774804, 0.03869549252416826, 0.023202977462186823, -0.011054371688899594, -0.006922254991369022, 0.07110792344504421, -0.029775389180564354, -0.00667123426366262, 0.0026551134995681726, -0.05262114379845536, -0.007779269564054598, 0.0054338885022815735, -0.009294812301360585, -0.024424317525809952, -0.021681557604810997, -0.017494618902088387, 0.011289570226327632, -0.010829436082819291, 0.045193455965026684, -0.02607698986271184, 0.07172205240076086, -0.026491324214602985, 0.03686515136289443, 0.01654417675141389, 0.02101558901431264, -0.03286174032421011, 0.02366707114812472, 0.061465050445422324, -0.028360024961138843, 0.01329253445922936, 0.056269300648130106, -0.06664820381119609, -0.019744791583855528, -0.025130152732679868, 0.018390357076066954, 0.03482638660442945, 0.08411203207730589, 0.037570245702228104, 0.03170567441987203, -0.003564266617582184, -0.033112856259532905, -0.05201033878126265, -0.0505575149034559, 0.032334768576069754, 0.020709269920911183, 0.019731461223006588, -0.07913920654643185, 0.04090971432031541, 0.00608919724904172, 0.051083693729567614, -0.013141168547107177, -0.002454634883636166, 0.003523636205297922, -0.0030457543454776577, -0.015163360637699864, 0.02197669241236503, 0.014406331528437536, 0.02737069657137691, 0.054092679916907915, -0.01402535363803713, -0.012418125956471553, -0.043951077170374074, -0.013267052579541505, 0.009911227570990904, -0.008115076052318457, -0.03005706025504514, -0.08832055389569228, -0.01317344175239978, 0.005671012497414511, 0.06373711593368356, -0.03225263130122345, -0.010768923150476955, -0.010244825805825749, 0.028384027795841617, 0.0058785416664312775, 0.0016411777940353333, 0.03454393741665173, 0.0629007811202025, 0.0013341623130560028, 0.060141567927484804, -0.02893348901666081, -0.03537085933069473, 0.003500351631297096, -0.013470928949035971, -0.018546323916494686, 0.07210964655474801, -0.007491944205044694, 0.009547576838806865, -0.07116804633790458, 0.015687771024228633, 0.03125611144602434, -0.051070183204174766, -0.037135299817326266, 0.020220966373068805, -0.02521551565673338, -0.07505361579562272, 0.007996362043793009, -0.027685952844091342, -0.013364227824222573, 0.08468519226847518, -0.03408490149721248, 0.03054910814644503, -0.022791866776691906, -0.020134506902271303, -0.0035714332786195833, 0.01790375492525238, 0.007531536269298263, -0.011241164047817012, 0.02608458258681442, -0.05756249156955512, 0.028774072761525382, -0.029895854199320393, -0.0375525254759822, -0.04183679674013442, -0.006495003887777911, 0.029283172328282092, -0.010923574795003398, -0.013200311244356517, -0.04177246207431242, 0.07002255457518557, -7.08207588868387e-05, -0.0576827468566476, 0.02569540108915157, 0.02549669886798464, -0.011965610188816997, -0.00440102078079062, -0.009476771974994098, -8.914450169238944e-05, -0.023590305711369577, -0.021286547055996446, -0.01143264955610682, 0.021584476374253973, 0.02329598780100218, 0.02464240611327983, 0.007481440280197585, -0.04716185376020155, 0.010548767414110372, 0.045954585171435754, 0.014521402898486135, 0.05708738280028817, -0.009928098390638598, 0.01436240879409264, 0.031186604272007774, 0.04938660951483857, 0.00012572642623396134, 0.025718346357949142, -0.07013634730682212, -0.09126189080399978, 0.017716297631713503, 0.05151674067398588, 0.01589489338899103, 0.004118873973670383, 0.030854515484299027, 0.037591331214369736, 0.008473341057649478, -0.02587162633826558, -0.020539379119454814, 0.005797201717557316, 0.028904821174740962, -0.06398269750250561, -0.015535612372275532, 0.002696284861573639, -0.05343913590456899, -0.015763726338202465, -0.0243236189934195, 0.0427824135884312, 0.07102156861351479, 0.030824432031096045, -0.050304866324592704, 0.011358357067380757, 0.06769631595992612, -0.016920870739580277, 0.020460983376196843, -0.003320416149175389, -0.016936283233346516, -0.030802691531605416, 0.028511947900914658, -0.005239247567629139, -0.03591089389032738, 0.09286673797490771, 0.02908704186769533, -0.01989116165340305, 0.027437944938285417, 0.015925916190493893, 0.00165009643892177, 0.0351986132388537, -0.0016923132325486368, -0.02978256793756185, -0.01985700349436422, -0.0025298556160743522, 0.007909891578780342, -0.022074560392435914, 0.08050888460955159, -0.09330517630488765, 0.0032826810545535166, 0.011459771373141373, 0.008884230496014788, -0.06364292312833172, 0.02978150747878596, -0.005752130487387568, 0.06155204882248034, -0.027587807990078445, -0.006702636284603915, -0.010282348608918478, 0.07566723934822603, -0.013125199953244624, 0.03013191277643237, 0.02410369220769824, -0.009757017450921507, -0.08396356237970302, -0.054154753703102736, -0.015047077484978506, -0.02076559166807126, 0.026707253231314895, 0.024694609702137476, -0.010400989549926009, 0.04053811655757172, -0.040564714635463406, 0.03810815809481482, -0.0728544787816799, 0.029093748112622726, 0.03457576688453432, 0.014263531442009179], [0.02035252482772453, 0.01611219810460347, -0.012812082012348293, -0.01672243543489178, -0.022154730845186103, -0.016257807954616794, -0.026410794667648972, 0.12592099210317734, -0.012646332114869218, -0.028913027837432985, 0.034691413594243575, -0.005517238637832157, 0.014530901679139325, -0.03760855306184818, 0.011196936255510109, 0.01359951099652187, -0.004594705984821917, -0.023095844873658806, 0.004195683626883576, -0.06278908016898824, 0.052615474893968485, 0.0368444950484243, 0.10625531014582608, -0.029776957967981542, -0.047886131029047145, 0.006072369117233975, -0.0011947873634703852, -0.03268209954704889, -0.034228961416167214, -0.018002492688590437, -0.07273195644299484, -0.00824865524529259, 0.028845734007836334, 0.06566404939250585, -0.07546772315402143, 0.0377919275540722, -0.00628100953798401, 0.015733918587810675, -0.025031348394688246, 0.03648721005952924, -0.05611062801909149, -0.036441294516244886, -0.01985662590765863, -0.027417322190964166, -0.01753761956686768, -0.005798706032813651, 0.02299586704459197, -0.027926445171689056, 0.047040873711738436, -0.011026608993061114, -0.06213972341233365, -0.03618841893681766, -0.00785277965678526, 0.008542481707355198, 0.026152000006353617, -0.014875009785581633, 0.06965331718127944, -0.013296451661282472, 0.08979354231388002, 0.029546752488187212, 0.0033505842254762776, -0.03142354098090659, -0.047597301775619015, 0.04903400444654936, -0.01104536797611633, 0.018298453073396764, 0.00847614960121924, -0.03366178225928244, -0.054678337017123144, -0.027697292301173643, 0.0040319465242047705, -0.06057277099504554, -0.023730828029802163, -0.05396661808118225, -0.03628857500760024, -0.034389209871150746, 0.04799746197077286, -0.03646040514860675, 0.035691556185014406, -0.015606061997275772, 0.045426483656571655, 0.012019064296861934, 0.021721588793628756, 0.065858568304276, -0.04896777806899144, -0.023077676596213847, 0.04274706642722808, -0.031914019200584946, -0.04780320967986945, -0.013487882515509435, -0.02843606780270567, 0.04852823180534936, 0.01712786604681692, -0.04885697877361741, 0.008674783278329325, -0.031164178334730057, -0.03654301915604546, 0.017410800812621415, 0.057180208641523136, 0.08851594709444237, 0.004092876653600934, 0.08983286327891686, -0.016461552311909797, -0.027855104361743342, 0.023938675527761955, 0.027444160333597194, 0.05725621749916949, -0.0032092652401132004, -0.005341917416137644, 0.005338754443966289, 0.000844023855852794, -0.0073961866440160435, -0.016996200785794682, 0.01413307553787943, 0.024041180889092677, -0.006352448067745841, 0.00013892364677610172, 0.03643580485786357, -0.027147186649986974, -0.019921859738346096, -0.0053642216378708, 0.06751063539880896, 0.020378201346136965, 0.07846445162557733, 0.044769703560383255, 0.01868440740593057, -0.011875269666911893, -0.04388848178248099, -0.0019337611273334125, 0.0031751722043741742, -0.05546522860281922, 0.05124933930457299, -0.010396119013451438, 0.04215564566511308, 0.0333471371802002, 0.014299202808819755, 0.03297343310530719, 0.02812327716839342, 0.06595842184607856, -0.026039940686127697, -0.03594781985675396, 0.013814062175151104, -0.015588352184792093, 0.008715506393398605, -0.03358857773713133, -0.06398787493942044, -0.007096308456934887, -0.03643914409720044, -0.023174014119967983, 0.016872946842826097, -0.02950941633330087, -0.037317257999780716, -0.02382526976250798, 0.03651707879508644, -0.011357820175410965, -0.021157171046432242, -0.004978865805653464, -0.02288013682541714, -0.02549725867023375, 0.04217163751468789, -0.00992000510454828, -0.0361878226732406, -0.043448167960226804, 4.943497630979853e-05, -0.05716056703905708, -0.005918477980315676, 0.030985283193682243, 0.045428426347062255, 0.008426021483326012, -0.06699565871633849, -0.02789479183796702, -0.05507913959993037, 0.007813187048399242, -0.0062611397480249065, -0.03640506863347675, 0.0029003916897305344, 0.03728103845300408, -0.05684129572516775, -0.007319877233758953, -0.0064742051652832, 0.043317273168802364, -0.03284650423741746, 0.026111033485629234, -0.006411749712124164, -0.03597342439116274, -0.0035888626442460254, -0.022666605576756777, 0.010713349240260388, 0.005931896047861115, 0.03972691426633245, -0.013227051768496062, 0.009974715177829883, 0.027944416749365753, 0.003368382133207555, -0.003233057679742603, 0.007730013054630552, 0.0345502171245362, -0.011377458615261488, 0.007113832090395055, -0.01940927625741703, -0.008355440389139698, -0.0315470626740386, 0.031153757108453455, 0.0027416643289908675, 0.007253864926662729, -0.04790255340968492, 0.02512169762746656, -0.049765683153298004, 0.025898797277728782, -0.07488734766790144, 0.02688212570862796, 0.005886587900980203, 0.024207970524618188, -0.00019460658021052123, 0.026047324597571236, 0.025530177800542418, 0.022649725651796355, 0.025728838429222415, 0.0016027436196366185, -0.03284840702840391, 0.07195512056305116, -0.08525142194894132, 0.05681064072365656, 0.022064391741826162, 0.03538233058921867, -0.010052912863172381, -0.010805481702127669, -0.02179072976674657, 0.0051695604703628556, 0.023236260038936134, 0.005191451818805809, -0.06425381181497206, -0.03258235433371693, 0.0064649444946971914, -0.005251843393871932, 0.010758542925831444, 0.02734254348762433, 0.031295160721605084, 0.012704300109292145, -0.012638297743313908, 0.00479456635696912, 0.06478195185053828, 0.04017788825979722, -0.040769947233213914, -0.015802572514430235, 0.02309835798177554, 0.006791429549271568, 0.007407662328213856, 0.0025174131499166516, -0.04464274570425468, -0.011324321553333684, -0.011279313568167778, -0.010925298083142822, -0.005873959039359134, -0.004288112192615537, 0.0043540274045495075, -0.04262085092369207, 0.03638423277767604, 0.028150082763344495, 0.020341133585486372, 0.002011829033343427, -0.0460160108242878, -0.06892015446887291, -0.07395657320130666, 0.03249303178274112, 0.02106280483262127, -0.030009463083829895, 0.05036213193708665, -0.03202872107682008, 0.01767058924490081, -0.03895738704212094, -0.017417768576184392, -0.04965528613206487, -0.04951351880119826, -0.005253195867710092, 0.035476308729529914, -0.009831797752535221, -0.003117560888865285, -0.04716713546342483, -0.039278529823063554, 0.04348553592270715, 0.007825464219176662, 0.014277610138485513, 6.135842885074274e-05, -0.06694057021739724, -0.031768149813151375, -0.0273704015483362, -0.029999794004700365, -0.06162289743626825, -0.05726332845498523, -0.020748585071653176, 0.03618547469612415, 0.03839184186646173, -0.0958040276345788, -0.10806530087005708, 0.01176414101858572, 0.06357406820732438, -0.03625296792742746, 0.03503808964003374, -0.009933827046502941, -0.027279138931653995, 0.058548475822969015, 0.039794295494606786, 0.0329539159205597, 0.03248417332231691, 0.038590364254631915, 0.03736809772638631, -0.022427541007780123, -0.030501993907987836, 0.021430926651200635, -0.03848067759731759, 0.05089572834078011, 0.03881514898702931, -0.005672602293452488, 0.04412345121847326, 0.004280694614439527, -0.028107615360616782, -0.014850301030997376, 0.0038047456833049343, -0.00814486123383649, -0.0827052481328311, -0.017237591268991357, 0.040249297532148835, 0.02065167368911849, 0.007132578968038512, -0.010239808619214082, -0.06142717172494766, 0.011362361478655566, -0.01320081880946272, -0.07044690300473457, 0.03753135172530753, 0.02257723701375442, 0.004167595001850758, -0.0015486880190200489, -0.026567122388823906, -0.003982268929447604, 0.0011342637961340902, 0.05298395384266441, 0.04144145834334485, -0.014915776466016089, -0.04284684071485724, -0.005673598220839722, -0.04111544544426605, 0.006837400508232014, 0.035965272417718366, 0.019475129656490873, -0.019512311721518048, -0.07916866336775376, -0.01224208991173796, -0.01558459381782377, 0.026442134335566806, -0.046477126090507484, -0.014573487500229243, 0.05883616605212607, 0.03163997377770179, -0.015587801238439543, -0.03704804177738691, 0.025052753959894945, 0.049864147329416394, 0.03218690253603794, 0.05562492258983751, -0.026494011608165762, -0.05130739842517257, 0.0005527314157699911, -0.012553494907164339, -0.046863253185004165, 0.03487574231783823, 0.014858474257707421, 0.015389883619472421, 0.009010342686225274, 0.006611035117722189, 0.02608861037790192, 0.013133775024570605, -0.04888970987426794, -0.04327545987461343, 0.006775814854483278, -0.013065410533368042, -0.06422255746521426, -0.06876657323306426, -0.012854275888073313, 0.014977455623533347, -0.013941715476668615, -0.0163698126774344, -0.010772948404598802, 0.031696486707599655, -0.016011870291362484, -0.025762013009572992, 0.05980174301578076, -0.03384424955926635, 0.0048399376034610475, 0.03148379550272969, 0.025657361265882462, 0.019653413775117392, -0.03843904101527856, 0.0010569538228825275, -0.017008820553646015, -0.038193530053615, -0.0006113211015289674, 0.017384143399990067, 0.042276591424690604, 0.027420450158643108, 0.03405520472930699, -0.023580493220935427, -0.04059211725519613, -0.0008617646774407427, -0.022228213781292232, -0.03871074773788751, 0.0067217204843663374, -0.044495503932340086, 0.06574179966030358, -0.0017287671619342956, 0.009125807392055518, 0.01792673744967277, -0.03414088320406711, 0.023205703702203456, -0.027204054535159526, 0.04281964789307763, 0.032624909104001426, 0.033557058697238774, 0.009148815421208713, -0.011961991176943706, -0.00021908399760236868, -0.052927181067165055, -0.008541146877247429, -0.04167678092872865, 0.004608088918519787, 0.008134430313500788, -0.048978923012226214, 0.036634490170577204, -0.0004451040400821453, 0.004200309266312491, -0.04113150244433274, -0.01748667045345119, 0.09403387667410235, 0.05554603984011735, 0.03914054739732024, 0.0007485880065988118, 0.03360755815892234, 0.08766682154253412, 0.00967579843453684, -0.023501082008982106, -0.08750345878344992, -0.020056356535790302, 0.03577685020180686, -0.07748981669607757, 0.05137190103254846, -0.011742798357961909, 0.024448092441403106, -0.04951012549984862, -0.07684070602163846, 0.060216550205442594, -0.003262977332936175, -0.01856048606668797, 0.03130634000998521, -0.025846246224760665, -0.04459490527293369, -0.037638849138982855, -0.03493668971887721, -0.02638034598768225, 0.01112368924659388, 0.0007327685573677624, -0.021259738061860926, -0.05397603255913923, -0.04760846814365651, 0.03067419742426309, -0.05286699381735005, 0.01548564951817333, -0.015259598087132427, 0.04153867671060672, -0.023051932872551455, 0.032751701553398425, 0.00855792122792571, 0.0358799778132266, 0.03590879211075558, -0.037378284727985225, 0.007464713860309777, 0.0260045646598249, -0.004588559740080061, 0.048200452371645164, -0.037421262425082556, 0.033967861589610085, -0.043879561485573995, -0.02536924179685134, 0.04554160806197492, 0.007084219106812141, 0.041876313785376214, 0.022641051995898605, -0.07654232282206377, -0.07232935867691816, 0.03964072143181511, -0.04053810247052932, 0.020897907766532425, -0.017174965801132442, 0.021700453753485453, -0.014183558097212182, -0.009274194397369538, 0.06405031405037191, 0.03981973026068635, 0.056900341093817246, 0.027141807591491506, -0.0011933701839201714, 0.0034787283975085638, 0.05223340952295966, 0.058185114609643214, -0.03790032486065909, 0.01911380744078468, 0.009183505837503231, 0.027273978289016426, -0.007492885938620366, 0.0017431103562439542, -0.01658542731163854, -0.0014925830732638538, -0.0009738446564254548, 0.08449908556327568, -0.04853136915382072, -0.09015313779977888, 0.024504616785717852, 0.04502764652709336, -0.042024125939317335, 0.03216313145915342, 0.003036772299860307, -0.024663491148607636, -0.032718834381338636, 0.03325180635508328, 0.007932022128381237, 0.021414298775062585, 0.03604275095354102, -0.043238952954873636, 0.017522867038008278, 0.03950420806779825, -0.020857136994369387, 0.035362444227197136, 0.01856122179157143, -0.0015615300891124334, 0.018520248772801295, -0.029173518053209193, 0.005598503256470425, -0.038521214870410304, -0.02548617326164371, 0.0157653043787297, -0.0323068600609442, -0.03990585037627873, -0.0023959804327685, -0.03123791995808013, 0.017816121865752457, -0.0069134321958277106, 0.05319443665808288, -0.024954364611406852, 0.04730262938884855, -0.00877440977083976, -0.03810730336620558, 0.021075827572170382, 0.04474673040006227, -0.004835947957160989, 0.03017366232968503, 0.015005025398177593, 0.02162391799400564, 0.027790224814902193, 0.019577446402980765, 0.013593906116780564, 0.019337518346510024, -0.010254919232772218, 0.04086815208648694, -0.019947397841568907, -0.08448389060512981, 0.07585666327491028, 0.02098807076237606, 0.0008102519123845403, -0.0075225825204620995, 0.031221351263598904, -0.008198940653778646, 0.013576197034462797, -0.08234668977216501, 0.040866189882167454, 0.04124052951919067, 0.022337542352837848, 0.011431794679216468, -0.030983700649474255, 0.10321129024732653, -0.02041009913152241, -0.003487938740297673, 0.022834099670905574, 0.021128467287001542, -0.08056388690331463, -0.05078287417090234, -0.0381385295161143, 0.012481219086065528, 0.025657058978953786, -0.053574105562036116, 0.0343761445453765, -0.013424492633299414, 0.03361370039530063, -0.041233754572979356, 0.011324612122512472, -0.051517364823688745, -0.04930881196062472, 0.02740799663522241, 0.005699249884259847, -0.031393449866370174, 0.0006315863558274264, -0.019502184622904314, -0.022505758153653427, -0.0013101601175342912, 0.010209724379361391, 0.004512248328998095, -0.019220383405651662, -0.011261103381242768, 0.0037420496635954432, -0.022716430136134693, -0.00344894163698942, -0.05833340311336238, 0.005354374707461704, -0.0028975563170576465, 0.005799954445047789, 0.0714081918982246, 0.037538646423658, -0.018939616707307927, 0.03639448953811837, 0.07631161251323701, -0.05597856871171679, -0.047074769611787505, -0.007264114191473945, 0.0023597889272178214, 0.019811318924764103, 0.010021057520767677, 0.02475641452874965, 0.014915971788553603, 0.03577888108799269, -0.022704955701655986, -0.051748364750010024, 0.024065372001015474, -0.0039318881235570835, 0.0807901217160937, -0.00028469395999859573, -0.0028128654403784714, 0.017245303105686352, -0.009219862013589885, 0.024899187618240066, -0.01976262033156608, 0.00406651805728218, -0.029150862649227813, -0.012667328013221037, 0.052022294899652946, 0.06786751676303784, 0.010692111636677002, -0.020591320713226415, -0.04544812628799543, -0.006126771712991128, -0.0017769913710324466, 0.04542049007028594, 0.05319385323593554, 0.006415086345286538, 0.01826492788039234, -0.022924514410852453, 0.036180167808503326, -0.032482990165948154, -0.012979304057100382, -0.05333970616761058, -0.08270146846140393, -0.0285776453255142, -0.011401915353628559, -0.021006796225965907, -0.042936230549443295, 0.013722020128097659, 0.0077482252112754, 0.0563366180191688, 0.03515621850037718, 0.02457942647905093, -0.06045256068469777, 0.10517623228384718, -0.02210794561116018, 0.0024416171142375605, 0.03511098535137927, -0.022907691246027546, -0.013492243813895499, 0.036016207702893384, 0.049919355586778465, 0.0698550946874035, -0.021014210380748237, -0.09055079692168387, 0.014887800291338507, -0.016470311311772234, -0.013066392306779053, -0.009145455958220894, -0.032426849771292364, 0.001019547827246652, 0.09896586212011559, 0.05794614393642895, -0.045716457601937675, -0.022313704883406504, -0.0045841936343734525, -0.038033960509256705, 0.008597436659424884, 0.02373683750374747, -0.016917760813387157, -0.019145802498098857, 0.03930948790489212, 0.07928115772011277, -0.02736458239022305, -0.017499036733122728, -0.0059129788165582274, -0.0017468945090067189, -0.07682852823242896, 0.04822156027279955, -0.003887220207348875, 0.020216309600811836, -0.02256646038983929, -0.01277934168972042, -0.013168162457570623, -0.0008479775453297527, 0.06906665625394737, -0.009408625947865101, -0.021542362753518753, -0.05037885525032339, -0.05134452894098492, 0.0037835458110175644, 0.031594596839504094, -0.05880237570102042, 0.03672569161340915, 0.1055022003284121, -0.040970340394699774, -0.01843824770447036, -0.017446392890045306, -0.038591251428598414, 0.03188033932339377, 0.007867078609294847, 0.05443361616738133, 0.0480497654632692, -0.0023211110712013983, 0.028344934946403715, 0.05718745495919513, -0.0342162264895853, -0.019996951042826467, 0.0005590228718996454, -0.039850147999984875, -0.021790042223393955, 0.047763659014875684, 0.017711239596538583, -0.029279139960479972, 0.03876720696303392, 0.031123048849698482, -0.024136221129239497, -0.0071391526859062296, 0.006057580315320094, 0.048717314413939894, 0.03159933818345783, -0.03195852286993447, -0.0536779129096709, -0.026953743407377273, -0.0846378417421031, -0.012216517958133733, -0.004397779265113157, 0.07359748842649062, -0.007588099074158113, -0.017138662401941427, 0.024043834606292225, 0.004422689710401175, 0.0368569528477923, 0.08702320268597809, -0.03334116822099597, 0.00936807093245825, -0.003163249914975482, 0.04073532405182606, -0.024573905128175595, 0.05160722611354923, -0.03831914125056184, 0.0043767899270905795, 0.005733710647656295, -0.047777623865016786, 0.03437204217927848, 0.010043966356960407, 0.014293583729217752, 0.024493105725496966, -0.03391961227698075, -0.015882909710916573, -0.031794561821875844, -0.0411773262567891, 0.03989137348379047, 0.007502389970066752, -0.039350263608057455, 0.008643454539595734, 0.07436191402395566, 0.03903134479914276, -0.018530496756919517], [-0.05345751425628493, 0.05785238309124374, -0.04808072738304814, -0.005989272293807905, 0.008147626147759048, 0.021720781780052826, 0.023525439414079852, -0.016728700693910765, -0.03515977490590268, -0.007645212741653527, -0.011636225864753352, -0.04548999067985175, -0.035812287356149844, -0.009739568451097313, -0.03043910774730797, -0.05384528374556039, -0.021893006627205596, -0.06454830641256742, 0.023907092245776834, -0.05543596745315933, 0.031998755375771244, -0.03712674679637438, 0.021668928524215286, -0.02525884928666324, 0.035138864515671775, 0.03263133842989809, -0.022452823812868835, -0.007344701986632155, 0.032374317824539686, 0.017860587978046943, -0.017620166711549277, 0.00649768272487931, 0.08154358056527336, -0.06368144642818152, -0.002399939651375257, 0.016336490009805926, 0.018289058255893186, 0.015306453171265123, 0.014404191797336685, 0.010321770143920024, -0.008825492214060078, -0.023367273503774454, 0.036600273009132336, -0.03549786543689549, -0.017909892620340078, 0.047734725566714827, 0.04078853776074166, -0.01593057306866766, -0.03212349419670661, -0.004053987466789302, -0.04562441514418481, -0.025654448352369373, -0.04006582010644279, -0.05034481462775412, 0.003027404004968691, -0.03575120819245913, -0.03111477498749011, -0.052121309700518044, -0.0018597413592641935, -0.0643187174741337, 0.013030510844711237, 0.09828601996880747, 0.03820077276495416, 0.002083765499040126, 0.06558493033911038, 0.03017220561915276, 0.007752095269128222, 0.024517020551426065, -0.021411079561478648, 0.027887648269221254, -0.04115589338245209, 0.05082998994052669, 0.03945311362429663, 0.07885335858984407, 0.015616443150603065, -0.017528891796214086, 0.0257007747476174, -0.06351411930211402, 0.025089343887379347, 0.07463055340792488, 0.02457799151403305, 0.0028990083028261338, -0.0023501653895882007, 0.056391893349861125, 0.009098845700113335, 0.0018048747709357629, -0.018197490835998965, -0.05709556529815633, 0.012476950661130104, 0.030793398299050194, 0.030207226448963193, 0.02624204545576317, 0.03779583406433409, -0.035288793632554064, 0.05241114235603273, -0.005192248288518405, -0.03765935973654453, -0.02696788677688156, 0.026368362105461084, -0.03458344582556669, -0.004562772486325825, -0.002752247394382607, 0.03485723585464759, -0.002946055077167428, -0.01755568942654174, 0.015251284038704656, -0.0008631118146332978, 0.10261401104549693, 0.024331396326892317, -0.05308708602309737, -0.055196866235569, 0.002908525828895028, 0.025631281663623856, -0.007367347293980052, 0.06981121174673753, 0.010448945208037486, -0.10593941427954763, -0.03727044548309342, 0.017100295291702768, -0.024695483812062297, -0.029677764977370635, 0.013647056728352818, 0.0063627513798348145, -0.02399294370598983, 0.02433700104879562, 0.001764369662863232, -0.1471086913421953, 0.04832143568050917, 0.05294149096914386, 0.0676055705672889, 0.04985447850493963, 0.040114810628829004, -0.04643855640581013, 0.03533469861857339, -0.0023100170520815094, 0.02251239489027727, 0.05065360521977595, 0.0670451387742148, 0.03035843163303006, 0.07322848788117206, -0.021951653837937936, 0.0077110143159942095, -0.004206895783296559, -0.06296260841005503, -0.03416958350181235, 0.024104688823614568, 0.02086148151968325, -0.02565677665628661, -0.012349917533481776, -0.027182213818439743, 0.04526048645919535, 0.03413029938130076, -0.010544158969019201, -0.0035025195059537307, -0.037640135009518245, 0.03583793192796231, 0.0011306610905375462, -0.02160985957026983, 0.02933135623615398, -0.04571467948945897, 0.013226512132523455, 0.01607105283410046, 0.0373314765972382, -0.06086828628412326, -0.03856992613334982, 0.020419741699771732, 0.02393074767037173, -0.05297442457791706, 0.051843295471626506, 0.020979576621882306, -0.01717121673523533, 0.034248644305698225, 0.019194485254681648, 0.029510765476282497, -0.08241038702562378, -0.004881987447604738, -0.016894848619748836, -0.01653726119708323, 0.027732067411920996, 0.026802496922690218, -0.03201875795354716, 0.040098954753010944, -0.05257342768159177, -0.04003361575845789, 0.01944868550257303, 0.08612892326334333, 0.0074487101113385875, -0.029310853822333997, -0.011540673958390502, -0.053653755407920736, -0.041793509258174086, 0.04992480833377682, -0.0011373819022988739, -0.05157039512358463, 0.05512491717609175, 0.019828776697345164, -0.0016912196414653167, 0.007407680623786934, -0.02836269852633742, -0.011570570474375225, -0.043639139357353106, -0.008973558575387463, 0.02431290886750016, 0.016226429614317726, -0.0012419968143799625, 0.056430433305399444, 0.02681182175049041, -0.09298590869652464, -0.04093210025127021, 0.014650214370977289, -0.04330401996351718, -0.040192406057780315, -0.054497982411419586, -0.04529818592803016, -0.017718484214887278, -0.02176860016727147, 0.02035025975099153, 0.041790316035950396, -0.0025958624763126386, 0.03817839944077638, 0.03766995876686992, -0.045654105869981934, 0.014597667568387191, 0.027970962329987283, 0.0023744182931549466, -0.05333141540312401, -0.05976943591001612, 0.04215067770647494, -0.00592199229629149, 0.00537920264330298, -0.06171256045042871, 0.027621996326391198, 0.005869240926901632, -0.005082790447909645, 0.03421759006225671, -0.01022313939438968, 0.004169115376545228, 0.030984629291285617, 0.046332299419843195, 0.005678476162789001, 0.032125327904876586, 0.011977157257188672, -0.02021865094004151, -0.06752503761395666, 0.0025390213535693754, 0.010654887546180854, 0.053011415952000644, -0.067994243040748, 0.02433493822805674, 0.003093782351709533, 0.014668252965969367, 0.006188124310828626, -0.010136363035664602, 0.00987318685995386, 0.02138338371858638, -0.0009159236130825638, 0.015239672830945033, -0.0581574130990956, -0.01308712877327009, 0.052445525597700986, -0.015204969084988366, 0.014025752436987254, -0.0412266228506245, -0.001785978277984078, -0.03752942015729638, -0.05534340526317699, 0.014361078319185408, 0.038995717162959694, 0.019781445146919877, 0.11567653919036217, 0.00022645415899081686, -0.007587221566036967, 0.0734643450865706, -0.0033425979946431514, 0.054700757635139256, 0.009892734717229396, 0.026629099125134757, 0.02360165068633077, 0.05159577855144721, 0.03350366278444826, 0.03573949648035458, 0.006493935917051263, 0.015908394675721423, -0.06350180501461501, -0.018830195586974328, 0.021931408371702873, -0.05203913448370773, -0.0031980408574351286, -0.039606813282910276, 0.029152354325113074, 0.02424282904171656, -0.004962161711888591, -0.01059023392848471, 0.03485776542109574, -0.003579088654630441, -0.07984122875691328, 0.03246350129697519, -0.0021710670144262437, -0.0043300684628081445, 0.045252925602644344, 0.057944035187888085, 0.012093185958337038, -0.048509435889506465, -0.015457509400812692, -0.038347477690973686, 0.023954304887221556, 0.023615921130857614, -0.03381370823328879, 0.0030200280323183577, 0.026025999987259563, 0.04552800592532363, 0.005269626961426921, 0.01663447286905771, 0.02954418831651569, 0.030341306213420426, -0.013376601822547369, -0.04863506802833545, -0.05208534334458841, -0.03866995754704174, 0.00402018219891191, -0.025516531980429098, 0.033330632214780435, 0.022621739975595783, -0.006675115880382026, 0.050916762394775786, 0.002126467595200194, 0.0021338096224863294, -0.01653085997260696, -0.05381709122309943, 0.036319936661798814, 0.013385463019091343, 0.016948961326123373, -0.000193785825397023, -0.028771979814962174, 0.017090594484546247, 0.012153507720642167, -0.006202622012376783, -0.04152455222276177, -0.003588676871987154, 0.03486995748504466, 0.04339737227682281, 0.021951437462392843, -0.004245242918883014, -0.004519974666873043, -0.1179465154706164, 0.004374424873475266, 0.031176700169201984, 0.04956101202647441, -0.04218736593445864, -0.0010766144514026321, -0.0660477346620144, -0.023509292224857956, 0.006356525877481633, 0.025445544422812102, 0.035669771488315995, 0.03830802247571091, 0.04443644114145545, -0.017333899062198958, 0.006422255387191679, 0.0005395907246269675, -0.05476813349452779, 0.0018653067684491628, 0.0047981203684836085, -0.029939603745853412, -0.00634457552965942, 0.010061488522148805, 0.01934493226359249, -0.0008929743300207378, 0.03054748861744424, -0.050877220037655914, 0.021814207433835383, -0.06575882678400981, -0.03978078138916237, 0.028221387957246206, 0.018072366497268077, -0.04220337098323331, 0.03599666863625338, 0.019833071404885882, 0.0698545321347989, -0.017116944480303754, 0.031584933106534534, 0.0020832692804714243, -0.029807633178427, 0.04230719481058449, 0.017437509927339886, -0.022014744533443067, -0.05082297393196435, 0.02001706562802713, -0.018777690942096588, 0.03622673884686166, 0.05353994459667457, 0.05367712651655844, -0.012510698301702214, -0.04604428119516955, -0.011773491464219072, 0.017176944040391946, -0.004950397396395828, -0.08027963985265145, -0.026401082411972244, -0.03501902549780507, -0.0020535139577466744, 0.004191820897107116, -0.017142167083407836, -0.014563290829498794, -0.02137424015737843, 0.002250267467695842, 0.007581169837070965, 0.007065519226875745, -0.06862354029483099, 0.022812380925243268, 0.01378909437357233, -0.006305400908645192, 0.009192209719473555, 0.001473269536860934, 0.01101094693648948, 0.0352956280476051, 0.04812502484632667, -0.0072479186648374706, -0.005665624521240077, 0.0012693669493802281, -0.0007318314964719529, -0.05575857635759828, -0.05113200320677204, 0.054297827728966366, 0.02060971247995515, 0.009748931423432392, 0.10852957915939708, -0.012299485387865143, -0.025096972428204654, -6.303728031164496e-05, -0.04989153553957443, -0.03750978683159745, 0.08794920969537942, 0.003344036932953235, 0.029447732535317125, -0.02731762626457396, 0.025765829239910287, 0.059582143115126836, 0.0014538796545797619, 0.026003243067269474, -0.06529606340203534, 0.033236740890753784, -0.014389095113469768, 0.045831467916822514, 0.017850817664934324, -0.0562127253195615, 0.017730784079449904, 0.016137000490074896, 0.025557586034952128, -0.02285026445028433, 0.05204056130481087, -0.002756717788520738, -0.028955101478906464, -0.03340520981745728, -0.006867812590020983, -0.027759461752905088, -0.06645035999806256, 0.010591526148891249, 0.0021287629758137386, 0.021033820928557066, 0.04556882266420137, 0.008748158040571769, 0.06750753449855443, -0.041779886360059464, -0.04529608713492555, -0.04736859838953672, 0.02755752510614338, -0.04121798185816602, -0.009427930495587086, -0.025597088143688163, 0.029848646917472844, 0.004218224393142944, -0.005416273188946346, -0.04222890341534301, 0.01280220775574775, 0.008091457725951262, 0.0015534623641376706, -0.045500921392653326, -0.05125008542195885, 0.08147693246235856, 0.04323708375145104, 0.013545628504468079, 0.008878615702482173, -0.03155204208159686, 0.01078411227015225, 0.020096908900834615, 0.007522641289520094, 0.04049528974101406, 0.010743125913282038, 0.007232618782444808, 0.008838396817648376, -0.009917019323933424, 0.013778673281434358, 0.07294129324144667, 0.006199912463366206, 0.0610847493957451, 0.07503703782256343, -0.018440407897236725, 0.03564402389070574, -0.00012749985341374345, -0.017703660237309703, 0.018721587527242067, -0.0021243586609697956, 0.07599634973988738, 0.0013732515735788767, -0.015202572770149565, -0.016835233801809308, 0.018866807931029555, -0.012667802395359806, -0.0002367113721883923, 0.04109895569573386, 0.037142888912249074, -0.048308226691916416, -0.023899664182407382, 0.05344185153301391, -0.02998991918405419, 0.03317554396870807, -0.019290026784561626, -0.03823357503796154, -0.014092806941824175, -0.05552454746041579, -0.005910747621256408, 0.015790652245351092, 0.012742661482207736, 0.006228309404936956, -0.003588662896464568, 0.0017809664334412763, 0.019149873694652087, -0.014795448651484055, 0.02155505070576624, 0.06744046569426644, -0.003339744161539347, 0.020067421458136954, -0.00043735443885834543, -0.007981237601523061, -0.024432981074493095, -0.03424310663746302, -0.02148162372219787, 0.08490585955988786, 0.047588373933180696, -0.04191982155331386, -0.040151274799533065, 0.026533424186678284, -0.07316428271178546, 0.021936903195298764, -0.012303526843193264, 0.012630271478442026, 0.015834793523951243, -0.0538479450524398, -0.02209962064024887, 0.013695516805710958, -0.021338045467785498, 0.02383287755130231, 0.022907772422331035, 0.05629871805296124, 0.017034222833472026, 0.027636474355576972, 0.03933597816638262, -0.043518228122145876, -0.0025886257637179225, -0.018572427208966926, 0.06622821122064994, 0.014976702883900544, 0.006526158029787729, -0.012406269105208308, -0.0354744943508232, 0.03730604921303683, 0.013511171500282802, -0.0340646405103948, -0.029033811746488603, -0.024013640471288296, 0.006285949816158895, 0.027161336330327225, 0.011831304077203827, 0.08932362705610938, 0.015198344840006124, 0.023830839313203355, -0.03757826030208135, -0.0035265419243302653, -0.06675084182643627, 0.020194291613453392, -0.02151108918798911, 0.016817399060493992, -0.04424824166734581, -0.006958700124861851, -0.018406171315312997, 4.550562324161315e-05, 0.009190760024231763, 0.06156871830890866, -0.012268371110599563, -0.008511278952692106, -0.017048418068074233, 0.06344334983274466, -0.03663852276820363, -0.02526330900714332, -0.021822065595353785, 0.0033581544272302008, -0.02249685202020612, -0.032987422993275485, 0.0026650120735101806, 0.004004449017002423, 0.00039201258358646985, 0.02084551709642359, -0.004135379212536295, -0.04963097261110908, 0.06499334786531474, 0.031270512517205536, -0.015546259455333026, 0.052073969061733595, -0.03181771047208152, 0.027540255600269983, -0.005179924855670175, 0.04986468434483602, 0.06859676510631299, -0.021415146446481237, 0.018937115897855555, 0.006084982403794259, 0.017820941841267805, 0.051887948214006094, -0.02774855510893983, 0.016452707371617102, 0.06337643888802369, -0.019334706913905316, 0.030400494515864847, -0.02286431842285223, -0.0702132249238438, 0.012475593071881437, 0.012387794650258193, -0.03755718124358864, 0.027023407899988285, -0.04340272808663514, -0.05568679900076364, 0.03572935647935481, 0.01615362083838236, 0.05195702259319819, -0.025328884425948456, -0.01754825864805127, 0.03997564169416944, -0.016260176715524467, -0.03974484052459234, 0.04784390670571224, 0.032923736885516516, -0.05599573967645517, -0.018052936085595068, 0.03144841845958442, -0.039741713620963647, 0.048996937230045765, 0.0014790430387521091, 0.04730830494518773, -0.0001422193406095254, 0.014070718203818399, 0.009216376911546647, -0.015406805475101695, -0.009827083165891011, 0.019337747715774095, 0.03744398830653271, 0.04060175287964668, 0.008644106888280927, 0.019605716706206654, 0.019943340439124685, 0.021518263522525286, -0.0029412667788097126, 0.02833195982744676, -0.004029477527235676, -0.014126242801847183, -0.016808960020714386, 0.013918817740838333, -0.014168416151601828, 0.017308197578705015, -0.0017568478810362346, 0.011004258379532976, -0.007758321813048444, 0.0047461268965749434, 0.03243824247181169, -0.009411980519353297, 0.021609829546978487, -0.054438628675205665, 0.02259781829761501, 0.008983837977546913, -0.08100676672287342, 0.015046352410165562, -0.0037476259626175778, -0.002061023473393198, -0.03935411593414661, 0.005763222194022438, -0.036626998870262995, -0.023590541305170475, 0.02317022746264007, -0.007639324228353137, -0.06276021079523639, -0.02941885124013046, -0.036626887561163425, 0.002963254257443913, 0.02080668288609248, 0.002260779416602582, 0.007688305679645539, -0.03418077439754844, -0.016734573426924203, -6.551101149557038e-05, -0.0565126029586964, -0.013055386503341518, 0.010383555676105726, 0.012664155544938818, 0.05331257710593889, 0.0037851889843862267, 0.033212989863866824, -0.01472816610456242, -0.020203580298985623, 0.07200718208473332, -0.009870474750191122, -0.01120798491732535, 0.030377614263427156, -0.03474283370263094, -0.009909933793166265, 0.04563890103177347, 0.06359572804673724, 0.04333650028952279, 0.01649652414580023, -0.034502057250193875, -0.044727537418043584, 0.03836091220735245, 0.010781577521263994, 0.06053386518797025, -0.023855025369578533, 0.04965882908083098, 0.01580109867193975, 0.00016517903955028205, 0.02653891496453889, 0.03607271700031615, 0.041263323631991804, 0.00625798840706013, 0.01005533885012171, -0.016259693430788293, 0.005464340158905808, -0.04384939970612408, -0.013680178795393325, -0.023562964540862624, -0.07802088547444645, 0.01472896603941431, 0.010443173667947567, -0.02566424834500531, -0.03104968511601128, -0.016169518477590454, -0.028038332575672724, -0.0012896877133796497, -0.016466530446459487, 0.020497197323655836, -0.01706546481285553, -0.03739643072212796, 0.036377828692900925, 0.07001160305668078, -0.015470396564743425, -0.012135285823246475, 0.07166625262364777, 0.04412541524886351, 0.02189691158360797, -0.007462741209014981, -0.07275227386594421, -0.08663689648634941, -0.0627560301868144, -0.05735694924382211, -0.01417135638693538, -0.007173922171257138, -0.027490697851853433, -0.003062412037533934, -0.0007590619054871811, 0.02313657024754792, -0.037605547659988324, 0.039417834174170954, -0.0034287171845792906, 0.018422948191161866, 0.06514544033781527, 0.0053701710793879155, -0.07438122488298056, -0.009415994979721067, -0.023931015727783066, 0.0067327674645765835, -0.027951607368282425, 0.05148911202563337, 0.04055536785637131, 0.014095951485015143, 0.018162800237192977, 0.043532348443043864, -0.016875237720801347], [-0.015614332080832441, -0.0008517911121492768, -0.05096162483059337, 0.0018621374424477811, -0.037906222927575874, 0.004455954454289949, -0.015533849060751575, -0.000539108007014995, -0.004403877373691099, 0.04229634314294494, -0.011935940492189817, 0.05156935469153135, -0.03231232118617468, -0.005859386424781461, 0.013765703388366848, -0.007054732805381927, 0.08988224158245132, 0.0630236527669437, 0.009610283821598857, -0.02940973653858094, 0.019245369568250823, -0.045048638409599676, -0.0010234084694389384, 0.027101212088715427, -0.004471140175220415, -0.01672959777202707, 0.02184805584943198, -0.05075631557109884, 0.05045258268978627, -0.04268405877395352, -0.005816214018499349, -0.010218718386656762, -0.00888530595277657, -0.043095674555026865, -0.005571338878714568, -0.05840326346095426, 0.008722229212806966, 0.026599850530637827, 0.04806489629277588, 0.07427117119496551, -0.005320591816187913, -0.012523098103322321, -0.04838038214152973, 0.0868048920431616, 0.004731814274312678, -0.014222880693396408, -0.0038428833771896355, -0.07324917190602805, 0.007890057459365345, -0.018334197391387513, 0.003919142755950189, 0.013994592254289312, 0.06109529486326258, 0.033009084412553014, -0.003038802388188677, -0.04416135374752659, 0.07572237417927023, -0.04342090050285558, 0.016574564574337116, 0.03897104251938616, -0.0007146230182008843, 0.04701174937792464, -0.0057614338562032505, -0.07460443624987255, 0.03686810070211979, -0.011589837517576456, 0.04691975647463649, 0.007406433503169802, -0.007533316566749196, -0.056098308300324626, 0.0020097574288269796, 0.007241285381316192, -0.0536905202806453, -0.013211328761345297, -0.06092572812019998, 0.024494207389495114, -0.01159961232869077, -0.08189389082618545, -0.017367198143928293, -0.061313521377481965, -0.04478199169190695, -0.0520885349245327, 0.04333954854244931, -0.036407244055225545, -0.051919734078981525, -0.012874057554372246, -0.05983178610674544, -0.02780213356245009, 0.010156657378367653, 0.05839946678601299, -0.015304184287670457, -0.033296712959637306, 0.03100145252876969, -0.003288291811082559, -0.0176054707869642, 0.00722346957270575, -0.0004662434318672188, 0.03819923318958592, 0.027856959976313954, 0.005458540439240252, 0.0452625003818275, 0.04530114437657534, 0.0245309499100304, -0.04812003738484751, 0.005822966951399643, 0.02944099847402513, 0.045010416659327514, 0.036208390268409274, 0.008461489263741554, 0.006267407652966667, -0.024182439616954775, 0.0029888393640996234, -0.013198441118456047, 0.00011884260269390757, -0.008362724720442532, 0.006629591157852393, 0.0029511703972289346, -0.033613712726114256, -0.0036790561458393887, -0.02286307571981333, -0.026386407720126463, 0.034670177201067236, -0.019260753165711443, -0.02478898019833905, 0.04195150675868482, 0.000428356719481342, -0.03303370139358561, -0.02778704351200951, -0.10802200337802166, 0.05303748325139721, -0.03377159793972577, 0.010122481155821761, -0.006440361704846452, -0.0440579287643959, 0.021795554420463076, 0.004515236017200205, 0.015404753791089017, -0.05276480527914475, 0.03453151796995214, 0.01638887089680054, -0.0015109531786193613, 0.056384907887285195, 0.03388960615252661, 0.0032007634231562693, 0.021986984778999272, -0.021676037388478654, 0.0019012517366419175, 0.021465439829476563, -0.037553594252390056, 0.05200145424580497, -0.03000364991377066, 0.0009595847553195994, -0.020764291063214386, 0.00034311381301507245, -0.04429597728336582, -0.049019835181568494, 0.0011466401112016512, 0.05736277173706161, 0.009432264237699436, -0.00941501028525882, 0.030427768418260975, 0.0320522130496065, -0.07360889327845402, 0.04899152022252658, -0.0027248107885407017, 0.0040974991266248435, 0.02227768872718074, -0.018249112316699154, 0.05993700452180683, 0.01939375128824525, 0.02533377041836322, -0.011977202527878076, 0.03897775944613537, -0.01637141162322687, 0.030102828769850907, 0.03684825063700408, 0.02412011240339637, 0.013454412351030993, -0.050105052684230204, -0.048723682489098405, 0.011572862806176323, 0.06608882828977196, -0.010272507362616012, 0.020692945922553097, -0.04157390866219806, 0.03919895088387813, -0.054305590790018114, 0.045038991676437094, -0.07017248595140928, -0.002500093323972428, -0.0014721877764804054, -0.029270069665117648, 0.06853748348161602, -0.01119167575956943, -0.040681021066560706, 0.05292700691311181, 0.016689147993518595, 0.0015877709715923416, -0.04983995805610094, -0.0036428916152001526, 0.02345967514655461, 0.03162913571596505, -0.005717257878608749, 0.04260140512105507, 0.004590131356753732, 0.05901721225337488, -0.040906689475231864, -0.010887742760100733, 0.027779010228434646, 0.04271053990556818, 0.03738147841090254, -0.022387377739858706, 0.04526870380235338, -0.00240571835235569, -0.027189274122957387, 0.02348233081365906, 0.056967612189029564, 0.00577923129533336, 0.024503167341220718, 0.0014979887734702674, -0.009021649493383566, -0.052103261617544305, -0.0033680121064625303, -0.015762913390163367, -0.041363264199812164, 0.06259577131313697, 0.018221342230003656, 0.00880610039025809, 0.012453851605686654, 0.007113609068646149, -0.06613484771005868, 0.017183439079678096, -0.0249437341807239, 0.024291694247979754, -0.06784106316599149, 0.009739879293378365, 0.08568650950465943, -0.0009342148170727461, 0.019843244379070698, -0.05393395483636088, -0.012332295884239454, 0.05473925547242076, 0.04058497177803959, -0.0027120814796473365, -0.03781171688207008, -0.021342673078672318, -0.0010887485872029664, 0.12013942304328627, 0.003101614043074754, -0.01664548900714972, 0.022000223271628927, -0.005781014513294909, 0.02285966242098555, -0.0005462561723455435, -0.016337394394646973, -0.0065368785621173365, 0.018221578521768856, -0.07597753863827987, 0.030738353653362558, 0.029782722549871108, 0.020081570049655488, -0.016362364129592525, 0.05967169929923188, -0.004441169147590984, 0.03208805691608228, 0.04524261811151919, 0.007405443363702928, -0.02120661014855091, 0.03349770970677477, 0.03173654775068642, 0.003596851224960763, 0.04873782251136172, -0.014160108369588623, 0.007983706760076632, 0.04001328128665211, 0.013821455823721362, 0.04004002005192022, 0.05932785053040717, -0.011061435517018067, -0.0670089775205299, -0.03535202549658019, 0.07326380162065464, 0.04861322835093646, -0.057793591713380985, -0.015935858272708592, -0.05732569728512728, -0.10155459997807448, 0.023213302110005163, 0.032576153060857115, -0.01504126885803723, -0.04648832413273474, 0.02209528495333719, -0.027991836773619768, 0.003626861188468431, -0.011163680922844392, -0.059903838144688255, -0.0017044092515313921, -0.052410551272466285, -0.00841601473648977, 0.06096610745576668, 0.016706260113892975, 0.002620810451341107, 0.007239731031662679, -0.013565317426014996, 0.01879896128082642, -0.03572886929424068, 0.06700426209808324, 0.02277185403684805, 0.025352385778575712, 0.055511411800404684, 0.003673050943990701, -0.008648964768235273, 0.029084181655229847, -0.006929602571253185, -0.01915832668091191, -0.058945342903437954, -0.04608487270197693, -0.0030862303321356685, 0.03685467293858014, -0.011243617547178437, 0.039319534880054706, -0.08319821277176921, -0.01455483646105672, -0.07453214618899984, -0.023841967531637993, -0.00425450850017015, 0.040093074841063114, 0.03305533221833622, 0.016463891667397063, 0.0007341683541737681, -0.07161831463770782, -0.053712550741445354, 0.024077698520515216, -0.03847870529150394, 0.008992927684675122, 0.0288860283269978, 0.03324260921026152, 0.06361116167449288, 0.0009734474378646801, -0.05366498410781288, -0.028816784213897738, -0.01309900735798725, -0.03808147815341952, -0.012843712646664998, 0.034605253921296035, 5.394531747747978e-05, -0.044634250010898976, 0.06505197780722531, -0.024064553446931033, 0.002091482038993173, -0.02383351655537794, 0.0467152703243099, -0.019950692719586122, 0.028615294975138674, -0.025370840212549702, 0.007862321630613445, 0.03908141564139457, -0.037040714633328996, -0.024651236936422367, 0.04551274983735011, 0.022196883638413406, -0.05272717274792517, 0.0698623212915351, 0.0074576552304026775, 0.040689509722004615, 0.022583917332950943, -0.035794886686001615, -0.007356575080844985, 0.0022185847399713793, 0.009847496091661741, 0.04431509743577215, -0.044405607297851764, -0.09599976463822338, 0.07448501760996544, 0.002715419070095128, -0.011955254115741661, -0.03680824992103967, -0.0493575440707962, 0.004487610326861981, 0.01734712932958875, 0.01040934623002299, -0.019321715798299593, 0.056073223415682154, -0.030072135885713468, 0.016595632716212113, 0.005142755660526479, 0.022032546150704425, -0.030508663533590285, -0.00932512880646791, -0.004611303575773633, -0.04601404389903296, -0.06108802350860202, 0.023850876436785858, -0.022162205433598876, 0.021466699809465438, 0.06788462510893652, -0.015004855681905932, 0.00540223121896551, -0.02835603158822875, 0.034202673895861055, 0.05567229535711939, -0.03283747630141607, -0.1053919881635823, -0.024863432023135325, 0.00318791365809335, 0.021526757373409217, 0.03854908843319164, -0.034337214437152645, 0.016442473209815824, -0.029640565586913723, -0.06633824641971173, -0.019350196400407464, 0.004370393029727296, -0.005989688108731519, 0.054119720591194166, -0.010618300653948897, -0.011047892518023806, -0.03556518508271867, -0.012890067257573804, 0.007445786579740888, -0.02627389215399065, -0.04701787378757834, -0.032245608669351215, 0.02726335969226685, -0.011507788778997748, 0.012185601836274318, 0.012204282075922192, -0.06497254166205306, -0.0494956076752596, 0.01472453840553435, -0.022244783050961527, -0.0312859231176114, 0.011899177950227342, 0.02477819681832687, -0.017391820101255433, -0.040490313033318064, -0.04073463271778315, -0.0847155313026606, -0.08054414237225574, 0.03442101251786728, 0.01031420892097471, 0.01016997203329741, 0.03191662758065328, 0.06566194885798547, -0.0028857211586565926, 0.031056124794347096, -0.015505276817934056, 0.02595603088792509, 0.05699613961092666, -0.012193237438945886, -0.06555560043121056, -0.06088206105585358, 0.004357822047533793, -0.013392536957089874, 0.024085602351719304, -0.03766952885622071, -0.02143964421415625, -0.044173717002064614, 0.03156520484114435, -0.06868272610159833, -0.0646411344718593, 0.018806314490842253, 0.015483626287857205, 0.04494705812319808, 0.07090570060483156, -0.03620139476671267, 0.029652120416751936, 0.017268971192715848, 0.03600498835293146, -0.04033222339742161, 0.042849544840634246, -0.08122840189172927, 0.036914596543388974, -0.00894707415225157, 0.010141181691665986, -0.04349978167435105, 0.013164092635821951, 0.02202572689928509, 0.0149869829621736, 0.005041584133837919, -0.016886400002078687, -0.039051450898380045, 0.08499520942031173, -0.06560517530381937, 0.04333383301465615, -0.009290460963061223, 