{"biases": [[[0.8302162213666697], [-0.9550032165629605], [-1.1401702397303526], [0.2887090219035669], [-1.4844603059206996], [-2.84958210194431], [-0.4000141026554479], [1.677837445915941], [-0.40061310039467396], [1.2623418815906133], [-0.5574397265858393], [0.3360988907860137], [-1.3733308267334843], [1.0894918497065855], [-1.0664730014537815], [-0.10507886697447925], [1.0598239873654416], [0.17773509232743775], [0.16023944333062087], [0.43129762004932143], [-0.25670400791412096], [-1.8941821312736367], [0.8573357603666751], [-1.4490401666786368], [0.7017634036645956], [-0.5811496611530933], [-2.4406768993321926], [-1.072481556200134], [0.2006939304023116], [0.8032344670404888], [-0.4258426690101035], [0.0567638427152572], [1.4855518017466036], [1.2985753664438813], [0.18179457037147234], [-1.0080403407880951], [-1.6824796782549052], [-0.15882652692464755], [1.6169546279738893], [-2.1557286447989648], [-0.031920481477980454], [-0.7717178537465166], [0.7623252012749923], [-0.1381431045406759], [0.36787840644677666], [-0.14092363229229038], [0.2434985347795631], [0.5989283703842325], [0.35372488899874066], [0.11089803987700494], [-0.3021677794048721], [-0.44057800592324103], [-1.8714686505305438], [0.8634240405037747], [0.5004636806035037], [-0.6317463112523553], [0.4253160532701139], [-1.2195875991816674], [-0.663156365145403], [-1.2332892009691343], [0.1506868618616823], [0.16682327394135404], [-0.15453777774494562], [1.0499932338610003], [0.5026031802938552], [-1.0608378942253078], [-0.2758597709122478], [0.12400365487237361], [-0.3995954132914801], [1.7746190519866751], [0.699299740353227], [-1.998779674539359], [0.6189656972146275], [1.3771629014769597], [-0.8996030953982477], [-1.2145559341963796], [-0.3463618010037183], [0.3916767398158897], [-0.7843918999777134], [-0.7169216185285038], [2.2541984432002624], [1.414717793109498], [0.4911791635256439], [-0.19161424423370277], [2.2159191716329976], [-0.662334524376047], [0.8664581041194794], [0.6429268835731415], [0.5245407584504371], [1.6277769524949148], [0.8082926409713149], [0.7214521288856464], [-1.5993562705781597], [0.18604862380243523], [0.9423325811924986], [-0.8050704272086538], [1.3067656652475583], [-0.645511064540998], [0.5198974588428766], [0.07293847599192592]], [[-0.41318543756965814], [-0.31720540984725837], [-0.5358040118293657], [0.0935935190223939], [1.3096835724569345], [-0.27743842998579665], [-1.823092146141648], [-0.9520022606195118], [1.3787821121515356], [0.6312492264488543]]], "cost": "QuadraticCost", "weights": [[[0.0224432074380316, 0.04599727667005717, 0.01676209186191741, 0.037934410678200865, -0.03400859810085354, -0.019692700930708552, -0.049939062702339214, -0.01675730683219212, 0.028359594680377433, 0.030579424070000583, 0.007188535310704953, -0.018079271170287865, 0.05572995010534747, -0.05926848240509619, 0.05770442742008996, -0.08451208397664864, 0.018185427186111772, 0.009042672483433887, 0.046629762769864636, -0.003806554200760878, -0.02965369239916699, 0.0319552119105472, -0.00983570729450719, -0.00042798405118058366, 0.02955023380428694, -0.04825761184394811, -0.08646502643839755, -0.011470915731484791, 0.011790393142748533, 0.037747655439501517, -0.04084849680049134, -0.06003741153574415, 0.02172868081039625, 0.01794980264987162, -0.01819444999717875, -0.013234226465069448, 0.021192921056361218, -0.0013983496775733261, -0.02471780655160326, -0.015438144360634268, -0.016557524018501597, -0.012155758907006991, -0.029248414517707228, -0.051377401334965975, -0.014129861984444247, -0.011875518299035713, 0.0214463581282169, 0.027607773612954484, -0.0038624151168668366, 0.008589361327378867, -0.034049630589672225, 0.013823097437508753, -0.05490382473232961, -0.0045952103282225435, 0.025402267992467333, 0.03520309607171276, -0.01898543687126778, -0.030407604172798412, 0.044231496598627365, -0.016723231897019405, 0.03935363067988002, 0.04425775912546174, 0.05223718209695217, 0.0031681407257281276, -0.008523429424191152, -0.011876694848726624, 0.0028233410482175225, 0.012748797093253019, 0.04079773883167014, -0.10833524430872236, -0.017782173067504885, 0.04866479812502054, -0.014505957296586366, 0.027013537978277716, 0.03369157255414406, -0.01574986850796464, 0.06313482569251568, 0.09033644585071281, -0.034705217308513156, 0.0065956387181240915, 0.027391647005259163, 0.0009659449347093474, -0.03239850863982666, -0.020612467725509103, -0.03080703794393874, -0.03682244949956052, -0.0002689311083184202, -0.009885577995311626, -0.005439018159920565, -0.0514072803570794, -0.012270168512753168, 0.027871827407287737, -0.08774626407261461, 0.0013161338226594372, 0.021488504446693864, 0.05469998146939331, -0.014511115184603168, -0.025584906030765263, -0.024728911591856424, 0.06559529038808118, -0.031246029024965948, 0.012720442681189579, -0.018533269813538967, -0.005322640273399726, -0.0022560835461994462, 0.004003547791028854, -0.008761077483579283, 0.0060679005984720326, -0.07285403376266644, -0.023694300471446904, -0.025950524755117558, 0.02650106769241631, -0.04389016769725196, 0.07124232004431727, 0.06107065191467007, 0.0311974191447753, -0.033843427688673766, 0.029537620604980656, -0.0015052738761471768, -0.031019550839706426, 0.04701644144298349, 0.024355497673752186, -0.03555133269185808, 0.004218912560524206, 0.02760439230002698, 0.013257975526365776, 0.010193779652894005, -0.00884058991058911, 0.029742611767809558, -0.0469740839361615, 0.061885122458392894, -0.03685326026581317, -0.007884874642009853, -0.030355981273459714, 0.008611514019197285, -0.021086697870068654, 0.020776702177825925, -0.004162542215434335, -0.06478934963470932, 0.0005143370264176548, 0.0069604279891604896, -0.05622402255708582, 0.06625035723212518, -0.003800551788657718, 0.016011124462855273, -0.026638757409761193, -0.06233949774271606, 0.03818528137204124, -0.02327258617132947, -0.042179681023646116, -0.03367164573494876, 0.06676566261238495, -0.05312493567226101, 0.012131194785185323, 0.007067191829606962, -0.010985938764591016, -0.019223106119441096, 0.03226242261574427, -0.005822493302378952, 0.07315019654674339, 0.03981670793190587, 0.01589758872667186, -0.01722744790850878, 0.022361590654085512, -0.0761548966073304, 0.02210624800545642, 0.040781552322974736, -0.029488137811968396, -0.01085529852133256, 0.016681904125441818, -0.05018405938753873, 0.045515678502185075, 0.0556930685856226, 0.0713987443104357, 0.009324168294866967, -0.0312597696540917, 0.042609585964019404, -0.025370019362109288, -0.047014261628523575, -0.03970237461941194, -0.029977926509270555, -0.02301900054843048, -0.013541091676433317, 0.04390458105849059, 0.0010667976799599234, -0.02078550010992008, -0.044247814525900105, -0.061263806276289794, -0.023347529951006897, 0.06061572182649179, 0.013022954637858561, 0.01975293507086679, -0.0010356314081748353, 0.028068177177707453, -0.022237352721912875, -0.013386059658420987, -0.027571739328935068, 0.05066011714733357, -0.000635423246222379, -0.02967960137880777, 0.006326247660519381, 0.02741969017037895, -0.029936569461567118, 0.08644737917769695, -0.03031151831152552, -0.027806676277055777, 0.04438563095709846, -0.011342188835954689, 0.004825309292131286, 0.02936348706797744, -0.03835386275804759, 0.008199602447926928, -0.017885808408759855, 0.0381499215929486, -0.025864129342902106, -0.019462906190740512, -0.004082381453013468, -0.0976183008236282, -0.0009012782504268073, -0.004443761430431097, 0.01942065923275659, -0.014749344016892792, 0.03624685247496078, 0.0008950110758743039, -0.06724168045586175, -0.020249740827909996, 0.028252429706770634, -0.04600376842457438, -0.06898601773847146, 0.024140908725219325, -0.007440467861985165, -0.03875977136497748, 0.054788601204605804, -0.018374304259603118, -0.02945717623182606, 0.07717750172802995, 0.010403853568005593, -0.012432163134751293, -0.027754735151421607, 0.02080612200158165, 0.01649613974373469, 0.020520536650885473, -0.025543590227514713, -0.018603532689527087, 0.024451970382194602, 0.01645911054487381, 0.02175766266461021, 0.0617131257469901, -0.05794336418731179, 0.030181751377094605, 0.0053352645136064344, -0.01969372421200502, 0.02869354210790537, -0.02484895761660525, 0.025626676933655005, 0.07593892712772507, -0.011597674249376402, 0.0028235923672004755, -0.011884046396713291, -0.01571961456937079, 0.03629684330377385, 0.03896143003106894, -0.021231858343173118, 0.0011276291107591913, 0.05752910626338653, 0.03406156996308709, 0.034549546959323794, -0.018065975172134208, 0.02534968402421404, -0.07093834209579054, -0.0048921379184898054, -0.016302275782675017, 0.012860077936528323, 0.010685056049908237, -0.010100241598606143, -0.05551388130978379, -0.07143504855187029, 0.03756315947096345, 0.011882195338757196, 0.028122214871527378, -0.04035561160614891, 0.008743051337875663, -0.010637150502976173, -0.040286429651614095, -0.025609989939520683, -0.04684033340283012, -0.02555645235624265, -0.04579734984201957, -0.01997100877797304, -0.02523669943474202, -0.0005748881394453129, -0.016904005061120546, 0.05696595673808423, 0.000743909100142999, -0.002775824413926078, 0.005041975017977646, -0.06658242293043434, -0.0032387912596745067, -0.06333405254126033, -0.029348019661658866, 0.022512222577316065, 0.030636579530272167, 0.03629095362911299, 0.00719038883976979, -0.01780716517270533, -0.04732469392023762, -0.016086116068245344, 0.00928145269139512, 0.03134890083472076, -0.006841496044954878, 0.029368804123657825, -0.06212478593651764, 0.03447651609322842, 0.00913497503941735, 0.04817052587225966, -0.017896080686224333, -0.003796352054888086, 0.023541372120004483, 0.052732287926330904, 0.002912320643861449, 0.031417414585434886, -0.011881376726983363, 0.015159850828267183, -0.0069210811583817295, -0.05150824284795242, 0.029404130349941885, 0.0075461820274649516, 0.020925303603745456, -0.061535057343081415, -0.054456388135410726, -0.05339467839618983, 0.006235600186236839, -0.04156103345748718, -0.015314667083753413, 0.042385133661499166, 0.08227049989348853, 0.02083416062050286, -0.09131021349730632, -0.08848783520761785, -0.0059774823079334904, -0.023203014934143656, -0.009531885790973344, 0.0019501021456911213, 0.06246784185022904, 0.027133851724510938, -0.014622310698229913, -0.027118213029841697, 0.04353564365272594, 0.004824399964870667, -0.004522732385078963, 0.022212423281375463, 0.027022200456651695, 0.0072667642322949135, 0.0017482111501584308, -0.06402381646136884, 0.05800649566025783, 0.02768668372579491, 0.014795363650715232, 0.022859598290403845, -0.03014258734435035, -0.036087554408894766, -0.023788031530872326, -0.016571895474840694, -0.05949895490684922, 0.015848946638893413, 0.03325868745817094, -0.03562104290201333, 0.006591667410004246, 0.09671676484345512, 0.008741757217974575, 0.031783596476596884, -0.037614617708371594, 0.023894672839937098, -0.027261072067522436, -0.015012574445242196, -0.05232121950374896, -0.016051184704773076, -0.041661330615943896, -0.0249202238297559, -0.09153816850563246, -0.04317670955152657, 0.035720399666078276, -0.01461118570928993, 0.0027170144086412057, -0.027080629194661043, 0.04329601191317123, 0.004274894907209907, 0.02700295202107734, -0.02434649261897739, -0.02739571598243466, -0.04265649416838429, 0.009689964975861427, -0.021500028737693213, 0.01070256327177859, -0.01576219856311125, 0.0013493507153641976, 0.011334282951577249, 0.029484439902714793, 0.018823551330704125, 0.008784938719994148, 0.01529337445521539, -0.023940581834637424, -0.05343884902227829, 0.01959293108852126, 0.03451170868253406, -0.03448994557770726, -0.045495845765184575, 0.027529443797525328, 0.02894541859840732, -0.05557793866712523, 0.01653457593450836, -0.046309303606035766, -0.043154818094959135, 0.005125945006631854, -0.002324587192008775, 0.022519749564230723, 0.015249011898483439, 0.014115135042134432, -0.014675853786112605, -0.01752689965566643, 0.015739048829978668, -0.0026615065106375064, -0.10246832923001371, 0.0010268985954180008, 0.01960932096962075, -0.03490829464605918, 0.018677051034797835, 0.02769880047556882, -0.005814961464577896, 0.04750316151362564, 0.010055338565771035, 0.054366850955588, 0.0470369873545529, 0.05215962807771509, 0.001402807003926655, 0.023683139414158092, -0.046714694688347665, -0.003414763731390734, 0.027950107206734638, -0.030735131697654565, 2.6276353795110827e-05, 0.016510934814956663, 0.038934965110302776, -0.008903701331382614, -0.04071730274052018, -0.005808898929678144, -0.020019807947766925, 0.03723040269773751, 0.007934323029206684, 0.04334216427456158, 0.05740113181329575, 0.004131435041124951, 0.06314134226451104, 0.04776713817203255, -0.06786618897475727, 0.006847622121765039, 0.011930283730720363, -0.09074770412570972, -0.027875536413476464, 0.017867794003109876, -0.017785656595679877, -0.02511120430002354, -0.014211887245529232, -0.0020200818186503398, -0.07301307035877265, -0.016549919496658575, -0.06060555253613958, -0.06180178058953211, -0.02811704258746361, -0.05093612060970244, -0.06487417748407101, 0.02580909391576549, -0.015686798300072923, -0.03326121955750695, 0.0021158491203449098, -0.0023901914132323206, -0.011724539863291429, -0.006582729537645321, -0.04661939732944771, -0.04034142437853381, 0.024063019376313496, 0.020873557108242062, 0.006555426012445811, 0.00030104486522039765, 0.05551271205875652, 0.025343202176315454, -0.03124100776886927, 0.05661746100247959, -0.019827236835471992, -0.010094377735041803, 0.00503567805175782, -0.016708753533531146, 0.017147006487501986, 0.07787235540121917, -0.05226736326429084, -0.00674069229713125, -0.016720428755619198, 0.014318432895841891, 0.06687686341076486, -0.01861186683307458, -0.013332367227874727, 0.02149280606848462, -0.008900674685798074, 0.011933425791219383, -0.04674259346338268, 0.03951320546992881, -0.06371490988824229, -0.035406589971026206, 0.0564314749585196, 0.04035438084173199, 0.05587778620550158, 0.02022356746061926, -0.025182001077023845, 0.050099275002711996, 0.01703746879512403, 0.03823602437796999, 0.04268008579223289, -0.007287842118302539, -0.010736012270801612, 0.003930448343341487, -0.018075169701777034, 0.019118049791456537, 0.041067304703568765, -0.010827961674195061, 0.021261590116249746, 0.01669744004258797, 0.028360828177347298, -0.04351212400422451, 0.02767125009673999, 0.011644909876063285, -0.05004113158636504, -0.03565948334336299, -0.006201491986670136, -0.00749485411616131, -0.05972263480562652, 0.02888190158266282, 0.0442094301978195, 0.008309993124650512, -0.06061237632385079, 0.0017103195034932621, -0.051681313424430254, 0.027367293006309735, 0.015653062422039406, -0.005598873887871411, 0.0465550751652763, -0.016957802150701307, 0.026658742529655704, -0.02157436173883847, -0.02811668198517622, 0.01689467796208251, -0.012963458486459538, 0.03944382225702196, 0.006847727659155067, 0.018606336990033216, 0.007712737367715032, -0.006160251883648923, 0.03088477396008612, 0.05982628091211194, -0.009027230344896095, 0.03981635794975487, 0.08731570325621517, 0.042823289990244005, 0.0380352433966226, -0.00031073623862547657, 0.0769930455870862, -0.021907860563238655, -0.004020374961550578, 0.03551873920413543, 0.058126267626388305, -0.022402567334234482, -0.02760169745632135, -0.01769908687274892, 0.00700078888517802, -0.0007371817243098719, -0.0686932722672212, 0.009007052749321261, -0.0258379769769365, -0.028406621435288517, 0.011484670523350669, 0.030209146904830834, -0.08196166428520853, 0.00884832832450766, -0.011303428321303505, 0.017874902538909058, 0.007701447732429268, -0.0239782068555957, 0.03530343531936421, 0.028584248381710257, -0.06273670770867713, -0.0020820930374385706, -0.0008319413855862355, -0.014077464900678465, -0.005542104424936076, -0.0016783890824862923, -0.005625594204418528, -0.005982970408537631, -0.04180201482066364, -0.01534871501903645, 0.08779358013632983, -0.049540150544805824, -0.02180771826874997, -0.04403081043341745, 0.05541245586345191, 0.006794614747231577, 0.05860980422120839, -0.03269873623221372, 0.021415126939938908, 0.00816919510068349, 0.013382989174541749, 0.031466508651732845, 0.058323769346923036, 0.03643348736663352, -0.002615559534622902, 0.006169252674747387, 0.014650782924206254, -0.034219644804852026, 0.024037227411832035, 0.011255373880507749, -0.03154952418768347, 0.0010824228006324785, 0.008781896493671124, 0.009094200141141661, -0.012605852659995745, 0.018378541832409428, -0.03340309122682087, -0.039647231918230365, -0.0023947817960245188, 0.01580293075991813, 0.07244370116698394, 0.020152042061553542, -0.05933166575355208, -0.037983302273882226, 0.027282145460701235, 0.030770510345028562, -0.040623651646027874, -0.02245366538623996, 0.0455913412262761, -0.037121469393484915, 0.005429213718996762, 0.011457976971441686, 0.027185998534253374, 0.017632817694138023, -0.016173032134918202, 0.0076345145440132696, 0.008959602655911947, 0.029416517800832116, -0.003908807320185695, 0.04584596912408196, -0.022612352379539295, 0.0820946874484397, -0.027067549198750956, 0.0017730920515760097, -0.025654690133036225, -0.030857637105515406, 0.022636774253046242, -0.021612861933765378, 0.014097023887116445, -0.0392154608894674, -0.07583719919095973, 0.012817749868864277, 0.019630561662862527, -0.006841124824139985, 0.03242872296711284, 0.059845279444079115, -0.009592479106202647, -0.06203590758462829, -0.04292718155689535, 0.017847108854961668, 0.05955182527086099, -0.024435709281138928, 0.03367901002973279, 0.061612823977089615, -0.04423097467938031, 0.011868330299625394, -0.05988126523819586, -0.03323961259348741, 0.004693177164157172, -0.020549652218185718, -0.043884681254255445, -0.03872586688273854, 0.016820603960513957, -0.0061149690920357085, -0.003560757756027613, 0.0033672361614685634, 0.08945237802077025, -0.0025723051645690927, 0.08517066502116852, 0.018584970249679384, 0.03842065360664016, -0.047200730781259845, -0.03402680504439183, -0.003736069082457983, -0.07493765164897519, -0.031590798705399326, -0.003177635738820781, -0.03765730157907422, 0.019892733505583966, 0.02733731332776552, -0.00336327190208166, -0.08588303279012045, 0.017135503261118273, 0.01791902316198652, 0.02803340602952726, -0.013143257571419015, 0.03182942661906734, -0.05059985864532681, 0.05721231473461093, 0.003841446838909518, 0.044485331244665464, 0.04183247928165877, 0.01404840417744956, -0.014711148162519118, -0.011972728369067279, 0.010769448969713324, -0.004137097531875617, -0.04157318021615057, 0.04502378784180772, -0.06929206972136717, -0.027829547109644057, -0.06370500080378251, -0.015626231499891556, -0.01447336004291703, -0.009657454039170388, 0.007003906601256151, 0.004939201620940338, -0.03225673915749928, 0.031818885598634175, -0.013399475117271036, -0.03075914234231533, -0.06521202240722312, 0.05620857922063739, 0.005323062189520341, -0.010569264912021575, 0.04218616690363145, -0.0008905567778741709, -0.006887973742674538, -0.03897965938731885, -0.009058113535954827, -0.011618679086200404, -0.011241589559326373, -0.004342993436021556, -0.06060223287016631, -0.011738919611752935, -0.08113932871892404, 0.01878216115812995, -0.08627689182611045, -0.005332996078372428, 0.011048038228228932, 0.03236219024963151, -0.04116564539424803, 0.01523351394331643, -0.049730163915799964, 0.04580226754079074, -0.03167830031832746, 0.05330626857697694, 0.008604832348536293, 0.003751150622263568, -0.024374920863690152, 0.012148450668707301, -0.0042030033795353505, 0.006847984713900419, 0.04614135942789913, 0.036864950161470386, -0.05847334594008969, -0.03421420753995472, 0.05368314138135631, -0.02178110924954885, -0.009488514821990004, 0.016105147298092187, 0.0016716580020892941, 0.005110005643965125, 0.03823044889806683, 0.001996603241280527, 0.012057071315562464, 0.038596955732152834, 0.059694828334884306, 0.0021563003348889797, 0.01827910069071231, 0.018170822055198353, 0.042386343430711494, -0.03140762357161534, -0.03258468584858853, -0.010835492402354248, -0.02635807644049582], [0.05059742868539605, -0.00972501517150651, 0.0075519039870137585, 0.02466390842858384, 0.01995728721103678, -0.07728510010415977, -0.04539065664575015, 0.08954435609421178, -0.004798929801687062, 0.00636912497955821, -0.015859328531657578, 0.01810544901563657, 0.021337752536454157, -0.004829965958418397, 0.0032492591821073904, 0.014058366481410704, 0.020926069816772086, 0.011595779249843823, -0.05162999434555536, -0.027664756459666973, 0.061309803813903614, -0.02889331617801832, -0.008577102435569861, 0.02309985695581249, 0.07686629979720179, -0.016094407513734935, 0.051037555735792196, -0.05954200311045723, 0.0074463509640033945, 0.0486912159514166, -0.015654446112154632, 0.04719509128164116, -0.026437223856341622, -0.03849808241418965, 0.03193490086276629, -0.032065481192293833, -0.01727106410002664, 0.09647898319612434, 0.03152505463922448, -0.05563102452583957, -0.12984070206591705, 0.05890207411202988, 0.053717709243234824, 0.013466844496966572, 0.04524238871222206, 0.00015429161621859566, 0.07786471246531734, 0.025153205358564506, -0.05689585762755962, -0.04131336939215064, 0.05376156106691806, 0.058193978546696175, -0.035754974266418015, 0.06855557142979095, 0.05503805966635002, 0.02755152384842383, 0.023360391279764654, 0.022567263890661125, -0.0014261473006145112, -0.01119241129282891, -0.005678980153650462, -0.04017650855632061, -0.06797756340813518, -0.0629345197451563, 0.03165474520041196, -0.057399023991871925, 0.005642595591128294, -0.03805520408215057, -0.013345118250807269, -0.06777186695029458, 0.0539795623863925, 0.04035551133412309, -0.02709153076985062, 0.014479242866287398, 0.06182601990958204, 0.022561814869076824, -0.037477808024038314, 0.0004351685936751524, 0.01935494757811724, 0.022569696374043942, -0.013683097220239974, -0.06120852172431709, -0.004399557514992568, 0.009255137690303335, 0.01908380679845673, 0.07130703584835205, -0.017839586398013817, -0.030617676958029746, -0.04399590473346948, -0.045131687156029034, -0.040813738155458676, 0.054329942997067594, 0.048154498835927685, -0.03332222900961696, 0.03506783323124031, 0.05966092587996004, -0.007433883199867721, 0.05193846225132627, 0.0035006852988283444, 0.023415552184935205, 0.005371142513244894, -0.06132243812914096, 0.04491643755347169, 0.010252736271261512, -0.009248178262258027, 0.025754073257021694, -0.011478274201682086, -0.003764334006967126, -0.0054825781306358625, -0.02109200524120126, -0.06008718550868255, -0.023223263778596313, 0.025009365008239713, -0.021021328381061043, 0.05484903840402836, 0.1022831950411496, 0.017735301252693778, -0.08505903215782128, -0.02427830554916053, -0.043313891299775885, -0.02150789560525403, -0.022691448991481643, 0.008509924550760014, 0.015902827935101987, -0.07372958207427296, 0.04689987715425138, -0.020762322519142656, 0.012413743947957606, -0.05027470961201776, 0.03301775555873316, -0.0041545059750122204, -0.0016883323421558753, -0.053907170131099906, -0.01742936375629265, -0.03817732119508054, -0.011700982615309292, -0.06002226459168041, -0.009722655300800794, -0.0416588235493397, 0.013388988796523229, -0.005097967403276809, -0.005731701539613923, 0.026928426734933925, -0.03983993309176297, 0.021261572069391017, -0.024340947741891533, 0.02204143386407654, 0.04728527399421546, 0.026399705754045565, 0.049687958528320066, -0.061047278042345665, 0.015674641442100613, 0.051343888444621615, -0.04639961630222354, -0.009306570764587574, -0.004721734539951092, -0.024970215532187846, 0.06636292949724111, -0.008747593016460215, -0.0367228971770051, 0.002947736807344907, -0.014272135097194756, -0.03006221874684393, -0.013346829181027212, 0.023108533012392435, -0.030416859747098034, -0.02382468015062281, 0.005622927336239405, 0.03798197355243765, 0.02703681394211122, 0.09958949660245361, -0.04258616868997889, -0.04906709553696128, 0.008006458696303145, 0.02088398767434108, -0.06232613581543385, 0.044203472774806796, 0.014022375922939168, -0.036605432335860166, 0.015333048869293616, 0.017915076440735315, -0.03276348737517274, 0.019162210430270308, 0.005419621796712804, -0.01582701991901835, -0.03634880885976482, 0.025741622549075225, 0.004870937770057317, -0.005710132395770618, 0.03670330697282637, 7.122511949602031e-05, 0.04413938112373557, -0.03795606330295926, -0.00551483511113453, -0.0660986651310798, -0.10996348183673417, 0.023138273987691676, -0.0531231911355286, -0.04156509060992197, 0.014034100578242586, -0.017993610819203507, 0.022336778977661193, 0.003651992644179077, -0.02829244667252435, 0.007261173288948056, 0.0498700581897943, 0.0067859066894823405, -0.015691650692606546, 0.012641752925657572, 0.0038269394320561384, 0.0382119635736471, -0.040144974597338616, 0.012070781719185521, 0.004144128564829398, -0.0194089167246592, -0.015400411309939575, -0.016055866060021688, 0.017272428226224625, -0.006735196169582771, 0.1361931027403204, 0.09166806163387907, 0.04174736937081347, 0.0015455523107315923, -0.04245003133664887, 0.023072882602947358, 0.04934997022273109, -0.0481486404201632, -0.008298939300518495, 0.015429362728191287, -0.04283479542332005, 0.04526146250738914, 0.045902526740069595, 0.05426132364008523, -0.018711648195109076, 0.03673304325267102, 0.015694563052043305, -0.08875462284047342, -0.04653799793648208, -0.04648914078740356, 0.019237758063980457, 0.025124925873932252, 0.04996897942776273, -0.06361711125478789, 0.06361034362007907, -0.024298196237835936, -0.055133430638308, -0.010502253286309918, 0.01580598662123541, -0.008093384148721103, 0.06742387424425152, 0.04183178803706082, 0.01559219973231217, -0.03122433884854425, -0.021223012881636794, 0.019484701278941637, -0.011537945161618905, 0.039593083811258145, -0.02563099066863626, 0.053507812376198, 0.07033137306533695, 0.01363012465942943, 0.07371793262790001, 0.0014959741864834077, 0.051807221468315415, -0.05596880739755335, 0.025380297085810195, -0.005959272378972257, 0.005406979709830532, -0.03459628455797757, -0.010155721542569498, 0.0020587623562650014, -0.03476755471372225, 0.041113349419352255, 0.0033989711463841494, 0.03838672262693723, 0.006958714283179167, 0.02871592248103975, 0.0010474998648464036, -0.07460914233729456, -0.012866967465593418, 0.020074101694045842, -0.06311248691800694, 0.016142211524935505, -0.009799806842842405, -0.05024619323231444, -0.006956408569364843, -0.05000426914213744, -0.04336219220473224, -0.08820623034628752, -0.03937990270950608, 0.02509036402924349, 0.0016661807743166058, 0.013989820427485016, -0.0667235008846138, -0.0028487246631751983, 0.022960925819443655, -0.021302005601236858, 0.08339329996310804, -0.040611291565845566, -0.0030648784815845384, -0.014635063469825632, -0.013151540947695507, 0.00268523623854137, 0.00024065717597427185, -0.011508036893788012, -0.0021989893061219157, 0.03618613279390674, 0.06451503081740426, -0.0026698650374585462, 0.05547042471455492, -0.0703916593067065, 0.0072051340201822, -0.006810424004106296, -0.01609749498613832, -0.05069274665499833, 0.09549769471799627, 0.006048909666416242, 0.01789244501121357, -0.03586124161250339, 0.05617742570768702, 0.03121149173182371, 0.07638781655507354, -0.004809345942939698, 0.08385334527246868, -0.018220209506157235, -0.029153597931971687, -0.0004056352968163324, 0.0702750536888638, 0.02528630111031698, -0.010601486837476573, -0.012698366854797541, 0.010809453064136611, 0.03127573783070616, -0.023251175311046222, -0.03271485523611723, -0.0056789809146453344, 0.012338334659487719, 0.07324237118718192, -0.048557055306112616, 0.02741082871726688, -0.006587478569676597, -0.011280751309144412, 0.032731447022676545, -0.0067972909651618655, 0.016112470231168075, -0.006469165861480567, 0.041002698237155036, 0.007474534429139256, -0.007741408614035113, 0.015133390770551616, -0.07154122646358939, -0.07654197371900638, 0.018395744511348153, 0.018298931762317953, 0.02071331760995253, 0.025456849983878104, -0.04569542045229609, -0.018818857770462792, 0.016447412346961957, 0.043009738997101976, 0.03956952245425076, -0.028027285062047467, 0.0641036434989691, 0.02870002530038267, -0.06680246702008463, -0.002262469016146439, 0.05592354575071742, 0.0025855568049496214, 0.009029125517917444, -0.019402670588522453, -0.017075387517966556, -0.03471833881703226, 0.045832429563504314, -0.06012316063659732, 0.029232617375226096, -0.01682022141696336, 0.03119076212695074, -0.03722228989354125, -0.04255372466885373, 0.03942687386986561, -0.03451169576600077, -0.07079930056774929, -0.00011950200264031556, 0.03365315013360681, 0.01538398568777041, 0.046875361197919255, -0.019225377844302362, 0.03701134876347678, 0.009949827054938465, 0.01341779198000517, -0.06523295784068468, 0.014126980883395455, -0.05787328188650785, 0.041426926030765185, 0.04085525954501259, 0.02399702444651813, 0.0076605692896295225, -0.03803034095742753, 0.011567886945165822, -0.0365265070253034, 0.00905237967157176, 0.006931230595741489, 0.027356088529416744, -0.024221031669422417, 0.00039009683056850914, -0.04170130726029201, 0.03651801431727718, 0.012067820548077526, 0.03963123323149267, 0.0032943757247699693, 0.07713883932194306, 0.04957027185422939, 0.003077229900929911, 0.03830694783163017, 0.03349074972625063, -0.07029096791086883, 0.01073740217422323, -0.0005390715832759473, 0.022943399258730852, 0.033074039433070274, 0.020157652881338774, -0.05617892393838074, -0.028773764917111807, -0.03524594850703542, -0.050012015020237555, 0.020697138733609944, -0.007226503632975567, 0.04434670212199766, -0.02427589255527083, -0.04065715277401567, 0.012787774237993073, -0.02765018787700705, 0.007254331045400465, 0.02380557087399175, 0.01334687099904206, 0.0017265342241704396, 0.03575979669871344, 0.013873793635658273, -0.02925263194832617, -0.004224701232811355, -0.025433084176209462, -0.002303502523973308, 0.010959036864259334, -0.09533416980366473, -0.023551978365237158, 0.02736089721241879, 0.011152457766493542, -0.06097670854411539, -0.05189606277526842, 0.009408355393884437, -0.08073365110538804, 0.06441563228155896, -0.029777878468885233, 0.029517931612267134, 0.06050437048261623, 0.08352130716761515, -0.011205298798186613, 0.07463072037800367, -0.03725746904847361, -0.03217663849991933, -0.02925232096542943, 0.011307012975946737, 0.005543639806648344, 0.025977880045141122, 0.05972560140704946, 0.03597427462304811, 0.0071451111505099, -0.028111973572853884, -0.010367295938558218, 0.042342485521102466, 0.03141130307604368, 0.004031922471309376, -0.05031139480861433, -0.018434396541233317, 0.043817653327722264, 0.03178528234162906, 0.011353673904498719, 0.06726879307366576, 0.0040506983012537825, 0.05110012900567957, 0.028089483205648944, 0.043013457819114906, -0.0019409874819408869, -0.044757439878455256, -0.00602702642367368, 0.010379937794845381, 0.0210560720955886, 0.015020803889776297, 0.0016735852497540677, 0.02361163304192463, -0.029337094429579998, 0.010623190165031774, -0.0028328316070141612, -0.041920011016221406, -0.004885469078070699, -0.008866635406331796, -0.006080040373157571, 0.015638772737903407, -0.03751760716505329, -0.036450800089628276, -0.011564987248467353, 0.005895445019156302, -0.005122397909107212, -0.01517709332759703, -0.009961600275760372, 0.006073804071814057, 0.02357594663261561, -0.005452596045938487, -0.006253888133383271, 0.05450458750205977, 0.061240096745371786, -0.05258795428117411, 0.010692446032454185, -0.00957789031066702, -0.006325115915599562, -0.02738313566735249, 0.021115205405651278, -0.020351604223395374, -0.009035160182603141, -0.014487294032803683, -0.01416775254391818, -0.007870245993603855, 0.050451690858988096, 0.010796644215698469, -0.0742797470089207, -0.03167178045563233, -0.03850698183678097, 0.07328371662980225, 0.0005290138878291207, 0.027533736409200406, 0.0059097246144107825, 0.017748319663265285, -0.04751412634759271, 0.04065611566433032, 0.05326494859876519, -0.019256869884374368, 0.03362927950602181, -0.055707616097774984, 0.04037438671119799, 0.03753204944286931, -0.0537116674486969, 0.02287979566084978, -0.03800986892402112, 0.03429853338966773, -0.04916245125030444, 0.005858859262505645, -0.021371350398669487, 0.05029315095279201, -0.006998388466376774, 0.022224317050511172, -0.0007649800723286468, 0.0525176928354484, -0.03758097904539022, -0.02822451312318078, -0.05608003136297689, -0.028061619464449104, 0.041000072385274464, 0.06010140112344523, -0.017299314843861595, -0.00809306926384425, -0.026710876608959672, 0.003535202220858554, -0.09990010752651964, 0.018016858520351512, 0.02214128093941705, -0.01684626710412733, 0.04046707417630059, -0.019643331618812706, 0.01095881085697244, -0.0032639959559725776, 0.02586169566926321, -0.03035548910260305, 0.01421979071060805, 0.008497008181226381, -0.059373523226867564, 0.047596063159020416, -0.036148556539663555, -0.002556180600029491, 0.006574827503378944, 0.010520758142118622, -0.02330455460353283, 0.0006719136981285385, 0.01806542465643819, -0.06202637651812824, -0.07530541048655752, 0.06899261302429463, 0.06675403349946585, -0.05495600717258766, -0.005766544273709838, 0.015043156841182894, -0.006763718494256337, -0.01159213683423603, 0.017729176952638637, 0.057305059351640965, -0.008267905345100253, -0.05039279433410228, -0.009078025368066534, -0.005493108737742043, 0.019148536830966126, 0.007968139657277436, -0.026873363753403108, -0.015701300339501654, -0.002581295312681983, -0.0225800458769367, 0.02141292656176504, 0.01104560844377235, 0.01787768802417112, -0.04298674931825678, -0.001625772071367606, -0.027119142369503305, -0.07682419050398678, -0.004142253904693074, -0.016866567159008732, -0.011793147170843102, -0.03550862059922264, 0.05772507206445112, 0.027200048536895793, -0.019945815451692273, 0.013154607237559218, 0.0006363449330308727, 0.03875925103577342, 0.006989706126367711, 0.03963220705354535, 0.018893857183867848, 0.010177533959802379, -0.047193278816661986, -0.027165544455300176, 0.0014235148273201025, -0.04788384948602935, -0.024629758473999713, -0.03301015631223659, -0.06112726929057927, -0.0037545080701433193, 0.021354622272970046, -0.012563387562615533, 0.03508007119959752, -0.02002497833928474, -0.014672150344553605, 0.04028496121838658, 0.007149585222333874, 0.028134518398988614, -0.013598412386481405, -0.04090899646785117, -0.02940454378287824, -0.011051310981361478, 0.045358638922452475, -0.06610282078522667, -0.016383168502696836, -0.02229529431406369, -0.06913483593446114, 0.017353348743164482, 0.039651844659217124, -0.04941081336025349, -0.01747207598521135, 0.008254966678111974, 0.01483643186507151, -0.028647955813199556, -0.006349454237460138, -0.008461197373096894, -0.010698499143363082, 0.012450616589370675, 0.02021888177253092, 0.03035647276404561, -0.04635171894707899, -0.048187306995333405, 0.022605669408321174, -0.015905561385185986, -0.0332499745228384, 0.022599886302412196, -0.026635096295147938, 0.016556264656324763, -0.012039264558808846, -0.004915665444899996, -0.0020985521506434427, -0.06805116944786264, -0.04361339301436925, 0.03482084695627767, -0.0008117334918720974, -0.025264048605808446, 0.0271536007116565, -0.008640181161572336, -0.0416420459305203, 0.028188949447990008, -0.00026987199936064543, 0.03156261984753481, 0.0068326082210188625, 0.0013751099162992737, -0.004888131873553101, -0.03885089752974559, -0.007323879581811069, 0.060047614267997276, -0.02849126676390473, -0.04641445263932788, 0.004839603471992504, -0.043428394143677364, 0.021896750580563135, -0.07899314628081182, 0.030664405077508807, 0.07269336072055019, 0.04382621985248909, -0.03430467639457296, -0.002684776427372068, -0.026638412953367337, 0.010664457848159814, 0.03702928523997233, 0.043198332740141544, 0.00715849187218247, 0.0456348984950846, -0.022401426202217637, -0.011204223856134638, 0.010650546975981697, -0.0009463529021480351, -0.03237552425026023, 0.04817149170244999, 0.038547434544906785, -0.048691133050969594, -0.03877383346184908, -0.009535237889596496, -0.06678635044630475, -0.05422067023113352, -0.027108118262467982, 0.00036272244351734205, 0.037662234811219664, -0.02259584276776488, -0.002717042218832471, -0.011500307929328947, 0.00747755999650177, -0.05245800822454304, -0.04773568552116866, -0.01700932573737847, 0.07391495053082939, 0.005033006567252927, 0.04863123066845143, 0.00892653977774756, 0.021262823995997254, 0.007882833167569263, 0.04365352604319033, -0.003261676198928437, 0.0018259715803605884, -0.028942087820153235, 0.01202141257845815, -0.10798359450113552, 0.010461396829104732, -0.020838101393997745, 0.014296733693895974, -0.005463817230800943, 0.0078008028654259496, 0.04100415754009396, -0.04660764715414173, 0.025515252730849838, -0.004305815635290021, -0.012696588232769224, -0.02278466985801836, -0.03241995279969064, 0.07377213246372417, 0.033476249282534516, 0.023849242090889233, -0.010731061539272554, 0.026333342671621154, 0.042243717212394886, 0.020784602972651924, 0.042655088770123854, -0.019692348852847458, -0.01014746737297963, 0.03345046557006467, 0.06801579204316113, 0.07001125315176233, -0.02566371986138991, -0.0027014634523805704, -0.04638822577923251, 0.043480260503957334, 0.051866973315844986, -0.06559200440673775, -0.0014054370804831337, -0.006230740725707, -0.02091568982439302, -0.02258319709544891, 0.014482456154210366, 0.03221934681748051, -0.0059608036960719455, -0.10135984618036391, 0.04159899597081299, 0.036995282629558604, 0.03949744928937126], [0.031769307982902936, 0.018904936729419803, -0.0038625924037926523, -0.03205213477446462, -0.03353815823209132, -0.04544305588705105, -0.05617319250169234, -0.028692374967896624, -0.013202767755060355, 0.020113360101404226, 0.0024078098703594927, 0.03359568994702005, 0.027172160906943712, -0.01076827563485563, -0.011233094442579398, 0.0027285055061881188, -0.02347648192258387, -0.01656513291277136, -0.04305888689855719, -0.016070078409563832, -0.03174740660881622, 0.020502018534835163, -0.0028158209299911476, 0.08039601737845425, -0.01467421008024101, -0.03511422082947753, -0.03570978107809837, -0.058429882195920727, -0.09383385906578086, -0.022220918551491515, -0.0191341848861375, -0.006998648851292145, 0.024528883709091835, -0.022618313470324575, 0.004115911781726742, -0.04112463674412209, 0.021246930903608536, 0.035830164382671434, -0.02631783295937012, 0.0452465170033974, -0.01989192664989488, -0.036067426284022354, -0.02655945695511309, -0.027746816465178615, 0.004109117309478357, 0.021220919850045573, 0.06208372696870977, 0.019481489447302876, -0.026593899560032046, -0.05503421574067672, 0.02861323375770753, -0.014568163965469194, 0.05294276216132981, 0.03309072350915108, 0.04016240191187635, 0.06979663000072579, 0.011653963785228972, -0.00024240156047803798, -0.0369531484278882, -0.03819345666669442, -0.02016971973584581, -0.06701328132210058, 0.023223739917392457, -0.03775790768289572, 0.07308914622417091, -0.004400347817386048, -0.03275591477814934, 0.045841118782384456, -0.0054887210202315476, 0.0603181286708867, -0.03231623199374819, -0.07671796791984317, 0.051050929390596, -0.03583845746619979, -0.023331617828067235, -0.052288434437775554, -0.030105562696488057, -0.026281657767298267, 0.023684114229575108, 0.01798845767994928, -0.03197917175213357, -0.06988811598381357, 0.07313044710300054, 0.04367949902920444, 0.021611736702757466, -0.05432408120820176, 0.008480655313696687, 0.007649131368128364, 0.021330426971253515, -0.02177455630456158, 0.013664689652253665, -0.048072900468157896, -0.011000162229007193, -0.04154164814950352, 0.014433421573505177, 0.0033418259546607394, -0.029206023779051103, 0.01355715211600091, 0.033101695100570865, 0.00848093939553615, 0.050358208117954315, -0.024537375304000436, -0.0011942249617523627, 0.09222290131923318, 0.028086784663012364, 0.020569202573370526, 0.06474892579491025, -0.008010486513015374, 0.023065302040131252, 0.03317745827113773, -0.06523369166475296, 0.011464564154742982, -0.010539837301618546, 0.021890654818055327, 0.019215346421586926, 0.012134076178165379, -0.020807773756501998, -0.018421463340248082, -0.037225263368341345, -0.09010043838832231, 0.06737673577417773, 0.05781687268562811, -0.002994162404002782, 0.009618283939586492, -0.05639338401411765, 0.07150866228324718, -0.014036692585925981, -0.010552697000703506, -0.022801972872276387, 0.024995709720163, 0.02840218357424752, -0.037687082525602135, 0.019065652837123324, 0.032306878086930634, 0.0019743671797172453, 0.006511635168435573, 0.03865548646804813, -0.027859477053117053, -0.06470788289629288, -0.02994890072050777, 0.02211819875535622, 0.029794088576578337, -0.027997041360913414, 0.028781209367254444, -0.019838869053713293, -0.02808966547411417, 0.015196558867115071, -0.01058665029747668, -0.07982456183419175, 0.07923468629821277, 0.011072733129590418, 0.004706218352380934, -0.07877859533448626, 0.03540959654823799, -0.02179872855524364, -0.02812969208582408, 0.03323700637940842, -0.028731555208937158, 0.011593251519842262, -0.0845885711223768, -0.006079209690851803, -0.015074849525335849, 0.03156744425620243, -0.04499020464170178, -0.0113234658488649, -0.009009479797362224, 0.03888683964795843, -0.007505614564282309, 0.03579375214032777, -0.053749469051799205, -0.037174458469055635, 0.002111541908833931, -0.026232710862252623, 0.018800171644128182, 0.04739994776189136, 0.0014612206441281888, 0.016784940543246262, 0.00543840488995617, -0.011331298567878791, -0.05764659702370621, 0.02350805225694007, -0.02902540484845802, 0.004587405461916798, 0.02951025664570578, -0.052624735063680546, 0.032574298705692575, 0.02381000320983474, 0.01645619177553156, -0.03666857627257097, -0.016524641400328482, 0.027005889658429465, 0.009429036746820224, -0.003937508834892152, 0.009984566005138482, -0.018055870991361262, -0.02771254457718638, -0.049573469716928886, 0.019092783935891956, -0.053825531535591956, -0.028156697771629983, -0.02740065970997784, 0.002081016079402268, -0.002622869278240961, -0.012940436586324442, -0.0076242378317096324, 0.024073162623989477, 0.006022515085525776, 0.0004206334663707526, 0.06798736357447419, 0.06332282743373434, -0.050437550318775, 0.05465402070372538, 0.0010294552441713742, 0.02883919730909431, -0.007925261926013784, -0.006744532359390628, -0.04229502660342913, -0.03382802421592813, -0.043634333661153525, 0.017567964549191795, 0.0009912331832610927, -0.04206372935635667, 0.06703732889212569, 0.03284657462489836, -0.050771711400954364, -0.03627603682328044, -0.025826045253747328, 0.036346809188588965, -0.023064554640905194, -0.018388840151560056, -0.002943430791600084, -0.04931323187844361, 0.033411198645072075, 0.024373881320467465, 0.015279367561997765, -0.02572429671239996, -0.01791976811489566, -0.054654408127266144, 0.02141252715927993, 0.012923559242209462, 0.06745211653864529, 0.0008303369722174967, 0.031513901744559945, -0.049368926753827105, 0.0026368978573433057, 0.04261732437978971, 0.03162749589939761, 0.01594344235912825, -0.025791600364378272, 6.761883646059647e-05, -0.03791364094222077, 0.01894974064217436, -0.0046272670613533035, -0.021926196722968635, 0.004309511977909504, 0.0008149792310762344, 0.012316944181557888, -0.03843538966961437, -0.03023467483612454, 0.05158380850908273, 0.009466378834758675, -0.029851349586237093, 0.0076034168028301435, -0.05077928267431869, 0.01830605846700859, 0.009058640882158285, -0.039476421718516355, -0.0029872461806774013, -0.0020053279916525803, 0.04957407680231481, 0.03727798578842671, 0.03897959173806972, 0.010991512145112462, 0.018817174075039494, -0.020544326803796583, -0.04041457663207286, -0.02389880270216873, 0.007808132491340248, 0.016413261317808733, 0.01899099482900584, -0.026132077492951735, 0.035767964068073796, 0.0282241736953669, -0.017481535036248736, 0.06774279615179499, 0.05597985765811606, 0.04217581788898477, -0.0172246918203123, 0.013705741606519748, 0.0040219853975436174, 0.008605161230192353, -0.02734227084633358, 0.06333181253088692, 0.005697566235283461, 0.006098662483410496, 0.08096082268270223, 0.012982785236310914, -0.05092121019809237, -0.00783589383730826, -0.009664101579206368, -0.0008538010975299376, -0.0019977971511462808, 0.031155896874510255, -0.011894634102718614, -0.021404370200315402, 0.00942599803165284, 0.014105065654477666, 0.024870349195733863, 0.017026997283915473, -0.010804441016889715, -0.01946549159472449, -0.012383600540583203, -0.011949388583464195, -0.033889469230537664, 0.021406593567798893, 0.012771457881130198, 0.0290486347619316, -0.00468078757097574, 0.07121601244803016, -0.017814498145614442, -0.00016853876654482328, 0.028579639767831795, -0.06210514310687488, 0.018821068002216695, 0.0835413365228925, -0.011163225891199146, 0.018984932041163468, -0.014445200483513226, -0.020930802437938305, -0.02432759539206523, 0.047644263301507235, -0.003058783081911154, -0.05111080381616213, 0.08038528820205217, -0.028128765204669427, 0.06110064523069118, 0.039098557916284755, 0.028897523211299302, 0.05397844123299642, -0.011110864469835708, 0.0016531440197438394, -0.014670923896160204, -0.05703250512448293, 0.023799340654254438, -0.002405614666527067, -0.01750313329024788, 0.022058598141586654, 0.004651885565991622, 0.0051114420643152345, 0.014254335730659169, -0.0651074830509578, 0.03781890939171522, -0.0345404004377215, 0.018364323464717714, 0.024460206063230433, -0.02842341818598812, -0.02100901786535069, -0.03487784061109795, -0.03582057740204796, -0.012610845266768837, 0.005978015425186457, -0.04374911882211773, 0.036758338859464945, 0.06797421386535439, -0.04736495841578888, 0.01460396047239362, 0.02757313819517364, 0.0209697471754151, -0.04986726494260453, 0.04436520562709078, 0.007279110711511488, -0.027380494226358916, -0.030812646558688622, -0.044794479041194, 0.026607616461640872, -0.05129748441726818, -0.037123344685778, 0.04027170382722079, -0.030492170316094365, -0.03463151266483514, -0.012227660920541826, 0.05853780386987595, 0.018617104772394418, 0.016781772184312583, 0.03433638125003429, 0.028173999728400633, 0.005950245596950939, -0.02651903899881078, -0.03150286893095189, -0.06727955977887218, -0.007863212854772279, -0.06052964157422468, 0.04015447967117084, 0.03250287119136484, -0.057786923388149294, 0.011567909541653734, -0.012122013644367532, 0.017707708154021375, 0.01082319400669876, 0.05355442730532961, 0.030194011371387382, -0.01322109929033299, -0.004804038028271071, -0.010318301937032134, 0.04475113015417486, 0.017901762023033486, -0.035748619353086306, 0.008887171779463346, -0.006565875598745982, 0.018618608601923835, -0.00811503767863524, -0.03821175594108045, 0.016954233560393796, -0.053117919266180126, -0.017460090095202694, -0.00885049823128794, 0.05597080004105288, 0.002403448238960253, -0.0033429977210785726, 0.01394484423122508, -0.05179447144960271, 0.041086339371221234, -0.0010663311107758052, 0.012933087079612408, 0.011600293542025126, -0.005891476140199785, 0.01648426166759458, 0.07249405830765884, -0.045285449473129624, -0.030651890013209095, 0.010313369732644124, -0.012228143602988014, -0.011816086695550346, -0.05349420493000284, 0.01480921453787608, 0.007016177146801923, 0.061698900203006106, 0.06425000860143153, -0.024809351109091222, -0.0019948317124354057, -0.015572330533849696, -0.05398925334104534, 0.003276863407532708, -0.030487623457558132, -0.02120346186199763, -0.010468702276188931, 0.028600314060752564, -0.0003764319609896821, -0.04187198873587981, -0.024407897767440023, 0.09119411488834638, 0.009851030372214542, 0.03226712798594135, -0.004314289118959911, 0.002545831544473901, -0.038979515693501846, -0.013107513209638613, -0.0450966855335198, 0.006484275189331839, -0.01556199311068876, 0.02712179245220873, -0.03747629607416391, 0.031324985869713946, -0.01190925688288295, -0.01205435904354428, 0.002705569324680277, 0.0006980052402096888, -0.013209472411249867, 0.05008061649101355, 0.011783293760005763, -0.007038655654046543, -0.024933186141480025, 0.02153379108423012, -0.03914909240521385, 0.022092128103724858, 0.0010507225460403456, -0.04193772298559654, 0.03335174259257632, 0.009033152983539855, 0.018323967566129334, 0.032019221029117084, 0.029117185944333844, -0.015673058477331202, 0.0345436312434026, -0.04353705682809966, 0.023281361591977457, -0.03076011861560986, -0.000805817539432441, -0.06494563517169565, 0.008305549575462031, 0.02510412191058912, 0.09786966254119343, 0.009292668215291275, 0.03191750634242945, -0.021319378259193077, 0.006917283050079953, 0.02383801189722169, -0.025161187235126177, -0.07041910082771337, 0.03142448268151114, 0.01115245621996463, -0.0326128062188327, 0.009502489675373994, 0.012227956417708574, 0.02358078882311798, 0.009054129495290787, 0.01086911786082329, 0.008813395487316623, 0.0421754842537908, -0.01861218346702941, -0.02256345065223277, 0.03153558500709278, -0.006055569057523525, 0.00928630679184608, -0.013020938924970396, 0.026891328654964686, -0.048201852912545876, -0.04270319425032844, 0.011163942067354571, -0.02346849219163836, 0.04144771063710862, 0.0416301461656426, 0.016606073081260143, -0.003384862718850412, -0.038222465076209085, -0.08633237159556877, 0.05487279752889287, -0.05404723143268938, 0.013279279915187165, 0.028239105864813593, 0.02716637929865091, -0.052106125029672774, 0.057228353381241284, 0.00220360801348304, -0.05953809146127868, 0.023667339640585892, -0.015277680407231832, 0.004533240669276075, 0.02846104826286972, -0.005514220875518472, -0.004292196419754124, 0.01089824059824016, -0.03792925052633538, -0.04742970690659649, -0.012561920094515676, -0.013635480913063078, 0.016230134899236397, -0.018292690027547413, 0.038835551831842854, 0.04960811704204753, -0.03877459699436414, -0.010964214165226164, -0.0344491745690094, -0.04569091650292551, -0.004337708355159177, 0.07388571279947939, -0.03129042188476295, -0.034233197254347834, -0.043010424594109024, 0.025390690998188383, -0.0062297178749480975, -0.006270807260849947, -0.054311948365808715, -0.03176378807247664, 0.0166058523285029, -0.05443959314769979, -0.0265802487169558, 0.05045000611714982, 0.05271312593854888, -0.06917102378330804, 0.018413086375273374, 0.026266289627815832, 0.014445638653675165, -0.0001736918030907351, 0.10989430135009368, -0.010078656201304697, -0.02382217509801271, 0.022640006399407994, 0.015052399689709116, 0.024867237017258355, 0.048616660695527066, 0.006076775067596165, -0.05568035165965024, 0.03652226203929515, -0.038422864661353855, 0.03211552729095497, 0.025440975189083375, -0.05633568212055023, -0.024699675573393674, 0.026019846574366207, 0.023282262998838035, 0.03337339544333471, -0.04439887765243509, 0.0006377452335038187, -0.058673014199926134, -0.041012592702955646, 0.12251982075681354, -0.06021211950240286, -0.029460023342311358, -0.05744590543153043, 0.027298002730788445, 0.0031842844071260415, 0.022722536586064608, -0.03957785653281043, 0.000636517501594037, -0.03584003360004405, -0.019427090442117767, 0.011882441278452883, -0.025891330026887916, -0.012460522523065672, 0.032254520277002985, -0.024038085039686793, 0.023435717265388425, 0.046001489381265324, -0.09892050208017182, -0.047484519508353286, 0.021509853995216887, 0.02376974376320021, 0.020099652959369496, 0.00339652887171913, 0.031627678474386106, 0.028020504063156464, 0.06786582553597696, 0.05734439817981237, 0.03828414724981683, 0.02580994634299049, 0.05307244859082214, -0.03551494624482095, 0.0745395364360336, 0.0031656403077983445, -0.009545910913091649, 0.008638266107951414, 0.0035172458949301916, 0.05915768402912255, 0.032535160430166236, 0.025013017655339788, -0.04930892199720919, 0.00413820036850163, -0.045409984786110344, -0.020257191537167655, 0.03434144019775915, -0.06758015536655178, -0.0045726680996854025, -0.0057910755258401775, -0.042473701390423495, 0.027836972652928494, 0.041417952508280016, -0.02589765381007239, -0.010677865440039305, 0.06332088710322249, -0.0037507912129053265, 0.024577283174349075, 0.04516725117529101, 0.06681557964497555, -0.07797922858186915, 0.0006121546192228367, -0.012659976545651428, -0.00822585844271812, -0.0007423560945993624, -0.02517644785949027, 0.014547965625535179, -0.044443186985115575, 0.011643994162254225, 0.015624590789122969, -0.012886693202164779, 0.026605758324367755, -0.004076659506669636, -0.04271443106988226, -0.008651443029337652, 0.037934961589465785, 0.00774564568031959, -0.062190329973657914, -0.05498061178550333, 0.006380610505163915, 0.04782574942387675, 0.04862918185704533, 0.008719124851903098, 0.01592504013574528, 0.04007608940714331, -0.016219312565766066, -0.029383536015282218, 0.04248212485698731, -0.03655679949520674, -0.02900148611472667, 0.019978337950415682, 0.027166704174527136, 0.03308763320619674, 0.04132616683475559, -0.06335029548542888, 0.02506781142876263, 0.026980149767233227, 0.013373268805626464, 0.059983459156496756, 0.015892424611620045, 0.01043816682550101, -0.005343332195886129, -0.017294878436644144, 0.006144744142323702, 0.01456235876934161, 0.03045389930324969, -0.06255706069459209, -0.05283212631251, 0.02446020982074581, -0.004753446318543024, -0.04048830924373389, -0.035376813752920865, -0.053922201519413133, 0.01033252238898143, -0.03563637713599602, -0.010158060735841478, -0.007810128215355489, -0.0076846338988836565, 0.007770619139422108, 0.045793390335332924, -0.05267275702492086, -0.03080357612695644, -0.07036244931555759, 0.005896401186581225, -0.031429231580582445, -0.025693292083720478, -0.020347208305429822, -0.020540755698223116, -0.05237903544092062, 0.00888387180330199, 0.05335630151566622, 0.04176583346369039, -0.0033503266531078398, -0.044600703818202594, -0.04060143883682651, -0.005491845886687976, 0.003989016083656601, 0.0016667475328578727, 0.017272513780892312, -0.026036856187891092, -0.016679377056157744, -0.006295374137279446, 0.01802651670969915, 0.007333313068237639, -0.03660175858369367, 0.04222282939868345, 0.003243393540714071, -0.010112022538859922, -0.0288943111962903, -0.024782894428591027, 0.027222315070415025, -0.03898830434038531, 0.06900896723176868, 4.775712280246638e-06, -0.051718999037177645, 0.01688137921101754, 0.014325227011961353, 0.04320231341594479, -0.014276987673771228, -0.0034628556277806117, -0.004584557159468509, -0.025854601403101047, -0.020642848691725255, 0.02841928335500678, 0.059247636285520724, -0.013451354208627923, -0.06353300069511199, 0.003268742356111353, 0.01911853368868312, 0.022817998538370438, 0.006597059621369286, 0.009530566337879593, 0.000716592396748047, 0.06201829056383329, -0.0009943618959662279, -0.02784951614679323, 0.04251400351912107, 0.028003647613138286, 0.07272593548329091, -0.06354041414417895, -0.03814850167931043, -0.016008461264333952, -0.05051754248436142, 0.006861714821069139, -0.013935728993571126, 0.0025553263387114444, -0.07078559885466972, -0.06755070249647101, -0.04947351994808295, -0.024009209004200567], [-0.03957516715914668, 0.024007100787779484, 0.011312881451369826, 0.01087175524757009, -0.015172427473369833, -0.0003964207117457902, 0.035297878598945336, 0.02630988068681091, -0.04081841079595554, 0.059102278920282365, 0.006704453238955432, 0.032643582899248375, 0.017739496473267276, 0.0028628200150771894, 0.09368074807282743, -0.037684797897928383, 0.03952130173019473, 0.025923780934133812, 0.0793862978860574, -0.013998881392016974, 0.05832094796419166, -0.027287623216313707, -0.0006527649072813238, -0.030054595616479964, 0.011150398922932703, 0.008502055156161868, -0.031199024286544662, 0.03780372663089737, -0.002963232938718173, 0.010591146116636658, -0.028800628459513467, 0.045488386610105604, 0.006922148018023976, -0.009335960736603739, -0.04273781362845642, -0.0017236906480491536, 0.05111475545369811, -0.05545689956436438, -0.0026115926771714077, 0.04911777724534762, -0.005532355930618891, 0.005397937841847678, -0.015540075121820167, -0.00025437602471744815, 0.03487465573174075, -0.03610412820243381, 0.017346532839257894, 0.002581341198946471, -0.040779381073783316, -0.043727693780491336, 0.0049076154303399665, -0.005331444771812138, -0.04759116068786133, -0.023483805128806084, 0.00948610065453807, -0.07584720332574667, -0.06795178363377168, 0.006777865272905074, -0.011170232060671715, -0.027146898316827452, -0.04817844689157702, 0.031041383880058598, 0.003285152424017526, 0.009731235201589725, 0.06183022638568451, -0.025001160738721117, 0.012599958179012294, -0.0623255173334697, 0.0035403030212605734, 0.03299838426883488, -0.03841346999043876, -0.015703708516023086, -0.010079179243331082, 0.012159102766734594, 0.0052652796432868364, 0.006449365105147533, 0.049609937858388034, -0.00016350089469688647, 0.030468161928001846, -0.008461426909733795, 0.0027353291135619293, 0.03766621303250506, -0.018814124446773637, -0.047324480223029305, 0.004099450670084702, 0.02794536718343166, -0.03428717807784155, 0.01269365585268557, 0.048518780699806204, -0.03571366773478617, -0.019300928579825294, -0.0008289628817480466, 0.0012120131517972023, 0.04365101295906102, -0.016941415483450035, -0.06370651575034565, 0.006594438012922269, -0.051047581279234595, 0.0020827375682719897, 0.0035690381729674737, -0.003325162234097128, -0.018651979435545637, -0.03978275189389006, 0.02073411827393899, -0.01768995185992621, 0.024609314838912273, 0.035929830085276296, 0.02239679361415498, 0.0022425313332798754, 0.000365467752622927, 0.008249796494752182, -0.04822837221146104, 0.00943585371406133, 0.03002823656021854, 0.007989650573529069, -0.021175383457845566, -0.014053410189448678, -0.05619431617441507, -0.01934510165831558, 0.017439138314834738, 0.010960640843840783, 0.06125412040799945, -0.020538457455847696, 0.011055041318599055, -0.0016511129452688757, 0.010948839367614047, 0.03600078103763972, -0.07097024525206856, 0.008624051259839552, 0.05086281690873301, -0.023386632808794893, -0.01332643398782843, -0.018734649871055425, 0.06856870574938173, 0.05007105502383646, -0.01596570259209044, 0.026112054246548194, 0.04927998359041907, 0.04781654567807196, -0.054014710942870074, -0.026079280936406147, -0.009335494555017377, 0.006197603127015556, 0.016524736119142503, -0.03609310976113168, -0.02748888280878243, -0.0325081167619592, 0.04850996869333328, -0.009231645185217652, -0.03721970198897049, 0.0034632614995870224, 0.007631273328033326, -0.047738790077522644, -0.0032111008173777954, -0.026759301544607702, 0.07958339919908879, -0.027232441980534677, -0.07536874238313751, 0.04128726614038873, -0.04294173178116587, 0.05398843982039787, 0.050524799247593954, 0.002117986830533763, -0.007882609308838247, -0.01816321210552003, -0.052819283289246066, 0.02840687843101086, -0.04341713843621463, 0.03493304455621917, 0.012958921586654171, 0.03596252736011481, 0.03082314297923621, -0.012543190433925867, 0.04147207697384113, 0.038610793258834916, 0.05582183841936728, 0.11069791313223484, 0.003337473081831837, -0.011123795827698279, -0.02330772239609341, -0.008921727189698839, 0.018603550842391958, 0.029926375176732876, -0.010206956435871908, -0.000611808966610119, -0.0413245234986029, 0.007159185937145288, -0.010477501474297293, -0.04206016346569882, 0.04598609541673555, 0.055492302262077985, 0.022215451918317152, 0.010418226869606922, 0.0034648355138524926, -0.010348102316647059, -0.004304652634046484, 0.02283285881411295, 0.029097619176605038, -0.017824754682964503, -0.0259434626423646, -0.003679951124749214, 0.029459139429843878, -0.05951862557513003, 0.033547928417140264, 0.023311211827314392, -0.010779251667177248, -0.023292375114840697, -0.026506083012155627, -0.020774700793807544, 0.03408992105747397, -0.02576504641503108, 0.01425483875201917, -0.027100819157344535, -0.022813244563793463, 0.03810823544455684, -0.011222573175368419, 0.03734294262756636, 0.007349556429113706, 0.07935387383909562, 0.05486530619234987, -0.02978653033018528, -0.0017678055235296139, -0.012614873077106568, 0.02025391641704397, 0.052739534455971196, -0.025897877589329737, -0.027221853942866324, -0.006664487573940785, -0.011684753734074448, -0.028737569193885964, 0.026602342566518288, 0.056938693302841424, -0.0019318434375456366, -0.0805673517469758, 0.03459196828132861, -0.04473600929461014, -0.034114850221902755, -0.02580312958867651, 0.045373318217272904, 0.0064393719316795306, 0.0702335155900704, 0.01753534632505391, 0.00990823588152689, 0.019137479706254068, -0.014613055278477722, 0.011705727927588222, -0.00750738948602863, 0.033054300497113324, 0.04748330142565908, 0.008674876770156709, 0.04422391768032825, 0.04559366247621532, -0.029083589365228566, -0.03380505807862678, 0.06032293862117194, -0.03265298868995424, 0.013836201436336792, 0.03514056026171256, -0.008859597055599442, 0.03374864976079223, -0.005339960295364629, 0.002465187025850351, 0.03626065865598182, -0.0005808523012203081, 0.035410506271834, -0.030826024504117422, -0.01761329040270807, 0.030275095416961016, 0.003759807966256966, -0.06008299151515801, -0.006834679574890862, -0.005198668204367817, -0.03470034285998793, -0.005315732144147202, 0.028111774698263068, -0.041427251312013955, -0.03740700071756623, -0.01981846942661586, -0.04343733118035844, 0.024070756805227307, -0.0008418168922882602, -0.011472314219294072, -0.06748152213684057, 0.011409075695886412, 0.022018709023579563, -0.005859984697423511, -0.01013690751290744, 0.014493651218499947, -0.026885378935733895, 0.014404612616600282, 0.0021904463844016507, -0.034578610959551996, -0.016447536152507353, -0.04507065609517781, -0.02469431473853073, 0.014645918550854254, 0.023125099682783593, -0.013852057192498672, 0.042302271985668015, 0.00262358245871035, -0.031766896712484574, 0.008263233265321924, -0.05300727618150823, 0.06371179444804939, -0.010599915559369774, -0.041068005384898014, 0.0023195393186330846, -0.03230395357802975, 0.038653681302525576, 0.013890904497265044, -0.0637978650908054, 0.023761214573406925, -0.012761291288398901, 0.042417147758615596, 0.06159355435335402, -0.036373158710227387, -0.021788878224605148, 0.04134687437302277, 0.0015342738833588863, 0.044893180941149115, 0.03614910484446056, 0.0049636877916327555, -0.0007211303471995076, -0.06087022610515168, -0.04955067751645725, 0.02978884076695715, -0.06624466949177961, 0.035571986809789694, 0.051490715516416354, 0.020956993195644417, 0.02140818748496654, 0.023109365101579633, -0.003488095088293633, 0.032393698993913915, 0.04048835468664218, 0.024440067165633208, 0.020834499493671922, 0.030362264662462685, 0.014015047548523637, 0.006075815478169132, 0.05799922336484619, 0.028089773416588786, -0.02250728881296556, 0.0053278831894771755, 0.04634994939844785, 0.025975610749562953, -0.06361938818921246, 0.008011327061724523, 0.018590305539287633, 0.008814984243421945, -0.010549672475137554, -0.03559673800188149, -0.009908249145583286, -0.01138528104725109, 0.006597892302208363, -0.03094117940857195, -0.039912407002907865, 0.03470592226046428, -0.05625982568344826, 0.0759495852357965, -0.00046289451471056246, 0.052998394761175745, 0.02664025337879316, -0.039946972826737405, 0.003937233285761559, -0.023330859733673243, 0.012551855987261423, -0.04044498922781333, -0.0494635884405803, -0.012745297913463058, -0.06554404814671597, 0.00090289443430007, -0.03127294003414448, -0.07848818815709369, 0.03965716678195338, 0.0034094027218472345, 0.0503526701065261, 0.04299370406593633, -0.03248730687426616, -0.01634893694333666, 0.012280122735951707, -0.009341990454882551, 0.05041524359841994, 0.008715284845436478, 0.006756452592521539, -0.008766770052792184, -0.008350401329424283, 0.006244580609724227, -0.038842385339532805, 0.011680936646059204, 0.01729058224569596, -0.01906259290323686, -0.018222607144779895, 0.02986464361331025, 0.0410667634339391, 0.023136734606116878, 0.04582288119588701, -0.055536052962523175, 0.005671459445436034, 0.03435803009022216, -0.014727413171501478, 0.026280643776288894, -0.013451639271542856, -0.043182081440591706, 0.02137571310265708, -0.09775681800309359, 0.010385288312598067, 0.0990883015468619, 0.08004629020641398, -0.023222421945525852, 0.01879487213447199, -0.07369771985026823, -0.002635881797274386, -0.0034466189590008516, -0.01068144207037871, -0.027028085164199293, -0.008970222772348909, -0.025488274285047817, 0.08564726085699044, 0.045147494383362755, 0.0060137361987315525, -0.04049498353357382, 0.059311805213497056, -0.02839116513477095, 0.05233342651707317, 0.010928659668443056, -0.03835188738514859, -0.04744945249792404, -0.00862966216680023, 0.04659769847593876, 0.04002618051215514, 0.03295741179680253, -0.04098171283855088, 0.0319670761905025, 0.019120961137455202, 0.00600227875136834, -0.029326134778334532, -0.02859441375193626, -0.02909391647668793, -0.030278669140202972, 0.0022612478847507484, 0.03000181857219023, 0.05214708359454758, 0.0011564000951682283, 0.01380746233136458, 0.05454788710630986, -0.017693281702870645, 0.09156610771966363, 0.05867338911977317, 0.01297001911466888, 0.03212851842060875, -0.017085258089737796, 0.0015090004258290959, 0.007751290108576033, -0.0024358382372704893, -0.0010323181423955725, 0.02260893629767639, -0.004558003288024116, 0.022548581329549646, -0.0010315508111442481, 0.0872337572078746, -0.05222805197739797, -0.0033301671855512326, 0.012451606283955785, -0.02148008144166865, 0.005791377953140526, -0.031062083453860505, 0.03871052630017678, 0.05174679172642653, -0.020546040503993623, -0.012689520248597232, 0.022246930714362977, 0.007309895905143573, -0.03565683413270808, -0.04018268026873334, 0.09746126803647258, 0.034987913887594306, -0.03973621370503753, 0.015261609722092988, -0.014755987418816539, -0.012657543284189833, -0.05170195591458432, -0.01608136828551528, -0.007864337461564909, 0.005123618696239454, 0.0032660269741224095, -0.044342596102309575, 0.03713374600637168, -0.008347655645973439, -0.025494612390898015, -0.03847871456105008, 0.011123613056973219, -0.020130437175158677, -0.04275398410745803, -0.057830985350340244, -0.015055265482913688, 0.029884728716113574, 0.007948292885957307, 0.029837130549492972, 0.0324912390331442, 0.06687035824410632, -0.016100942739483315, -0.036595762197720164, -0.008012665159360518, 0.0005794656248852623, 0.00041191077906064497, -0.016657523702664833, 0.050338198834518746, -0.013377984916635688, -0.00156379111481926, -0.036427009556143655, 0.00470461930329544, -0.037934301238378, 0.05202568354265873, -0.015316891671858528, 0.04221020025486937, 0.006884537694942428, -0.05794592322516021, -0.035944050216104466, 0.07600734842274633, 0.0480914215801151, -0.023877630424335685, -0.015362698568499426, -0.006564906861704333, 0.009335882223184322, -0.012597578896529998, 0.047706141949914, -0.026268903168747797, 0.03995538479723832, 0.0347868677223425, -0.08390921078936339, 0.04168184793513536, 0.013799749012582163, -0.00967762017210371, 0.0304174824545159, 0.03990343731699469, 0.02047099957302136, 0.018251585328449386, 0.010075216875111004, -0.05884800255729821, -0.04812634824666677, 0.027953353137305847, 0.07527211093928234, 0.001839207230853675, 0.05979924059298137, 0.05830909832772541, -0.019447985294284466, -0.03294714423070429, -0.013967888538144, 0.03630707023218306, 0.0018217061105166165, 0.011718326929975828, 0.024782606444761456, 0.0340557003589154, 0.012473225556795293, 0.02890584873693145, -0.030647680580536168, 0.03585184722846082, -0.01744565884180046, 0.040832043970128754, -0.043433216163223654, -0.025713359329181094, -0.01961645410553033, 0.013328320902523352, 0.0193795791560199, 0.01027370404098477, -0.0034647810963279744, -0.041943259037184114, -0.04638366679176469, 0.05751833932408922, 0.02087626180443497, 0.03564286677121936, 0.02670071983826344, 0.00861031415693682, -0.018966675401280685, 0.0066633644772500595, -0.025940533810942978, -0.03473363476003869, -0.017220586772766288, -0.006578117864571957, 0.05857430276498253, -0.02641665352601921, -0.02767475525410976, 0.0032255095410730745, 0.07276261539442079, 0.048442995130921596, 0.004642029150481286, 0.013691495594261024, 0.030505933559663995, -0.03522611099952853, -0.003879212570138898, 0.006047035001060558, -0.007744500307011975, 0.01863408858333341, 0.009748065753105304, 0.02748696350878108, -0.05168311273769922, -0.02292609880838586, 0.02089595566987268, 0.027702719105230558, 0.042495615831369515, 0.10264241361754721, 0.047486293393513, 0.021642595490756106, 0.0912648283934885, 0.031593769180147856, 0.026467862558084535, -0.04367752879304004, 0.001287222894599061, -0.042725021239680146, 0.04283437071247958, -0.010276894504544052, 0.009986043761158884, 0.04656589787330436, 0.022300335642967985, 0.0029837687276535285, 0.009005244696910341, 0.02595717551454026, -0.036631140251018254, -0.026125076170106364, -0.002163659453909071, -0.022680661882274817, 0.010393485068198939, -0.01582805239762642, 0.025559271803717604, -0.008720267958768999, -0.030138574299007456, -0.0247832731902728, -0.040582713027340477, -0.04523586325962105, -0.022460290364738716, -0.0511475773737747, 0.0034288718305354586, 0.019987242020178923, -0.009552767221000805, 0.04369689952501604, -0.014701576314783391, 0.015342758706277364, 0.0025601465188843197, -0.035029805696422125, -0.019986296167219173, -0.05872871891201677, 0.011809491730777269, -0.011652772187097721, 0.05872896384925016, -0.041294766583344314, -0.023194374775165942, 0.03169160152992687, -0.055225732057922645, 0.06825081773783113, -0.019434233455480183, -0.020884009174539968, -0.011754355297240296, -0.016487989322827176, 0.03144163263822648, -0.0012843313666149163, 0.016482769078293436, 0.013991212514042268, -0.016874061745675985, 0.013011118535739935, 0.02463294357754361, 0.008687610347807153, -0.019041499135674166, 0.0010467488275308647, 0.007347775578349639, 0.010677401251088134, 0.027594815941588618, -0.034367923030450706, -0.007059071301298259, 0.010617053483879426, 0.05632865438197605, -0.035628204625702986, 0.10922456657645362, -0.05740776486895901, -0.049064383281869885, -0.03594109546137199, 0.014834014133880984, 0.03727151771851065, -0.05712065111499886, 0.03988668525488563, 0.06972203363156275, -0.035689586925279695, 0.001003393910734497, 0.022797030276650313, 0.00011180312243354429, -0.027687921670311054, -0.004754970562444857, 0.05831351399345229, -0.032951577436752, 0.03785436388461161, 0.0012223527617030991, 0.0073083763283009594, 0.00853129760276856, 0.0008402044993654539, 0.030084129431788405, -0.043680720658828616, -0.010090901416524892, -0.05246647452168315, -0.010163157566495787, -0.026763192822856514, -0.04883362759991949, -0.038714616294213154, 0.025767030542253294, -0.03396071395924865, -0.005242934057924494, 0.026016671585544732, -0.003861682605170069, -0.0173682385681816, 0.018738504779411285, 0.04330179587747907, 0.004432965729979786, 0.033736018335802184, 0.024397166874076785, 0.016485243582396978, -0.06661357425641114, 0.05331188778725365, -0.04693457419482083, 0.05823062948491061, 0.0225179922353434, -0.002624419064303689, 0.03395994762184433, 0.0692781733211957, 0.0006904083866849844, -0.06958883466137662, 0.019768796592578238, 0.05139174991699724, -0.02126069286923863, 0.0015659050677072788, -0.0363816203399443, 0.010086833079039754, -0.016904596189988647, -0.005508332907070259, -0.019356324480921654, -0.006088229008201542, 0.01943838639302158, -0.00984621732986177, -0.02962430470761274, -0.05708617875498119, -0.07524876568147086, -0.04617117920491091, 0.009843848868942106, 0.04785712972391446, -0.117638496289345, 0.07725726249940003, -0.00996827068911826, -0.020968114521846614, -0.0019088286776388556, -0.050434852942835444, 0.08170783818089625, -0.03639116674402767, -0.020323378089296122, 0.003903076658672047, 0.02964698794362932, -0.04992151838345727, -0.009378323855032792, 0.02154162500328678, 0.0025117745410427614, -0.0727570098374997, -0.06056113329537878, 0.04001119986674949, -0.02478353874997108, 0.026014437285418777, -0.030630192424533152, -0.01611387718263241, 0.02143094968779567, -0.03211084506862805, 0.025440154701043716, -0.01379146550286453, 0.01416407374775495, 0.032321184424132725, 0.00357615711596338, 0.023231660508076176, 0.054420117750006346, -0.07665586449959036, -0.024987064035796175, -0.02216830157395695, 0.025057195907345977, -0.0005484513790407599, 0.026151661457246813, -0.025459894470860743, 0.008328011198032682, 0.009722245632798037, 0.04247473516268117, -0.019394326048415324], [-0.0014104583486325712, -0.03419684689288156, 0.0358251970011159, -0.05998448003388913, -0.026455801512445618, 0.03147410413292672, 0.03509321957509733, 0.061192656511819106, -0.03408078653918237, -0.019026198816734202, 0.05215443070554328, -0.03665859569655943, -0.059955223876300916, 0.05135584480502551, -0.03154853906478287, 0.07888262602438668, -0.019373793799831306, -0.00098365636275119, -0.007544232534044653, -0.02659186057610956, 0.02814843673812851, 0.07419056531800942, -0.04431610256351324, 0.05076147089182718, -0.009376556528263424, 0.02826100959096702, 0.005672855536890233, 0.021011178194677883, -0.02692982219939399, 0.03986510457398219, -0.007307734646230829, -0.02683610891064379, -0.06282994117327152, 0.051934103713252903, -0.03761749434568589, -0.03756040172446036, 0.05788611965502881, 0.009478126528422452, 0.022017450441867197, -0.068584621580086, 0.04598440220589321, 0.0037104853811785487, 0.0044796196169509155, -0.02388891286118394, 0.031293994304008435, 0.017797548727850592, -0.024969913559979937, 0.02905759140176409, 0.02567050466841946, -0.013333295689640827, -0.008523820604463338, -0.022483128416228116, -0.011432333100191993, 0.007868758224845705, -0.01930212160121635, 0.019271207095795623, 0.014788386122755503, 0.02282754452760543, 0.02656491467698707, -0.01731446929965328, 0.04280020186578804, 0.04084813376413341, -0.015604407907332238, -0.01535922042086701, 0.02789212374286126, -0.03754098072275041, -0.06759895329653712, -0.0179953605084345, -0.02009317291147625, 0.03318348124320551, 0.03317199611260861, 0.03243638716793435, 0.017090744930003822, -0.029174437013603702, 0.020402478558580954, 0.010116817469151768, -0.00920303341389329, -0.0060544244046225595, -0.0016601000362573115, 0.001155036136369384, 0.0027293670123399983, -0.0028217520758465698, -0.009411932533553208, -0.038961584564049564, 0.0035131131139431357, 0.03787307304031751, 0.06434558302820938, -0.01777475661600256, -0.019535732525914378, 0.03278260585418835, -0.012812994267541424, -0.014804701923283939, 0.012151293591435113, -0.043708272152878695, 0.0274119928063202, -0.035950029420275316, 0.01644408830135562, 0.07342171459577516, -0.018801946239110866, 0.0335937834166635, 0.0037115107680002987, -0.029841193976553246, -0.030768285288398894, -0.02199911779228316, 0.02641632379695924, -0.07772622821379387, -0.006564384041904132, 0.04220357981566941, -0.008721940076045232, 0.015319711532935449, -0.04738831721167685, 0.03305828396504511, 0.012896030674611328, -0.01787323136974986, -0.05331476995912882, 0.013823916233027186, -0.11113345236842698, 0.027709015007017102, -0.008400032335935455, 0.02716615859569688, -0.0015512879786898739, 0.04280195653745864, 0.06499890296385567, 0.040726510383565305, -0.0741329450550831, -0.0066757978979354775, 0.037131356902023585, -0.07049602652157815, 0.01513080125976596, -0.057911048587705, 0.07326113919819542, -0.03697202338438853, 0.005262154203727874, 0.041017512768758486, 0.04434315671401594, -0.028413397067549005, 0.007398242428151014, 0.016257093360116517, -0.04585236084445345, 0.02543578891477874, -0.03940268237926779, -0.0449814760622923, -0.0366740282648377, -0.025445259850408686, 0.001413160040234465, -0.040902184726576675, -0.01591848869136606, -0.07717982421087861, 0.0408673264000481, 0.005822818600961039, 0.02412130540621401, -0.011444016169839432, 0.018282120227355623, 0.03417368850519708, -0.05738253074007228, -0.08110045571464079, 0.010417849606472756, -0.001551461224059688, -0.014630098875053277, 0.044937492841266136, 0.053714860921543664, -0.014473623835184187, -0.02960816068741106, -0.006336414391413177, 0.05454313486539902, 0.029606895856042693, -0.011565547627103991, 0.015415076640437392, -0.056117956235446735, 0.0016478342217050512, 0.004851002201805788, -0.010916861935370411, -0.03735543337070695, 0.019096757213397902, -0.0032923339515719767, 0.030357335760887526, -0.026990660091957466, -0.006021251594973604, 0.03406155576049906, 0.003941326430024318, 0.03875692557326025, 0.026237263647097168, -0.06284211954570249, -0.056741189457339476, 0.025826018455668513, 0.05046760040928567, -0.035859792214599576, 0.025040706654242736, -0.002507804475365809, -0.016414145309503813, 0.03384254793941354, -0.011077965367612547, 0.07057899807892258, -0.06154286611400551, -0.04043509036741943, -0.010358145969588195, -0.02377911543998392, 0.07703319136745641, -0.024458373289671185, -0.01669228638759285, 0.019289639429515584, -0.009708369326086277, 0.07764828108771656, -0.016110960308083996, -0.019097091597112283, 0.0018885700834920774, 0.03496953670450371, 0.02995306598575329, -0.013465415600882309, -0.04099285690452063, -0.029450762479492194, -0.04507858338691254, -0.03609467658726208, 0.040413653728425224, -0.028556049913591595, -0.07670935078289408, -0.054287738655681754, 0.012085347184376708, -0.007111896232713112, -0.0033086409311764314, -0.044575753618485946, -0.003082783571830228, 0.01631664564594888, -0.023576223917172658, 0.007798883821329726, -0.05848060383721259, -0.04300623627774753, 0.011019209273588177, -0.04610641136146558, -0.010325113348571639, -0.0405244098554998, -0.036471675007861366, 0.07988289416043022, -0.0008547846933157727, -0.03559130135163756, -0.0012090592701481026, 0.004833885136767047, 0.02531957406167402, -0.03645387486643188, 0.03357505295085817, -0.013037523304046181, 0.04709074353027477, 0.005069795852710884, 0.004976224543162526, -0.006089182517643716, -0.025813858062770118, -0.018675346473426602, 0.049232410080773226, -0.029087368650323152, 0.05085613066343405, -0.025474651824646605, -0.016241333405101685, 0.00012342647642629004, -0.03993878314814671, 0.024621916752422607, -0.0829698384652642, -0.011222432203878644, 0.025911167240307866, 0.001967576301219653, -0.02511669688760786, -0.028362252660734288, 0.021806318829930994, 0.021214966661831352, 0.045800239375490256, 0.05556450478102794, 0.005013049718414653, 0.030662899758503077, -0.006981903352278063, 0.03377549877438707, 0.0036739171972801203, -0.06920910929684941, 0.036539364673311654, -0.0034667136160442024, -0.00408962193750471, 0.0036038947694905245, -0.024358851632449628, 0.0005672653751048704, 0.03262852073425878, 0.03466414307001691, 0.062256904466937726, 0.04479373903953502, 0.06831911580971566, -0.028953031613770216, 0.028171549344178436, -0.046146951350667376, -0.0018731788579974932, 0.018583097631637655, 0.03947623870628391, 0.03940348043596632, -0.02520485910069952, -0.014750113675791649, 0.013248746562608696, -0.03472484525245415, 0.06726761565105556, 0.03375993939501702, 0.030584853905038973, -0.0029085000334044954, 0.01571169239484933, 0.011871484582099056, -0.051321309299360136, -0.0534089647524932, -0.0262499064540572, -0.019159592963412037, 0.023016314768071495, 0.0502573504365225, -0.009940687356441677, -0.03655697213948357, -0.02148146673515816, -0.002627381679796796, 0.00882303081864457, 0.06537178122977264, 0.009882803370577333, 0.04662914814950837, -0.030740424636973126, 0.016328256669087864, 0.001300647777772134, -0.02113508492212176, -0.0019046265074763337, 0.015015157833238412, -0.07670735939211322, -0.046694554840380285, 0.016116573474436412, 0.0070086036356911555, 0.02905760334878508, -0.061457979126456175, -0.015034270341889523, 0.013591458025927778, 0.014840825487907383, -0.04949619510631809, 0.0075281444291935605, -0.03771414896936521, 0.02103530516196751, -0.08263832180742017, 0.03556101765981272, -0.04084122527971801, 0.026920520784196496, -0.010602016487387738, -0.008916805604916898, 0.044742886883757424, 0.0809683541972559, 0.025727016516872113, -0.038843164488017605, 0.02470747027974704, -0.03353557772925935, -0.057596794064635866, 0.012788333265580409, -0.037760376490877975, 0.09516487283046517, 0.00587084590714639, 0.032109210667403146, 0.030601313290340604, 0.08677060329649018, -0.007998863589617907, -0.016400328975746028, -0.005020579192397741, 0.05874929250625351, 0.05518666803600651, 0.008202670494841822, -0.008803766125180771, -0.08334892746348947, -0.029308141954087735, -0.00750817557120892, 0.023266705043144785, -0.0027528653770813945, 0.057306621246107046, -0.03562270352238627, -0.005140250413932883, 0.03691326338368529, 0.0002467869013205141, 0.06415132371765471, 0.027370487296513323, -0.024068427429901056, 0.019806409029429296, 0.01257559035527951, 0.02550406974330552, 0.06332104758318649, -0.04634493369947942, 0.0008181788519556951, 0.026808433354960675, -0.015069388149827822, 0.006112263321450597, 0.0053023903803396406, 0.03438489738483715, -0.05016815728544995, 0.011034474634991298, 0.014485315644671908, 0.06385099366348361, -0.04080279984861137, 0.043583418333105146, -0.02045718658126688, 0.04148560351483754, -0.0665104256096253, 0.053584990019919045, 0.014224648818334676, 0.0379685616697084, -0.015491385077265626, 0.007295388007300321, 0.03394208854519202, 0.013320196200487123, 0.04753377219387583, 0.006337108064746329, 0.06830113650227736, -0.0033039919363628744, -0.021801000698416517, -0.008484114890108014, -0.06657577055874657, -0.015391224362269666, 0.008518468882186957, 0.010986101770395116, 0.00739756282941257, -0.037000560082984656, 0.006847630947976852, -0.011847391625955469, -0.0013130885949921066, -0.023405370824027907, 0.029018058791774878, -0.007716244108092304, 0.03544886867767501, -0.01556247392684999, -0.017736509464294073, 0.019515298580083777, -0.02630902069575394, 0.015669623363851352, -0.00850820757298101, -0.05248546062940991, 0.01997795240754917, -0.016191195087857595, -0.04360303040792001, -0.08129726905525032, 0.014624755177873025, -0.020467501468402902, -0.0260631075834231, 0.0015999342689027825, -0.017709533213049848, -0.013681810084418542, 0.01742975855592009, -0.0015940454014259134, 0.0004399962405917322, -0.021706147724353426, -0.02544879940665787, 0.03169713391473631, 0.06063018640643702, 0.058527221447444086, 0.008438320546335684, 0.009977741834815906, 0.0004753021667169183, 0.022692656989250125, 0.024925044103128072, 0.012510914274340621, 0.025096032806153138, -0.023850047834121924, -0.008222739965803487, 0.018271366556465822, 0.008494295946517995, 0.022830372087618792, -0.014361013915527803, -0.02046523487157684, -0.054969130971863574, 0.0317262103887726, 0.06669881006042325, -0.0908885589874874, -0.021825117805175206, -0.00029851858895187344, 0.034556793356167174, 0.047384225600442344, 0.005827847248685946, 0.05927294776589777, -0.020263027296632884, 0.015158612804381104, -0.004691789097398069, 0.04314325032925668, -0.020264461592312367, -0.02704609111292765, 0.013026089253215798, 0.0028085491711981507, -0.05520440344639415, 0.0327971213853016, -0.007715052416656299, -0.0013599205026642558, 0.03435988917446275, 0.033280932705616585, 0.011710442038661164, -0.05738497402251567, -0.032169265294737015, -0.07499666637441738, 0.033386023580122166, -0.01963798797345882, -0.02236494307288811, 0.021078644469874806, -0.02379632288758905, 0.013398968627447804, -0.020417350038089598, 0.022244000767210455, 0.08431270724057735, -0.003825896582218176, -0.040322867920281405, -0.027255806096744033, 0.04690538500518112, 0.0545922612701633, 0.020721180132617645, -0.034047781654553806, 0.030871502476154535, -0.010270832636617327, -0.07271975968972454, 0.04861814980522703, -0.05993186840134462, 0.014543368059974306, 0.005299905441887943, -0.01100709999756334, 0.006821617079705952, -0.0009025789271129043, 0.0022338347684576253, -0.037368172534444785, 0.0467593696982327, -0.019690878270947145, 0.015142997827429412, -0.02831407376462145, -0.040317943422655766, 0.006711463060611295, -0.013078139379804102, 0.038814264927245885, 0.0018982014974278283, 0.005451603749755665, -0.015741214927626906, -0.024024349287122403, -0.024919367671032307, 0.02805649016927108, -0.07750512223530079, 0.02549084552013184, 0.03123432523820886, -0.03781766039324637, 0.038017752502681294, -0.04864778790119941, 0.0477613601948742, -0.05449166655958166, 0.03940623174421173, -0.007074719082715482, -0.015486382286962693, 0.023655405611041905, -0.062116947068908725, -0.03523376105386979, -0.0038364140113081877, -0.03428803267557733, -0.06091175162884399, -0.015938170266001625, -0.023174913936419045, -0.06485437543648748, -0.04755255490459916, -0.03427799532659092, 0.007690298899941086, 0.019731215141645962, 0.01359284480552046, 9.137250806176427e-05, 0.022578864620254834, -0.021708442669035315, -0.05031150736029714, -0.05614696819618501, -0.022974845107970092, -0.03636179397249568, -0.051111947465534456, 0.0013488334886511077, -0.014058719919331737, 0.06452033903777613, -0.013619354260559392, -0.02670069988094812, -0.07588872138857836, -0.006683553597196087, -0.02566172659945434, 0.017302531970397595, 0.016008605525574125, -0.0664026250390606, -0.01962325842814338, -0.01838075551363238, 0.10569488153814499, 0.06634460020326612, 0.05146608358281076, 0.060264757347964555, 0.04436867689274623, -0.015652020501821108, -0.032309240522609015, -0.014803556001726396, 0.06801448142371216, -0.02247770380349736, 0.014683463494297791, -0.0423672858915079, 0.026081420513139417, 0.013069783165506924, -0.06396854456706257, 0.012143516169833305, -0.01720285270555922, 0.03919887737048353, -0.03850705773036706, 0.005344589681391064, 0.02095888656257599, -0.0011721042067897325, -0.024797596326760294, -0.009179530184653126, -0.05478386462719514, 0.04544368576521701, 0.017728662262498904, -0.03337941947798822, -0.020443426963267893, -0.011946843461450822, 0.019578692220534162, -0.007286516839685145, 0.008655954961892115, 0.05224937910205947, -0.022948809007086686, -0.055721930284868125, 0.054939564231858515, 0.03602863670516692, -0.0036882106307339593, 0.008425154182565904, 0.02599031925240286, -0.042390154326497564, -0.02090239965589922, -0.043732068675059174, -0.017996514046523037, -0.12505159625602114, 0.0030121481826231996, -0.0008056994457394159, -0.09934014241824352, 0.028764798086713665, 0.04632826347107028, -0.046874603220597735, -0.032584451997033234, 0.049236695557271455, 0.04301273678981342, 0.009037860305181195, -0.020108663018583377, 0.0056912154594088785, 0.023507283173310165, 0.06809524146274554, 0.007300844229291421, -0.00993753054414219, 0.04418992957484656, 0.019624940099539263, -0.03128173475165317, 0.007533693380903634, 0.020827430975297177, -0.006348062480200154, -0.05031172171849243, 0.005620349791201234, -0.00815275068414588, -0.0002713688893068511, -0.01263277611498319, -0.05517338149550782, 0.0029326506148899196, -0.02045262735180638, 0.007937399596898815, 0.02004146110860876, -0.027326508772032115, -0.03150122825541026, -0.0025916270152893076, 0.019731219480305047, -0.004611208938822595, 0.02825721712674775, -0.02300419216611657, -0.03349247694755127, -0.04060711039828937, 0.07625639828052148, 0.011964798497058726, 0.03127346017898687, -0.03373954005203607, 0.04376217414158861, 0.01657124399059204, 0.013666833279756952, -0.026049366832079066, -0.03190168493168605, -0.03405804918459387, 0.06916582423806296, 0.038149106490519655, 0.014297347584908433, -0.017074708103482657, -0.006967818059112482, -0.024500610945367384, -0.02290539364003968, -0.05100805705302123, 0.04426526263959948, -0.005193547679214115, -0.013920851500029483, 0.05395529516945138, -0.007104954243618907, 0.014284882323983962, -0.026042521476422487, -0.003430050751993669, -0.012285253899197917, -0.04593221002208599, 0.0027564801496031063, 0.029656632560584796, 0.018146588546088364, -0.05518623585159337, -0.05485881061169017, -0.012287491042071146, 0.017053501017795677, -0.0048090348653434005, -0.02573567679392636, 0.0036528572545626655, 0.012467194033939352, 0.01671304751986249, 0.004279146058255789, 0.05900999755178806, 0.046584575176811714, 0.022018545994316904, 0.02431628714047084, 0.01578962760444557, -0.014576086810026456, 0.002692227209933222, -0.027404331376280146, -0.00500993462937628, 0.07244638963044028, 0.020430460499012166, -0.013397282054728316, 0.028943885300068046, -0.029507453927063148, -0.08446067319748043, -0.08377293277581159, -0.06603241140524788, 0.01589015851712039, 0.042320080249005125, -0.011245964507231055, 0.03608027227096886, 0.005678456629937935, -0.0005412918070114952, -0.027259891546723265, -0.016905542011024424, 0.07867977795257078, 5.844576328147779e-05, -0.059625322488926144, 0.007514066253460355, 0.015183206516065454, -0.02959496451910437, -0.011589131435941641, -0.009558786942695708, -0.028221491377291297, 0.004985882472871679, -0.011782404470413236, -0.005857904148690393, -0.011117722045793556, 0.03789749021985488, 0.009619578463047881, 0.03436718494708683, -0.03257100566556413, -0.02282439032895033, -0.014315135539510434, 0.04527785374423931, -0.009578591175661094, 0.04136102551128675, 0.03780340846177841, -0.004670143987734708, -0.02211712171604663, 0.020316774200752705, -0.06335447728855169, 0.05243300295512849, -0.0947231945386361, -0.038607410662469366, 0.011279575975681052, -0.02360286971892598, 0.00503799096820062, 0.044417256622386034, -0.03468619801564059, 0.03938558338771108, 0.03416927691935956, -0.045759076521994305, -0.010327201596752277, 0.015055630303848122, -0.020672395408061234, 0.0471058805584312, -0.03535377541018806, -0.054996262694374576, -0.03728483231202033, -0.00227785789283635, 0.041011447548902784, 0.011137180490252736, 0.01784121581061339, -0.0007962059025067583, 0.054978348010031396, 0.03814921101916966, 0.02564546919491283, 0.023764255858630984, -0.021318192558912857, -0.00787177306111085, 0.023614296211327514, -0.03585086193858513], [0.049942032700477354, 0.022352373031270845, -0.0014632405516036482, -0.09376472533318635, 0.006513361446509551, 0.01016568786731781, -0.03643129456597004, 0.01677822581521781, 0.0876252713713903, 0.018802126046783097, -0.01851270349059774, 0.0026988006909516326, -0.003137564219865295, -0.011411457852315498, -0.06612847363716604, -0.02873217987098341, -0.007501962070434716, -0.024907586944315174, -0.013607344131786051, -0.01924434941340929, -0.03774779669525103, 0.050952415312165975, 0.012934201891036131, 0.03135610128362095, 0.05089042396732114, 0.02677533992077824, -0.02222688884391567, -0.029485817110967823, 0.022047663797722, -0.008593277014526576, 0.01674439507747665, -0.03908138021455083, -0.008245280776129951, -0.024384175101642914, 0.02276048805459645, -0.016016701328624983, -0.023535790267513963, 0.0019709949510404493, -0.007315292013665024, -0.028250597631868195, -0.0032178743284188857, 0.029859506674807215, -0.056008758483884244, 0.0417631043914794, -0.08850257631693652, -0.021600801512506446, -0.05704714206988352, -0.007665023897983149, -0.0187167120158184, -0.006386639557567122, -0.009679113807714962, 0.10004654497429291, -0.008837408253314664, 0.004589009434994155, -0.018245594978329307, -0.04680716156561056, 0.004782496295182387, -0.013810367015795804, -0.0364394081160399, -0.007530730402047701, 0.010753786145836065, 0.012401631695059383, -0.0225142255936488, 0.034503598790557914, -0.009963009957983828, -0.03561200500968758, -0.03415055196332302, -0.007205365120470267, -0.02592438387281202, 0.015138676236520333, -0.035499026940916244, -0.041271147947025744, 0.03980164104911727, -0.01523663311286092, 0.03382635319656641, 0.058935108147166695, -0.024954072297643976, 0.010337842646620384, -0.01615389780204337, 0.01650137612058844, 0.038173077653640454, 0.029600204333945286, -0.011194337103518373, 0.004971835290537585, 0.0098012421738177, -0.04093816273399657, 0.06440870819550676, -0.004986049458419568, 0.019194741816145944, 0.029551976699311755, 0.04501703174409718, 0.06392165945101771, -0.04067922648746096, -0.07414923132599592, 0.020957058317620007, -0.06497175874751264, -0.0025090459265143814, 0.012774715465853511, 0.027074831644662907, 0.020847434093428808, 0.04194798641801375, -0.02629007167486499, -0.06766431155470314, -2.2752422572088295e-05, 0.008626508515658863, -0.018838478990386258, -0.03559827514165011, 0.05703549714911558, -0.029173298317569863, -0.006844531826780487, -0.06636352148096832, -0.07921152920873828, -0.0025547118427539975, -0.021896016487457003, -0.0890071998923085, 0.0208841476205165, 0.017736748056683477, -0.04906906883440061, 0.012451975558315842, 0.024755342994588203, 0.0101344538375818, 0.011107416808146305, 0.03877001255313226, 0.019250003594906796, 0.019956509538877572, -0.01330384550308265, -0.04767617205370354, -0.025079280850320875, 0.0016510172428830883, 0.02284494938181291, -0.04246894427268001, 0.018959874119256405, -0.012692289951704605, -0.022750298538067915, 0.024184021499655452, -0.002135040083665462, 0.06110154994315476, 0.012229989514071211, 0.012366785731945575, 0.013247954314360618, -0.0767364975936383, -0.07814611694465722, -0.06448352758288088, -0.023316980707217456, -0.05675271027951013, 0.05050847374625859, -0.09661475311233221, 0.03976047772391352, 0.019905571499696673, 0.024373674783619747, 0.002221021534669539, -0.08502596705329889, 0.026288604051271324, -0.022567642870865684, -0.00802010236773101, 0.001810727164472866, 0.039302413828882256, 0.02046255372373414, 0.06864798564846972, 0.05274368013560926, -0.005483475359121465, 0.010678927373696917, -0.043959701091103635, -0.011202238064940417, -0.009541493454302458, 0.05026337196084748, 0.0029821926586636816, 0.02293357852002458, 0.028895292090452464, 0.01308905647651533, -0.00807829045049475, 0.007192441903381178, 0.004046141963724074, 0.05590392095254358, -0.0181292707240657, 0.03645736272243372, 0.004780910121140096, 0.06481956180681672, 0.036135782207757226, -0.028718204134180945, -0.019798588419356864, 0.028553652601318775, -0.03234290514050482, 0.0291974543030278, 0.05545604466995876, -0.009681616996911098, 0.02213412355140478, -0.07424850327180056, -0.0014284371922720991, -0.009774169453882405, 0.07745180991894543, -0.0684175617504106, -0.05493184169139714, -0.03047797779695151, -0.060400972975617084, 0.012962605175122184, -0.060756026018487855, -0.006067558410411737, -0.06137190406181061, 0.03361360087399083, 0.0027006430684180004, 0.08143880005289532, 0.02103043408780692, 0.00040397144549289755, 0.017178195790974158, -0.014149752897337274, 0.02321118382932862, 0.020026475799860756, -0.07910161994391562, 0.00673598249346115, 0.017840057087425226, 0.023074758873866417, -0.011986585593979264, 0.039535942310952844, -0.008761701296001083, 0.0031257735643730783, -0.0838850238486325, 0.051264425005901934, -0.01603509627533029, 0.033743885094894524, 0.026068460600406778, -0.030976661291567235, -0.10811225786856679, 0.013287328360467148, 0.005237031006863887, -0.017959235013395143, 0.01133792697241143, -0.006405517164026572, 0.0010128489693885115, 0.010768277496210146, 0.004833085742740819, 0.0073546423229266895, 0.022944041114090267, -0.016403140728735454, 0.026022657525980774, -0.07001587863373841, 0.034141816576768104, -0.010096635421578615, -0.030488668258918217, -0.02393687040172619, -0.06794547011731832, -0.020486014583967833, -0.002432750801629827, 0.05023689334427165, 0.0052595615994997505, 0.012756074343921451, 0.014705026235654646, 0.019251224967562243, -0.020498567796753193, 0.0744491466984176, -0.05836110551403951, -0.03832090281287592, -0.0018635030397993594, -0.0041963195425702374, -0.018584154611040255, 0.020456613729546595, -0.009552393617617772, 0.005663433315509558, -0.020695500786935713, -0.021088596976440905, 0.03512123078164691, -0.010509417971765458, -0.038967398827164, -0.06933008875578135, -0.06737458153824774, -0.06484737364404723, 0.06489698889762911, -0.06773269054433594, -0.030223035580481197, 0.013673806415826075, 0.004540477424621882, 0.010936853318626568, 0.07279026521725876, 0.05999917085372615, -0.08064652172106546, 0.025045901253758527, -0.005977021907167308, 0.07717588543766174, -0.0015881547258883443, 0.040974349368375365, -0.009034677026235227, 0.015979846930712777, 0.029387587706249777, -0.012742719206380213, -0.04712516543552787, 0.027584713715968597, -0.04442265814064542, -0.00651834414275876, -0.0029948243884938136, -0.038386419798920365, 0.03531856562544918, 0.0011146135941787524, 0.014527005205447216, -0.04333076492114903, -0.08057967849696024, -0.04128890244042216, -0.047672021432967, -0.0037847912607953354, 0.024826538093665883, -0.012489191938962866, 0.014423592726374154, 0.013296403178276586, 0.04734546787248167, -0.01724459128307392, -0.016721205002841397, -0.019862097916495017, -0.03883744285191381, 0.010797173668677395, -0.037973278860116956, -0.001492319040240952, -0.009643957909415888, 0.022524984468591896, 0.012939695834489753, -0.006468810917755029, -0.04264468423789025, 0.05652083685795489, -0.013523676056221085, 0.00423021985411244, -0.029363033106246557, 0.038625636234838945, 0.0476980220670108, -0.031328712740385393, -0.022078426225759677, -0.013142684026906482, 0.010035570605438809, -0.037721707278864224, -0.08337468619351361, -0.0022416483836850765, 0.021028559428920016, 0.02477029185118993, -0.033123307182910705, 0.05251535755673518, 0.029237118321912645, 0.016226250542937116, 0.022393686591976485, -0.00036838559948067435, -0.03044509600703788, 0.027064804927893493, -0.06419006072547186, 0.024248126013485437, -0.015591321805834795, 0.040575541309478144, -0.012907949522353942, -0.036835295840879925, 0.018630662021731574, -0.051054375142166215, 0.02450030034862143, -0.03413029151618933, -0.08925466971321667, -0.0031839184329354084, 0.05481635400605094, 0.0009365286715934133, 0.04258744895760978, 0.026816884261433444, -0.005509017097633168, 0.022138319610861743, 0.03258162366307895, 0.029901689846418045, 0.03718107763291184, 0.03757439346525548, 0.03170034494103437, -0.06115520755677461, 0.06342281186359644, -0.021830557480564613, 0.0038759091540364514, -0.041803271278386525, 0.03415420736417959, 0.018270884219708062, 0.026124740687525665, -0.013538982987158815, 0.10031791890781057, 0.011718403362585807, 0.056177320549525976, -0.026880631372124004, -0.0012960118728921335, 0.02746996460929006, 0.020862415591714253, 0.06536060890315203, -0.018367081277243992, -0.0007013415568986705, 0.062298702272290604, 0.0402358154242536, 0.03047699935523602, 0.00406402911073283, -0.030363363844237747, -0.028613140147087344, -0.015016935660611396, 0.0347360656441511, 0.039326688757866816, 0.013910695143041493, 0.012526511699521781, 0.010257623543328731, -0.02538775930054492, 0.054426386842748864, 0.022280038374348787, 0.020644422113634712, 0.04098460047227528, 0.034781796688842, -0.031440921535419365, -0.035123639964350924, 0.013557663033698441, -0.06215064363942886, 0.034431916413435855, -0.09194181787203884, 0.039671191083791954, -0.028678187025856224, 0.060189505283604436, -0.06219352120057849, -0.008565624234956581, 0.10426528543493792, 0.06788214852833471, 0.03189141335996105, 0.07073489100944005, 0.06562625257555647, 0.026053515897559776, -0.023562670105967014, -0.04895615169619736, 0.016987488753151214, 0.012051906949963052, 0.0039309128220790185, 0.020114295156628003, 0.034596531162307466, 0.039891555999265096, 0.0351859218166202, 0.010538064032171267, 0.0025988669669744875, 0.025974848484563103, -0.012625058367869688, -0.02831411757558818, 0.013275494115118844, -0.03412976367852701, 0.0765276879249477, 0.027733740345773028, -0.04293106535401763, -0.05194906370072859, 0.0560499653227201, 0.019416597975406874, -0.01577951566146121, 0.07258869254952816, -0.04759262822658583, -0.012137718612199198, -0.01985764079712902, -0.001190498971816829, -0.029362583688781585, -0.0003439832256873539, -0.01819214509009722, 0.08842538548104964, 0.007974261244694832, 0.017435699935429313, -0.07320630231943832, 0.03814497813020934, -0.00573853859578341, 0.06624657304262417, 0.028978869208241668, -0.028336263091998583, -0.0009619548545662218, 0.009054776473158806, 0.033149989222931046, -0.021676093686226076, 0.02313862374315809, 0.001998444257996174, -0.012964671601610009, -0.02118554109427123, -0.013076351900047769, 0.07850484169965066, 0.006158915903821631, 0.10414045567126524, -0.06586802162941024, 0.06749212364352997, 0.004066173936397855, 0.05742865210389293, -0.02493557544453772, -0.009314139026614963, 0.008854719272434499, -0.049740521743964136, -0.017605951695154904, 0.005911990859815098, -0.0648155044067473, 0.023987280591454208, -0.03710020944981412, -0.03742191706951301, -0.05316677742515794, 0.00036274759421413505, 0.018374593158334916, -0.05318759126926748, 0.050622854200445266, -0.02550627104972253, -0.012443796866458825, 0.04319901073605883, -0.04349687652765003,